-0.13240273,-0.19175558,-0.5092086,0.093509845,0.24699531,-0.11072548,-0.048148002,-0.02562218,0.031199122,0.20743273,-0.24946319,0.014904126,-0.603158,-0.14060557,0.013792517,0.07158731,0.08824132,0.02436312,-0.08036693,-0.007247444,-0.08656474,-0.25882202,0.11926573,-0.06526618,-0.23360309,-0.03117956,-0.49312717,-0.04048082,0.17897512,-0.45525062,0.22182249,-0.0037610494,0.005268973,0.15506455,-0.02743732,0.1691078,0.2680368,-0.09713362,-0.19909972,0.0470413,-0.0033539056,0.006690232,0.12020186,-0.030454548,-0.28212684,-0.22986531,0.11566437,0.01696436,0.03328534,-0.05886961,-0.0926916,-0.018020147,-0.038668107,0.07639804,0.029875258,-0.13587296,-0.15676244,-0.13105878,0.16044798,-0.399436,-0.075393826,-0.26228106,-0.20013463,0.04743656,0.19665036,-0.009639395,0.23110853,0.0028059247,0.17545557,-0.087149665,-0.27471963,0.06900817,0.08237962,-0.2141353,0.15945782,-0.031364474,-0.0016998767,0.08586781,-0.0066724345,-0.037536312,0.17782983,0.25644526,-0.33078983,-0.014317976,0.22760375,0.1575558,-0.1401166,-0.06296657,-0.0771705,0.050897483,0.0013056119,-0.33788064,-0.0040515303,-0.08173586,-0.37386033,0.09839971,-0.09202506,-0.058724217,0.24785857,0.28375566,0.119655624,-0.11941388,0.023557043,-0.5442479,-0.034590513,-0.34715047,-0.04713004,0.05212904,0.17932878,0.17337763,0.05663347,-0.0069090514,0.13804649,0.16074285,-0.3979239,-0.27557597,0.18752107,0.39152828,-0.37986848,-0.14701675,-0.36996317,-0.13548115,-0.14535233,-0.019693425,0.006093115,0.12676479,-0.30258211,-0.45793384,0.240295,0.031379223,-0.0029824108,0.21000557,0.29576582,-0.12654728,-0.43374905,0.30656874,-0.03943067,0.2639936,-0.22507654,-0.030511668,-0.3349987,0.07216633,0.33761856,0.26993084,0.5181633,-0.22435638,0.07583243,-0.034263205,-0.01407667,-0.48715395,0.21435678,0.2015252,-0.23408256,-0.08911287,-0.16183446,0.12446629,0.27624512,-0.63529056,0.11405806,0.138555,0.14766702,0.03328256,-0.009169785,0.021621393,0.14350535,-0.21259287,-0.2280232,0.19601192,0.0479938,0.0679231,0.05851363,0.18466069,-0.034315165,-0.038031332,0.12483386,-0.075603254,-0.015193294,-0.4525908,-0.101453826,-0.04279215,-0.32903928,0.20202358,0.18062805,-0.07177745,-0.17321712,-0.091805235,-0.07520832,0.11543434,-0.24420832,-0.2505534,0.14039154,0.025095604,0.17887825,-0.122651026,0.10633348,-0.256251,0.039732695,-0.2680201,0.079707354,-0.39960054,-0.07581961,-0.0003595425,-0.044368163,-0.017425025,0.10842352,-0.04029199,-0.22915694,-0.071705945,-0.062141977,-0.5441924,-0.121160276,0.2920366,-0.1371727,0.42718866,-0.22608127,0.08250474,0.22146091,-0.012707282,-0.005230267,-0.14167511,-0.11617674,0.07272951,-0.4138261,-0.14678165,-0.12958312,0.070831366,0.19421093,0.17408474,0.026004095,-0.23239477,0.2442822,0.11204741,0.05578727,-0.12215503,0.2207263,-0.06093494,-0.26674348,0.17061657,-0.28135583,-0.18546861,-0.228858,-0.12688942,0.040642746,-0.22857594,0.38928363,-0.08439285,-0.18198319,0.030584963,0.13038167,-0.17194654,-0.5914807,0.073096626,-0.6484348,0.13942736,0.037638523,0.2528679,0.08684862,0.2853031,-0.43084767,-0.13318406,-0.06998192,0.3359946,0.032674138,0.13951445,-0.08811296,0.24863176,-0.11429178,0.10660222,0.17784773,0.059450436,0.24671991,0.1469205,-0.19975868,-0.48032632,0.1614326,0.19539519,-0.735994,0.07569887,0.040325105,0.25009596,-0.6227792,-0.07541869,-0.48950687,0.22320586,-0.33141598,-0.18927082,-0.2676418,0.15273985,0.16077046,-0.18685009,-0.45314187,-0.57871664,-0.20719695,-0.076366335,-0.22089456,-0.00704143,0.043248244,0.069465026,-0.41568717,0.22363615,0.013038658,-0.40829787,0.03647252,-0.18652335,-0.06679359,-0.46919152,0.039772246,0.3734189,-0.2542872,-0.1424999,-0.12990531,0.31940216,-0.407966,0.14603446,-0.106612325,0.19764239,0.046047818,-0.1230174,-0.003261913,0.1511768,-0.088871986,0.032087553,-0.18062523,-0.37489277,-0.52348095,-0.009114353,0.26902753,0.24850434,0.07758066,-0.12920547,-0.44359326,-0.211585,-0.09008358,-0.16261154,-0.4386039,-0.18714647,-0.45245743,-0.1974712
-0.0456413,-0.031345837,0.053799327,-0.58763844,0.041234627,-0.08598402,0.10705656,0.2080633,-0.03841355,0.050741088,0.03418022,0.1666452,-0.10033273,0.30848473,-0.15046984,0.10165267,-0.22775957,-0.22021712,-0.37780508,-0.012124243,0.25897574,0.08252852,0.059900776,0.027118782,0.0572738,-0.24339369,-0.65463483,0.1496163,-0.31117553,0.050525606,-0.8748564,0.12098075,-0.062246572,-0.26815996,0.39371428,-0.584934,0.13485628,-0.13816848,0.13331412,-0.123715244,-0.678298,-0.1317568,-0.34998238,0.30931446,0.089076705,0.090315096,0.17367151,-0.15601587,0.048683405,-0.29829988,-0.180574,0.22242951,0.09292969,-0.32415935,0.027580546,0.12319782,0.07462931,0.060390066,0.094806485,-0.06965064,0.24810657,-0.03528575,0.15800743,-0.3488723,0.1241926,0.10409437,-0.6683237,0.023619976,-0.10203509,0.19855644,-0.39380085,-0.27067864,-0.1622494,0.034361847,0.0017978904,0.057728395,-0.21250834,-0.1736605,0.010104024,0.12808347,-0.004318461,-0.19417165,-0.18106645,0.18480591,-0.058753803,0.025114717,-0.059129808,-0.116187744,0.020138972,-0.023041043,-0.009816389,-0.38742128,-0.24670793,0.015402561,0.049630035,-0.061255474,-0.12267401,0.20652638,-0.053044602,0.09379152,0.018414045,0.18934894,-0.34874374,0.10486202,0.100767225,0.004398948,-0.020943804,0.14493036,-0.33906904,0.28195786,-0.26741084,0.07234898,-0.06495513,-0.56613463,-0.07944579,0.09512835,0.06354965,0.118389666,0.02537763,-0.07247132,-0.35474062,-0.430339,-0.050441623,-0.61652523,-0.15797386,0.07273388,-0.48618093,0.15836522,0.12470415,0.012387681,0.15144882,-0.10541504,0.38433078,-0.16967656,-0.1423055,0.22694644,0.03397556,0.028448718,0.20345524,-0.23245956,-0.14367224,0.1790391,0.04855197,0.17393248,-0.25657365,-0.3507995,-0.42555845,0.1895081,-0.036539182,0.15811625,-0.018905079,-0.33715364,-0.056881152,-0.14372574,-0.17351057,-0.11608806,-0.029984146,0.061276175,-0.6475816,0.09284831,-0.04046811,-0.2362828,0.20633759,-0.42063788,-0.013185908,-0.51854753,0.020333996,-0.0892537,0.21060653,-0.16004497,-0.068389386,-0.42034853,0.2144854,0.076911844
-0.4050684,-0.2444815,-0.019421017,-0.1107538,-0.45024064,0.12859127,0.14460097,0.43220863,0.015350161,-0.5957197,-0.21663186,-0.13721935,0.3040601,0.09944866,-0.19193247,-0.48340824,-0.071619555,-0.27217266,-0.0067281295,-0.10717179,0.094257735,0.23766288,0.051779408,-0.2081458,-0.3895543,0.072340555,-0.08329625,-0.19141303,-0.31438923,-0.06088967,0.4650831,-0.11451181,-0.48711208,0.8048258,-0.123611875,0.23385237,-0.55399877,0.4280726,0.17881551,0.013388181,0.053104497,0.17341821,-0.18094663,0.21877442,-0.012107143,-0.05524891,0.4603418,-0.22664571,-0.5201174,-0.15766688,0.10465159,-0.07927516,-0.22007082,0.06091702,0.04156784,0.20834087,-0.13652405,-0.013713767,0.2710909,0.16376418,-0.2592402,-0.12282748,-0.096919365,0.09697945,0.10707629,0.2064972,-0.37396252,0.08023694,-0.23749311,-0.050999295,0.106884256,-0.12414049,-0.079396196,0.26534492,-0.07668992,0.52104574,-0.69160396,-0.09221132,0.07758533,0.044000313,-0.1694744,-0.48410416,0.1032424,-0.05328354,-0.15274872,-0.47459185,0.017545631,0.24477135,-0.15157914,0.096729584,0.29032236,0.062363338,-0.07758309,-0.3014655,-0.036813352,0.012633624,0.13556921,0.05980206,-0.31182814,-0.12187421,-0.13252597,-0.056961715,-0.25842634,0.1473631,-0.0560565,0.3895699,-0.22582293,-0.06186202,-0.015668305,-0.5252253,0.042194605,0.114572085,-0.04082154,-0.5578672,0.16135372,0.11272712,0.05322133,-0.27358648,0.16986568,-0.1696369,-0.48979637,0.30865982,-0.20407413,0.059089806,-0.39205104,0.033003163,-0.06330646,0.21067747,0.14146,-0.05181884,0.12930432,-0.07202718,-0.34709683,-0.021021029,-0.005093281,0.11366937,-0.028724397,-0.51908153,-0.15766512,-0.5457137,-0.11316165,-0.2580584,0.03679525,-0.24264452,-0.12059778,-0.22358209,-0.022900544,-0.2014568,-0.31586286,-0.18478861,-0.005758722,0.0051196767,0.042573802,-0.02808997,0.17424278,-0.71256536,0.07397331,-0.017991764,0.16652201,0.13116753,-0.3970877,0.08058458,-0.030646106,0.31550124,0.1496402,-0.04205538,-0.17283785,0.13277282,-0.07514528,0.08312258,0.31940496,-0.08129274,-0.22402006,0.07448892,0.047070313,-0.43709952,-0.21598439,-0.08606021,0.15558779,-0.5953159,-0.18094952,-0.3369583,0.03264306,0.07406358,-0.068996735,0.02143911,0.15426104,-0.009207294,0.054735117,-0.20448028,-0.13629077,-0.009166831,-0.07924402,-0.091203935,-0.30396682,0.15593335,-0.08306464,-0.5075326,0.06816787,0.16627659,-0.05959568,0.10880793,0.0032759411,-0.026233502,-0.4288274,-0.18019508,0.07781813,0.079947434,-0.28132188,0.21024783,0.05015338,-0.19505332,-0.107675016,-0.065037265,0.23660338,-0.029941771,-0.09138903,-0.23110251,-0.62929493,0.10914179,-0.103664845,-0.31805307,-0.06706922,-0.22916411,-0.0515358,-0.052910354,-0.09450933,-0.20317103,-0.33191836,-0.6497294,0.042054556,-0.22567399,-0.08419252,0.055347044,-0.3653424,-0.41880578,0.027995706,-0.44018483,0.007612788,-0.17162737,-0.3964957,-0.37096262,0.14072059,-0.074157834,-0.24530302,-0.19482988,0.27369052,-0.025252279,-0.4333583,0.1900249,-0.44549495,-0.041967623,-0.1822516,0.023507662,-0.35300812,-0.13808377,-0.3023861,-0.21403326,-0.18849246,0.19256227,-0.3936822,0.36204866,0.0016289213,0.20777902,0.09080599,-0.13789575,-0.30861193,-0.1871352,-0.7821241,-0.41953582,-0.4163056,-0.21319315,-0.26168764,-0.18849878,-0.11982564,-0.22343044,0.07402299,-0.4694581,0.011333266,-0.02399385,0.1065663,-0.12077739,-0.002912273,-0.18485321,0.35755935,-0.07023221,-0.06643879,0.26786572,-0.14321493,0.009900902,-0.29176882,0.23058599,-0.45135802,-0.36309314,0.38528728,0.1033104,-0.035368785,0.03151916,-0.011823845,0.07416648,-0.5591302,-0.14008509,0.00064853195,0.03110166,-0.37779966,0.013366894,0.07219025,-0.7085232,-0.29123923,-0.22710997,0.009226197,-0.45130476,-0.11977813,0.17470892,-0.1492565,0.1292808,0.14433894,0.13964605,-0.26808903,0.11228791,0.16304302,-0.052705992,-0.08078437,0.19433676,-0.1995058,-0.3429895,0.15510894,-0.32724404,0.08472861,0.071118735,-0.16584033,-0.39878386,-0.21979593,-0.08465246,0.041233983,0.036809683,-0.04702805,0.14236371
0.1571909,-0.04642885,0.3928763,-0.29000515,-0.065066874,0.1844985,-0.27260342,-0.15832584,-0.11479212,0.0053297686,-0.2794612,0.014305856,-0.39136896,-0.31518155,0.17426392,-0.29416448,0.16112466,-0.0875628,-0.053544033,-0.041331485,0.015957234,-0.20933823,0.06615216,-0.14261377,-0.46732712,-0.33633554,0.11880621,-0.41646117,-0.14310363,-0.33453065,0.17286317,0.12723769,-0.04434384,-0.058684886,-0.20574777,-0.37112552,-0.008696192,0.20906042,-0.22465631,0.11740004,-0.16510484,-0.058787074,0.13980627,-0.009348671,-0.3917437,0.03969454,0.25566947,0.05663283,-0.0145238675,-0.07058587,0.2896346,0.027303508,0.122510746,0.15993553,0.12016839,0.22069553,0.1790269,0.17754468,-0.41532588,-0.28343973,-0.069843106,-0.054514706,0.31753808,0.23809619,0.20039031,-0.29179832,0.04645304,-0.09969761,0.30537832,-0.19427837,-0.21690302,0.12265834,0.10651589,0.33458725,0.44179192,-0.045062046,-0.06908905,0.16102643,0.31681046,-0.29816803,-0.1850584,-0.31071693,-0.1488054,0.006696408,0.34318763,-0.07839382,0.05174198,0.30603203,0.07997479,0.0026914722,-0.10714297,-0.028074643,0.21863942,0.25129882,-0.15494065,0.45300022,0.17648469,-0.1350042,0.30013892,-0.050535396,0.104951695,-0.17294146,-0.32496485,0.0017879028,0.05690867,0.085502185,0.42182744,0.14334585,-0.303052,-0.3572306,0.17539112,-0.34535098,-0.055854637,0.14735493,-0.0946299,0.040125437,-0.16739911,-0.5185289,-0.068400435,0.15061195,-0.16570859,-0.09805424,0.11786006,-0.08066639,0.14159119,-0.3043513,0.093459666,-0.17603475,-0.039578848,0.10701084,0.033712454,0.042556122,-0.0026542083,0.08137528,-0.07943561,-0.42948687,0.160765,-0.12483449,-0.13035816,0.45076683,-0.41107652,-0.549028,0.118538864,-0.38380063,-0.21068849,0.0029145454,0.14967938,0.23829672,0.08345188,-0.57318217,-0.043528758,-0.33059105,0.008594585,-0.19401085,0.17288753,0.10824375,-0.2725449,-0.5859482,0.099912696,-0.27997816,0.12425934,-0.037704494,-0.460849,0.14802805,0.15587671,0.122483715,0.15038179,-0.041446283,0.044909388,-0.06800161,0.03565786,0.2890209,-0.20932649,-0.13544191
0.08860808,0.26406765,0.19796513,-0.14509825,0.15762544,-0.0831632,0.042360593,-0.12469172,0.111401215,-0.055042274,-0.04240649,-0.04553473,-0.37200665,0.23801331,-0.0022005427,0.06786563,0.12722746,0.066754304,-0.095053256,-0.1828301,-0.058171656,-0.19145475,0.2259356,0.030023357,0.18406655,0.13234739,0.1039957,-0.25848278,-0.05463122,0.14104573,-0.4712148,0.12393572,0.01650413,-0.4563978,0.09475815,-0.31581214,0.11293115,-0.2685867,0.033561695,-0.10025438,0.11198468,-0.40914565,0.01057671,-0.23313218,-0.1742162,0.18467213,-0.0251329,0.092096955,-0.074672565,-0.11915133,0.040234048,-0.16363096,0.0504663,-0.17710048,-0.2873038,-0.1014325,0.03530258,-0.19227988,-0.057523612,-0.058703914,0.09007924,0.22048742,0.0674365,0.05234808,-0.026998641,-0.16376008,0.2659096,0.111186974,0.07678412,-0.12594604,-0.23606959,-0.12276052,-0.08485576,-0.091803566,0.04976308,-0.22231962,0.18468131,0.18264928,-0.23260029,-0.28471637,0.015766265,-0.158721,0.21185334,-0.2518686,-0.15689279,0.3293002,0.06474771,-0.19608156,0.07437113,-0.5972107,-0.26279438,0.09574198,0.03008466,0.03386808,0.110199735,-0.6439826,-0.04301803,-0.14230248,-0.21838404,0.09988697,-0.47693846,0.028891595,-0.4873929,-0.033267565,-0.057666242,-0.2342147,-0.0066164853,0.10653456,-0.22967397,0.0854584,-0.41908577,-0.7433024,-0.076890066,-0.121220365,0.174884,-0.18747675,-0.10089088,-0.38037974,-0.06771464,-0.07424824,0.021763576,-0.31262428,-0.6441077,0.09879667,-0.32125622,-0.2300481,0.23563321,-0.3942053,-0.6325535,-0.21649912,0.08210469,-0.035460066,0.17846294,0.029844286,-0.16207694,-0.15475368,-0.13440117,-0.5051187,-0.027476402,0.086544156,0.11165486,0.19243693,-0.31902292,-0.076549955,0.2624906,0.10802793,-0.23911615,-0.44077423,0.09214215,0.13029075,-0.22347285,0.10802734,0.16199058,0.06977117,0.13107322,-0.5355835,0.14432931,-0.114723265,-0.41297886,-0.13624248,-0.15529138,-0.06411935,0.02498225,0.10055853,-0.025503203,-0.23046298,-0.055263612,-0.030569857,0.08634096,-0.13262819,-0.03352116,0.056169722,-0.015750939,0.07078432,-0.21175109,0.1619157,0.1737864,0.18587118,-0.20996304,-0.14606552,0.16112989,-0.27074662,-0.022579456,-0.20231158,0.17398426,-0.31328782,0.047404837,-0.07256974,-0.05698496,-0.11867042,-0.027141977,0.012988511,-0.07955927,-0.05256742,-0.1982823,0.3138893,-0.23680897,-0.39392832,0.15208678,0.2635048,-0.0040877224,-0.067209914,-0.15074092,-0.4956833,-0.63217515,0.073058896,-0.2567844,-0.06030862,-0.03379569,-0.0040350566,0.13105899,-0.025625467,-0.057825513,-0.49518672,0.014885347,0.018784674,0.056321338,-0.15219767,0.00655509,0.087436505,-0.09973303,0.11552581,0.08467936,0.14858875,-0.021069456,0.010553339,-0.28977752,0.09464959,0.14629121,0.060053542,0.080208816,0.077710934,-0.04795675,-0.03673248,0.088488005,-0.22408995,-0.745018,0.05012458,-0.09443328,-0.060353644,0.26184344,-0.14444228,0.019112883,0.090525046,0.481416,-0.09000309,0.010536337,0.076419815,0.194409,0.2646698,-0.46873868,0.009781752,0.007973259,-0.32184166,0.115048714,-0.00874902,-0.28234494,-0.229879,-0.10002296,0.1952761,0.35659832,0.18369341,-0.20752174,-0.026573174,-0.063290484,-0.0048139254,-0.14824025,-0.043454092,-0.18158713,0.26117152,-0.25770044,0.4087009,0.18579777,0.32715952,0.069249846,-0.17654662,0.0067464574,-0.002105436,0.14301136,0.109276675,-0.075068444,0.0030285,0.10727737,-0.4341802,0.19847018,-0.1353167,-0.03916839,-0.24273553,-0.119640715,0.3659458,-0.071839735,0.11719295,0.18795934,-0.017517092,-0.36998343,0.08127736,0.012719668,0.13666806,-0.07959152,-0.27812967,0.10704773,0.14308327,0.042452626,0.34770367,0.13189077,0.083849534,0.053007446,0.034896944,0.107485734,0.096923985,0.042252485,-0.0009302546,0.0048994366,-0.23951356,-0.052082695,-0.04344094,-0.0018145429,-0.13390155,0.14788869,-0.32282215,0.09257539,-0.10548432,0.055244446,0.36994174,0.0920611,-0.112267084,-0.11691317,0.14164405,0.039669696,0.11053157,-0.15825616,0.030806286,0.0014042346,-0.23003982,0.097269505,-0.039287537,0.12839323,0.17834218
-0.04999634,0.022926508,-0.08028555,0.105496615,0.090038106,-0.00842644,-0.0019068245,0.12158881,-0.014975944,-0.044975325,0.11048208,0.014426324,0.15259895,0.114393905,0.08242001,-0.07261241,0.18548511,-0.3308563,0.15813054,0.18066515,0.21532601,-0.10302011,-0.029637685,0.2781904,0.27496868,-0.038634423,0.07565665,-0.4309406,0.008683378,0.08685403,0.035964664,-0.049944237,-0.13182907,0.12651108,0.15089029,0.21276964,-0.11193445,-0.08951797,-0.33584866,0.016173724,0.13059583,-0.073061705,0.2585329,0.12869012,0.041564792,0.08244826,0.32099038,0.0023362692,-0.06742085,0.40731388,0.02285533,-0.06182317,-0.04034317,-0.08219361,0.088787146,0.10792444,-0.071962126,0.02616386,-0.01636079,-0.37736857,0.06508752,0.4179608,-0.16838276,-0.41866466,0.19074272,0.0048566167,-0.518711,0.017697807,0.0686332,0.048728198,-0.39242768,0.258744,0.0034942813,-0.0003745679,-0.22313035,-0.047588654,-0.1044727,-0.072483614,-0.34840855,0.030511959,0.062776476,0.52492666,0.21773912,0.04035056,-0.30255306,-0.15183844,0.039924346,-0.18526389,-0.020988582,0.12032991,0.1213027,-0.24689876,-0.026038503,0.35233268,0.15345053,-0.1258608,-0.11650484,0.16116783,-0.26111126,0.012918891,0.04138646,0.115864895,-0.18974982,0.12970743,0.12892652,-0.4654903,-0.09526678,-0.024708927,-0.16747585,0.02566417,-0.06657211,0.019141043,0.16428213,-0.4163212,0.069901414,0.008481185,0.2342282,-0.19987735,-0.04723524,-0.14671405,0.12897277,0.122722425,0.11731955,-0.18183663,-0.010701417,0.2096355,0.11523422,0.13784419,-0.32094988,0.14825703,-0.3885916,0.30284953,-0.013839115,0.091515966,-0.16736141,0.09560527,0.09617557,-0.48130757,0.19058849,0.062019456,-0.0046335687,-0.0046285847,-0.18397817,-0.057371177,0.30091143,-0.2944715,0.25746176,0.20889102,0.23868594,-0.4568575,-0.0020698865,0.01904746,-0.07376388,-0.14764439,0.396098,-0.43020192,0.2634635,-0.027646327,0.3155606,0.48186725,-0.24897039,0.14164536,-0.05472631,0.28503296,-0.37757945,0.08309017,-0.2645363,-0.15947211,0.114714615,-0.5696543,0.3460297,0.2558116,-0.3682258,0.19719811
-0.13503224,-0.036076836,0.12055062,-0.24768828,0.100384586,0.04765975,0.092053294,0.107692346,-0.06004738,-0.18036,0.38816592,0.14622954,-0.07704228,0.3705154,-0.3933994,-0.23100916,0.14217168,0.046724945,-0.19503875,-0.42453232,0.07073962,-0.024674695,-0.277788,-0.3204136,0.26233178,0.013725762,-0.17838752,-0.043175317,0.11104954,0.15886468,0.16268997,0.17913368,0.035400026,0.20890845,0.10472461,-0.024089318,0.01746387,0.1608783,-0.20668457,-0.34521133,-0.017606141,-0.21372464,0.21735111,-0.26526365,-0.028390622,0.09604968,-0.23057531,-0.01253888,0.2301594,0.1882062,-0.33854163,-0.30917102,0.09912893,0.0044410285,-0.31173438,-0.31870845,0.17798853,-0.37625596,-0.19218533,-0.1156807,0.04241281,0.069146186,0.18266387,-0.29110602,-0.025893804,0.3442749,-0.036260206,0.0032010765,-0.06821705,0.08221702,-0.32011476,-0.22932206,-0.06489195,-0.0076607633,0.007463699,-0.13280281,-0.07307229,0.16558123,0.14371368,-0.028217876,0.064632386,0.08146058,0.043575287,0.20479451,-0.028236594,-0.10634975,0.14458102,-0.32068694,0.31424177,-0.3955277,-0.15438552,0.10318768,-0.10049409,0.09648672,0.35492605,-0.11163492,0.25082344,0.10236277,-0.53696704,0.15054996,-0.2772129,0.021913739,-0.5178235,0.1332089,0.0664523,0.14599158,-0.24103898,-0.18450981,0.020046376,0.21639366,0.10556794,-0.050317556,0.18836091,0.058331735,0.17726977,0.48479038,-0.43660265,-0.2731136,0.03330652,0.18528908,0.25684118,-0.2045774,0.014261586,0.05349166,-0.0924751,-0.27875748,0.23078208,-0.46717405,0.19206427,0.067687295,0.03925524,-0.20887895,-0.17841503,-0.095016815,0.18591751,-0.43827835,0.046614874,-0.08029991,0.22394115,0.03768629,-0.31147432,0.050716754,-0.45591587,-0.48723513,-0.46026465,0.08749119,-0.31163222,-0.27083284,0.16608897,-0.14820576,-0.2441136,-0.70733756,0.16101608,-0.30358392,0.16689959,-0.052041184,-0.09325382,0.1288104,0.40988407,-0.14014825,-0.19024834,0.041084222,0.005393169,-0.39072502,-0.15376921,0.30443674,0.11021991,-0.2984376,0.013669133,-0.29695287,0.13013446,0.035646487,-0.089558296,0.050846167,-0.29588547,-0.17601475,-0.21796994,0.24178463,-0.03434039,-0.1645203,0.14110328,0.042633545,-0.25350323,-0.13917944,0.025326684,-0.13522013,-0.21468751,-0.47914636,-0.080145754,0.13929677,0.088787556,0.01428018,-0.3332575,0.3142938,-0.25145957,-0.10389276,0.12265488,0.24147768,-0.3037038,0.047376886,-0.091867484,-0.050131608,0.027062261,0.3083984,0.07449599,0.12665309,0.14706726,0.06637216,0.17521332,0.10032769,-0.2246652,-0.1294518,0.034848988,0.06087192,-0.09776548,-0.100976035,0.050616734,-0.36736855,-0.048192702,-0.23981024,0.14136001,-0.018483222,0.20072085,-0.18455145,-0.043544,0.22585832,-0.4378398,-0.10971958,-0.0361343,0.37434164,-0.5552586,0.09375827,-0.056785334,0.12428962,0.032819238,0.3053707,0.16899587,-0.1896764,0.25528434,0.013586311,-0.07467652,-0.068310075,-0.054057714,0.24819817,-0.33020526,0.059123415,-0.13684791,-0.1804477,-0.13929746,-0.19722706,0.14984669,-0.24613552,0.037344627,-0.5561699,0.18047717,-0.2817881,0.22998239,-0.4161383,0.036474183,-0.29395756,-0.34743834,-0.23270497,0.26233315,-0.5536729,0.07842031,-0.09742627,0.18593559,-0.19508594,-0.3076527,-0.1463611,-0.38326257,-0.18744543,-0.29913694,0.033748038,-0.18054354,-0.225609,0.062396597,0.115572006,-0.43782455,-0.07133924,0.0442893,-0.19912472,-0.030095898,0.279901,-0.16605112,0.11631677,-0.044365246,0.09502982,-0.34015098,-0.10682029,0.020080805,0.04811627,-0.07173623,0.0021802858,0.31870106,-0.43096468,0.073166735,-0.06681069,-0.100047015,0.25218087,0.014681846,-0.11929147,-0.14804384,-0.15269724,-0.45316312,0.041921217,0.11908574,-0.2308036,0.055325665,0.15889901,-0.08597968,-0.15330808,0.15085281,0.2422632,-0.034848094,-0.47594258,-0.15451574,-0.019982168,-0.20282014,0.08834613,-0.06911755,0.1015615,-0.050942197,-0.27996463,0.10532527,0.048548326,-0.21703282,-0.008576684,0.046244014,-0.058083903,0.05389043,-0.031923603,0.19397403,-0.009239227,0.15589997,0.027155621,-0.1336173,0.036177553
-0.19443858,-0.15730444,-0.07220815,0.03974075,-0.19821519,-0.023149783,0.1257286,-0.62609994,0.07975245,0.012842954,-0.007015116,-0.036459006,0.17466225,-0.25549963,-0.14379472,0.108746976,-0.47783548,0.14569572,-0.43449783,-0.16404007,-0.37741157,0.11333689,0.023766309,-0.15252003,-0.16232964,0.054626554,0.09841356,0.017795559,0.14678118,-0.010823211,-0.16069934,0.09626225,7.244603e-05,-0.12335925,-0.20242946,-0.024828022,-0.09504268,-0.39011878,0.052700024,-0.23739718,0.07714383,0.028173232,-0.3703866,-0.33489963,0.08652483,-0.37627813,0.07158327,-0.16669197,-0.10410921,-0.31421328,-0.2604404,-0.016595377,-0.052913893,-0.2993794,-0.11112339,-0.32725555,-0.15870649,-0.30869764,-0.0021738166,-0.14447907,-0.1480937,0.045582123,0.08236173,0.16136658,-0.25539854,0.14385073,0.29247642,-0.0032693031,-0.65289676,0.096528634,0.069046214,-0.09465759,-0.060266078,0.25850433,0.07486696,-0.105240084,-0.24947484,-0.43280333,-0.116790116,-0.006051669,-0.058123194,-0.008455723,-0.1826775,-0.048880186,-0.16957411,0.3488899,0.091340356,-0.5873293,-0.25227103,0.037144326,-0.00089226593,-0.008335044,0.034402456,-0.19237316,-0.25936782,0.04516898,-0.6353115,-0.16737004,0.20620482,-0.06543454,0.021625496,0.13032414,0.30943024,0.09959939,0.00805852,-0.4438012,0.09688576,-0.021281147,0.14288251,0.122859865,-0.2301088,0.19451036,-0.12496586,0.3160814,-0.009199963,0.001188918,-0.28087762,0.18369275,-0.05915578,-0.21686682,0.026222836,-0.07249997,-0.15706088,0.22887957,0.016180253,0.08440671,-0.082147494,0.05367783,-0.12720497,-0.31610382,0.13874996,-0.20142639,-0.45020697,-0.3036811,0.14233066,-0.40185025,-0.20532957,0.1541213,-0.014948864,-0.66883296,0.091621175,-0.00037439898,-0.17645697,0.17019846,-0.5002907,0.42977396,-0.56725407,-0.25504735,-0.5035387,0.04122722,-0.02982971,-0.2138687,-0.15971582,-0.41624063,-0.3925063,0.28976762,-0.28572205,0.04715765,-0.6044254,-0.13704982,0.055705782,-0.07726043,0.0413193,-0.40814826,0.13966215,-0.0986948,0.21551616,-0.102535665,-0.004100821,0.016428182,-0.45843238,-0.68730193,0.2005673,-0.12788314
0.280792,0.2833731,-0.5773372,0.17492767,-0.44061255,-0.40953717,0.0004242399,0.03080342,-0.045350958,0.08211126,-0.6063364,-0.077972926,-0.126209,-0.17833239,0.32559863,-0.07154333,-0.14381053,0.17104815,-0.045982894,0.40653548,-0.03031687,0.18882596,-0.061225276,0.17162462,-0.01983091,-0.12466995,0.21548048,0.31297627,-0.082915016,-0.3533151,0.04919454,0.105291,0.3083428,-0.16757135,-0.35137627,0.15413366,-0.14579646,-0.66592425,-0.032189917,0.17990068,-0.026741004,0.11667297,-0.6238184,-0.24451773,-0.188887,-0.15593094,-0.3920325,-0.091790125,-0.07265525,-0.03534689,0.04030331,0.3530825,-0.15272294,-0.18057932,2.6007114e-05,0.0015908986,-0.33417735,0.06267427,-0.6786618,0.17658596,-0.14038445,-0.42160827,-0.15406238,0.1595049,0.064276196,-0.2702135,-0.14888401,0.019301146,-0.22641411,-0.38077834,0.5441719,-0.025076773,-0.0317918,0.07570699,-0.27267474,-0.4045857,0.001499569,-0.63504624,-0.17082766,0.053621765,-0.15584864,0.04635634,0.025459947,0.09767152,-0.5358975,-0.063944146,0.21560499,0.11267515,-0.34615475,0.34391895,-0.5008439,0.027212324,-0.08151272,0.08084941,-0.2935311,0.28150448,0.045667693,-0.25604504,-0.21361557,0.058375265,-0.02117433,-0.3615686,0.06705245,0.17256679,0.031432662,0.14732498,-0.0127657605,-0.08085493,-0.21711339,-0.34191382,-0.093021356,0.14594547,-0.11861913,-0.118883476,0.0859736,0.0007518585,-0.121121086,0.111882575,0.11458718,0.1857204,-0.65726036,0.3340563,-0.20154756,0.04106758,0.12159337,0.037270438,-0.16479824,0.2512493,0.034038704,0.22833017,0.16732936,0.17282586,-0.27319923,0.010775382,-0.06197865,0.26059732,-0.007217929,0.1759967,-0.38436797,0.054652367,0.3779035,-0.16249004,0.15434368,0.017555298,-0.12133191,-0.359584,0.077926256,0.11217992,-0.27053136,0.30103657,0.10451916,0.067790926,-0.3779328,0.0017937706,-0.34799907,0.2718169,-0.07518721,0.13918129,0.09325762,0.0393972,0.23964576,-0.02462408,0.048165575,-0.23221463,-0.0985093,0.0076816366,-0.19985808,-0.2416815,0.014575273,-0.12591411,-0.16438736,-0.09144823,0.20014481,-0.20267858,-0.21620767,0.06472831,0.023621485,-0.23066111,0.13929577,0.22416124,-0.010965637,-0.014923766,-0.060144417,0.15597287,-0.35223663,-0.07051215,-0.24086186,0.017096797,0.096610695,0.06369038,-0.10199433,-0.13245954,-0.2824804,0.17576253,-0.11533566,-0.22793603,-0.19491607,0.435821,0.06363687,-0.1321676,-0.0740663,-0.1433256,-0.13776506,0.036858253,0.15178786,-0.022256302,-0.22349994,-0.18489459,-0.19179457,0.18982728,-0.17023109,0.16964586,-0.06581512,0.08980845,-0.07418867,0.12948166,-0.091002285,0.2915991,-0.16761722,-0.12968719,-0.3729385,0.12102331,-0.14140002,0.2838812,0.06364884,-0.009116364,-0.2567436,0.07605131,0.23011942,-0.15298484,-0.030676479,-0.12604478,0.0891478,0.11385454,-0.41633624,0.17273115,-0.25561184,-0.21009052,0.19721307,0.38719726,0.25144753,-0.14800958,-0.01588949,0.026483634,-0.4236904,-0.26502728,0.09456948,0.07866958,-0.27950943,0.09286947,-0.39036518,0.096347,0.008821669,-0.17267264,-0.17536363,0.15538332,0.13071194,0.25999707,0.1053285,-0.123142615,-0.11565039,0.10809382,-0.09037128,-0.05275322,0.053031866,-0.014556459,-0.05775677,-0.096992575,0.16091955,0.04840899,0.1884046,-0.028760392,0.17399718,-0.5938398,0.11862189,0.10644383,-0.16493848,0.09216812,-0.058849942,-0.20749123,-0.15613109,0.0036017909,0.19643922,0.037928123,-0.055423077,-0.01723759,-0.0022774376,-0.11134217,0.31178167,-0.38790682,0.17297353,-0.5724333,0.046929166,-0.047467656,-0.08183225,-0.268585,0.019171588,-0.022191077,0.27664652,0.18064405,0.16125377,0.16316286,-0.015729811,-0.15746096,0.350754,0.114965826,-0.39441246,0.2932665,-0.082297035,-0.008049944,-0.49065372,0.124930486,-0.12816507,-0.34006125,-0.24027179,-0.3499183,0.11708808,-0.1680504,0.13376072,-0.017973213,-0.1432036,-0.2383757,-0.10877024,-0.30137476,0.11555913,0.23001643,0.20294665,-0.34582588,0.01697591,0.14598648,0.28526253,0.39515388,-0.350504,-0.030211356,-0.08910631,0.0019459693,-0.05817326,0.13348618
-0.14759673,-0.09039663,-0.16579826,-0.088022605,-0.3900401,-0.17158276,-0.37944993,0.2884989,-0.31166264,-0.28733975,-0.21312286,0.19063543,-0.005377573,-0.005343224,-0.16082843,0.028976273,0.04642496,-0.21382332,0.28310034,0.11043076,0.16816808,-0.2110025,-0.033344664,0.2418407,0.39235532,0.6853382,-0.045172546,-0.12715477,-0.0066446867,0.5178106,0.25739637,-0.49685377,0.019949118,0.18166527,-0.25762266,0.19790494,0.05238725,0.030598212,-0.5583573,0.08220078,-0.105714604,-0.014457533,-0.08747055,-0.104657516,-0.37951908,0.09702264,0.038224764,-0.17299464,0.03175595,-0.094837815,0.11758541,-0.18968378,-0.22726616,0.13753839,-0.06532288,-0.22502992,0.010790996,-0.042942267,-0.06836914,0.41019687,-0.20661555,-0.4329829,-0.17474097,-0.22946934,-0.1679841,-0.8707889,-0.14886844,-0.27347612,0.08229503,-1.0258265,0.24682918,0.110610634,0.03646615,-0.44032627,-0.29333118,-0.17251348,0.6013596,-0.009364944,0.23034507,-0.36444736,-0.026608387,0.007485018,0.08011596,-0.31618497,0.1887141,-0.48621023,-0.000108614564,0.35530034,0.20745556,-0.19966812,-0.20228271,0.30067575,0.22372223,-0.058156993,0.24042103,-0.32444748,0.08037947,-0.36627942,-0.3664775,-0.13303395,0.014284331,-0.6011184,-0.026084054,-0.052150678,-0.08302073,0.18604438,-0.091913655,-0.052228518,0.28833643,-0.20416929,-0.03238944,-0.41436705,-0.07409701,0.041688327,-0.029459225,-0.4578612,0.27790785,-0.8707245,0.07184433,0.15488589,0.27337745,0.32371247,-0.20645246,0.25446478,0.2273803,-0.0023645423,-0.035902187,-0.14324802,0.21699479,-0.026268052,-0.15455402,-0.026074579,-0.32166055,-0.08690026,-0.1274278,0.17156856,-0.24348263,-0.1565481,-0.21724337,0.18455435,0.03197012,-0.5852369,-0.05379129,-0.4210323,0.19385116,-0.25539997,0.15938151,0.0013296142,0.05464305,-0.72280556,-0.024848942,0.55216664,0.14739564,0.7548884,0.1453329,-0.12045739,0.33683646,0.4615059,0.3349646,-0.28119412,0.0046987794,0.29826126,-0.45155138,0.24862324,-0.027377086,0.067707814,-0.44442138,0.09492661,-0.12163303,-0.13826202,0.059728075,0.3380769,-0.5201264,-0.014793029
-0.16134423,-0.08359736,-0.46445552,-0.024998143,-0.060562372,0.07030328,0.020316983,-0.15507287,-0.033030678,0.037432652,-0.065797485,-0.15335348,0.43538436,-0.25373474,0.23572704,0.16796969,-0.10095706,-0.01655147,0.11031237,0.48082232,-0.050489362,-0.06283422,-0.18997622,0.21881129,-0.26007947,0.022396052,-0.3466518,-0.4885582,-0.27451834,-0.031830028,-0.55307245,-0.116530515,-0.3548388,-0.5723771,-0.33758712,-0.020566123,0.09527171,0.14433117,-0.17249992,0.021088568,-0.064696126,0.0272792,-0.34959102,0.2794525,0.22822838,-0.25228804,0.16671193,0.122464806,-0.00890454,-0.012913337,0.07970277,0.04374104,0.039924122,0.24068137,0.044512462,0.14100465,-0.25248137,0.19074509,0.16931011,-0.31417787,-0.042981755,0.025440285,-0.10748694,0.03914826,-0.24821435,-0.0698715,-0.07237111,-0.34468222,0.14232911,0.15376227,0.3062101,0.06298953,0.0108148055,0.12481103,0.23606738,0.07227527,0.07707774,-0.9094095,0.15721633,0.08832501,-0.010346843,0.052763443,-0.41072267,-0.17371395,0.14388281,-0.07533372,-0.1401035,0.11571446,-0.39206508,-0.107107155,0.38100696,-0.64864856,0.1448142,-0.18994583,-0.16290623,0.06654322,-0.4172911,0.068966515,0.2588076,-0.5343364,0.34679592,0.2603431,0.42042214,-0.09774773,0.027477546,-0.19497147,0.30799195,-0.2812033,0.19363855,-0.8600288,0.21802326,0.28155422,0.04285334,-0.033965595,-0.38645515,-0.2456328,0.36165476,0.006079781,-0.38434646,-0.47746775,-0.25208065,-0.27559698,0.3034478,-0.6136074,0.31625664,0.18724824,-0.30543303,0.41541174,-0.055218294,-0.26846305,-0.37037995,-0.2035028,-0.1337059,-0.01224175,0.067128696,-0.28054085,-0.08185522,-0.08415372,-0.16182582,-0.2171076,0.35244936,-0.119454615,0.05664964,0.021403039,-0.2525689,0.05140087,0.08468559,0.19421001,-0.091029465,0.2725598,-0.19667067,0.29954422,-0.13374391,0.01728117,-0.32567817,-0.22804758,-0.34289894,0.11677329,-0.21313092,0.06780536,-0.2827598,0.044944774,-0.07599018,-0.08383877,-0.013828557,-0.072633445,0.026351996,-0.23017673,-0.06268136,-0.0057887514,-0.27775234,-0.15745622,-0.015416077,-0.31247032,0.076502785,-0.07345583,-0.0092794895,-0.20723954,-0.0051336125,0.2728997,-0.30181652,0.009911773,0.15906729,0.13250607,-0.10594927,0.2528415,0.05212786,-0.13645436,0.008718181,-0.00082557066,0.004955565,-0.12807834,0.23585092,-0.47605357,0.030759964,-0.19019935,0.14026819,0.10801037,-0.2406216,-0.27752554,-0.049806025,0.03908694,0.08777371,-0.1706395,0.18423954,0.10002894,0.19239494,0.16086112,0.0034581767,0.20319253,-0.23652197,-0.051377863,-0.0040108585,-0.023475854,-0.081648804,0.039318122,-0.16506417,-0.30423987,0.32679948,-0.106306836,0.3580809,-0.29384258,-0.66457784,-0.16159976,-0.109885365,-0.6947415,0.23163517,0.14258638,-0.040474486,0.046385642,-0.2648819,-0.43852913,0.026706295,-0.39080802,0.0063255853,-0.25024474,0.2113992,-0.08027465,0.16794701,0.08295997,-0.13199994,0.32060453,-0.41593945,-0.38090754,-0.3328078,0.26387024,-0.15691392,-0.46256727,0.12125006,-0.8042872,0.32607594,-0.06411958,0.22256273,0.3510978,-0.28749746,-0.61296487,-0.11413767,-0.284513,0.1518655,-0.23699895,-0.05089761,-0.37646183,0.022692665,-0.2537931,-0.010486743,-0.2248182,0.047043715,-0.07965528,0.024915436,-0.017307894,-0.20914696,-0.11125606,-0.08004215,0.18040481,-0.13630311,-0.060531493,0.106163114,0.16472618,-0.09697549,0.008015869,0.19706489,0.03746586,0.04502173,-0.23272017,-0.20581532,0.076592505,0.09222726,-0.08651514,0.10827738,-0.025645172,0.019130811,0.122565344,0.13339517,0.08027654,-0.05151173,-0.24220845,-0.10220629,-0.10819529,0.13868026,-0.20958349,-0.02987803,-0.10630576,-0.0393375,0.10500385,0.14300986,-0.2274009,0.06336147,-0.12745844,0.09760629,0.022207895,-0.06918111,-0.04681796,0.11724398,0.007760909,0.09150987,-0.085033275,0.11212742,-0.0027757797,0.0023817474,0.07825131,0.015591302,0.05963994,0.12919287,0.045015637,0.063145734,-0.0373318,-0.021358728,-0.0019300733,-0.052353583,-0.057067193,0.07290522,-0.09061122,-0.10307449,0.034058604,-0.069700584,-0.1794572,0.10684177,-0.18743497
0.073261924,-0.36982426,-0.05088786,-0.0040299506,-0.09394873,-0.31527004,0.08182072,-0.5385695,0.020042961,0.12505959,0.081334755,-0.055649094,-0.028199412,-0.08601488,0.14432321,0.025913144,0.22601306,0.111643605,-0.15381382,-0.28528473,-0.51580584,0.16261292,0.023451934,-0.48386544,-0.08123036,-0.37104017,0.22915639,0.14671357,-0.026517004,-0.567559,-0.42072,-0.013281052,0.019558458,-0.1788138,-0.0889965,-0.1456126,-0.02633841,-0.069982715,0.06634222,-0.09576712,0.16895796,0.051251527,0.049814623,0.020329146,0.041825797,-0.45036575,-0.4829366,-0.043987907,0.19915952,-0.13126771,0.0025348563,0.026140919,0.05562692,-0.005460489,0.008768761,-0.2201966,0.007791896,0.010592066,-0.008832185,0.21662185,-0.12526561,-0.24685,-0.1438938,0.23744996,-0.26021168,-0.09975247,0.2624434,-0.0056229983,-0.56063056,-0.09862082,0.3264223,-0.29699254,-0.066193864,-0.34770408,-0.22063965,0.027262446,0.064348534,0.08752036,-0.12864979,0.21509045,-0.0037214258,-0.060110014,0.13962707,0.12588131,-0.06523076,0.020178428,-0.037833907,-0.53761476,-0.018694041,-0.2393002,-0.03324792,-0.019645983,-0.18418954,-0.4081059,0.14000078,0.139284,-0.3295117,0.005724561,0.08062448,0.008778833,-0.42340752,-0.20204577,0.24758586,-0.19634052,-0.0708482,-0.1169964,0.029385027,0.032827307,0.05604257,-0.15765068,0.32403198,0.080027305,-0.05911278,0.047295313,-0.22341198,-0.12939747,0.0066574304,0.12327897,-0.019078784,-0.1729835,-0.36392862,-0.18201771,-0.21126536,0.0956019,-0.49129662,-0.3686962,-0.30811167,-0.024359047,0.2457596,-0.23882015,0.085604995,-0.40282312,0.3292713,-0.064093135,0.07738851,0.07441429,-0.07476426,0.32079652,-0.30463547,-0.3563639,0.11013037,0.18342808,0.25667068,0.1445589,-0.30166572,0.079549775,-0.25739142,-0.20134947,-0.023447592,0.11377355,-0.0094848275,0.058245577,-0.17176877,0.023993822,-0.65379953,0.3101352,-0.37404826,-0.20184301,-0.27977943,-0.027192932,0.2610176,0.024103217,0.03717409,-0.59655607,0.002336301,-0.12675783,0.034555983,-0.09233485,-0.45145798,0.32143906,-0.39464036,-0.19120112,0.20717153,0.08554579
