0.04393659,-0.15682767,-0.16394868,-0.42995235,0.025589932,-0.08823708,0.02022734,0.26999202,-0.0411484,-0.22074905,-0.3469139,0.08912616,0.07430242,0.07661085,-0.38139054,-0.028697412,0.17644429,-0.14611417,0.16241944,-0.003262517,0.061253805,0.20754097,-0.14740892,-0.098987065,0.23306216,-0.21335277,-0.1736142,-0.09050969,-0.23551497,-0.0034739242,-0.092595756,-0.3069811,-0.24352911,0.15914388,0.041649375,-0.19153358,-0.22820969,0.042359833,-0.015119373,0.094693355,0.017369121,-0.061049365,-0.12844622,0.081812665,0.011367894,0.025061212,-0.039016876,0.25790074,-0.10180429,-0.0901211,0.02646687,-0.09033479,0.057417244,0.047932778,-0.17587498,-0.2694261,0.016506389,-0.06238838,-0.103306346,-0.17495817,0.113123536,-0.13421501,-0.06424476,-0.029913288,0.074807875,-0.11177627,-0.004644718,0.17054452,-0.3180544,0.09537689,0.069276705,-0.26824948,-0.13475667,-0.20144528,-0.04829133,0.06296265,0.2085977,0.053127978,0.093728475,0.1313174,-0.1589477,-0.08465129,0.12594077,0.08910853,-0.0038933062,0.0030685803,-0.40897962,-0.18390818,-0.12984969,0.09842953,0.014061905,-0.12583843,-0.092022866,-0.11552836,-0.042008188,-0.07540868,-0.49153563,-0.562558,0.058751613,0.18269636,0.06797226,-0.16703664,0.0598785,-0.116114706,-0.22537379,-0.23507829,-0.16256551,0.039405547,0.26117352,-0.10950943,0.052896343,0.25420767,-0.1426201,-0.021847405,0.1454892,0.048324186,-0.009044176,0.17588556,-0.5545195,-0.8482741,-0.23235774,0.16539614,0.084029555,0.08918699,0.12638666,-0.18475735,0.14329189,0.09082996,0.4916104,0.26325825,-0.06559774,-0.014205196,0.071146704,-0.09625684,0.0067637544,-0.15634441,-0.5037323,0.25304937,0.0037346652,0.14036904,0.05854735,0.21236637,-0.11259242,-0.45831916,-0.020069994,-0.46413064,0.16727673,-0.26762384,0.13320285,-0.13640039,0.43295538,-0.63925886,0.13514106,-0.30031788,-0.30717656,-0.3739416,-0.33992407,0.27299297,-0.2200785,-0.11965726,0.16347422,0.019250814,0.09331744,0.23691559,-0.23179711,-0.17049854,0.038924642,-0.25821742,-0.069537915,0.069666184,-0.28707588,-0.02656618,-0.29154986,0.1472878,0.043383803,-0.3572973,-0.0038245674,0.00029396935,0.16795625,0.030323444,-0.36620307,-0.14032005,-0.12848604,-0.2719505,0.25519305,-0.23128222,-0.32641765,-0.13520004,-0.07061027,-0.065898366,0.21832538,0.27481756,-0.1434344,0.023290878,-0.12097489,-0.06845238,-0.04889953,-0.25211862,0.08100569,-0.4412773,-0.11085615,-0.11021169,-0.10903972,-0.43640822,-0.08261754,-0.3287942,0.20626533,-0.118143976,0.21672812,-0.044932157,0.113598324,0.03967369,0.21031363,-0.5215651,-0.3703088,-0.1037239,-0.23281342,0.098285735,-0.079120815,0.009223713,0.12358372,0.04082624,-0.10989055,0.17224099,-0.10571494,-0.19363633,-0.06396575,-0.063105956,0.1026596,0.047305997,0.10325701,-0.45839036,0.032443296,-0.12652017,-0.41904742,-0.2822345,0.005542089,0.021685932,0.47928703,0.11804404,-0.36769068,-0.17748232,-0.37696695,0.11097303,0.31559896,-0.53578323,-0.021227377,-0.46399045,0.10079653,0.44115856,0.25209698,0.045007214,-0.13470903,0.22664258,-0.34372935,-0.010702775,0.27393606,0.20008512,0.016551094,-0.19444169,0.104310274,0.1396258,0.036895763,0.042134926,-0.4727808,0.18080427,0.27225545,-0.12501848,0.006812557,0.14496431,-0.44300997,0.16908915,0.11268977,0.20285375,-0.019503262,-0.094036095,0.10074873,-0.32558566,0.37943295,-0.49165037,0.14214785,-0.89427555,-1.1151395,-0.8766737,-0.3123538,-0.038400847,-0.21004848,-0.008495283,0.23569879,0.15310255,-0.13231523,0.24110368,0.04928389,-0.18445754,-0.029238876,0.12377797,-0.0408885,0.32003984,0.10255272,0.00038910657,0.32028076,-0.115938686,-0.21816638,-0.07169008,0.31176266,0.20324962,-0.3896216,-0.48638642,-0.29243982,-0.23176843,0.14329459,0.17723604,-0.42013636,-0.036732677,-0.10294645,-0.21695717,0.027568351,-0.60147583,-0.17200541,0.19686829,-0.40721637,-0.13974768,-0.041309465,-0.21319385,0.04439914,0.15641752,0.028826537,0.017411044,-0.3754373,0.2689263,-0.1882798,0.13155784,-0.10796049,0.18756811,0.00609053,-0.41426197,-0.17346993,0.3248784
-0.22314371,-0.32322216,0.15177616,-0.20651422,-0.09368844,0.13354415,0.07764211,0.121382736,0.08219061,0.06459571,0.038452577,-0.02836159,-0.067534685,-0.21207279,-0.03765358,0.08767808,0.055278208,-0.15462616,0.10117802,0.13264854,-0.05709561,0.25522754,-0.32034168,0.17467263,-0.49348688,0.14464568,-0.2337828,0.14979315,0.18899077,-0.78352225,-0.07925562,-0.1169323,-0.2611158,0.12504834,-0.24918032,-0.004003664,-0.03680504,-0.03497332,0.25967833,0.26599565,0.21823289,0.24192087,-0.36853403,0.18323514,-0.43728295,-0.08523136,0.102808595,-0.20854282,0.0095807435,-0.040566277,-0.0941907,0.08198743,0.0019097136,0.004812699,-0.19207342,0.05178669,0.10365807,-0.19876853,0.18617769,-0.2501252,-0.0603452,0.115882814,0.26603132,-0.037658285,-0.3397758,0.19209097,0.14834481,0.0038545136,0.19167908,-0.8821184,-0.07775705,-0.49618632,-0.4092756,-0.20077862,-0.0035472082,0.0012028883,0.031919703,0.33517554,-0.06046857,0.13169897,-0.015234681,-0.1643833,-0.20199919,0.1404871,0.025675125,0.11080289,-0.11792351,0.0573101,0.08093136,-0.07514669,0.17239277,0.26980084,-0.7600904,-0.011016014,0.1866573,0.4779662,-0.11353276,0.06366669,0.2525985,-0.3133678,0.20224862,-0.4369062,0.10148885,-0.42489263,-0.31941596,-0.3364249,-0.07303653,-0.41881493,-0.11034187,0.3323841,-0.11446219,0.110715486,0.043523036,-0.3925844,0.0007284739,0.06928524,-0.043688633,0.17347825,0.019874986,-0.32115117,-0.031623688,-0.01730076,-0.05503384,0.26644275,-0.49504256,0.020225918,-0.02243714,0.01250196,0.05226489,-0.833589,0.12095571,0.23144557,0.0509362,0.09421434,-0.07772978,-0.14229624,-0.21910541,0.066093646,0.18099986,-0.20153432,-0.022236051,-0.24247342,-0.4134391,0.08304202,-0.055782292,-0.5425741,-0.13079564,-0.054054912,-0.010634167,0.08457503,0.05644157,-0.004388006,-0.18437012,0.011216913,-0.26406682,0.01852813,-0.234409,-0.56015027,-0.05264311,-0.05914508,-0.26252615,-0.613628,-0.086499214,0.34005293,-0.08256826,0.017849661,0.13502681,0.08548972,-0.017333847,0.19000009,0.16327055,0.01515295,-0.0147551745,-0.52296567
-0.0074160784,-0.34705415,-0.08409781,0.24165043,-0.04915729,0.11775552,-0.07905325,0.13276426,-0.39004767,0.13074893,0.015795631,-0.2791801,0.086734876,-0.37328106,-0.29109627,0.07685782,-0.17189445,0.20380943,-0.33900866,0.09262084,-0.048240438,-0.30552164,-0.15416566,-0.04087549,-0.37833145,-0.07636158,-0.259331,-0.15715136,0.11452638,0.058857094,-0.14888868,0.25930798,0.33533362,0.04151921,0.015022132,0.34766933,0.100829214,0.26048034,0.06742834,0.12602997,-0.6040873,-0.38089064,0.15890671,-0.2827353,0.0075435294,-0.013785081,-0.05302559,-0.083214864,-0.06617637,0.41769606,-0.26518506,-0.25651604,0.092081025,-0.24703509,0.25816125,-0.01272591,0.16360654,0.16107324,-0.025459666,-0.14936534,0.122847654,0.06430629,-0.058432423,-0.17514957,0.17375837,0.16580005,0.053164445,0.054975823,0.012357184,0.21790369,0.10191552,-0.43330365,-0.34595844,0.05067356,-0.0010258941,-0.2578301,0.18213817,-0.00066949084,-0.18418029,-0.43847027,0.024616495,0.17642215,-0.088827655,-0.17608327,0.0023642937,0.20467135,0.1193725,0.010928355,0.17486955,-0.27854654,-0.04521253,-0.3348954,0.0798203,0.44249538,0.0018915392,-0.12093478,0.25755373,0.35967833,-0.009405601,0.07943546,0.10743748,-0.24338976,-0.053151608,0.06854717,0.037813235,0.0122845825,0.14086933,-0.20562205,-0.06214235,0.39603359,0.020635722,-0.23151569,0.036260344,0.05083884,0.27498755,-0.6284903,0.17021714,0.13210155,0.2584488,0.13128485,0.38917992,0.03339079,-0.30646214,-0.032704882,-0.3033458,0.38717166,-0.05807882,-0.08246,-0.38920155,0.26811147,-0.050228138,-0.4276594,-0.120918006,0.05278724,-0.016364902,-0.0019978283,-0.20737974,0.21121776,-0.46239498,0.18119134,-0.18275963,-0.15233707,-0.0063728155,-0.44278684,0.24120918,-0.075494565,-0.39454764,0.0039867545,-0.026000254,-0.37103575,-0.04119098,-0.12154141,-0.046407744,0.049546447,0.14705801,0.052381087,0.19452314,-0.023325179,-0.045956533,-0.6276968,0.10572401,0.043756645,-0.050473683,-0.44793028,0.0063051614,-0.17156993,-0.020153401,-0.3508777,-0.13586675,-0.28601182,-0.05314409,-0.06527547,0.029229173,0.027908284,0.17211896,-0.24081305,-0.87767005,-0.8185341,-0.44707954,0.13245843,0.055629782,-0.5330753,-0.09381928,-0.20115058,0.12875131,-0.20427929,-0.19319302,-0.21285738,-0.24939412,0.020546434,0.16734691,-0.4128981,0.09645807,0.012410884,-0.0036663518,0.046514977,-0.002619144,-0.5065376,-0.051595714,-0.12388115,-0.75361806,0.106857695,-0.4122104,0.25690696,-0.19581743,0.1808505,-0.10868531,-0.21055984,-0.008218478,0.06129351,-0.09255014,-0.4017442,-0.13134372,0.16170262,0.116630584,-0.19643186,0.07075032,-0.23640817,-0.40188166,-0.3911964,-0.02646608,0.1496299,-0.11080006,0.07610459,0.20905517,0.026111195,-0.06848661,-0.10363383,-0.062476814,-0.13452214,-0.0453225,-0.078949295,-0.061373953,0.03131322,-0.3116117,0.11755725,0.007916768,0.041260768,-0.5711888,-0.33675766,-0.1027463,0.087666996,-0.046006855,-0.24618667,-0.30699694,0.14263104,0.11234648,0.18560478,0.15555298,-0.46412408,-0.34274805,-0.114765376,-0.27882352,0.2176193,-0.23387226,-0.1707103,-0.37506512,0.42178208,-0.11546565,0.06830245,-0.13122007,0.18191871,0.06056882,0.053417753,0.39667666,-0.37604225,-0.41161588,0.34011275,-0.15778224,0.06817169,0.026636984,-0.23141937,-0.19263463,-0.09624714,-0.33239964,-0.66431665,0.09398824,-0.06424415,-0.49405396,0.07329578,-0.12727518,0.1803318,0.17012058,0.046103764,-0.116932176,0.099648796,0.0361833,-0.5615728,0.03242135,0.23642337,0.008566861,-0.13408397,0.07223998,0.059854597,0.051538825,0.10534826,-0.24736856,-0.053868778,-0.47950113,0.15318683,-0.055015296,0.094113275,0.15966696,-0.15878981,-0.6226211,0.05808892,-0.15458873,0.17241001,0.080080785,0.2870259,0.0035815586,0.12911989,0.08131078,-0.21167919,-0.19492936,0.033116825,-0.43571317,0.14952457,0.12542094,-0.6292609,-0.049809866,0.1382979,0.13866228,0.2052205,0.06916437,-0.27926794,0.011738328,-0.11113456,-0.061113086,0.14879446,-0.11876712,0.019250724,0.4305342,0.03354138,-0.32753372,-0.3019014,0.084649906,0.03613403
-0.24112974,-0.048503254,-0.17472394,0.17077975,0.010603876,0.27263188,-0.06426047,0.01832985,0.29109454,0.3227623,-0.2451043,-0.3073886,-0.42742229,0.16995187,-0.45663312,-0.32182258,0.08722883,0.06447052,0.14121395,0.07764686,0.044828497,-0.00016217562,-0.30856776,-0.08001899,-0.07543223,0.20784524,0.36879778,0.06312781,-0.02460241,-0.1816031,0.17835978,0.07772427,-0.18927023,-0.4767944,-0.19406854,0.08796384,-0.014583223,0.24903391,-0.37430125,-0.13971336,-0.40768006,-0.11048746,-0.040566243,0.11871117,-0.16204618,-0.024185427,-0.056042027,0.40481362,-0.10065984,0.19063383,0.054479685,0.05359136,-0.03491024,0.3872849,0.042745337,-0.14210607,-0.39211652,0.30163267,-0.4510425,0.23904589,-0.0030697018,0.008223154,-0.4172654,-0.114053026,-0.082613446,-0.21608393,0.16456968,0.11983731,0.23421958,0.21664768,0.042547874,-0.13245802,-0.18480815,-0.02188466,0.088765435,0.016694669,-0.095086746,-0.67945534,0.040418506,-0.06606333,-0.006237273,-0.21334259,0.17014219,0.11003358,0.09695645,-0.06610518,0.077220514,0.28940025,-0.015482388,0.25994098,-0.24556607,-0.007051983,-0.13219349,-0.22969526,-0.14781623,-0.63820064,-0.090947784,0.03957781,0.28877172,0.15323833,0.2503587,0.22198685,-0.015504739,-0.17894328,-0.15910482,0.099283494,0.09951122,0.2686315,0.16170596,-0.4249104,-0.013668395,-0.4559489,0.019643735,0.05985952,0.02020508,0.006270351,-0.078594595,-0.53194803,0.0584655,0.12173926,0.031970713,0.06090079,0.37087455,-0.501301,-0.040776048,0.016808124,0.066945076,0.13622989,-0.16467671,0.17716183,-0.021475991,0.021546887,-0.029634574,0.38591942,-0.16149151,-0.023886427,-0.42074513,0.08695786,-0.09402871,0.20864323,-0.20511593,-0.12718228,-0.537171,-0.546914,-0.032756574,0.11842129,-0.08575286,0.14158443,-0.023924958,-0.28352037,-0.12056475,-0.08014497,-0.086728506,-0.11701283,-0.023802198,-0.07982551,-0.29216397,0.2871448,-0.1095225,0.05891288,-0.07640195,-0.24521895,-0.39314976,-0.37008086,-0.55350333,0.06484852,-0.5031073,0.37743375,-0.07311562,-0.09964219,0.08601898,0.1770956,-0.29924726,0.16701792
0.05969739,0.21653865,-0.053323004,-0.29781628,0.11235497,-0.12282698,0.032388438,0.043666236,0.19339494,-0.39201537,-0.12624039,0.102275446,-0.06029274,0.02425479,0.2616972,-0.09008668,-0.17454971,-0.09553832,-0.090998866,0.045941275,0.029269315,0.22601928,-0.21895656,0.07902491,-0.08428615,0.03323258,0.23133259,0.25058195,0.09413597,-0.078083016,0.009045504,-0.3873181,-0.06122117,0.12508655,0.0963099,0.2989522,-0.103674635,-0.0132195195,0.04182649,-0.19866651,0.16055697,-0.039437015,-0.031803273,0.08366286,-0.19226238,-0.009109681,0.2483036,-0.08902785,-0.41744876,-0.030914953,-0.007320677,0.12099683,-0.08598789,0.1286495,-0.30956355,-0.051868994,-0.070033275,-0.036031898,0.30745876,0.12172532,0.067735605,-0.1930049,0.33072358,0.006131771,-0.07343799,-0.22512957,-0.100743346,0.34048823,-0.11839763,-0.40556562,0.031472128,-0.12307019,0.044251826,0.107721135,-0.25477976,0.020449426,-0.15739505,-0.128503,0.17190517,-0.0028794054,-0.46117923,-0.08009429,-0.23106553,0.15376005,-0.08021934,-0.021271713,-0.21139194,-0.13216627,-0.46908924,0.025717393,0.07061846,0.119820446,0.0732924,-0.05520056,0.10921315,0.16187938,-0.13706875,-0.055499524,0.03228499,0.17089464,-0.06951618,-0.15754263,0.07387407,-0.37524474,0.003974507,0.19900301,-0.13185304,-0.39383084,0.16426963,-0.3857377,0.140577,-0.13402334,0.09582052,0.116843164,-0.38238963,0.1198285,-0.15594195,-0.003047092,-0.113525115,-0.041180354,-0.38261497,-0.25346017,0.24636462,-0.087573364,-0.4626005,-0.38254094,-0.36809736,0.17314617,-0.43316096,-0.21477222,0.111172065,0.020092998,-0.22605784,-0.15084912,-0.05213878,0.22124161,0.44078925,-0.59351987,-0.10677015,0.04936939,0.18005846,0.020047337,-0.09216688,-0.42090422,-0.19509333,0.017220013,0.11344545,-0.103312,-0.14218232,0.303478,-0.6555627,-0.41507572,-0.07865704,0.059867296,0.057311155,0.14264822,0.038800526,-0.17198315,0.049484868,-0.15103738,-0.11955096,-0.037011385,0.049905937,0.07350511,-0.040280394,0.10734558,0.009415757,0.17657395,0.024262989,-0.29169893,-0.15166828,-0.043658487,-0.03592414,0.03264586,0.039312728,-0.095139064,-0.15175374,-0.10554295,0.15393722,0.104217604,-0.06303244,0.2001605,0.09567449,-0.18356997,-0.15042362,0.11427857,0.05364316,0.16284585,-0.084582515,0.17137033,0.053543527,0.052227177,-0.024953218,-0.13647059,-0.017085617,0.17833252,0.04926087,0.1285655,-0.09243411,0.010770758,-0.07231155,0.11706615,-0.15885992,0.21735828,0.20120114,-0.07881957,0.0800663,-0.48231214,0.025656126,0.16437332,-0.11101377,0.010180907,0.07476614,0.15532106,0.0009488694,0.23212087,-0.16404293,0.07050598,0.13996986,0.032370504,-0.17272931,0.14483804,-0.13403764,0.16518156,0.02145413,0.015807126,-0.028060563,-0.074570484,-0.06486294,0.3164282,0.09040038,0.19435091,-0.026495185,0.029735146,-0.22479825,0.15407419,0.28305957,0.091553345,-0.06851385,-0.038512874,0.20178728,-0.011423916,0.013538612,0.059387237,0.107562535,0.07210979,0.09388883,0.2268477,-0.13939977,-0.2534707,0.29416192,-0.09180497,-0.35491195,0.13225876,-0.30988458,-0.14396596,0.038211245,-0.31266636,-0.017496368,-0.77475315,-0.16428381,-0.054692794,0.105488144,-0.21985304,0.08518152,-0.3430753,-0.20664382,0.07183642,-0.10131046,0.24139804,0.13294299,-0.12827593,-0.52128506,-0.6866444,0.23335896,-0.076337606,-0.083149835,-0.19449672,-0.18211143,0.0740412,0.110533394,0.09292392,0.103997156,-0.20152147,-0.12664627,-0.0015738023,-0.4078837,-0.22201388,-0.07656433,-0.060868815,-0.089183845,-0.23997244,0.115335815,-0.24862173,-0.084162734,0.29011473,0.036571212,-0.15424916,-0.10803346,-0.051784165,0.031778593,0.05856739,0.086015075,-0.048727524,-0.015125728,-0.7590942,0.5484402,-0.15219468,-0.041479815,-0.044352323,0.021475963,-0.031388484,0.13100111,-0.20757252,0.14757866,-0.25812724,-0.18934232,0.07052309,-0.28727224,-0.11269789,0.071608365,0.030976558,0.018241178,-0.25888747,-0.004418171,0.20950758,0.06010776,0.03403015,-0.02410624,-0.0788854,0.10142786,-0.051153164,-0.11496928,0.14624558,-0.2211296,0.17836845,0.10820227,0.12158729
0.2376258,-0.15473768,-0.036124438,0.12865661,0.12057114,-0.17834696,0.0530589,-0.33796966,-0.34412563,-0.26271504,-0.13790984,-0.056619696,-0.16623643,0.07398091,0.18702033,-0.062029008,0.0864147,-0.12994498,-0.2604404,0.13859788,0.05643421,0.14074755,0.10273917,-0.029133756,0.23028073,0.21608575,0.12737292,0.32049212,-0.50827783,0.16930935,0.12610756,-0.023854464,0.21853766,-0.29420036,-0.005273055,0.3942778,0.028188473,-0.15668306,0.042172614,-0.5450875,0.018311663,0.11419107,0.20489433,-0.23416466,0.13888183,-0.2159127,0.1496267,-0.033671074,0.06429187,-0.4307184,-0.03861291,-0.14816774,0.008710131,-0.05471462,-0.35780385,0.04528347,0.020780725,-0.080260366,-0.042823575,0.35342598,-0.3243299,-0.11777097,-0.07150509,-0.22934347,0.32581428,-0.31988084,-0.04719172,-0.3931436,0.2093478,-0.07988734,0.3515377,-0.30055606,-0.6394333,-0.4953789,-0.01845538,0.15309368,0.045773562,-0.065565005,-0.20469631,0.079957396,-0.06014488,-0.21510498,-0.06771381,-0.021444399,0.09965181,-0.18128122,-0.053853307,-0.32906362,0.0735544,0.011877722,0.1618588,0.10959737,-0.033044875,-0.010071721,0.07406494,-0.33653444,0.2542804,-0.10015988,-0.1773784,-0.25946957,0.027081612,0.2974572,-0.054257672,-0.20811702,-0.11003019,-0.14368474,0.06827716,-0.13659967,0.11730256,0.037827637,-0.1732155,0.14847562,0.06890808,-0.43055758,-0.014033291,0.121181734,-0.04837308,0.08903891,-0.0830679,-0.532984,0.17673719,0.07747883,-0.27729258,0.032503992,0.060260687,0.16566463,0.30551544,-0.1665338,0.44998258,-0.08186195,-0.18050793,0.2336132,-0.041337237,-0.16740835,0.047982357,-0.12941182,-0.38664466,-0.23691761,0.13637403,-0.15305577,0.20035745,-0.15244687,-0.04017292,-0.11582878,-0.044146266,-0.0867643,-0.08436152,0.27836686,-0.03332063,-0.13214241,-0.29307115,-0.39745063,0.4373574,0.36171275,-0.015423452,0.072508365,0.17499252,0.34890634,0.24617404,-0.3148272,0.4094255,-0.08548331,0.14956419,0.40779442,-0.4017969,-0.33198652,-0.092565045,0.08099652,-0.086178444,0.20156623,0.2035304,-0.4549916,0.33912417,-0.012340482
-0.3126781,0.08850619,-0.09025718,-0.3683037,0.012502003,-0.2408647,0.020822642,-0.08642256,0.24726509,-0.2658859,-0.1567322,0.19069201,-0.2983782,-0.10648686,0.34643897,0.07211208,-0.08064234,-0.035629604,0.06589117,0.1593698,-0.40953535,-0.09636018,-0.4485197,0.23653735,-0.16969042,0.06463995,0.114338405,0.20840345,0.09441032,-0.05245174,0.11563045,-0.14979929,-0.32580465,-0.0656017,0.07340649,-0.124836415,-0.11083881,-0.30885836,0.06893652,0.03744046,0.14774606,0.30799627,0.063963644,-0.062006287,-0.23242743,-0.2700379,0.15098101,0.053746767,-0.15582776,-0.080183476,0.07354004,0.33038476,-0.30000564,-0.043711983,-0.15481424,0.24856076,-0.25959438,0.18722679,0.19816534,0.061634395,-0.11515038,-0.097646646,-0.21098909,0.18674366,-0.039403196,0.107219435,-0.024445299,0.1496937,-0.23460448,-0.2728686,0.1210975,0.16107488,-0.0017914443,0.22161907,-0.09765824,-0.1366207,-0.14114785,-0.37827417,-0.06861623,-0.06183785,-0.051337443,0.04089542,-0.09377534,0.18233386,-0.031753022,-0.0902421,0.106483206,-0.06444469,0.18026203,0.16167761,0.09644654,0.27952334,-0.26785263,-0.5457767,-0.1895844,0.039438847,0.05455209,0.08069558,-0.026264317,0.101608284,-0.20622057,-0.15642506,0.07562177,-0.03550371,-0.14803816,0.19638167,-0.048026465,-0.28292456,-0.23344222,-0.39770156,-0.033593386,-0.12177599,0.27366123,-0.001030172,0.1081405,0.25003085,0.104690574,-0.240205,0.113433935,-0.068478875,0.055802315,0.21360679,-0.382892,-0.20945561,-0.3670545,-0.52136314,-0.15061587,0.006006675,-0.38581625,0.027603509,-0.09233568,-0.09550585,-0.10037461,-0.32289076,-0.030858874,-0.0906704,-0.07399266,-0.040846325,-0.52545995,0.021227345,-0.55010873,-0.2241679,0.21273462,0.035002153,-0.182607,0.05084664,-0.34900433,0.29586977,-0.28475273,-0.1791839,-0.37391856,0.39357075,-0.33705541,0.1988651,0.17525291,0.016347064,-0.036236845,0.0978954,0.11701202,0.11172338,-0.07741166,-0.091664605,-0.066158034,-0.6528419,-0.08977946,-0.009933093,0.08381437,-0.15809953,0.084612355,0.21501622,-0.036161073,0.14032678,-0.40939698,-0.4925929,0.0427201,-0.16000494,-0.30303806,0.36620387,-0.18407954,0.104503736,0.011207265,-0.045797452,-0.21183112,0.40374342,-0.26499704,0.028324103,-0.04264457,0.05705699,-0.0013572732,-0.13700218,-0.15148346,-0.2940841,0.02388787,0.13718969,0.026605297,-0.19765024,-0.034590617,0.12749633,0.021045327,0.34923908,0.18401328,-0.038026605,0.286933,-0.07085538,-0.062231313,-0.28907186,-0.25189698,0.07960632,-0.12411352,-0.26351288,0.054473,-0.020383326,-0.18115868,-0.04585941,0.004851618,-0.34341687,0.04762017,0.105071746,-0.028045796,-0.15191142,0.124895334,-0.4188409,-0.043112796,-0.12323247,-0.068656914,0.36617094,-0.117259316,-0.066661276,-0.29438773,-0.08955265,0.05316146,0.17501953,-0.08154515,0.005885262,0.3785361,-0.56514573,-0.12776203,-0.4045806,-0.59899014,0.12750994,-0.09383577,0.047087654,0.19391838,-0.14419444,-0.16788702,-0.016143471,0.054251675,-0.10369501,0.30917802,-0.31253657,-0.43949866,0.11442678,-0.14431307,-0.77314377,0.10097872,0.078882225,-0.1705323,-0.2866364,-0.03306513,0.2630578,0.026314994,-0.11864348,-0.015896512,0.08941912,-0.14924482,0.21884976,-0.47073522,0.09025683,-0.033608247,-0.28579348,-0.08118219,-0.22074732,0.2189994,0.4006217,-0.22774033,0.3138052,-0.41880774,0.116761535,-0.1026891,0.28017798,-0.35178944,0.08512732,0.032972127,0.15749665,-0.017740138,0.049805176,0.16156907,0.09557591,-0.2526473,-0.10906316,0.031246183,-0.045182906,-0.13548452,0.070042744,0.0951005,-0.31586975,-0.2442075,-0.4777834,-0.036819626,-0.21177782,-0.0929033,-0.01171619,-0.08881697,0.039450068,-0.4757758,0.13229096,-0.16968985,0.0067025293,0.13147776,0.08492373,-0.48846117,0.062294234,-0.04778072,0.04539341,0.03258724,-0.016932841,0.2058622,-0.08858053,-0.040253982,-0.1101122,0.067391895,0.010402675,0.071731955,0.0069830986,-0.20469251,-0.47983032,0.038794674,0.073838964,0.10195676,-0.24034783,0.17193332,0.04571157,-0.17284101,-0.36025065,0.11169369,0.025598586,-0.0076005245,-0.3555171
0.029240793,0.055580832,-0.27829468,-0.24448493,-0.04776629,-0.5702215,-0.012897697,-0.009065493,-0.008370234,0.010343321,0.15914205,-0.24332577,0.18201476,-0.11116929,-0.011018444,0.1325957,0.10803057,0.042068314,-0.12694494,-0.41272566,0.049482282,-0.1759757,0.023055622,0.051199745,0.13646229,-0.5161522,-0.28929785,-0.4179677,-0.25171328,-0.08112426,-0.32589978,-0.14095736,-0.26115456,-0.025460735,0.1661643,-0.55247754,-0.09896712,-0.20739137,0.010144587,-0.15872663,0.13428214,-0.26413742,-0.26956016,-0.30936393,0.10328755,0.06653819,-0.3912185,-0.46117988,0.04606598,0.2751401,-0.20770605,0.07903415,-0.011113591,0.111195244,0.1334071,0.010283998,-0.12248362,-0.09581891,0.20314415,-0.19067374,-0.07102441,-0.027337506,0.13680905,0.23189415,0.013413359,-0.14630616,-0.38166866,0.29655933,-0.08347509,-0.08096828,-0.3515431,0.1318449,0.1214364,0.37287024,-0.120984405,-0.1582709,0.17401095,0.12545434,-0.2204482,-0.3460704,-0.054717112,-0.040700614,-0.29576048,-0.07085654,-0.03257582,-0.021854639,0.19974475,-0.5921464,0.007172958,0.002449958,0.091971196,-0.019531446,-0.06476191,-0.07275617,-0.01903836,0.026795061,0.14145435,-0.07010634,-0.2300423,0.094668604,-0.80386674,-0.07932045,0.05365869,0.2934641,0.1613299,0.21378222,-0.03805231,-0.26994982,-0.20297311,-0.12724201,-0.066554874,0.15857401,-0.08169811,0.094479315,-0.07326895,-0.04783631,-0.07640888,0.28643012,0.19894788,0.044368852,-0.06435941,0.14984752,-0.1936817,0.09477881,-0.025838101,-0.041216467,-0.36923894,-0.2707926,-0.07135739,-0.05404752,0.22486442,-0.16753116,-0.08682834,-0.3468669,0.16379735,0.21561645,0.20718227,0.13803239,-0.18274836,-0.076366305,-0.12513287,0.19048199,0.049246784,0.24939775,0.07142516,0.10511255,0.056105893,-0.48120144,-0.070271224,0.05202569,0.3409352,0.15831459,-0.3393421,-0.07607654,-0.0017542721,0.020836055,-0.29133093,-0.6013865,-0.26796556,0.043013413,-0.29594043,0.22294164,-0.16845623,-0.1913961,0.06626514,0.106538236,0.17393449,-0.13991939,0.13338184,-0.17574853,-0.5018156,0.0145726865,-0.35502154,0.16133712
-0.044552837,-0.31386146,0.035304595,0.3756004,0.064024955,0.0042580217,0.08411398,0.16821837,-0.39251631,0.28426406,-0.062412106,-0.10010079,0.20328459,-0.05531158,-0.16579488,-0.30094,0.27408016,0.005513451,-0.022999601,-0.3134527,-0.034583636,0.107065015,0.21154349,-0.5400516,0.07519412,-0.26896122,-0.17987977,-0.095556945,-0.32813916,0.025075082,0.04716967,0.36959866,0.0033151056,-0.3080508,0.026410006,-0.09240047,0.029240083,-0.034253158,0.08168971,0.041030966,-0.12446308,0.44469514,-0.08207024,0.025370423,0.105667934,0.13344647,-0.64557505,-0.49774036,0.43027148,0.14510794,-0.103468195,-0.266021,0.092987694,-0.031129822,0.16752075,-0.100347005,-0.07571991,-0.16667284,-0.17351061,-0.20323358,-0.46747804,-0.04208073,-0.27125627,0.25961334,-0.16893256,0.009913072,-0.11078799,-0.096434385,-0.12971789,0.31325006,-0.039651245,0.22599405,-0.1873206,0.07826617,0.06538157,-0.18115494,0.009733224,0.22725193,-0.26446214,-0.30510506,0.38227275,0.38465866,0.06172176,-0.33032042,0.06488461,0.008658939,0.15956482,0.13462523,-0.0036398938,-0.33524534,-0.6648627,-0.055038016,-0.26778853,0.2050249,-0.44847855,-0.040674906,0.0006006737,0.15840358,-0.050363906,-0.014920928,-0.012589978,0.059135415,-0.11454326,0.17037314,-0.11683215,-0.025019635,-0.25399545,0.13540724,0.08453558,0.35296682,-0.47831613,-0.31683087,-0.09138364,-0.049206715,0.14767464,-0.22870372,0.3659653,-0.061804526,0.060546096,0.020284599,0.33076772,-0.45608667,-0.36409327,-0.4225555,-0.15438688,0.16114976,-0.08960461,-0.11338982,-0.03709261,0.021790393,-0.03221961,-0.08768986,-0.10602327,0.32727987,0.010031796,-0.14777902,-0.7454845,0.03526529,0.20784573,0.13135491,-0.080474675,0.090084866,-0.42487562,0.416933,0.14183857,-0.17006908,0.11830213,-0.07301028,0.067379005,-0.027687084,0.15206213,0.08519434,-0.07912153,-0.44649747,-0.33923832,-0.4934583,0.23156056,0.0356478,-0.23665203,0.19776703,-0.21613245,-0.089935966,-0.10380592,0.19741511,-0.03446826,0.061786875,-0.040630598,0.16096932,0.22081155,0.104357116,0.18598185,0.118546195,0.27754572,-0.0028059576,-0.293703,0.30399963,0.396928,0.14349969,0.053457957,-0.04807713,0.019533793,0.018637035,0.12560503,-0.30171213,-0.04606355,-0.17701599,-0.13200216,-0.046477467,-0.17494282,-0.07506328,-0.06080388,0.269678,-0.19353202,0.017792918,-0.05142512,-0.2832641,-0.1155505,0.36359864,-0.100467965,0.112578884,-0.456949,-0.009581967,-0.05116756,-0.2762941,0.13576756,0.018320711,0.01832721,0.048914775,0.020852363,-0.007296885,-0.035227686,-0.20670854,0.26789743,0.013358895,0.023993853,-0.15832049,-0.039681096,-0.11145321,0.007106159,0.12525417,-0.572856,0.19738932,-0.33270717,-0.033231772,-0.09493654,-0.11867167,-0.056234952,-0.061776627,-0.17981821,0.07855584,0.044343974,0.2070759,-0.4161474,-0.18357174,-0.08159434,0.11880074,-0.025725862,0.35836458,-0.45495164,-0.02553766,0.033705708,0.068659045,0.22761911,-0.011206391,-0.083721265,-0.25358588,0.13915384,-0.13185091,0.23403205,-0.0006079266,-0.25554436,-0.47944325,-0.2882368,0.005585919,-0.30394387,-0.06821368,-0.06372072,0.08513927,0.042886805,-0.34055582,0.056521714,0.054739535,-0.070067495,0.19424261,-0.035865527,-0.05885254,0.23846716,-0.14538482,-0.055677075,-0.0047548357,0.11125512,0.33203453,0.19439466,-0.009368024,-0.17441031,-0.07148063,0.021948889,-0.15078433,0.22649038,-0.6526113,0.18272634,0.13622998,0.027747227,-0.10456099,-0.0022125638,-0.09155876,0.09675345,0.03009937,-0.045295656,-0.13047269,0.096696645,-0.18795255,-0.11236027,0.13025606,0.04861342,-0.2874909,-0.0039666067,0.31381038,0.24765317,-0.14542596,-0.13813522,-0.47560242,0.05727459,0.050367206,0.28985783,0.19796638,-0.45411482,0.15559393,0.02158361,-0.022621715,0.2745195,-0.22589415,-0.5241243,0.027317664,0.2562394,-0.50360817,-0.08036474,0.15762928,0.16562536,0.34932157,0.3282002,-0.13712555,-0.007124573,-0.5260076,-0.14916638,0.37095124,-0.056007713,0.062453635,-0.37920824,-0.22324432,-0.14250451,-0.16306841,-0.23085192,-0.2021826,0.06097555,-0.16949153,-0.08480819,-0.25121856
-0.2824703,0.12260292,0.2686954,0.03451111,-0.09230817,-0.37156478,-0.01774871,-0.50398564,-0.2767311,0.26454136,-0.1640394,0.60464865,0.16298412,-0.2689918,0.38539946,0.10479336,0.022685338,-0.27679336,0.07597254,0.25029972,-0.027874313,-0.1281024,0.07823238,-0.09471678,0.06685007,-0.4076005,0.11642273,-0.009123081,0.03335587,0.25312772,-0.1059641,-0.048378352,0.3261172,-0.07766434,0.20792732,-0.05539454,0.19069079,-0.019834248,0.19808906,-0.133358,-0.3561732,-0.15339482,0.042595427,0.1608756,-0.08422194,-0.32167444,-0.29687214,0.32064494,-0.1490932,-0.36834666,-0.15344515,-0.10138301,-0.104299985,-0.27555284,0.377704,-0.5642481,0.01720527,-0.3314473,-0.60537726,-0.18314646,0.18893333,-0.21379861,-0.2818774,-0.2310055,-0.58696383,0.15608808,-0.33394206,-0.48849103,-0.4435649,-0.13514526,-0.025567183,0.28632286,0.08841381,-0.14059086,-0.086690105,-0.21157184,-0.030091437,-0.8129621,0.26289085,0.110807404,-0.12159602,-0.0040306873,-0.02529044,-0.09455256,-0.033707656,-0.104729205,-0.028126255,0.02825418,-0.4109978,-0.46392435,-0.802857,-0.05313843,0.15031807,0.08424262,-0.5605786,-0.3231563,-0.25724104,0.16471738,-0.23045847,-0.30093682,0.3211673,-0.04298947,-0.2311059,-0.1561932,-0.054736987,-0.7357486,-0.12244825,0.4547451,-0.06892196,-0.51081944,0.48213866,-0.19273238,-0.036624838,-0.0045848163,0.15117286,-0.18407941,0.04359397,-0.6622362,-0.29618016,-0.11662075,-0.08105224,-0.55232465,0.090994895,-0.63633484,0.23315626,-0.020300813,-0.14414008,-0.33396322,-0.07099383,0.21024509,-0.396114,-0.68482304,0.1552268,-0.10488139,-0.3975404,-0.40874168,-0.29073212,-0.47441828,-0.06382311,0.5663366,0.1990527,-0.14152183,0.5487442,-0.4720288,0.031886224,-0.1115888,0.2087571,0.032370646,0.07908301,-0.33616024,-0.11839573,-0.2047925,0.13939682,-0.48847383,0.14994527,-0.4740272,-0.025932997,0.21203102,-0.03322789,-0.06679923,-0.49810982,0.064215876,-0.05177279,-0.3549945,0.110348836,-0.1453689,-0.081060454,-0.40041652,-0.22221039,-0.31437218,0.058640413,-0.18229318,0.16446932,-0.3136704
0.20335412,-0.0405805,0.13024782,0.10443517,-0.121530965,0.07038719,-0.0954424,-0.2208137,-0.3941174,-0.14632061,0.35767448,-0.29047787,0.12313007,0.02126195,-0.35192052,-0.10496199,-0.002288672,0.04174797,0.28156036,-0.18262815,0.22994775,-0.22704756,0.17573191,-0.144216,-0.020646797,-0.11156729,-0.07726321,-0.33751023,-0.18876986,0.027304295,-0.16036975,-0.20907672,0.2765097,-0.21808197,-0.034997366,-0.7131307,0.05566872,-0.051892083,0.00010848238,-0.052132435,0.17732985,-0.5172502,0.065333866,-0.01914805,0.026456945,0.14860936,-0.79135436,0.027793221,0.19653255,-0.32836258,0.03420643,-0.3446071,0.05623958,0.03305308,0.03586233,-0.32427195,-0.102010414,-0.27474555,-0.32847795,-0.31985387,0.25562862,-0.076280035,0.17395397,-0.19340518,0.15811242,-0.0067062974,0.088267796,-0.7218644,-0.10747236,0.3027919,-0.00118858,0.038633708,0.09003595,-0.3414409,0.06668798,0.21500622,0.015123815,0.07311572,-0.8037426,0.16242178,-0.028563937,-0.6025356,0.09552472,-0.76122516,-0.18801624,0.09559196,-0.1265512,-0.13335155,-0.025680862,-0.53127086,0.13008143,-0.06399164,0.33074173,-0.44820598,0.30852512,-0.3542624,-0.26318753,0.025226943,-0.07772608,-0.4772146,0.007690467,0.419827,0.13236554,0.14756283,0.1728203,-0.56010675,0.18810607,0.6022513,-0.27572778,-0.011864863,-0.37213948,-0.02379297,-0.43779805,-0.5843942,0.073271155,-0.48872933,-0.2875704,0.112318315,-0.40266052,0.1713097,0.08232502,-0.11815291,0.11920298,0.17844966,0.51904386,0.1382133,0.28469303,-0.565633,0.21345739,-0.37673184,-0.008450612,0.24410585,0.17468072,0.3149099,-0.11896277,-0.034658886,-0.08394578,-0.2336386,0.46095532,-0.30722556,0.18703051,-0.05145004,-0.09458722,0.29681578,-0.0561814,0.23920499,-0.007838706,-0.1577349,0.09099583,0.16502915,-0.2148963,-0.12977198,0.02002598,-0.1073239,0.02764629,0.023531238,0.030265747,0.009358031,-0.017085915,0.17683758,0.08052192,-0.0003551224,0.10318646,0.0015309844,0.10398801,-0.09865407,-0.01720949,0.11646052,-0.09088911,-0.17588413,-0.04784486,-0.03340051,-0.037548628,0.15457739,-0.343826,-0.045033675,0.15982395,-0.057668872,0.07186124,-0.29240897,0.12025123,0.006966094,0.20641793,-0.22931099,0.26233608,-0.0017914281,-0.0942679,-0.004311825,-0.009833541,-0.09662785,-0.048162643,-0.013175833,0.066345915,-0.040156715,-0.03922369,0.17932624,-0.1318171,-0.06917226,-0.02562272,-0.1427682,0.064502776,-0.8627639,0.05252624,0.21419378,0.051030304,0.119529784,-0.020269077,0.1317239,-0.2795589,0.10582308,-0.123292364,-0.009063466,-0.55647486,0.08402086,-0.044815954,0.045901887,-0.0045275423,-0.17615806,0.0905051,0.064365566,0.10270636,-0.28952754,0.28267723,-0.14803001,-0.2891997,-0.5525275,-0.0007437125,0.021592857,0.11460771,-0.27637482,-0.11007305,-0.10250213,0.010065551,0.031029498,-0.020121785,0.02000647,-0.2683606,-0.6712701,0.1296411,0.10522309,-0.2922901,-0.51751846,-0.054142993,-0.14579529,-0.6522257,-0.085670516,-0.40760496,-0.2415057,-0.64511436,-0.05582273,-0.012569866,0.21159075,0.4999952,-0.30228373,0.2868455,0.08560096,-0.10397008,-0.16158763,-0.010088992,0.15271069,-0.29289547,0.0025423812,-0.007987439,0.012491553,0.007732057,-0.18376799,-0.099890225,-0.26147473,0.12171462,-0.2406504,-0.13478729,0.07531121,-0.11849059,0.20345384,0.09411146,0.0747454,-0.013400964,0.20871983,-0.5710122,0.02648825,-0.06784145,0.14020224,0.043386303,0.2686746,0.04448544,-0.0952466,0.047829375,0.34548402,0.025702888,-0.050980955,-0.026750334,-0.09275987,-0.30115196,-0.16402586,-0.10348747,-0.05538838,0.096438766,-0.15332283,-0.07538367,0.033485714,-0.12819403,-0.0013855393,-0.06860817,0.021625325,-0.13498044,-0.10745336,-0.13409086,0.10217777,0.1160989,-0.1477455,-0.06723026,-0.07409415,0.0093719,0.06562587,0.08383428,0.10208821,0.09615032,-0.26382867,0.024022961,0.08174839,-0.061198317,0.07330021,-0.12737235,0.11761361,0.13726941,-0.393505,0.065172784,0.022073353,0.105972156,0.23567556,-0.0981331,-0.28057292,-0.089548506,-0.35269988,0.09825787,0.038582284,-0.23925437,-0.18304269
0.0314307,0.07123177,-0.061084345,-0.16772415,0.14156802,0.028268632,-0.30954906,0.14888656,0.054427356,-0.20220698,0.102073416,-0.22355519,0.06762399,0.26131606,-0.13250816,-0.10934381,-0.01708099,0.09627505,0.04897955,-0.6046147,0.041336168,-0.25978398,-0.104150556,0.15620923,-0.5766787,-0.47850564,-0.01573328,-0.77724063,0.29451093,0.09166138,0.111483514,0.123262316,-0.14990526,0.0810002,-0.042633668,-0.062274672,-0.17939264,-0.088314645,-0.27513513,0.05142033,0.08540005,-0.13915516,0.105567336,-0.049791228,0.22379142,0.15879062,-0.103620335,-0.20554236,0.102628864,-0.20748675,-0.20776442,-0.031289842,-0.023604365,-0.09630593,-0.034698263,-0.0034325193,-0.040104106,0.1177371,0.08764144,-0.37383753,0.029286971,0.0051096682,-0.11928589,-0.14795968,-0.10998223,0.100063376,-0.00054374523,-0.0033685283,-0.19640565,0.27393422,0.0026991826,0.3501756,0.25718972,0.15239547,0.039399248,-0.10300831,-0.19324125,0.127296,-0.22726962,-0.009447282,-0.011530101,0.07543051,-0.16664079,0.0014537533,0.059750013,0.20565972,0.037904784,0.18496323,-0.015001776,-0.09602558,-0.21995296,-0.69466394,0.21752536,0.048356857,0.06567013,0.063367985,-0.2661564,0.2144165,0.17951818,0.26715142,-0.15869892,0.0014091049,0.051122677,0.18326212,0.079919085,0.06815548,-0.059366655,-0.40206766,0.016066093,0.19278212,-0.035387978,-0.0027959892,0.107231386,0.35266992,-0.121311076,-0.010748809,-0.06423932,0.15617448,0.08167381,0.28988102,-0.6048159,-0.1099082,-0.14095785,-0.029582642,0.10963672,-0.31253254,-0.12032619,0.09863075,-0.18713509,0.08379067,-0.1285341,0.07053923,-0.18918382,0.0006274274,0.0197945,0.0598702,0.09530702,0.054391146,-0.19908911,0.14753772,-0.3698831,0.24871439,-0.0123135615,0.10537834,-0.048341643,0.17882043,-0.07879689,-0.3321711,-0.059565507,0.08088218,0.011757438,0.20001273,-0.23631252,-0.29306218,-0.082519054,0.09111571,0.044628672,-0.45423067,0.26195246,0.15429904,0.091282964,0.20514897,0.3829196,-0.09128512,0.19161639,0.14180025,-0.008348798,-0.11041772,0.015687998,0.10981424,-0.5567032,0.022943188,-0.39299282,0.024547322
