0.0108857835,0.21254227,0.032940503,-0.2530982,-0.11926993,-0.045925528,-0.28930506,0.05568372,-0.5263279,-0.04763436,-0.043604176,-0.10401496,0.30348065,-0.08272514,-0.13169119,-0.5664673,-0.10308578,0.15893938,-0.21928601,0.0011094294,0.08472683,-0.43059868,-0.20564929,0.097211294,0.23648538,-0.2188349,0.072936974,0.0023412292,0.08982262,-0.13267374,-0.28587782,0.10865767,-0.26530522,-0.019726483,0.35182244,-0.14042965,-0.037788216,-0.34411663,-0.051659353,0.08088094,0.030320885,0.056609508,-0.099337526,-0.040074755,0.030693892,0.03379788,0.051987674,-0.0913908,0.099002115,0.24974483,-0.1360822,0.031249428,0.063400455,0.041240796,-0.12457336,-0.18578558,-0.04681668,-0.014128754,-0.105358936,-0.034889895,0.10505981,-0.06770655,-0.09725522,-0.11348944,-0.10970176,0.13479617,0.22136474,0.04638621,-0.09499513,-0.27683,-0.06725035,0.0027293912,-0.27961063,0.080543675,-0.32026076,0.0025915003,-0.10345568,0.18802896,0.13927642,0.072105065,-0.01750258,0.06436288,-0.25223327,0.05898791,-0.035260662,-0.082070716,0.04939202,-0.20013708,0.09158718,0.20136526,-0.13199699,0.1241243,-0.4717242,-0.20132014,0.041159388,0.08492942,0.20058069,-0.004907123,0.25882822,0.14433953,0.0640613,0.005856122,0.12241552,-0.1935439,-0.033673685,0.18889686,-0.21269672,0.041090645,-0.32613462,0.18254755,0.09452954,-0.3236937,-0.070265286,-0.12431764,-0.15531303,-0.0926073,-0.088879935,0.08488904,0.24417816,0.019661073,-0.2979999,0.10443116,-0.22004151,0.14600314,-0.59237,0.34919882,0.10720094,0.19761752,0.319633,0.11981379,-0.20542955,0.040558454,-0.15141311,0.368008,0.030826686,0.16206114,-0.05575911,0.25462633,0.007940706,-0.25302273,0.26391777,0.45126644,-0.88718,-0.30819786,-0.07294881,0.1622923,0.2799739,0.00089754106,0.43215042,0.24617648,-0.57777137,-0.5668835,0.07198491,0.035331983,0.096147895,-0.22095871,-0.016950171,-0.33964795,-0.04454654,-0.058849517,0.043279327,0.0009295268,0.20083506,-0.24869561,-0.048757415,0.28452104,0.20611879,-0.26449105,0.5142519,-0.11641141,-0.16359746,0.10289551,0.18682581,0.08961358,0.13736811,0.29696682,0.08726354,0.048408847,0.017007234,0.11457174,0.048337713,0.100936,-0.04434863,-0.195724,-0.07691065,0.0038810708,0.22829708,-0.4335117,-0.34365824,-0.1803198,-0.0872199,-0.20415181,0.07585745,-0.025882438,0.20270805,0.16902383,-0.15725693,-0.039066404,0.13517246,-0.06419272,-0.064760685,-0.03095977,0.08187359,0.097909704,-0.13381426,0.18490748,0.3303344,0.29369944,0.04701001,-0.116056286,-0.013278271,0.07862896,0.099562235,-0.036828917,0.119402796,-0.060250025,-0.07849777,0.30492198,-0.19462316,-0.49620554,0.08490321,-0.0053856107,0.13126266,-0.14854509,0.09943186,0.22173865,0.38582227,0.47881055,-0.2922546,-0.021155244,0.2044954,-0.350281,-0.12236117,0.12307447,-0.5781686,-0.15147991,-0.13324732,0.053986646,0.26401055,0.01651674,-0.07314769,-0.11561634,-0.7949636,-0.115057185,-0.45100257,-0.011704454,0.27323815,-0.23553315,-0.37016872,-0.0414444,0.230953,-0.46032697,-0.14416201,0.24754962,0.27522293,0.09214613,0.18641667,0.07991661,0.1166768,-0.30497503,-0.017804753,0.36233583,-0.10160753,0.21204413,0.27057645,-0.36353537,0.31224287,0.05478953,0.17276941,0.17587088,-0.10869717,0.2339701,0.10592104,-0.40938795,0.29392415,-0.10679251,0.34863058,0.09423835,-0.4563244,-0.37152442,0.029394578,0.45191222,-0.23543994,-0.90715593,0.23084076,-0.86308974,-0.33089885,-0.7541026,0.030020785,-0.05321732,-0.029213307,-0.44057277,-0.20839973,0.070602216,-0.28518602,0.14780624,0.12984724,-0.40470597,0.1868334,-0.34723777,0.15663485,-0.15412398,-0.5656952,-0.011344487,0.0060153273,-0.28491113,0.0034229246,-0.1469354,0.08406931,-0.72452754,-0.5430048,-0.04595686,-0.2532587,0.06655167,0.0049247956,-0.14086021,0.056195203,-0.35157976,-0.45418775,-0.5923345,-0.31761286,0.42612746,-0.5016497,-0.3906324,-0.11052539,-0.11422307,-0.2915358,-0.3574339,-0.056700487,-0.2415391,-0.005464156,0.1184468,-0.32768282,-0.20662898,0.036843367,-0.5100914,-0.06046305,-0.10110323
-0.110080734,0.090684034,-0.29636514,-0.40337664,-0.20255117,0.2735699,0.10652603,-0.0680292,-0.06271845,0.119124204,0.21276067,-0.0853604,-0.1110387,-0.19275302,-0.07308368,0.040940966,-0.31598097,0.0032267498,-0.44882503,0.041584376,0.17120023,-0.3368443,-0.32241103,-0.28473672,-0.17958292,-0.27953005,0.13173151,-0.34797364,0.059029225,-0.07237489,0.030550836,-0.096492834,-0.29281676,-0.06916614,0.2602051,-0.3567791,0.19148703,0.21050477,0.029400695,0.27465612,-0.09766021,-0.40708917,0.18160304,0.2719038,-0.10941618,0.064831525,0.11474735,-0.11267456,0.037267692,-0.27594072,-0.34553146,0.172266,0.13005646,0.14324722,0.20926504,-0.21663538,0.19228925,0.00054595206,0.17761746,0.35083225,0.05820046,0.20536678,0.04559593,-0.48099926,0.18907452,-0.10405696,0.022840144,0.21648604,0.19585468,-0.08352618,-0.029434096,0.15930395,-0.028981265,-0.39919335,-0.17541185,-0.15206122,-0.021463279,-0.38012123,0.078043625,0.16929786,0.008611237,-0.35822555,-0.20962459,-0.4545955,-0.26803342,0.07313932,0.3418247,0.081618935,0.2389168,-0.05627426,0.03689979,0.06850181,0.06967127,0.113955036,0.08216616,-0.37010026,0.048359916,0.030106323,-0.29614082,-0.055231366,-0.02618772,-0.067196816,0.13261332,-0.056992818,-0.0332954,-0.09756731,-0.11629018,-0.25643134,-0.7026948,-0.3137556,-0.46763387,0.3275762,-0.23589252,-0.37485605,-0.013013959,-0.3205475,-0.29743665,-0.5307948,-0.2874039,0.19478303,-0.017115025,-0.019980207,-0.0754537,-0.115039706,-0.47064024,0.06605308,0.04210041,-0.2168649,0.18566301,-0.10219624,0.05175785,-0.20528165,-0.6563886,0.020042636,0.022378996,-0.13862842,0.012392093,0.06602256,-0.31188646,0.1750469,0.10163699,-0.7204468,-0.52188945,0.1217673,-0.6989823,-0.34747493,-0.024654057,0.026453448,0.09271104,-0.7280827,-0.56870836,-0.2062905,0.12356829,-0.027319377,-0.1735414,-0.2632489,-0.642657,-0.06479694,-0.0808745,0.1272883,0.08743396,0.07876844,0.20402196,-0.16952798,-0.62277097,0.42664227,0.007635598,-0.06938278,-0.3200016,0.076706566,0.14305586,0.012928124,0.21920305,-0.25810432
0.14751834,-0.13551562,0.27386308,-0.05070242,-0.48345408,0.17241378,0.46403366,-0.09785205,0.3629219,-0.46566382,0.1231481,0.010616806,-0.774486,-0.2145629,0.12973386,0.6829834,-0.10841531,0.15501167,-0.05922678,-0.09038506,-0.24338423,0.3497886,-0.39418396,0.11264097,0.206053,0.15446281,-0.17139718,-0.16799738,-0.06739031,-0.1896599,-0.20980936,-0.28023365,0.17478628,0.19821995,0.066073306,0.14925948,-0.17363729,0.25711775,0.14825636,0.15065376,-0.13075429,-0.4541546,-0.40056646,-0.1866482,0.10103333,-0.5716039,-0.40617797,0.066522114,0.035944648,-0.27345145,0.1428084,-0.05800492,-0.15583257,0.23103175,-0.09591131,0.11757103,0.34448582,0.17906001,-0.19047365,0.044469103,0.16081716,0.05798144,0.0019261384,-0.040755752,-0.01740123,0.2277363,0.08986144,-0.00036917912,0.1815569,0.09588635,-0.0076366104,0.1994745,0.07462652,-0.30206007,-0.10935554,0.24442123,0.18690234,-0.20225453,-0.18209684,0.12966083,0.024096925,0.29214683,-0.21445917,-0.03389476,-0.030860376,0.061964948,-0.16954416,0.098656505,-0.17282009,0.28979176,-0.12877667,-0.28819677,0.3674142,-0.26015508,-0.3330768,0.023057207,-0.012105563,0.13199964,-0.15279278,0.08107762,0.04432104,0.13142662,-0.094965644,-0.08980584,0.066515885,0.012871603,0.016876748,-0.44420168,0.5116374,-0.06828983,-0.42850652,0.083755344,-0.048567854,0.09206479,-0.16349785,0.030997911,0.30849603,-0.37028387,-0.5718284,-0.7231376,0.011202745,0.09119926,-0.24538715,-0.44821742,0.04374138,-0.49888742,-0.28600276,-0.22987413,-1.0022342,0.03217538,-0.19447608,-0.18488958,-0.16288823,-0.77509856,0.010178485,-0.188087,-0.34070572,-0.20100084,0.12645338,0.016246712,-0.4150012,-0.11967368,-0.14058314,0.057192452,-0.09637059,0.13013873,-0.17211145,0.07875684,-0.0697429,-0.08185977,-0.29556054,-0.04451773,0.11864999,0.097728744,-0.23897398,-0.121883065,0.08196827,0.010893126,0.03868516,0.0025135628,0.27977887,0.18635784,0.010799963,0.24532469,-0.5513839,0.11089246,-0.07144346,-0.0038159639,-0.49462745,-0.023347802,-0.60799664,-0.20767097,0.0054892753,0.08938058,0.16233294,0.44144455,-0.06747948,-0.061098732,-0.5093939,0.018088622,-0.11141041,0.021313043,-0.15000328,-0.2475296,-0.23989859,0.20954661,0.12246985,-0.17046832,0.17158495,-0.040013906,0.24689388,-0.08325843,0.021141995,-0.1101892,-0.012883555,0.12894589,0.029571537,0.102950074,-0.10883346,-0.1377594,0.111245535,-0.17675711,-0.15574074,0.2064135,-0.006579006,-0.22100614,-0.19560279,0.014674119,-0.07122136,0.124002025,-0.46736175,0.07041338,-0.10957688,-0.07149187,-0.23294336,-0.36756626,-0.04326656,0.16988707,-0.15994924,-0.41501692,-0.029997073,-0.17618917,-0.50266314,-0.24504526,-0.2509233,-0.13279623,0.07698076,-0.07424302,0.10134944,-0.11736233,-0.30117583,-0.25481758,0.034958787,-0.40982825,0.14461276,-0.4022751,0.28589413,-0.120983675,-0.35333514,0.17443587,0.06679786,-0.23632148,-0.30887285,0.0025668996,0.16544728,-0.15920913,-0.03893054,0.034558345,-0.21048178,0.02526586,-0.37129915,-0.24117212,0.0076912194,-0.54399484,-0.4715855,-0.44837952,-0.34274378,-0.03546523,-0.6723636,-0.2045991,0.20140313,-0.34689522,-0.30092338,-0.10361187,-0.021038458,-0.22706272,-0.48802078,-0.08372293,-0.44676468,-0.45929974,-0.2376571,0.11725734,0.08331535,-0.19905405,-0.5148589,-0.10917666,0.12789609,-0.06550618,-0.29881856,-0.16589318,-0.063759,-0.38384068,-0.5633988,0.12999327,0.10627162,-0.027703658,0.12826549,0.12556463,0.104716524,0.017230852,-0.075980574,0.17913505,0.18971127,0.06590775,-0.12163563,-0.22243905,0.120864116,-0.46006566,-0.61031276,0.26759827,0.13478605,-0.06593859,0.4275193,0.2335189,0.017179184,0.044213396,-0.58225334,0.12244906,0.17746058,0.03456829,-0.0476861,-0.25297114,0.21456914,0.38669854,0.039641846,0.25201225,0.19623417,-0.1848045,0.27893567,-0.2153488,0.044770293,-0.0751286,-0.22064129,-0.055744562,-0.12968153,0.0043515866,0.0032169966,0.035227437,0.004450877,-0.14177908,0.08075782,0.081066,0.0045153876,-0.3689326,-0.24424048,0.29438573,0.020846033,-0.006991033
0.06529301,0.045551952,0.17993876,-0.3757621,-0.033754587,0.08368648,-0.096193455,0.009149651,-0.33402452,0.0055487957,0.029104577,0.13639803,-0.34862235,-0.075737104,-0.19401112,-0.0963546,-0.037730895,0.27037063,-0.27430925,-0.24002026,-0.5383957,0.23919493,0.043813933,0.19051482,0.0898808,-0.28540498,-0.14437574,-0.39236835,-0.37989074,0.008938054,-0.048261505,-0.3166203,-0.05485394,-0.0061197546,0.08756693,-0.39721927,0.040312443,0.26355255,-0.30920702,-0.29600206,-0.3758027,0.121256605,0.084955625,-0.15229113,0.0013139315,-0.7102093,-0.4227345,0.059447624,-0.17203628,-0.025745776,0.1029177,0.059474804,-0.47733116,-0.3844716,-0.3146325,0.5405171,-0.43674424,-0.010343543,0.26620415,-0.073336616,0.09588853,-0.32210955,-0.0072711827,0.123990946,-0.05729962,-0.08779786,0.112763084,-0.13004377,-0.25197896,0.09466027,0.088138856,-0.34970772,-0.09376636,0.027277388,0.11385267,-0.06378375,0.06714435,-0.22215678,0.10589196,0.16587834,-0.20139386,0.21008424,0.17703365,0.3395047,-0.14087668,-0.032856867,0.005267783,0.4402454,-0.16846064,0.30893752,0.20882136,0.03823503,0.02984696,-0.11714914,-0.06924177,-0.025785998,-0.050761126,-0.07115149,0.25119835,0.29992166,-0.18959996,0.16026045,-0.013682737,0.12507537,0.030093718,0.33119714,0.2855652,-0.285273,-0.23707934,-0.62609863,0.23604603,-0.41254357,0.037966512,0.40525985,0.10667842,0.14663059,-0.0147295045,0.08737594,0.2753709,0.16707525,0.06446873,0.24849734,0.06847177,-0.25910386,-0.14874123,0.04154191,0.06466292,0.049099382,0.078033715,-0.026051562,-0.0770982,-0.19712816,-0.12780887,0.13680404,0.11772441,0.11999977,-0.35419455,0.03382022,0.38196298,0.13142224,0.31798303,-0.110973634,0.027983787,-0.14169036,0.3603478,-0.19799365,-0.4613596,-0.06763169,-0.11744871,0.12150967,0.09952472,-0.016541222,-0.32627395,-0.026103029,-0.6613076,-0.2850023,-0.07814054,0.07592098,0.09150471,-0.17244466,-0.36601892,0.0143003175,-0.9835197,0.08696017,-0.06734858,-0.104270644,0.2191208,-0.49544486,-0.36984476,-0.11471633,0.09711423,-0.017461991,-0.32468304,-0.13015567
-0.3375102,-0.10776025,0.019091755,0.08735484,0.43992692,-0.26407132,-0.21156238,-0.082270004,-0.07450098,0.07866343,-0.41996,0.024172092,0.004686748,0.27108547,0.0006890944,-0.087828085,-0.020066075,0.082162306,0.008464085,-0.014757601,0.140779,0.033598837,0.24410409,0.05443092,-0.11380461,0.03233416,0.012259146,0.14756459,-0.17875838,0.10276074,0.39835668,0.03508551,0.12618229,-0.27459323,-0.03658806,0.03451253,0.05095304,-0.017837236,0.0716504,-0.22777957,0.16890271,0.056321334,0.078495696,0.15807939,-0.06649266,0.17386095,0.12738433,0.22966409,-0.0073048184,-0.1096835,0.020020945,0.016998904,0.093328245,0.1357236,0.2976333,0.17726484,0.013867231,-0.028487518,0.12695974,0.013827566,-0.20024851,0.112164974,0.21276084,0.06550201,0.23757496,-0.37092602,-0.13737017,0.08838743,-0.14668578,0.13567893,0.16126159,-0.45411256,0.19546875,0.09518724,-0.14076999,-0.044766262,-0.34886363,-0.004420867,0.20612778,0.24173264,-0.05588995,-0.26747954,-0.000630392,-0.024518907,-0.03276562,-0.081825994,0.17776522,-0.23858424,-0.020726165,0.022825476,0.19041656,-0.10057399,-0.24792197,0.07304401,0.11714634,0.08942611,0.20417514,-0.49144554,-0.12409734,0.1193093,-0.18771511,0.16219026,0.17061284,-0.0074128495,0.04152909,0.03523501,-0.03812991,-0.26334512,-0.23323481,-0.15816566,-0.07362431,0.07991043,-0.050240442,-0.049474444,-0.3321351,-0.046495505,-0.58267766,-0.06258274,0.07778639,-0.5699261,-0.56458664,0.030278051,0.07978914,-0.13290422,0.20304991,-0.39091864,-0.028628187,0.13518795,-0.6080202,0.046271335,-0.2086831,-0.29567072,0.10471769,-0.60712886,-0.09553923,-0.27279142,0.05226294,0.30969575,-0.4620555,0.06882016,-0.26161143,-0.12967917,0.019735562,-0.07326476,0.044150658,0.34736666,0.069225125,0.10085654,-0.24684209,-0.17746261,0.06712219,0.048107967,0.060901463,-0.008843756,-0.16237167,0.08270985,-0.065503426,0.1750037,0.14824906,0.06626129,0.010679937,-0.18698697,-0.39844698,-0.2658766,0.2986358,-0.07646469,0.06077425,-0.033896815,-0.117039226,0.23974708,-0.018203659,-0.106234334,-0.26226562,-0.13850237,-0.009778923,-0.22753875,-0.03203649,0.37280867,0.08863598,0.1010452,-0.01367522,0.07491602,-0.035606112,-0.24280912,-0.055920463,0.028367294,-0.09805595,0.26563054,-0.06804102,0.20807604,0.10227447,0.08338163,0.13372351,0.024537582,-0.28264534,-0.07153495,-0.20154126,0.08151522,0.03356566,-0.033774186,0.07385437,-0.08125691,0.09871039,-0.26625577,-0.12886003,-0.25884372,-0.012963525,0.4044687,-0.07289804,0.24018125,-0.2912961,-0.15646061,-0.12489823,0.049079735,0.129994,-0.3680489,-0.08065729,-0.34945455,0.124875344,0.10418684,0.06436857,-0.027284369,0.3117774,-0.01422554,-0.025003668,0.21363577,-0.09451511,-0.07478016,-0.61460626,-0.0017771444,0.034484338,-0.014869011,0.11077447,-0.12544684,0.15399839,-0.33844402,-0.2444886,-0.28951764,0.027393566,0.02916677,-0.015869362,0.097258985,-0.21002042,0.082088046,-0.041325346,-0.1670395,0.06654101,-0.17992015,0.0954757,-0.48280093,0.006748938,0.1149742,0.26801756,-0.068896875,-0.36894846,-0.130241,-0.5089238,0.18720585,0.041144576,0.08430552,-0.0002032165,-0.26561075,-0.33047116,-0.083083995,-0.7975966,0.42709464,-0.12587447,-0.13381876,0.046368763,-0.015624638,-0.43836525,-0.43906614,-0.011919701,0.21123642,-0.119252115,0.057831526,0.19479588,-0.16178069,-0.47281918,0.22136576,-0.12644231,0.10078095,-0.20736115,0.067639396,0.09223253,-0.043305464,0.009531455,0.1994822,0.014709676,-0.08183163,0.113680094,-0.049834017,-0.17194013,-0.09910574,-0.41922697,-0.04276008,-0.5738479,0.24652696,-0.0033016019,-0.32365596,0.0010350537,0.14409608,-0.10718336,-0.14353856,-0.086001106,0.37543595,0.061675064,-0.088524856,0.06957151,-0.21567538,-0.18978763,-0.026575213,-0.10046915,0.055778205,0.12423562,0.0836366,-0.08417619,-0.39678496,-0.19856021,0.09221763,-0.15434712,0.09749129,0.35888278,-0.22291456,-0.18883984,-0.14386158,-0.23192641,0.09389538,-0.23356542,-0.01596799,0.018484648,-0.41351032,-0.09130845,0.10498309,-0.2506334,0.00040343072,-0.08872127,0.19487572
0.15599857,-0.0815571,0.13841037,0.21263221,-0.20597032,0.1343941,-0.049579613,-0.10501422,-0.036398087,0.002160314,0.0006015,-0.4082713,-0.33425388,-0.0059057637,-0.22116666,0.17045264,0.06869925,-0.090276584,0.26399395,-0.14444914,-0.42480794,0.1084792,-0.14786236,0.12149036,0.047270235,0.3579067,0.12981533,0.18145745,0.033655006,0.09610264,-0.08666238,-0.2460034,0.023419818,0.05476697,0.15752622,0.086435206,-0.19923261,0.054409437,0.10747008,-0.084718324,-0.30856144,0.3324402,0.0013774462,0.17804252,-0.62364346,-0.26874745,-0.10282383,0.15567568,0.08774422,-0.2580019,-0.7474516,-0.027267525,-0.2699343,-0.17175749,-0.024916794,-0.03674249,0.10697682,0.1257353,0.03446054,-0.124807455,0.04177796,-0.14854337,0.07899882,0.12740193,-0.014552757,-0.05382698,0.14704856,-0.23687741,-0.22156994,-0.0032261428,-0.12822317,0.094100975,-0.18633047,-0.5271657,0.14921016,-0.116484664,-0.247882,-0.60164726,-0.077304244,-0.18649943,0.23053744,-0.008203722,-0.24467911,-0.35775977,-0.6164778,0.1644188,-0.19872741,-0.02533789,0.16999601,0.018666074,0.05524425,0.14790854,-0.008367536,0.006211672,0.10126151,0.27090648,0.098038636,-0.0010655586,0.10340161,-0.027700232,0.10652907,-0.038835265,0.014425797,0.12870869,-0.11453528,-0.2966993,-0.14727563,-0.07447855,-0.2835034,-0.27911252,-0.1991957,0.0019348887,0.42051458,-0.07387999,-0.32604572,-0.499413,-0.31871974,0.08266665,-0.26926458,0.001988083,0.07335848,0.22790357,-0.08730067,0.18999979,0.19928567,0.10011351,0.09864723,-0.3854642,0.15867247,-0.02396022,0.06891651,-0.009667884,0.03536362,0.1897984,0.084681615,-0.03425237,0.19478932,0.26828283,-0.442483,-0.101602614,-0.056360003,-0.19470218,-0.11921549,0.03092199,0.38389716,0.05092724,0.062433373,-0.28759453,-0.41679323,0.4407059,0.012334156,0.18754448,-0.08238437,0.16729169,-0.074235916,0.08849462,0.25990474,-0.15760337,-0.04540129,-0.22722162,0.3467954,0.029285947,-0.22452712,0.08893115,0.05084201,0.35460466,0.20709063,0.057753935,-0.23858346,0.4222147,-0.489147,0.57288206,0.100195855,-0.39822075
-0.47007355,-0.15337816,0.058650278,0.3426587,-0.122920305,-0.24279943,-0.04891846,-0.20158571,0.020732563,0.20543991,-0.31283695,0.05249713,-0.28583148,0.052974746,0.12819734,-0.13625671,-0.029259957,-0.2204787,-0.35126585,-0.028102675,-0.28349316,0.27712104,0.3264765,0.12197992,0.073525205,0.05579225,0.39162657,-0.04716588,-0.3271068,0.20075902,0.09247487,0.0783294,-0.15283655,-0.13777061,0.036751058,0.17430767,0.15194649,0.01164945,0.036202587,-0.17414495,-0.17873758,0.16158405,-0.25461775,-0.006138511,-0.24426217,0.13244794,0.117213,-0.5720876,-0.0028477777,0.08275504,-0.17637433,-0.040866055,-0.039904345,0.1358862,0.038373247,0.1121134,-0.299365,-0.17718305,0.43364716,0.1204769,-0.48455518,0.12310517,-0.05503878,0.13302687,0.017196596,-0.42436674,-0.0667511,-0.30550662,-0.29278243,0.13660012,0.20038736,0.15436335,-0.27504888,-0.074962884,0.07606303,-0.22153713,-0.08952172,-0.09216863,-0.23328117,0.16067563,0.07310322,-0.018328192,-0.019757662,0.055616155,-0.15763032,0.11578201,0.17638668,0.07805768,-0.041486397,-0.28730524,0.20101033,0.07490858,-0.022723239,0.14583185,-0.33584937,0.21942024,0.11509099,-0.75013775,-0.21791993,-0.2925923,-0.21910317,0.17641851,0.05659812,0.36154264,-0.011707504,-0.17402764,0.048233837,-0.3582925,-0.12135686,-0.11925476,-0.10355456,0.07607617,-0.028439568,0.07322577,0.12373576,0.005674935,0.06813998,-0.11261526,-0.10022946,-0.49206904,-0.18922623,-0.3108334,0.23498248,-0.19273192,0.13654827,-0.18114817,-0.5082379,0.19076507,-0.42161587,-0.29081485,-0.07952567,0.3641395,0.0021686933,-0.10129302,-0.05213668,-0.28095567,0.0749956,-0.29157177,-0.2625785,0.02427893,-0.2895014,0.2768343,0.09438314,-0.47076592,0.088752195,-0.53890055,-0.15473175,-0.09708929,0.040670846,0.41634148,0.054637566,0.08998562,-0.25527075,-0.047468644,0.29990965,0.11198575,-0.25259408,0.14762467,0.09491195,-0.03096067,-0.4747743,-0.04522929,0.035111424,0.36606854,-0.02390687,-0.61639225,0.16559227,0.024136202,-0.47362348,-0.08218482,0.109932125,0.08842253,-0.12465436,-0.062263425,0.105859086,-0.1072037,-0.013297829,-0.51740557,-0.07483789,-0.0549016,-0.13188007,-0.05570085,-0.016969483,0.19078818,0.009265589,-0.054352973,0.053162586,0.22011974,-0.0027195544,0.21657473,-0.12685347,0.07941718,0.08654208,-0.37471464,0.18236427,-0.29497164,0.11815455,0.055969916,0.05831,0.052264545,-0.5642217,-0.063296646,-0.14899912,-0.15377082,-0.07519622,-0.050777897,-0.055521414,0.13953514,0.03202109,-0.22393377,0.08449715,0.04251428,0.045928355,-0.061007913,-0.022703866,0.43936744,0.07130276,-0.10216754,0.10429984,-0.007774098,-0.2628018,0.066869035,-0.33434126,0.087683305,0.044338662,-0.62839466,-0.14460862,-0.4269781,0.2110293,-0.09708633,-0.050796457,0.251245,-0.012792958,-0.4207627,0.08476208,-0.054535404,0.10603848,-0.17382656,-0.24853526,0.06091923,-0.015154501,0.060896236,0.26000026,-0.012150992,0.06710771,-0.054920074,-0.14036828,-0.11061785,0.13338579,0.3533929,-0.07435184,-0.111106165,-0.07562304,-0.13433181,-0.37289485,-0.07498367,0.00048554572,-0.30096644,-0.11187597,0.09148638,-0.108490296,-0.13600373,0.2131093,-0.2923254,0.28108668,-0.1793498,-0.018367466,0.109676436,-0.065813035,-0.49804622,0.3330814,-0.39180982,0.07312239,-0.1751897,-0.21776824,0.08415171,-0.44245648,-0.5456211,0.24242978,0.1267894,-0.2715251,-0.34395042,-0.09308691,0.105741374,-0.21674319,0.07483291,0.05117558,0.09026043,-0.093384415,0.0979091,-0.033568393,-0.15231012,0.010513416,-0.50613564,0.13971442,-0.23382318,0.008440205,-0.05350352,-0.06261191,0.15729791,-0.17151342,-0.15612727,-0.053844746,0.16536164,0.038888283,-0.15791221,0.07178714,-0.03707201,-0.32933885,-0.13826503,0.03434969,0.3188326,-0.061601594,-0.40949148,-0.2163538,0.0874855,-0.14848883,0.22270343,-0.05419275,0.04485838,0.05673363,-0.44811326,-6.200222e-06,-0.070234336,0.24277788,-0.08053153,0.15995723,-0.02375382,-0.031272866,-0.24074823,-0.31350157,-0.0327407,0.01830106,0.046152547,0.122891106,-0.14728844,0.058950532,0.0401079
0.21904312,0.085942015,0.006045584,0.08486271,-0.0067465897,-0.12777928,0.07529068,0.07921714,0.052445203,-0.12103818,-0.51011986,0.21494077,0.10527991,0.02662131,0.10940272,-0.26470748,-0.0346733,-0.33467308,0.24532244,0.05005844,0.061204698,-0.22742729,0.050362468,-0.47162157,-0.14927214,-0.19130528,-0.11584133,0.026985493,0.122576945,-0.031111993,-0.0050734943,0.30730703,0.07541122,-0.10844626,-0.2636946,-0.16945933,0.080757745,-0.69413465,-0.17161553,0.113434836,0.16159257,0.13801835,-0.05087895,-0.08627188,-0.36729264,0.08124861,0.0704205,-0.021949366,-0.018337566,-0.059141945,0.38016066,-0.08060995,0.016672848,0.16538478,0.34379986,-0.115697205,0.20561339,-0.082785636,-0.18880448,-0.056739572,0.040684585,0.012693658,-0.0022108657,0.23642336,-0.16494364,-0.060870536,-0.31940395,0.006965212,-0.14558549,-0.0223522,-0.074996784,-0.2993769,-0.27836502,0.22027764,0.012349865,0.13797532,0.020667275,0.17820325,-0.17756553,-0.056508254,0.0048036124,-0.20628266,0.18715617,-0.2325701,0.34297857,0.06937905,-0.042855993,-0.06273889,-0.062301967,-0.19290419,-0.6172527,-0.22818409,-0.0022581585,0.08191449,-0.018573653,-0.012514244,-0.11530784,-0.05533527,-0.23445103,-0.30255744,-0.1406656,-0.11602137,0.115649864,-0.22114216,-0.037534658,-0.0261607,-0.15474771,0.25868365,-0.017033825,0.29102942,0.05004253,-0.011951427,-0.34364495,-0.08740981,0.24208058,0.038438853,0.09310482,-0.1866241,-0.22305165,-0.07077381,-0.4307377,-0.4782058,-0.13764267,0.01864545,-0.08833652,-0.20798011,-0.048066758,0.23416264,-0.1747271,-0.056596093,-0.011282545,-0.037981175,0.21261245,-0.10525016,-0.016395433,-0.15663603,-0.03412084,-0.049242996,-0.41831118,0.18844327,-0.11326298,0.19546688,0.038809285,0.1261588,-0.60836804,-0.12753823,-0.048255637,0.17431724,0.14703885,-0.5225774,0.02876291,-0.37390476,0.118556455,-0.53003705,-0.06584546,0.16032328,-0.25771138,0.06759175,0.0054611126,0.23191053,0.06852579,-0.060622983,0.18208961,-0.25213906,0.16881892,-0.31708857,-0.21636939,-0.009406757,0.08803369,-0.34139407,0.047329206,-0.22035809,-0.5389102,0.32398114
0.58793366,0.016172854,-0.19333737,0.1327007,-0.026473496,0.26525384,-0.03873444,0.22544022,0.11956865,-0.5115434,0.12569621,0.213017,0.015065053,0.18340638,-0.01342741,-0.77040964,-0.06505671,-0.053294398,0.029200692,0.053465873,0.20209895,-0.2876786,-0.051528167,-0.12932993,-0.14375654,-0.0012605953,-0.045615863,0.19155842,0.21877287,-0.056187432,0.16336569,0.10142093,-0.08323412,0.2396305,-0.55728346,-0.33547124,-0.24135405,0.18068962,-0.089236274,0.17375389,0.16894168,-0.41498777,0.27673185,-0.21009046,-0.11519312,-0.2013132,-0.019073749,0.13281906,-0.042788625,0.047401223,0.1024003,-0.09297545,-0.019684765,-0.6474189,-0.16470076,-0.52540123,-0.11176825,-0.54082257,-0.23687991,-0.08358202,-0.045302026,-0.10159981,-0.6937068,-0.1637244,-0.084859215,0.33151576,-0.18060917,0.15977532,-0.116897345,-0.057916332,-0.08147869,0.0751099,0.068863094,-0.12020632,0.38404423,0.028845845,-0.04091214,-0.23174556,-0.08083732,-0.3287404,-0.060616374,-0.06573931,-0.06802412,-0.0031217574,0.14187977,-0.30129826,-0.4633902,-0.19004884,-0.3341095,-0.11603797,-0.49611694,0.018908184,0.35575065,-0.81483275,-0.29650426,-0.24569947,-0.03963127,0.32976517,-0.019418407,-0.07081704,-0.15100275,-0.093872935,-0.4432414,-0.13705873,0.04187271,-0.19577871,0.08605686,0.05156405,0.11542565,0.0017674997,-0.1565816,-0.05370898,-0.08785686,0.004138747,-0.27758345,-0.0039954497,0.08452194,-0.34669808,-0.1329247,-0.15768744,-0.027182342,0.020126823,-0.30293387,0.02536794,0.16507702,-0.06323796,-0.46158913,-0.5451214,0.34498352,0.010347921,0.3176246,-0.2582333,-0.38168508,0.17208084,0.0840839,0.113142975,-0.3200963,-0.1649617,0.011188948,0.014926912,0.17355148,-0.010287752,-0.10070624,0.23422146,-0.0040892647,-0.209633,0.20041524,0.060691725,-0.14715685,-0.05302574,-0.1222063,-0.112566106,0.17925893,-0.15842186,-0.020892402,-0.2577975,-0.0153401,-0.05183265,-0.3035834,-0.27971953,-0.13031098,-0.05055944,0.109158725,-0.19266303,-0.10013628,-0.15426335,-0.3262636,0.17243396,0.28426558,-0.13282573,0.41306755,-0.18036593,0.13402402,0.049245138,-0.31391445,0.13548037,0.06390212,0.004690367,0.26595357,-0.030801043,0.17088458,-0.070694976,0.08684358,0.008489606,0.051082365,-0.31408134,-0.29536974,-0.17243855,-0.29067218,-0.33816606,-0.12798652,-0.04449305,0.008042457,0.23855066,-0.22401373,0.3631802,-0.39266008,-0.07913082,0.065278254,0.0058916784,-0.109840244,0.005584104,0.10706447,-0.107099935,-0.10192301,-0.341447,0.020276831,-0.5500437,0.06558488,-0.23554309,-0.25904572,-0.052811407,-0.22739868,0.03993437,-0.36209464,-0.10270504,-0.39139932,0.059353232,-0.03020289,0.016395839,0.27554777,-0.30202928,-0.066562206,-0.018716572,0.13741992,0.02701745,-0.2985427,-0.34867105,0.014916102,0.046890743,-0.08237658,0.18839051,0.037127074,-0.12066184,0.049524903,-0.36538008,0.22170056,0.014188546,-0.28475153,-0.039977316,-0.030820489,0.03329602,-0.1458638,-0.12569055,0.044327218,-0.23174502,-0.17700846,-0.11596213,0.15032835,-0.15533172,-0.21467628,-0.2681126,-0.17898335,-0.24643499,-0.7452728,-0.39293608,0.28221112,0.07295524,0.091318704,-0.20393072,-0.067207366,0.17244366,0.12962955,0.10215685,-0.11318883,-0.22977638,-0.15059654,-0.15105233,-0.029602258,0.3127384,-0.052850604,0.2576588,-0.07432478,-0.19437352,0.21720995,0.09978844,-0.018901095,0.26650637,0.3808709,-0.26615465,0.25690764,-0.0035090214,0.045542035,-0.47747874,-0.104325905,0.064291544,0.08214543,0.23632647,-0.42973894,-0.30209064,-0.1685263,0.14843243,-0.3711815,0.060985554,0.2573626,0.25630268,0.11213143,0.11287352,0.4939669,0.13062298,0.032522548,-0.03910766,-0.10595199,-0.16051377,0.053027824,-0.3239033,0.27992794,0.057440337,-0.29184112,0.37079906,0.16474305,-0.20551722,0.033942103,-0.26717937,0.098515965,-0.39003333,-0.1450012,0.28951755,0.20035242,0.17506732,-0.1095503,0.11824512,-0.04308648,0.35001087,-0.100887924,0.03866388,-0.21247607,-0.12498079,-0.056140516,0.2173787,0.13871275,-0.14742762,0.17701757,0.08259744,-0.03911138,-0.12737322,0.07398753,-0.34471422
-0.096682854,0.0040114447,-0.03292195,0.45469248,-0.28871763,-0.08191756,0.033052765,-0.01468257,-0.0074695526,0.15272242,-0.2540781,-0.13636579,-0.14186217,-0.043148194,-0.07207146,0.19972841,0.1417688,0.10812838,-0.124173075,0.029995803,0.009469179,0.2848495,-0.08898437,0.18433563,0.13209294,0.08546022,0.23772879,0.20795467,0.04995903,0.0059657376,0.09199378,-0.054780398,0.07899578,0.022042677,0.059000067,0.048427947,-0.38497669,-0.2659601,0.30795616,0.014235267,0.050978683,-0.2624839,0.032223977,-0.4357404,-0.28672433,-0.46085212,-0.47096178,-0.26161492,-0.008584646,0.05528817,-0.04506206,-0.545883,0.033499684,-0.5714848,-0.13667965,-0.4517774,-0.6315999,-0.072524816,-0.3880532,-0.08678165,-0.27917328,0.029105438,-0.07002007,-0.4146456,0.018315278,0.1852968,0.19042322,0.029772125,0.22619036,-0.31763816,-0.10854397,0.089183025,0.35861582,-0.37831697,-0.09038084,-0.057127297,0.08275567,0.39350396,-0.21318473,0.05585797,-0.004576501,0.17985298,-0.18447366,0.17305489,0.13627835,-0.66196734,-0.23806955,-0.115033485,-0.4969037,0.103897996,0.10637136,0.10284611,0.07285255,0.06266903,-0.08016786,-0.5650216,-0.19591862,0.051980373,0.06561891,0.3654013,0.07550509,-0.12564178,-0.1391166,-0.09411114,0.027373528,-0.43226665,0.108940706,-0.08581866,0.31302664,0.3540656,0.058335092,-0.6631976,-0.045173462,0.32634234,0.41735378,0.16745,-0.14964414,-0.086540736,0.3623762,0.0762667,-0.041770503,0.28898644,0.29161236,0.10021294,0.1727117,-0.1899961,-0.08628817,-0.04809767,-0.19884932,-0.102072746,-0.055150833,0.46861172,-0.24085468,-0.20319007,-0.26842058,0.33218718,0.17448683,-0.48673618,0.10284721,-0.105909966,0.11695943,0.008673117,-0.0054233302,-0.3035333,0.15246077,-0.024929293,0.26697922,0.18302722,-0.32329237,0.5389928,0.29390246,0.27237725,-0.16723286,0.17213441,0.6127819,0.4770922,0.27199867,0.0032820017,0.0031319486,-0.3797691,-0.0067756814,-0.085094504,-0.14876983,0.12812,-0.36911502,-0.3659581,0.1430792,0.50009114,0.37333727,-0.035726044,-0.13364436,-0.1930925,-0.17627524,-0.4158815
0.00034473406,0.00737462,0.13244867,-0.19580598,-0.2598346,0.02512654,-0.030973084,0.15094297,-0.04670807,-0.047997445,0.27391136,0.01990622,0.31562448,-0.3611457,-0.03101997,0.1989053,-0.053932168,0.10006357,0.4516828,-0.08101884,0.12372505,-0.24214317,-0.40755415,-0.0715564,-0.40518212,-0.16778313,-0.47566748,-0.034828775,0.012069835,-0.26326954,-0.20893757,-0.15579525,-0.22432047,0.14313143,0.024911933,-0.14529547,0.064573936,-0.2329778,-0.27914977,-0.048861668,-0.37084934,0.039138764,0.18064518,0.040109843,0.17339504,0.029884461,-0.50129193,0.2122902,0.07198958,0.035384573,0.31130043,0.009263876,-0.013251494,-0.23544946,-0.45941266,-0.12166902,0.2742461,0.26077703,-0.26259473,-0.004580505,0.11950334,-0.058004647,-0.55095536,-0.22009976,-0.4151155,-0.035176136,0.12703241,-0.5235848,0.15228096,-0.53609455,-0.7029007,-0.20325851,-0.027754186,0.038180623,-0.08714939,0.23895787,0.22374025,0.12668024,0.09233625,-0.36971903,0.0840247,-0.082277104,0.2763554,-0.0474163,0.043548383,0.17051868,-0.18930781,0.105749056,0.27689096,0.02489876,-0.8232477,0.09788615,-0.054512434,0.065042235,-0.08908591,-0.39178944,-0.52149,0.14292917,-0.23281795,-0.3180759,0.27029797,-0.3917572,-0.82797503,-0.18843058,-0.0057339016,0.15651885,-0.24380246,0.39735627,-0.31120247,0.09236586,0.09738518,-0.36542508,-0.007249643,-0.22726636,0.35875165,0.09598256,0.18328518,0.28464204,-0.09996136,0.6858649,0.41135567,0.10233067,-0.6423421,0.11138286,-0.25489095,0.24065088,0.44370916,-0.6612784,0.20668904,-0.048072476,-0.03351342,-0.02083274,-0.16062404,-0.025209125,0.11392066,0.079965524,0.29686946,-0.26098695,0.24551514,0.23516643,-0.0646548,-0.29865816,0.38792485,0.27295062,-0.051692326,0.009946094,-0.04170683,-0.11175331,-0.29368144,-0.48421147,0.17085022,0.1353491,-0.063362084,0.08503596,-0.38428998,-0.013643228,0.019674327,-0.0458802,-0.53056115,-0.04108205,0.11529873,0.08400116,-0.030781265,-0.3405143,-0.11568233,0.27652052,-0.14625014,0.13192594,0.26493752,0.007479682,0.17096071,-0.14639728,0.15254545,-0.24553037,-0.19121327,-0.06993045,0.034025963,-0.15685935,0.10181037,-0.04225084,-0.12108656,-0.1246168,-0.032482293,0.0038598876,0.20247436,0.13246796,-0.1358357,-0.03074427,-0.08402376,-0.029153915,-0.41092747,-0.3082015,-0.05776063,-0.23658822,0.08298454,0.13583282,0.17406297,-0.10031599,0.02152631,0.12169488,-0.062079377,0.16447704,-0.05464858,0.13475928,0.06610446,0.14282167,0.007134149,-0.27323455,0.0051967436,-0.0690653,0.1362212,-0.18013568,-0.021868378,0.07526019,0.1119593,0.030736383,0.061230186,-0.0022230225,-0.17315881,0.07663803,-0.58767056,0.07280744,-0.16881952,0.027763337,-0.0069889496,-0.4631994,0.102260076,0.011248106,0.28371748,0.036188874,-0.030418668,-0.29564795,0.06578158,0.42268896,-0.27984524,0.4355822,-0.29620957,0.29433066,-0.02265273,-0.21182826,-0.0049849194,-0.06479639,0.39847708,0.097243845,-0.027112711,0.14494199,-0.012059259,0.27475247,0.0006544753,0.07288544,-0.25541955,0.1332494,-0.40950993,0.13510823,0.15403019,-0.032123286,0.21003558,-0.11328484,-0.19507116,0.0011230179,0.007823716,-0.009737779,0.13961275,-0.08420259,0.13671993,-0.15093382,-0.07203866,-0.06986626,-0.2680783,-0.13216858,0.18342802,0.061350353,0.0998014,0.16007869,0.003396245,-0.02002543,-0.18261823,0.16043133,0.2811432,0.026324756,0.043926314,-0.0004770534,0.17057696,0.12090556,-0.118588604,0.22452459,-0.6032555,0.09352419,0.055819243,-0.016127413,-0.19926296,-0.011109003,0.06141864,0.03859148,0.19115263,0.06031717,0.013178735,0.023824189,-0.093235776,0.06680891,-0.24764924,0.20962532,0.0017489482,-0.17775473,-0.05082506,-0.29425672,-0.073501006,-0.10712235,-0.18236446,0.03651565,0.20386362,-0.14511915,0.17954406,0.040396087,-0.23188399,-0.0006727296,-0.1910767,0.16365361,0.04818713,0.07387255,0.21995495,-0.19140412,0.012325445,0.11989728,-0.02551642,0.13356642,0.103937216,-0.1278059,0.1663111,0.17654468,-0.11448908,0.042678423,-0.03239119,-0.110720485,0.037679657,0.041126948,0.03924481,0.071870014
-0.093467526,0.027503608,-0.07617969,-0.14662772,0.09712548,-0.072991885,-0.25725478,0.024430422,0.086841725,0.095911205,0.19832256,0.09993058,0.030689457,0.17454754,0.09880064,-0.33310607,0.09332961,0.0033650727,-0.08771707,0.10123702,0.07940629,-0.7061068,0.11028369,-0.27355656,-0.09462754,0.1519284,-0.4407403,-0.2861597,0.020544244,0.16360433,0.029761326,0.13420717,-0.16069432,0.07380806,-0.26827434,0.11532536,0.19511595,-0.24930921,-0.31849343,-0.2245592,0.0293429,-0.0713186,-0.05353723,0.06374787,0.26931602,0.2053393,0.044433255,-0.11707509,0.029719433,0.20518772,0.15369028,0.041933708,0.16255024,0.053546544,-0.09315198,-0.06417001,-0.15874828,-0.045925282,-0.2865373,-0.26768923,-0.046501227,-0.04974587,-0.011431717,-0.15848942,-0.16982989,-0.019647244,-0.16015865,0.06348413,0.016925862,0.036575235,-0.07445172,0.21491934,-0.18898638,0.21747488,-0.53472877,0.14952767,0.16446562,0.30444747,0.204497,-0.24011165,0.026752481,-0.092016205,0.09249766,-0.056694217,0.20784011,-0.07955815,-0.07225152,-0.12736045,0.009434586,-0.2406366,-0.50441647,-0.1355015,-0.0016188618,-0.09518758,-0.11397332,0.2209049,-0.12104854,0.05321446,-0.25830486,-0.07139645,0.08400914,0.0062340205,0.052523285,-0.22783591,0.03133145,0.03229284,-0.45241067,0.2178772,0.092630334,0.20243225,0.095474385,0.067865245,-0.5379657,-0.047239903,-0.36758298,0.22117719,0.145137,-0.38238704,0.008994439,-0.32918692,-0.09865729,-0.2924785,-0.15868552,-0.113109976,-0.0262422,0.07685441,-0.05830423,0.117650405,-0.10310671,0.072973676,-0.18992612,-0.07379104,0.27418974,-0.08086797,-0.24918935,-0.7166094,-0.10151514,-0.055914294,-0.0002789741,-0.14084749,-0.05784047,0.29396972,0.08973698,-0.18867978,-0.2844153,0.17144606,-0.45461366,0.24844535,0.08836376,-0.4751493,-0.070915386,-0.14622766,0.10627832,-0.2771065,-0.016759476,-0.26559114,-0.06348539,0.1305137,0.05581934,0.04102688,-0.54954433,-0.07113014,0.047082935,-0.16680564,-0.0264536,-0.26869,-0.3594239,-0.28375435,-0.04504887,-0.34871253,0.1708776,-0.19436783,-0.08559125,0.25954726
