0.012433786,-0.11818913,-0.18689293,0.026114268,-0.24102718,0.07057649,-0.17955662,-0.16430469,-0.012572434,-0.14342007,-0.11263174,0.040122952,-0.21586795,-0.113805324,0.00021241758,-0.25657824,-0.07921688,0.038497794,-0.19009808,0.10470159,0.0542868,0.060499053,0.03905453,-0.18435605,-0.21931443,-0.1348247,0.092631035,-0.099321485,-0.14998537,0.09336804,0.049273092,-0.14581762,-0.19960293,0.020634705,-0.19888072,0.016452488,-0.08528473,-0.024822032,-0.0059579676,-0.06088819,-0.06712752,-0.0805642,0.110910416,-0.015809288,-0.027082542,0.003768378,-0.14613542,-0.14190097,-0.008436558,-0.07154967,0.1065148,0.044241868,0.04469745,-0.11794844,-0.0076329145,-0.20157902,-0.15309256,-0.03702222,0.08444337,0.14439473,0.035721846,-0.022726668,0.027425697,-0.15871987,-0.22121726,-0.054203387,0.1975557,-0.12460567,-0.21581647,-0.11520329,-0.13301748,0.034476794,0.025246184,-0.10314875,-0.04911396,-0.044393625,0.19634347,0.03154125,-0.07803663,0.028182765,0.053234003,-0.13290992,0.077046335,0.10751273,0.068993635,-0.26052254,0.026965473,-0.0439664,-0.14954774,-0.008913513,0.107822604,0.11718348,0.018344935,-0.020660684,0.013500884,0.09931664,-0.03951153,0.026090395,-0.012603666,-0.003643882,0.09965424,-0.2725889,-0.2989859,0.14583291,-0.12559146,-0.19705907,0.020740572,-0.16607651,0.19221275,-0.034211315,0.058530405,0.2980406,-0.06957254,-0.20109184,-0.015813142,-0.0014578928,-0.0043744356,-0.21239832,0.009380175,0.18483067,-0.029962357,-0.11245387,-0.09967253,0.103450075,-0.14237262,-0.028162519,-0.100983776,0.03368988,-0.012905933,-0.044282682,-0.4464598,-0.32986864,-0.20285615,0.2565851,0.05683213,-0.08098787,0.15365458,-0.24226561,0.028437356,-0.019598134,-0.21958105,-0.09126328,0.069388434,-0.3607203,-0.188165,0.23937045,-0.17281723,0.058207992,0.1242551,-0.3153683,-0.048653204,0.11758515,-0.054269906,-0.28429556,0.021717008,-0.14402498,0.14625387,0.082855485,0.07663757,0.02822359,0.010694344,-0.17568904,0.14338775,-0.0865491,-0.001961133,0.052729443,0.07973278,-0.051510435,0.022371793,-0.16171777,0.002397174,-0.26326254,-0.0044607944,0.04698356,-0.3022315,0.03316814,-0.043460928,-0.057295438,-0.1262461,-0.0068730065,0.0527873,-0.008239584,-0.031248497,-0.20130105,-0.16135806,-0.05297605,-0.015281204,0.057758145,0.0021026877,0.05676844,0.12118742,-0.100019135,-0.24645564,0.04135467,-0.1268354,0.0127436165,-0.03104552,-0.17965381,-0.24046436,-0.030352978,-0.22761153,-0.048867144,-0.26140624,-0.041258384,0.059603076,0.0071037295,0.0103514455,0.20270143,0.08257058,-0.08754072,0.06773483,0.100273445,-0.07562716,-0.17595518,-0.051740598,-0.023827381,0.05254283,-0.010488719,-0.010776463,0.010863191,-0.057304133,-0.0072271433,-0.161453,-0.17560194,-0.050123878,-0.041088812,-0.15069626,-0.063419126,0.21156238,-0.0023352616,-0.12828024,0.26046854,-0.029492462,-0.18593186,0.025276026,0.0468284,0.22015594,-0.012425008,-0.14829598,0.16684602,-0.0827286,0.04172292,-0.15865134,-0.0025603175,0.020127967,-0.20146139,-0.091095224,0.14716661,-0.06227954,0.0693239,0.031368636,-0.016669093,-0.1686965,0.047978196,0.079513215,0.34092283,-0.02322132,-0.061533377,0.1091856,-0.27612907,-0.3052204,0.25549436,0.21586654,-0.26146987,0.034572486,-0.11899852,0.09470308,-0.43185204,-0.17050803,-0.057777334,0.146251,0.09141912,-0.20944859,0.23242116,0.04784698,-0.008587465,0.1312257,-0.079115875,0.11109556,0.07705276,0.01996989,-0.01403484,-0.17367636,-0.24777484,-0.011471573,0.11794289,0.07588787,-0.13889228,-0.11368671,-0.10472179,0.14946449,-0.09437084,-0.042108096,-0.025337577,0.13211264,-0.20355026,-0.0010986946,-0.13009204,0.15283404,-0.112988956,-0.24399136,0.061672017,-0.12235217,-0.17427766,-0.0022752066,0.054530147,0.020922894,-0.048639737,-0.09408432,0.1001101,0.021971604,0.1693771,0.15471146,-0.093735665,-0.11214935,0.038943738,-0.103765465,0.039726622,-0.116998196,-0.09796276,-0.15556237,0.051435348,0.1196459,0.07884237,0.07841757,0.041224916,-0.2033733,-0.06697417,0.10595913,0.15369982,-0.25480092,0.030520188,-0.18021217,-0.0015886048,0.036474075,-0.0587277,-0.12645361,-0.0021734925
-0.12062537,-0.2133852,0.08973526,-0.1848203,0.1377072,0.01670668,0.26637995,-0.13682002,-0.10676662,-0.14772898,-0.25926778,-0.04218666,0.14231269,-0.12054943,0.16402946,0.18280783,-0.07709809,0.1308019,0.12030025,0.15283747,0.025230505,0.16113137,0.18411319,0.119239,0.11286199,-0.04107933,0.049567316,0.08508849,-0.33691758,-0.018383766,-0.15493089,0.08038048,-0.20387101,-0.2450136,0.054842822,0.01249521,-0.21360391,0.044866227,0.13619149,0.06037101,0.09001289,-0.09321863,-0.03204863,0.07703992,0.1268359,-0.07757832,0.09829935,-0.08017122,0.019121362,-0.10566293,0.014699204,-0.15994784,0.18404597,-0.02233502,0.17978296,-0.0020576953,0.07684307,-0.20875284,0.037257005,0.09969295,0.20452178,0.06021848,-0.10254715,0.18463857,0.083656214,0.07225151,0.011164164,-0.284926,0.09211171,0.10483653,0.20862168,-0.21343786,-0.36628705,-0.2627208,-0.026132938,0.045221996,0.01215904,-0.14370894,-0.24167304,0.14207168,-0.031849835,-0.029821664,-0.03590114,-0.08149148,0.0567683,-0.2501423,0.07924853,0.05474262,0.12192221,-0.06544363,-0.015299608,0.068877555,0.07340525,-0.028663142,-0.026418084,-0.22722939,0.05316167,0.020756911,0.16982171,-0.011625111,0.123734415,0.06921788,0.16906624,-0.03701713,-0.20439194,0.18327384,0.059540395,0.17173539,0.03594943,-0.17380708,-0.07622977,0.07438308,0.092210345,0.17463407,-0.07731408,-0.0015377492,0.012635934,-0.3216822,-0.01932505,0.14387347,-0.042873293,-0.017385378,-0.12477146,0.11153697,-0.0742511,-0.293704,0.08863781,0.023453545,-0.13550837,-0.04103568,0.11350115,0.09094421,0.018627996,-0.35157344,-0.04133516,-0.0105298525,-0.0720881,0.050466314,-0.0015170566,-0.14159222,0.22873256,-0.13293962,0.15542284,0.09326215,0.008321183,-0.07406322,0.1448592,0.1298887,0.067208245,-0.09553328,0.069351405,0.2138859,-0.099199444,0.09283054,-0.10252994,0.035158034,-0.16967285,-0.1890072,0.11679911,-0.03202561,-0.17769083,-0.30688095,0.13421494,0.07974827,-0.2663527,-0.38671896,-0.017080093,0.099903725,-0.020395808,-0.3309019,-0.011838029,-0.11213768,0.12110671,-0.12181178
-0.014326956,0.083889134,0.12647936,0.08262513,0.030916153,0.006043972,-0.034002982,-0.11000349,-0.07539908,-0.093743615,-0.1375093,-0.051787194,-0.017620197,-0.10946703,0.14771047,0.023739986,0.07084346,-0.17901963,0.016570482,0.07986209,-0.21404305,0.14140277,0.05309751,0.044955537,0.16859217,-0.14567606,-0.13814116,0.044647653,-0.09225993,0.12959132,-0.12621108,-0.022396043,-0.053259682,0.17081445,0.2135525,-0.022820732,-0.09877466,0.2925275,-0.07443822,0.0027813963,0.14465669,0.32610223,-0.028877737,-0.12465242,-0.17503154,-0.032938804,0.24322224,0.106127195,0.07832711,0.03748019,0.053821214,-0.15063109,-0.005638684,0.056926172,0.18538345,-0.008711983,0.004494978,0.028712543,0.08269725,-0.029854154,0.049691465,0.14587325,0.008489286,-0.0814664,0.07377353,-0.051657435,0.073916815,-0.15984021,-0.045585625,0.15690954,0.20467307,-0.18157804,0.114665836,0.31027886,0.03518534,0.042152554,-0.14981678,-0.0074060597,0.04536255,-0.023681466,-0.17021273,0.11939213,-0.02857727,-0.13261083,0.076873936,0.10884317,-0.1305598,-0.0860284,0.11967906,0.006529938,0.23126139,-0.037664693,-0.05905683,0.08227857,0.051874984,-0.02375451,0.10874872,0.0547109,0.043528933,-0.24670617,-0.12467513,0.030239832,0.15305321,-0.35255173,-0.10860453,-0.12572032,-0.09757424,-0.05411968,-0.28978437,-0.09720963,0.038050167,-0.15386117,-0.10621362,0.14402048,-0.108549386,0.05697125,0.13469663,0.1663242,0.03354171,-0.18783374,0.09328757,-0.19111069,-0.0021610542,-0.09170306,-0.04389225,0.08299532,0.2594293,-0.20291641,0.06434928,0.02856973,-0.039400794,-0.107559994,0.030608447,0.006111505,0.029724801,0.031511866,-0.07235336,0.021916715,-0.21580312,0.022146039,0.019157728,-0.08702063,0.020591537,-0.012375897,0.07260872,-0.12315119,0.026413858,-0.11654074,-0.095983855,-0.16899413,-0.015969232,-0.16741468,-0.029023943,0.022410514,-0.09831481,-0.44834566,0.019245664,-0.18076232,-0.073410176,-0.011653901,-0.09281162,0.14763798,-0.083144635,-0.12240257,-0.05714635,0.046402283,-0.15173641,-0.02256361,0.039625548,-0.083446704,-0.20830834,0.09185564,0.18527088,-0.10137963,-0.101995684,-0.013053801,-0.04903029,-0.04338484,-0.24605344,-0.08131435,0.061621606,-0.21229938,-0.16340122,0.13183717,-0.016271336,-0.013652689,0.050073188,-0.21543217,-0.2927269,0.04681617,0.05747176,0.0557109,0.0088388,-0.104706414,0.03404197,-0.38167578,-0.06762247,0.0774359,0.019963928,-0.23033188,-0.06345767,-0.032409005,0.13463831,0.0065873563,-0.20690918,-0.044096712,-0.16911043,0.10194135,-0.14450747,-0.0038644255,-0.059642445,-0.26825017,0.18275632,-0.04127253,-0.19984718,-0.031306762,0.059166774,-0.09221069,0.11278525,0.13123307,-0.19530366,0.00599723,0.096385494,-0.08526777,-0.101572946,-0.13840754,0.06419441,-0.03180239,0.02372246,-0.12963796,-0.048077717,-0.021166634,-0.06297227,-0.13717017,0.021679852,-0.0273344,-0.32469726,0.01718197,-0.2434091,-0.07515187,-0.14502285,-0.078118674,-0.1616765,-0.06209499,-0.025154097,0.09277641,-0.32383314,0.05355,-0.0010311439,0.015725968,-0.10250877,-0.20061693,-0.17505112,-0.08164455,0.07639004,-0.04385614,-0.2252616,-0.029392572,-0.051292893,0.1804457,0.048958793,-0.26056996,-0.17585437,0.16255681,-0.025634049,0.03895061,-0.18492912,0.008175043,-0.17925383,-0.09437582,0.011459421,0.033248063,0.20337932,-0.11933579,0.00053899013,-0.078594424,0.044883844,0.3440221,-0.25411204,-0.23471624,-0.002156545,0.19360813,-0.032150812,-0.2843846,0.017377013,-0.25288126,0.04399538,-0.03480131,0.06595588,0.13627441,0.27805522,0.07813196,0.09899701,0.16268136,-0.2920691,-0.04548049,0.039343677,0.061222192,-0.16140792,-0.06786202,-0.021503288,0.08843034,0.054175958,0.12826082,-0.16639216,0.08278177,-0.37103656,-0.23734884,0.13302271,0.07115159,-0.43001047,0.021154135,-0.0025066538,0.08771331,0.07326294,-0.0051202504,-0.028661637,0.029334048,0.102027364,-0.15035303,-0.027139002,0.027432088,0.08237203,-0.23692785,-0.0050492096,0.04730947,0.082638554,-0.07197475,-0.23241818,0.168451,0.17999068,-0.15912464,-0.21176726,-0.074959934,-0.3233399,0.15447877,0.10585499,0.02897691
0.04902193,-0.14947109,-0.14312342,0.17181195,-0.1182919,0.08033198,0.23005643,-0.04737168,-0.09442011,0.105169654,-0.15163633,0.08588859,0.11463627,-0.19266587,-0.11521221,0.023085808,0.14239323,-0.17321709,-0.070714384,-0.26277128,0.028514842,-0.120286934,-0.07577143,0.046568684,-0.06561945,-0.048230253,0.13845454,-0.013973774,0.024187973,0.15272348,-0.14877036,-0.25643536,0.051661495,0.010712391,-0.16800758,0.046293326,-0.21432504,0.030900748,0.055791084,-0.19605595,-0.13343218,0.039366454,-0.08633289,0.03942531,0.03004101,-0.1531962,-0.18888997,0.03391874,0.092331156,0.027668444,-0.16850623,0.19257514,-0.14184612,-0.037087332,0.023845194,0.035467867,-0.24218634,0.122343466,-0.056863498,-0.031329304,0.16279061,-0.06343618,0.04201451,0.15644255,-0.00045637402,0.05610736,0.16800237,-0.00474114,-0.17686723,-0.05668449,0.018008014,0.17929019,0.007182722,-0.33598903,0.050339673,-0.15748109,-0.0031502792,-0.05875983,0.050920285,-0.10381242,-0.0050016586,0.05238268,-0.07458604,-0.04477772,0.065178774,-0.13373403,-0.2757021,0.034245797,-0.023431363,0.083996676,-0.05505748,0.098595954,0.16761859,-0.005913437,0.20636629,0.23840053,-0.04486225,0.006787043,0.01057115,0.18095231,-0.19020288,0.10826562,-0.031017965,-0.14807943,-0.04354427,-0.19822693,0.21645673,0.08520165,0.18315089,0.12323481,0.074795626,-0.14093512,0.18470669,-0.30732578,0.07628859,-0.29305035,0.02496431,-0.11439163,-0.37385267,0.03039634,0.09466723,-0.3362829,0.033688888,-0.0045396485,-0.010662618,0.09377035,-0.0056708753,-0.050181884,0.05616644,0.02797133,-0.21867967,0.0012440362,0.011241669,0.23349473,0.116990075,-0.03670773,0.18848659,0.0052118986,-0.2132862,0.16680218,0.027130384,-0.0821494,-0.40168232,-0.062053185,0.012225763,-0.310511,-0.11139664,-0.064426176,-0.10971715,-0.06869857,-0.20545037,0.08280146,0.035021342,-0.23466006,0.16675672,0.05244127,0.1789459,-0.017910376,0.13176075,-0.23984542,0.1484618,0.12904668,-0.123559184,-0.06422788,0.1478786,-0.010232657,-0.0056036324,0.08452839,-0.014060772,0.009654797,-0.16793422,0.07954301,-0.0794093,-0.011660431
-0.16523981,0.01233175,-0.03136066,0.1611747,0.06461023,0.0058518257,-0.09788682,0.07340123,0.004221171,0.13726124,-0.099677086,0.041704573,0.06502455,0.0676714,0.072276615,-0.050164532,0.12367412,-0.14927645,-0.038574044,-0.09898077,0.053013865,0.10348324,-0.056663807,-0.16286626,-0.16149902,0.10680364,-0.039200533,-0.16065857,0.023273755,0.08228442,-0.0053336127,-0.08896905,-0.05411584,-0.041679274,-0.09699248,0.06856673,0.019059502,-0.11916419,-0.14593492,0.10576076,-0.04167931,-0.007335761,0.104578,-0.019961761,0.103128016,-0.027621312,-0.17238341,-0.016660698,0.035606172,-0.12593922,0.03267646,-0.0792883,-0.118447274,-0.15893593,-0.18857859,-0.005618132,-0.090556815,-0.0003102454,-0.09239869,0.06540119,0.10423174,-0.072555594,-0.15943716,0.0099818045,0.08817791,0.07605584,0.14418061,0.13265218,0.042429708,0.0093675405,-0.08241422,0.17293228,-0.12769918,-0.06432429,0.0652953,-0.14866088,0.23508157,0.08064829,-0.27499476,0.049964663,-0.02372766,-0.055924103,-0.06377019,-0.0301063,-0.15729247,-0.18903582,0.038809072,0.17867145,-0.033795726,-0.027843833,-0.20734714,0.12509175,-0.100452356,0.09627414,-0.07544156,0.120613165,0.020845456,-0.16725814,0.085070476,-0.027625041,0.11555112,-0.04180333,-0.07215406,0.15782331,-0.05142295,-0.19511446,0.10133868,-0.01721266,0.023189645,-0.011121683,-0.08260683,0.14514722,-0.22688918,0.056118686,-0.12699118,-0.08543133,-0.07011437,-0.17199905,-0.10698455,0.21676585,0.10762526,-0.19081073,-0.121497974,0.10365881,-0.32734764,-0.017570406,-0.18208003,0.1055962,0.08980454,0.113625534,0.03772102,0.11158471,0.13461381,-0.10596702,-0.5184968,0.016069394,-0.24212849,0.023507852,-0.07044646,0.088527255,0.05690884,0.03934722,-0.22996125,-0.08526084,0.073092304,-0.11139153,0.018798696,0.05739581,-0.07347965,0.29792324,-0.0052907886,-0.35621697,-0.13016164,0.13355942,0.04853094,0.17967966,-0.015593884,-0.088045105,0.0032924744,-0.009350149,0.0348391,-0.18335097,-0.1362406,0.25462338,0.10637647,-0.021505734,0.039185457,0.060308382,-0.045214083,-0.0055201836,0.014262379,0.085943155,-0.038500816,-0.02244736,0.04161619,-0.093395546,-0.04124911,-0.01589347,-0.04821013,-0.04304901,-0.06421657,0.07489986,-0.06138342,-0.107560866,0.15089977,0.07685481,-0.09418094,0.06933722,-0.050776277,-0.06528725,-0.020888655,-0.08305579,0.012034491,0.11675339,0.10451182,0.15868875,0.0621621,0.08336329,0.08708456,-0.0017995365,0.019962931,-0.050053947,0.11948288,0.05312842,-0.028855532,0.035958864,0.020428553,-0.045834478,-0.029347021,-0.0061211535,-0.14917968,-0.107330345,-0.08096064,0.2782354,-0.10773084,0.03174971,0.07596109,0.05847956,0.04214178,0.18254356,-0.100650966,0.059786133,0.11569567,-0.083425336,0.11445269,0.15046696,0.04565802,0.042219672,0.014627888,-0.017378274,0.06744255,0.1082843,0.15699132,0.13949658,-0.026507935,0.16729788,-0.12313663,-0.04371029,0.010366736,-0.1115067,0.03275922,0.028924877,-0.021544278,-0.018432116,0.005547281,0.0900082,0.039455302,0.010247087,0.029930994,0.04157541,0.2038919,-0.12059071,-0.29955843,-0.07995043,0.12166221,-0.073124774,0.011706826,-0.26846412,-0.25917658,-0.1380312,-0.12054583,0.0066307657,-0.42091048,-0.083900295,0.14611834,-0.055030372,-0.22899224,0.08515268,-0.06535202,0.039907362,-0.032569,-0.1079566,-0.17058817,-0.16427761,-0.17722227,0.025209256,0.14556028,0.0024910732,-0.12446859,-0.007317112,-0.35004064,-0.12938948,0.18412033,-0.123184636,-0.07428647,0.01860877,0.040032916,0.07400914,-0.10768105,-0.17740147,-0.15533191,-0.13358274,-0.09544407,0.045711007,-0.07298117,0.13754599,0.07066959,-0.12173521,0.062009834,0.12207441,0.020886041,-0.089360006,-0.1712166,-0.12317881,-0.05935341,-0.058079734,-0.07906451,0.10244808,0.13775042,0.09513804,0.034611277,-0.06057657,-0.15116091,-0.10794534,-0.042257726,0.007179871,-0.16079554,0.033997484,-0.040363934,0.21028468,-0.05466915,0.03926706,-0.008682644,0.07376982,-0.17055246,0.038390316,0.08716409,-0.10898554,0.14070554,-0.0018131305,0.012783465,0.070277534,0.039056037,0.0710568,0.044005018,0.004880961,0.014703869,0.09962822
0.09341355,0.09810893,0.098604344,0.026995916,0.05224095,0.006425106,-0.0135456305,0.04363066,0.11217903,0.024170797,-0.004679172,-0.065558545,0.0642411,0.05230105,-0.06653589,-0.047293827,-0.00555179,0.13872932,-0.07800006,0.014312687,0.0028846313,-0.3003239,0.06876071,0.14230505,-0.08043642,0.3273026,0.11477036,0.048722576,0.011359141,0.09140618,0.15441042,0.09748033,0.09099674,0.15613887,0.2205389,-0.038566697,0.12275275,-0.1235215,-0.057488915,0.23448195,0.076964475,-0.13160832,0.15678449,-0.07899645,-0.023401843,-0.14657554,-0.15702575,0.03534689,0.012743982,-0.45938668,-0.21174566,-0.011430336,-0.09944807,-0.20714013,0.0053821355,0.088109195,-0.096792206,-0.22365163,-0.07112914,0.013343869,-0.08706922,0.015347555,-0.021983787,0.043413818,0.033864185,-0.066712685,0.10526625,-0.057150748,0.07957058,0.0852323,0.06299247,-0.09021797,0.20055097,-0.15040995,0.018108143,0.026586546,0.15595303,-0.13068672,-0.17958501,-0.020040536,0.009404859,-0.20181155,0.022040714,-0.051849782,0.043564435,-0.24679303,-0.004515063,-0.015206864,-0.012265279,-0.024293978,-0.043448433,-0.06222606,-0.080834955,0.03339348,0.015097944,-0.08630557,0.0021358721,0.019601116,0.015753547,0.075629845,0.03845408,-0.055715263,-0.2734034,-0.0144198965,0.106719024,-0.13272679,0.08497086,-0.020597216,0.106427744,-0.007754464,-0.106477864,-0.122530036,0.011787037,-0.018718742,-0.042090822,-0.05266067,0.050689664,-0.13828659,0.04315419,0.06564753,0.05086947,0.053707562,0.1590237,-0.0029104128,0.10751169,0.18205158,0.085345246,-0.07032135,0.113760635,0.08009423,0.027997807,-0.12681766,0.11633772,0.060404252,-0.23782028,-0.09510611,-0.30515844,-0.14821729,0.0061571775,-0.024868874,-0.05916626,0.010878509,-0.23962802,-0.0011966601,-0.013059183,0.3210584,0.19714926,-0.118887134,-0.008768173,-0.15207444,0.038915254,0.082961865,-0.0008103496,0.3571772,0.08147244,0.07192568,0.271777,0.12992887,0.17011558,-0.16007604,0.19850957,0.28545877,0.15290432,-0.12858233,0.107485384,0.003547732,-0.16054228,0.12615336,0.0736215,0.006734274,0.06071379,-0.08871595,-0.1740445,-0.04186592
0.041146476,-0.08264928,-0.037493944,-0.030595869,-0.055909824,-0.061071582,-0.046468716,0.111079775,0.10779942,0.08301349,-0.17062362,0.034206394,0.11199327,0.0069048996,-0.10516092,-0.012469276,0.1814176,-0.041484926,0.12395574,0.1110584,-0.058823694,-0.17251393,-0.007782832,-0.10344828,-0.035851784,0.1662982,-0.06524856,-0.07933475,-0.092328526,-0.10073286,-0.09656001,0.23297602,0.062219847,0.0021532865,-0.12132145,0.04271236,0.057294976,-0.061320428,-0.11840607,0.15474093,-0.0555588,-0.111396365,-0.12253313,0.11052607,0.018630879,0.041924372,-0.09155752,-0.011082892,0.04105496,-0.11793282,-0.12122279,-0.08301617,-0.21198933,-0.11081745,-0.05706778,-0.06524452,-0.09557173,0.077651754,-0.23845553,0.05738428,-0.04690687,-0.021569926,-0.21486719,0.1739701,0.106308915,-0.12596013,-0.1333543,-0.03988488,-0.040079195,0.08428779,0.1733988,0.13775781,0.021675644,-0.24348858,0.040885143,-0.10070649,-0.055007588,0.048444405,-0.110846415,-0.14032194,-0.07107691,0.06924327,-0.066286236,0.073225886,-0.06020487,-0.07052464,-0.04177691,-0.09617669,0.06934109,0.0733028,-0.32162,0.07643949,-0.018027956,0.0015451779,-0.1715965,0.14985605,0.11296356,0.011918986,-0.06446823,-0.14765128,-0.29468387,0.14191823,0.2403225,0.17072362,0.023575982,-0.15123998,0.06666168,-0.31575623,-0.252815,-0.122638546,0.027058022,-0.15952188,-0.21052283,0.09020861,0.0052685547,-0.0003614296,-0.127621,-0.04074072,0.1886538,-0.034096282,0.01955778,-0.13566056,-0.30381852,0.124843806,-0.061191916,-0.08577589,-0.23637833,0.0073820157,-0.1061121,-0.037431024,0.27202234,0.13203573,0.05012813,0.045847632,-0.09068523,0.05477049,-0.087560594,-0.050909046,0.03941907,0.09226347,0.15425266,0.0014485137,-0.097106986,0.12168457,0.099079825,-0.19744912,-0.18484087,-0.29023173,-0.056828402,-0.028994393,-0.12370437,0.030765293,-0.17321016,-0.012529556,-0.10999693,0.039824236,-0.0098276865,-0.15600176,-0.24950741,0.12059441,0.14119704,0.04999961,-0.05265406,0.06165637,0.033827763,-0.06817958,0.060924184,0.106277645,-0.03215124,-0.05743069,-0.13340423,0.21091066,0.04894472,-0.09596459,0.051827684,0.15422887,0.09586365,-0.16913217,0.00075117336,0.048129313,-0.20099427,-0.16238417,-0.08401977,0.07701202,-0.096751474,0.0703641,0.11005906,-0.098608136,-0.006457509,-0.010365513,-0.22489665,0.12548788,-0.009688287,-0.0902871,-0.13611075,-0.12384742,-0.09567619,-0.017231304,0.0655544,-0.021977587,0.19819477,0.076091245,-0.108025275,0.0045963465,-0.057721924,-0.00055567466,0.08443505,-0.022438822,-0.071941786,-0.114286706,0.041996904,0.040699374,-0.06777228,0.01350238,0.10571608,0.014782111,-0.2756478,0.015145314,-0.08558945,-0.050206576,0.08572366,-0.17112093,-0.19841209,-0.045522247,0.078318864,0.045545682,-0.042018615,-0.011313899,-0.022399496,0.017689804,0.12156746,-0.12349956,-0.0411736,-0.1054744,-0.016051611,-0.059551038,-0.16908978,0.12349077,0.18745452,-0.20303428,-0.09665687,0.061619315,0.2439482,-0.11954656,-0.07659216,0.19726704,0.079958916,-0.0713798,0.023818383,0.07369947,-0.21943024,0.08309188,0.14964022,-0.15623425,-0.2006988,-0.068121664,0.020581765,0.12024912,0.27859333,0.12548432,0.05580567,-0.15408519,0.10248855,0.036395214,-0.16449118,-0.031045623,0.16732909,0.039667092,0.020456972,-0.038672168,-0.16872357,0.07263014,0.03463925,-0.08203967,-0.09725454,-0.073832504,-0.21826431,-0.081245854,-0.20652932,0.055614498,0.21081173,-0.059879493,0.0355705,0.14160754,-0.035348758,-0.14688095,-0.21003705,0.0459101,-0.020813832,0.017432295,-0.1531504,0.047863904,0.115574636,-0.12969522,-0.15399744,0.0114509035,-0.07898562,0.1196626,-0.18997377,-0.0463874,-0.048717268,-0.053219736,-0.15294671,0.08591892,0.094436616,-0.08724922,0.066193655,0.0034144917,-0.0040510953,-0.09643529,-0.15223733,-0.108499005,0.009632362,-0.0026297776,0.11345275,0.030006228,0.04500471,0.03394389,0.03510797,-0.023612514,0.04174596,0.0592741,0.056199837,0.010179336,-0.00065517664,-0.08772271,0.057680976,0.1346437,0.072997466,-0.19246839,-0.16918924,-0.1595536,0.10985357,0.035009097,0.01876344,0.05686027,0.06556861,-0.03489991
0.06750908,-0.012597816,-0.19337445,-0.16666292,0.040569164,0.075851865,-0.29353848,0.113296054,-0.049359772,-0.06845091,0.06876056,-0.031313293,-0.25136578,-0.124791935,-0.010680806,-0.091484696,-0.019019688,0.0681258,-0.14410292,0.06119234,-0.037458643,0.08632396,-0.0020453138,-0.5405728,-0.012045773,-0.26613522,-0.058993086,-0.028267074,0.07501728,-0.05977393,-0.21170665,0.015428294,-0.052818622,-0.08298508,-0.0521427,0.028956354,-0.04515788,0.019915788,0.009969302,0.040797766,-0.1678658,0.1333505,-0.034487773,0.042019457,-0.16896635,0.100520365,-0.06458135,-0.024926418,0.0917192,0.25246534,0.18885246,-0.032533772,-0.029058246,0.16112922,0.01867048,0.04678552,0.25971147,0.063204676,-0.025640612,-0.0122514805,0.059774216,-0.0053522564,0.112092555,-0.21206209,-0.026699763,-0.0032299438,-0.41015664,0.027631136,-0.06498297,-0.015173298,0.005060979,-0.031068496,-0.100926034,0.25623125,-0.04510844,0.10024186,-0.130969,0.040957633,0.11031089,0.018692175,-0.16600135,0.00999873,0.13930917,-0.026993368,-0.10902053,0.05090539,0.106899165,0.013584416,-0.10229118,0.050857563,-0.047659513,-0.064196035,-0.038784064,-0.0037681407,-0.09921423,-0.25434437,-0.070953034,0.023711005,-0.1549254,-0.28108478,-0.06792698,-0.04397568,-0.026083939,-0.026202595,0.13898791,-0.02154491,-0.08368772,-0.105100945,-0.038349,0.012860182,0.05118964,0.19723672,-0.26123393,0.07603681,-0.07232274,0.04636284,-0.07711611,0.1950475,0.048575323,0.03716073,-0.0846488,0.10347089,0.023281718,-0.035662666,-0.051621057,-0.22581503,-0.03342905,0.03193691,-0.08306575,-0.06976049,-0.12527731,-0.0306166,0.009593802,-0.10546947,-0.057386145,0.051026206,0.09183965,0.10864696,-0.005430484,-0.16172597,0.08183755,0.063267745,0.13883023,0.046163406,-0.01898447,0.06715915,-0.016366063,0.17469959,0.06491428,0.11569935,0.077734426,-0.13643996,-0.033730064,-0.24599244,-0.011180241,-0.017936751,-0.19229299,-0.25034878,-0.23310898,-0.025143836,-0.22730516,-0.3220352,-0.017324153,0.030826638,-0.229377,-0.06490556,0.056800507,-0.050924078,-0.10824281,0.120688446,-0.1411493,0.0568388,0.07058686,0.1719528
0.036936723,0.0022240935,0.09841508,0.11503567,-0.09666364,-0.06365742,0.1270317,-0.012354329,0.01605906,0.1453124,0.19027284,0.08150668,-0.21681343,-0.11189171,-0.19840366,-0.09686419,-0.13786398,0.1590834,-0.034996927,-0.18364671,0.0002834482,-0.2018157,-0.09706123,0.10424324,0.16052821,-0.2090977,0.05762087,0.17757274,-0.014139817,0.06689989,-0.0059687397,-0.032576494,0.13796501,-0.07526447,0.1265695,-0.042000774,-0.25925562,0.03938964,0.14871943,-0.1614602,-0.055353712,-0.058552336,0.101116575,-0.039108388,-0.22137786,0.024120385,0.016606286,-0.03673517,-0.14816992,0.1598858,-0.048311148,-0.24193667,-0.083831005,0.23560095,-0.11153857,-0.022958241,0.3153123,-0.033005305,-0.0097385105,0.098666936,-0.13836175,0.058864344,-0.0014743798,-0.12859707,0.018363206,0.027135257,-0.02234784,-0.13106248,-0.17350724,-0.027607445,0.19068865,-0.22956756,0.0026843545,0.06798133,-0.025774071,-0.01785078,-0.02788728,-0.031696755,0.23003185,-0.06765018,-0.09331055,0.013351334,-0.041795842,-0.285951,0.14618039,-0.16780536,-0.10349339,0.092059605,0.24400192,-0.061655957,0.018544264,-0.06384213,-0.023765042,0.049489845,0.18843812,-0.2907743,-0.14626677,0.0018890381,0.09755849,-0.17162067,-0.19519076,0.017187992,0.09899689,-0.26228112,0.10500765,0.03990094,0.021393549,0.113056295,-0.30693972,0.033541717,0.00936678,-0.25762513,-0.08216758,0.06655761,-0.12523454,0.024723647,0.23140064,-0.06009841,-0.01829901,0.08374189,-0.0071643866,0.06673387,0.101935826,0.096673556,0.12550907,0.11364952,0.20291093,-0.053077806,-0.15287782,0.044398315,0.0001038295,-0.22388846,-0.28598467,0.13824746,0.2118584,-0.30195576,0.19648504,-0.026064407,0.10089812,-0.18805914,0.045569938,0.116289385,-0.045524385,0.1073044,-0.1960423,0.20127451,0.18378355,0.16391149,0.09115891,-0.15767801,0.21792993,0.044565465,-0.06119639,-0.09494053,0.040482167,0.040870484,0.03955713,0.051016588,0.057157036,-0.15337616,-0.08890662,-0.07470895,0.073052794,0.04869193,-0.20783113,0.009864639,0.16938914,-0.1135189,-0.09228745,0.14637269,0.1644209,-0.23887412,0.0056215012,-0.017857105,0.08308377,0.04193051,-0.019665334,-0.03647584,0.11342412,0.13666008,-0.0054716985,0.23287815,0.12991163,0.04088887,0.1284003,0.0848233,-0.27362967,-0.10477577,-0.0583018,0.003948315,0.01613485,-0.08936711,-0.029242741,0.052846804,-0.28602543,0.011081836,-0.147029,-0.019211728,0.009093525,-0.10159894,0.10561071,0.15595305,-0.035239294,0.0268542,-0.0437825,-0.108504884,0.23037778,-0.235219,-0.263027,0.043783892,-0.05088002,0.10850608,0.086432405,-0.3569335,0.011210961,0.01829249,0.071423426,-0.23001064,-0.008947763,-0.14771664,-0.08444092,0.007694753,0.07002121,-0.09085152,-0.10674286,-0.10706955,-0.043781653,-0.24192654,-0.34435332,0.06690103,0.08283633,-0.12165157,-0.03568234,0.010414273,0.055294,-0.16559018,-0.095218636,-0.10356026,0.11721063,-0.042866413,-0.08270545,0.0851794,0.091947116,0.0067397314,0.12798756,-0.08583752,0.038595956,0.13294192,-0.08470226,-0.12869473,0.13254857,-0.07188875,0.091820896,0.14039372,0.18784262,-0.22382756,-0.013585967,0.058045432,0.124332316,-0.11507962,0.1262233,0.07841981,0.25565523,0.11403784,-0.092111334,-0.012883246,0.013107304,-0.33231884,0.07776754,-0.03758426,0.05092048,-0.061517663,0.14271039,0.12814726,0.020604474,0.07884951,-0.019402862,-0.29256806,0.077273734,0.055256188,-0.027180918,-0.04505765,-0.058213867,-0.24128677,0.13040952,0.08008905,0.098251924,-0.0021982237,-0.10611605,0.010925233,0.074913554,-0.0017660517,0.077420466,-0.12086445,0.14595433,0.12845095,0.07145276,-0.11660913,-0.09354145,-0.14058194,0.17726707,0.032223705,0.15076636,0.03484418,-0.00013709524,-0.0369214,0.22317971,0.16005574,-0.25380385,-0.22175159,0.0042119245,-0.18192986,0.10562379,-0.06872265,-0.22123902,-0.063256465,-0.15882367,-0.20020784,-0.2167939,0.19453248,0.090601414,-0.020817555,-0.28549778,0.07157723,-0.0790449,-0.02464858,-0.0850463,-0.09477265,0.02138412,0.0759409,-0.03900838,-0.25541258,0.0153724905,0.037420202,0.20766574,-0.1568002,-0.18393345,0.12587653
0.027039783,0.07340298,0.11035524,0.055925567,0.0487928,0.011802528,-0.10497597,0.023949888,-0.028643839,-0.27989155,0.012331702,0.064471014,-0.008949754,0.15719548,0.03223048,-0.16105096,0.10578856,-0.115636975,-0.35685256,-0.1540236,0.06604688,-0.20508592,-0.16165559,0.17966074,-0.030344019,-0.14512868,-0.05272343,0.08183196,0.09077319,-0.06645816,0.05173033,-0.033474054,0.16483957,0.10005134,-0.021203933,0.09538054,0.10952477,0.20431826,-0.025737366,-0.009910161,-0.022501785,-0.3289912,-0.053344585,0.0524194,0.124369785,0.016332624,0.0015146453,0.1005162,-0.13468148,-0.18937498,0.05624836,0.0065653394,-0.22348475,0.3014742,0.0614336,0.007570378,-0.18217508,-0.00040423893,0.16087587,-0.042445205,-0.086142644,-0.058215633,0.012220417,-0.08430933,-0.12820089,-0.16232583,-0.03272232,0.14726055,-0.14602816,-0.4576424,-0.08656712,0.095235,-0.038861338,-0.17668404,-0.0145761715,-0.3357205,-0.059581093,0.12895353,0.17856455,-0.0752768,-0.013957447,-0.15109731,-0.10187913,0.0010545902,0.022510529,0.18558286,0.00094817247,-0.08946494,-0.22859788,-0.33259204,0.1086016,0.0803224,-0.03762376,0.14006986,-0.07963869,0.19002697,-0.09816107,-0.004723391,-0.108367704,-0.20221984,-0.08457793,-0.07355675,-0.024357447,-0.07254578,0.033157036,-0.36016706,-0.12759507,-0.08969254,0.04784747,0.32358924,-0.073481455,-0.09695539,0.11277948,-0.11683991,-0.09525091,-0.18161085,0.0006495406,-0.14836816,-0.13992739,-0.08738942,-0.15558274,-0.30227125,-0.026400616,0.052259397,0.10523533,0.26347226,-0.0886559,-0.020591484,-0.010830678,-0.115942046,-0.07174506,-0.13082084,-0.16549355,0.26615834,-0.09108956,-0.060713902,0.0026106853,-0.35397515,0.07581603,0.02163294,-0.09532596,0.3963702,-0.08214917,-0.19746953,0.065480895,-0.030178387,-0.0370974,-0.2805099,-0.106171764,-0.2472034,-0.26767454,-0.11403263,0.036213856,-0.14137134,-0.09361868,0.00028631178,0.15809599,0.058163684,0.089760326,-0.1042538,0.08039607,0.12102135,-0.12578487,-0.116521485,0.07563555,0.3576617,-0.09483199,-0.026917936,-0.071520634,-0.18381043,0.07384832,0.3104854,-0.059599996,0.11367984
-0.0031438654,0.18078831,0.036306903,-0.027847053,-0.22064966,-0.12275497,-0.12915526,-0.022081954,-0.19654824,-0.16637921,0.044095125,-0.071739286,-0.17857257,-0.055865657,0.038111567,-0.062157657,-0.18808956,-0.04476514,-0.071996436,-0.076369435,-0.010686654,-0.034632824,-0.041816983,0.11018015,0.09039082,-0.21685213,0.025509786,-0.056717988,0.07938709,0.12695462,0.08968786,0.015912356,-0.14274992,-0.033892423,-0.21127172,0.004047227,-0.023426073,-0.07433483,-0.11107782,-0.08041754,0.064903855,0.04962054,0.029576233,-0.05194267,-0.27108732,0.02266572,0.056890406,-0.05660003,-0.015372013,0.048934262,0.09403406,0.042059034,0.097991265,0.17851199,0.18570821,-0.030124735,-0.100678064,0.05022804,0.07110053,-0.12122389,0.26812452,-0.059370242,0.021238988,-0.09099242,-0.20351042,0.08317411,-0.08403994,0.06488803,0.014193991,-0.16014433,-0.122605115,-0.38727263,0.05053479,0.20848788,-0.27080795,0.06604695,-0.037832845,-0.06304178,-0.066859744,-0.22825745,0.14838822,-0.013395884,0.088067316,0.14891021,0.17519556,0.14609277,-0.0059069344,-0.09496397,-0.48067683,0.17037396,0.1390764,-0.18972808,0.16510855,-0.32179487,0.0052043297,-0.122643664,-0.4192333,0.11544566,-0.075412795,0.07630838,0.08365079,-0.25527963,-0.021129023,-0.42894498,0.05620472,0.3229756,-0.33404684,0.15341714,0.24073637,0.0440255,0.02672059,0.15493739,0.2734217,-0.3161799,0.055895604,0.08463148,-0.057721782,0.19376332,0.008890805,-0.35620025,-0.39310366,0.21518497,-0.08898258,-0.27224407,0.33230606,-0.30754963,-0.04131053,-0.32811192,0.09243474,0.03274285,0.091059096,0.15503378,-0.06435088,-0.4252889,-0.10722958,-0.095776826,-0.12929122,-0.00024924747,-0.00854597,-0.14479728,-0.055339538,0.09764691,0.11685224,0.113015406,-0.0947578,-0.17756781,0.26248315,0.05569989,0.023720607,-0.28102952,0.23815481,0.14383657,0.030115213,-0.11620269,-0.015058208,-0.02770798,-0.12157042,0.26241353,0.04320944,-0.001553714,-0.103594646,0.03633014,0.05030289,-0.01638172,-0.03201423,0.05584362,0.08522448,-0.041420314,0.046808448,0.012337178,0.06301985,-0.14148968,-0.14174552,-0.017955095,-0.2553656,0.013531506,-0.033211164,0.038738173,0.034471434,0.0540367,0.14292936,-0.16018671,0.072702065,-0.07604758,-0.03697884,0.102176905,0.06694518,-0.13553473,0.08894268,0.12438508,0.15732634,-0.2354525,-0.23054412,0.09089539,0.06619643,-0.011538295,0.035538584,0.03294212,-0.09720195,-0.030919671,-0.20509161,-0.06455706,0.059430145,-0.05924427,-0.011003773,-0.021184603,-0.002041131,-0.035449263,0.120862626,-0.16512075,-0.011178281,0.06031321,0.026201755,0.066251576,0.11466293,-0.009387039,-0.2204687,0.059472535,-0.13809928,0.010685774,0.15099435,-0.14584433,-0.028038876,-0.0032748047,-0.40835625,-0.011903963,0.06300669,-0.04658362,0.036994852,-0.026648566,-0.20168132,-0.109479316,-0.25231075,0.13154589,0.07338806,-0.23998474,0.15488923,0.05233147,-0.06690401,0.06865561,0.29557464,-0.1558175,0.0016838391,-0.04377967,-0.21682116,-0.23218708,-0.037725292,0.054995902,-0.15375231,0.11101893,-0.2028072,0.06611512,0.16312559,-0.06591125,-0.3489011,-0.016905399,0.12705714,-0.042150274,-0.08203682,0.15350418,0.02930934,-0.14088213,-0.15051106,0.09629125,-0.02190188,0.09837344,0.08567244,0.101246685,0.10255225,-0.04212126,-0.05595774,0.082646474,0.079996414,-0.148546,-0.08074805,0.06074233,0.030808082,0.055740263,0.09979471,-0.014241559,0.052024625,-0.053497147,-0.076298,0.116399325,-0.067136,-0.022373652,0.06423016,0.012769704,-0.08519092,0.10745117,-0.08403198,0.050430965,0.085587695,0.016052593,0.0042973324,0.11820229,0.0014335162,0.03975039,0.0096793305,-0.05726573,0.043521404,0.02244012,0.0628934,-0.007209918,0.04291781,-0.03181423,0.058564037,0.04292222,-0.02999469,-0.059468407,0.020678287,-0.0743963,-0.017269347,0.07410893,-0.07076511,0.108854815,-0.04071074,-0.03249588,-0.00478988,-0.012449224,0.012672975,-0.057711687,0.004221726,-0.04918272,0.03531045,-0.013958677,0.029473789,0.10112277,-0.1324824,-0.23066266,-0.001839961,-0.078180954,0.10557917,0.09694989,-0.08295045,0.059984393,-0.11342748,-0.0069730775
-0.009296731,0.020894434,-0.1633439,-0.17845108,-0.022682695,-0.08556272,0.033665255,0.042419244,-0.10841421,0.19755854,0.004222331,0.04866829,0.0016917236,-0.008146092,0.04160392,-0.08397055,0.07104512,0.032665137,0.14017585,0.028336115,-0.036903672,0.0782697,-0.17132467,-0.35869315,-0.012141063,-0.12248732,0.0565996,-0.03407886,-0.05168473,0.016308831,0.043518383,0.0052982694,-0.0692847,-0.045373876,-0.22064263,-0.23317403,-0.041566625,0.11626011,0.11597635,-0.1490012,-0.009780698,0.22173482,-0.017013226,0.026660597,-0.10965991,-0.008475516,0.16971011,-0.10228715,-0.052213255,0.15995525,0.13290955,-0.08418032,-0.14650458,0.0321643,-0.044572175,-0.0030859981,-0.018747132,0.14936641,0.079616256,-0.073508374,-0.045417495,0.08956702,0.043564625,-0.080892935,-0.03076535,0.04815603,-0.21205474,0.09066815,-0.08082634,0.02335716,-0.18044773,-0.053030353,-0.08741733,0.14261834,-0.124682866,-0.032620955,-0.17266491,0.1639293,0.110076204,-0.02850535,0.053532418,0.07453813,0.032919772,0.061654378,-0.042436022,0.11045171,0.045263726,-0.00778126,-0.0028044183,0.047248404,-0.08140261,-0.071962185,0.033349585,0.0064791185,0.049821496,-0.06410227,-0.0043363958,0.033680286,-0.07240658,0.04457849,-0.040523775,-0.06579283,0.09512512,-0.024892695,-0.1635155,0.06830059,-0.12712593,-0.18223488,-0.14517853,-0.011543954,0.0339561,0.02287267,-0.0006316863,0.00033123058,0.11383125,0.073220484,0.08550609,0.047301937,0.08764433,0.013386083,-0.013025732,0.018007888,-0.13245939,-0.10892741,-0.07180061,-0.22801614,-0.034078427,0.08040312,-0.1200903,-0.11708654,0.052547786,0.087780975,-0.17673554,-0.21143445,0.106156155,0.034154672,0.093733296,0.062480118,-0.17056078,0.021900194,-0.051780205,0.017121881,0.11531373,-0.0061723366,-0.095032066,-0.111143775,-0.117667615,0.17931125,0.028750286,0.024160622,0.026853528,-0.1542365,-0.09048287,-0.04052844,0.008559403,-0.025388498,-0.10135971,-0.017629568,-0.28937313,0.0975215,-0.16218074,-0.20706972,-0.12499014,-0.058701962,-0.27468628,0.06996797,0.071832694,-0.19037504,-0.100335866,0.15276097,-0.35877576,-0.0137924515,0.014503403,0.04134226
