0.078680165,0.12666394,-0.11846572,-0.048910726,0.13203296,0.09793522,0.20968401,-0.23576951,-0.45717737,-0.12835163,-0.18887368,-0.33235255,0.24706252,0.03573173,-0.065976456,0.0856189,-0.015400724,0.13775241,0.11800187,-0.44911003,0.14801008,0.21330231,-0.2307746,-0.114483476,0.10819827,-0.271092,-0.08155425,-0.16595322,0.02722378,-0.6353143,-0.01110426,-0.530578,0.23678699,-0.09811697,-0.065622695,0.1256142,0.026633382,-0.090786934,-0.02038594,-0.42744574,0.3112061,-0.028495012,0.043852024,0.084758736,-0.1334735,0.078879856,-0.124560736,-0.24412762,-0.14179419,0.11150061,-0.10745491,-0.026015403,0.07394043,0.123260714,-0.16051897,0.16667917,0.29995736,-0.07340172,-0.098362185,-0.19628164,-0.024436705,0.0048660855,0.16701488,0.0526727,0.25324824,-0.37168702,-0.07735772,-0.12181391,-0.022862984,0.08434109,0.116397075,-0.28558606,0.28482565,-0.08914178,0.11004436,0.0041434113,-0.5801805,0.1897868,-0.049053453,-0.053796183,-0.059215616,0.058664225,0.096699886,0.25162482,-0.4327485,0.06386294,-0.089140296,0.11768015,-0.24126127,-0.20470372,-0.21633007,-0.029571757,0.0029119127,0.042550314,0.026612183,0.049245164,0.012486534,-0.08548758,-0.48762733,-0.17795949,0.11506579,0.06238936,0.003540193,0.18609977,0.17103203,0.14925487,0.013567664,0.124695234,-0.5772953,0.12577032,-0.038997464,-0.38540754,0.11220694,-0.31369102,-0.2457495,0.18691926,-0.11341052,0.10475463,0.20831236,-0.20706782,-0.39153394,0.542854,-0.09701375,0.21906479,0.10633666,0.41560748,0.19269004,0.14944927,0.0013798714,0.25372225,-0.20482256,0.17791663,-0.21871236,0.29591027,-0.2562819,0.04197822,-0.1942648,0.026803166,-0.44876948,-0.0884661,0.24854825,0.20003591,-0.15699802,0.17796393,-0.35388276,0.17758517,0.15242113,-0.32861558,0.0007494917,0.21375084,-0.35492373,-0.07595577,0.11697101,-0.2790903,-0.30409658,-0.7154793,0.14990704,-0.1641532,-0.18290026,-0.18818954,-0.34025386,0.12546374,-0.17029092,0.22422121,-0.2313295,0.028932177,-0.3006267,0.19021581,0.00820267,-0.5584018,0.14935039,-0.24508528,-0.17692246,-0.22524375,0.14491338,-0.2938319,0.20302197,-0.1590528,-0.073853664,0.024107907,-0.37105703,0.05624762,-0.040439617,0.38187936,-0.342624,-0.4157892,0.033274285,-0.19298708,-0.06765088,-0.2460173,-0.1481019,-0.103966706,0.1818049,-0.16019915,-0.30547756,0.12435634,-0.24661055,-0.19637005,-0.19467478,0.30243996,0.17752215,-0.10562031,0.12916836,0.11423206,-0.16797075,-0.08491536,-0.030194163,-0.034617525,0.12761483,-0.18327871,-0.1955817,0.0900035,-0.05468594,-0.03267709,0.04410019,0.0674817,-0.03474394,0.06393676,-0.161824,0.075566284,0.006704686,0.044968158,-0.26850322,0.06326757,-0.5222318,-0.048536446,-0.5054914,-0.6000646,-0.06383004,-0.20418857,-0.42809084,-0.0028378204,-0.1548024,-0.111015454,-0.043807246,-0.2150115,-0.39118597,0.11703291,-0.089457974,-0.111670166,-0.022703553,-0.18088618,0.34536436,-0.0058139362,0.16709445,-0.28240916,0.12846543,-0.047600195,-0.05416718,0.31642452,0.31780797,0.14965695,-0.027158897,0.064783655,0.116356514,0.18799978,0.2685411,0.17574678,-0.103384696,0.08984212,-0.5666524,0.006399272,-0.77082914,0.2698061,-0.4202991,-0.13676392,-0.41275033,-0.057895787,0.30039474,-0.6577312,-0.20719075,0.12440485,0.061437562,0.13817555,-0.0061590294,0.13760726,0.053866655,0.045381386,-0.1853387,0.24660267,0.15048549,-0.15313374,-0.8809202,-0.4262124,0.09164692,0.33661363,-0.6267524,-0.6259482,0.060287334,0.24603996,0.047042638,0.020359034,-0.2480843,-0.21026875,-0.17770573,0.41132626,0.0809468,0.07154531,-0.111067265,-0.15718329,0.22393776,-0.5836186,0.1710917,-0.082240485,0.6152351,-0.3750525,-0.14611809,-0.036282625,-0.30083185,-0.3268781,-0.18536028,0.20043296,0.3337146,-0.37144274,-0.15084048,-0.29613826,0.08750183,0.050101418,-0.101968646,-0.40810007,0.09666264,-0.03838549,-0.11360261,0.06009882,-0.10197072,-0.27300897,0.20707005,0.4111149,-0.0039164308,0.034068067,-0.096554495,0.23278765,-0.18991555,-0.21752211,-0.11928791,0.01015529,0.07907442,0.12504458
0.10130977,-0.2782164,0.060558017,-0.49868676,0.0915497,-0.10744286,0.2884014,-0.004229119,0.08286407,0.3018954,-0.1061211,-0.12592053,0.08165446,-0.0803553,-0.9379065,0.026296832,0.14400947,0.071526855,-0.2904239,-0.34428832,-0.16749553,0.007861944,-0.5302416,0.09292165,-0.2012692,0.2961478,0.018743884,-0.0820445,-0.069787934,-0.11740499,-0.039774805,0.36294046,-0.043464296,-0.2279866,0.09412596,-0.24856459,0.1271614,-0.0818338,0.0101721175,0.16459638,0.102258965,-0.10604399,-0.11498389,-0.17202194,-0.59454626,-0.14076748,0.06895822,0.16872841,-0.6408169,0.032618225,-0.11292805,0.12314988,-0.65472305,-0.008894409,-0.013689258,0.096952856,-0.0008981077,-0.337846,0.19647636,-0.7545688,0.29157448,0.052068744,0.24952279,-0.108298,0.09424595,0.18849438,-0.1997757,-0.096363895,-0.020544346,-0.053688526,-0.3974736,-0.014036809,-0.24457574,-0.00061602204,0.15155952,0.19293655,-0.3390907,-0.10186318,0.17815477,-0.5686957,0.27652273,-0.07382908,-0.07870686,0.1982854,-0.10594551,0.044569835,-0.036624998,0.24101503,-0.026932169,-0.062494777,-0.037163563,-0.3037114,0.105273925,-0.13277505,0.21562274,-0.3953518,0.13614663,0.09194965,-0.31782502,-0.14628793,-0.7020785,0.08816997,0.24723005,-0.20342004,-0.41451108,-0.076859616,-0.06928168,0.12496608,0.14340878,-0.0290089,-0.20201246,-0.050009422,0.09505661,0.04399415,0.022959325,0.111216836,0.32122254,0.2267371,-0.38413092,0.14514613,-0.0069403797,-0.0011533846,0.055359203,-0.19236052,-0.15636976,-0.49062556,-0.43073702,0.14206408,0.24760677,-0.15034513,-0.18107837,0.03218232,-0.8250866,-0.107139654,-0.1510269,-0.08011868,0.024953619,0.024121167,-0.08048587,-0.2943415,-0.21483271,-0.02193604,-0.5853777,0.09043744,0.032078054,-0.067104414,-0.37928855,-0.19400826,0.28092414,0.10592004,-0.25287023,0.2327849,0.06959857,0.021491576,0.16027784,0.06969183,-0.2644337,-0.446121,-0.08951594,0.4151029,-0.16968238,-0.5620751,0.11991608,-0.13863179,-0.7298501,-0.1273944,-0.059902254,0.25767526,0.16844496,0.11101346,-0.07388735,-0.74100196,-0.33811134,0.15517233
0.0027816403,-0.31775114,-0.1919255,0.086210415,-0.20967086,-0.10132292,0.10119496,0.10759108,-0.24866286,-0.036491834,-0.059564352,-0.4411912,0.11528861,0.19536667,0.29464033,0.15486923,0.16117275,-0.1533303,-0.1461802,0.08460217,-0.026619839,-0.36373806,-0.25193796,0.24156356,-0.09039179,0.15024921,-0.15282932,0.0943613,0.06377948,0.26378113,-0.33708188,-0.21684885,0.2457355,-0.33318838,0.09819407,-0.4586909,-0.2316323,0.12689131,-0.10760011,0.19236344,-0.005944665,-0.16018544,0.048668638,-0.06457686,0.5658185,-0.14964353,0.33893067,0.17459604,-0.0970214,0.040243946,-0.034134492,-0.22459908,-0.13376264,-0.446709,0.017739177,-0.18910313,0.107098825,0.11264941,-0.08479225,0.19497772,0.048066474,-0.09606514,-0.04233322,-0.07184391,-0.3551238,0.06636474,0.22323579,-0.03161777,-0.25731754,0.3566979,-0.19690968,0.19024892,-0.09764785,-0.4243922,-0.22431003,-0.032126796,0.19667558,-0.2567992,0.27777556,0.1674959,0.15937573,0.102028586,-0.012896603,-0.15959264,0.30796272,0.06947512,0.07039266,0.24327078,0.17127648,0.06192793,-0.22558844,-0.5927397,0.045380753,-0.27178696,-0.2014815,-0.44449416,-0.2996443,0.08341546,0.21193919,-0.12053362,-0.38191396,0.00871218,-0.14300159,-0.044618826,-0.102988034,-0.3325907,-0.38106015,0.081775844,0.066424966,-0.03523866,-0.0002615238,0.09476293,0.11273294,0.40644553,0.06250258,0.013791586,-0.035646003,0.0025805205,-0.44171926,0.057851776,0.11181905,-0.0775002,-0.23005673,-0.30325362,0.06961229,-0.5672334,-0.108430356,-0.36567295,-0.14886665,-0.5049952,-0.048238557,0.1504347,-0.45315978,0.034094572,-0.08577955,0.26803872,-0.039876785,0.0051124212,0.14233778,0.30993912,0.31696174,-0.09257666,0.25810295,-0.015791321,-0.05269247,0.02425246,-0.28180957,-0.069155924,0.036763042,-0.19854027,-0.0048666587,-0.28520322,0.14347564,-0.20874265,-0.18843856,0.16434677,0.053764116,-0.61384004,-0.3412665,0.10456284,-0.1879972,-0.24032469,-0.11273753,-0.7152782,-0.36564162,0.06897058,-0.0064568296,-0.28559095,0.13112715,-0.50643706,-0.1588923,-0.19876215,-0.35620478,0.015668318,-0.30993715,0.1455129,-0.12372514,-0.015023916,-0.06337868,-0.12780017,0.10081247,-0.39866993,0.19681023,-0.12631814,0.25147083,-0.42300618,-0.10744118,-0.1764418,-0.0072993855,-0.09702567,-0.28346315,0.014127677,-0.3652975,0.011224723,-0.20275496,-0.10702978,-0.14429766,-0.16201383,-0.47536933,0.049834553,0.24030347,-0.6606641,-0.45570308,-0.15572487,-0.24233246,-0.1395424,0.18137792,-0.10150375,0.14036654,0.17229736,0.05336464,-0.47213498,0.05508077,-0.030785214,-0.09925012,-0.16193719,0.017709875,0.12612142,-0.09557913,-0.32347587,-0.020975012,-0.041373774,0.19007236,-0.67558604,-0.3724707,0.06078855,-0.120979644,-0.08816264,-0.13666284,-0.22763646,-0.28154093,0.029139962,-0.2598801,-0.6575717,-0.18554394,-0.11261249,0.10750578,-0.40190348,0.08188476,0.03887247,0.011817797,0.3224758,-0.20901017,-0.13901123,-0.5720041,-0.08011996,-0.48247322,-0.37267748,0.011883247,0.045907915,-0.46157336,0.25593853,0.0895195,-0.06676529,0.15452808,-0.3431615,0.085058704,-0.8449466,0.27597913,-0.06967228,-0.029964518,-0.3789383,0.2246062,0.27011934,0.20748769,-0.015492339,-0.011043745,-0.00020586117,-0.05775117,-0.021568416,-0.018098967,-0.101274446,-0.62578213,0.059684403,-0.04277048,-0.06431456,0.08508668,-0.3998629,-0.114872955,0.06033727,0.11128343,-0.05998259,-0.0779132,0.09888196,-0.13759796,-0.58721524,-0.16080882,0.009112091,-0.686454,-0.20637119,0.38129485,0.062595874,-0.048033617,0.07869482,0.2264222,-0.007723245,-0.044118077,-0.053435635,-0.3368687,-0.09931626,-0.25690103,-0.45761344,0.2579673,0.024617286,-0.5049308,0.20601189,0.14716496,-0.24567388,0.23366871,-0.19737363,0.10057178,-0.5392926,0.003027371,0.29463124,0.05089104,0.103362545,-0.05662984,-0.3810351,-0.30274352,0.17402655,-0.19414061,0.090776294,0.041155864,-0.0069480953,-0.4624538,-0.083188206,-0.15970929,0.1913674,-0.2550542,0.08653685,-0.020970058,0.21297093,0.13140376,-0.19653338,0.074691206,0.28425276,0.14759889,-0.19971873
-0.0747415,0.13003045,-0.22024317,-0.020633094,-0.33150327,-0.56812054,-0.06072552,-0.026786394,-0.33436984,-0.09555511,0.061627388,-0.13672782,-0.20204566,-0.06841859,0.0749107,-0.025342178,-0.13103564,-0.053265464,-0.033017714,0.093535565,0.08797801,0.07035015,0.05876452,0.28985247,-0.035231058,-0.060999747,0.02695787,-0.37923107,0.05001641,-0.05374696,0.039586246,0.20182087,-0.32281438,0.19181216,-0.35363656,-0.3468381,-0.3560928,-0.57252187,0.14875779,0.08258149,-0.5403771,-0.04791103,-0.044214267,-0.72235435,0.17516515,0.018099047,0.08514166,-0.028487155,0.15054595,0.20272072,-0.28144512,-0.02324777,0.20427808,-0.014632612,-0.16441585,-0.19316581,-0.023009041,0.046721492,-0.012769902,-0.07440673,-0.24760808,0.37684032,-0.60924625,0.136307,0.32912338,-0.099200495,0.3363598,0.1308837,0.021332301,0.15075262,0.13109171,-0.22330007,-0.37416577,0.10479436,-0.08552954,-0.46140474,0.03627377,0.1617451,-0.16550484,0.21776563,-0.0016395008,0.35666305,-0.33919635,0.16141814,0.09674631,0.5132252,-0.00027133376,0.055265192,0.07513549,-0.19269654,0.5413881,-0.51600856,-0.0394884,0.06270188,-0.41744718,0.15963699,0.1644388,0.04691417,0.10857606,-0.0069900476,-0.072955355,-0.032411132,0.30312553,0.30258834,-0.07962954,0.3092315,0.06641856,-0.23920561,0.20845358,-0.14187998,0.09814772,0.053928763,-0.12309048,-0.3561796,-0.40102935,-0.01035256,-0.15014748,0.20510697,0.3235902,0.1349135,0.19979389,-0.15967304,0.024315044,0.039593436,0.015426167,0.22990395,0.11713109,0.14118366,-0.1507003,0.16816007,-0.28150937,-0.055376794,-0.17903577,-0.33768964,0.30601752,0.47735703,-0.12105838,0.035376485,-0.026710434,-0.14371385,-0.3506469,-0.029449884,0.26763412,-0.005087642,-0.29340652,0.018052222,-0.005586991,-0.1464465,-0.22760229,-0.046460364,-0.044583727,-0.13873,0.0054755714,-0.28797966,-0.21391748,-0.3230481,0.026443152,-0.07043248,0.14283207,0.22484243,-0.4736911,0.12332227,-0.43830165,-0.1452969,-0.21834472,0.01584473,-0.15002966,0.07330128,-0.30656335,-0.07479329,0.13374946,-0.002534188,0.04007091,-0.005462495
0.019932399,-0.41311076,0.0403927,0.14251754,-0.15422405,-0.09665784,0.007302637,-0.09862802,0.1651688,0.017803356,0.1391115,0.21544121,-0.15283807,-0.1570179,-0.2727046,-0.10510804,-0.81863254,0.018138183,0.12353087,-0.04682544,-0.030704068,0.10313118,0.18828662,-0.19959903,-0.046775922,-0.08296581,0.07011333,-0.012427824,0.032628987,-0.2780284,0.08036474,0.16835204,-0.23933426,-0.07197834,0.07445621,-0.06495054,0.12112432,-0.14073136,0.12102658,0.15558472,0.23513995,-0.0806688,0.07967192,0.061186794,-0.5340895,0.029864945,-0.66147023,-0.27789712,-0.04048722,-0.057246696,0.041060835,0.22003847,0.18340588,0.07943662,0.18502598,0.06440852,-0.315635,0.0028275463,0.06474975,0.15790558,0.02640779,0.17506032,0.061870053,0.055791534,-0.2577298,0.12993875,-0.5774656,-0.109607115,0.0768494,-0.47036728,-0.25661373,0.15686561,-0.02729103,-0.268193,0.14632483,-0.035515267,-0.36941677,0.07240274,-0.056239486,0.24432725,0.12586996,-0.14120673,-0.05579344,-0.19460881,-0.11622727,-0.012032237,0.19954126,0.03088042,-0.36892185,0.32660365,0.17937921,0.10624015,0.024491882,0.17085443,0.11406351,0.009018704,-0.053954527,0.04550467,-0.3544268,-0.52043885,0.17190617,-0.41192475,-0.20064265,0.2860995,-0.05585259,0.152845,-0.33509028,-0.54655105,-0.26008892,0.14625572,0.039093148,0.13451695,0.08738021,-0.36291146,-0.40970778,-0.40884995,-0.041498873,-0.67672896,0.14262465,-0.26513246,0.054078303,0.22775011,0.11293705,-0.07703386,0.05192837,0.26060656,0.12606065,-0.3311961,0.07256447,-0.67447233,0.19489343,-0.22199,0.32182315,0.035709556,0.22509761,-0.046968345,0.034025762,0.045610018,0.08602945,0.15836786,0.23036078,0.06504464,0.04768502,-0.116344,-0.33537054,-0.012188962,0.15722162,-0.09873596,0.02894754,0.14771734,-0.12093413,-0.008648915,0.08689874,0.008039752,0.13247088,-0.06871609,-0.16331804,-0.13590625,0.20834759,0.19034901,0.06789606,-0.05406523,0.27457175,-0.14525615,0.35366118,-0.097903065,-0.03307617,-0.08841052,0.16209318,0.18931785,0.07073141,0.20638432,-0.04641227,0.25224057,-0.21345708,-0.1522235,-0.033688467,-0.19484879,-0.31668806,-0.2585534,0.0795647,0.032201312,0.024750687,-0.23282596,-0.036893673,0.057686284,0.040356204,-0.06583841,-0.09434496,0.13245972,0.41900682,-0.031822797,-0.20930612,-0.10483657,0.08046555,-0.11077952,0.15867713,0.12824419,-0.005372063,-0.084603116,0.12720308,0.09057147,-0.17308843,0.011724815,0.07781349,0.094167165,0.27650324,-0.06776973,0.08633252,-0.0145794945,0.038576905,-0.07742659,0.29607287,-0.10728819,0.00040794676,-0.17694929,0.043526784,0.21655215,0.11128423,-0.3723208,0.042340614,-0.5103498,0.24245659,-0.041917097,0.32656142,-0.06525056,0.06614072,-0.06266552,-0.27729845,0.16880096,-0.010175502,-0.018991543,-0.27497402,0.4146738,-0.43750328,-0.20414823,0.17220166,-0.042620867,-0.017093878,-0.00081469887,0.033263035,0.21376479,-0.07740138,0.034097932,0.19964384,0.011090109,0.12301799,-0.007735359,0.086609766,0.073077805,0.17881969,-0.02948188,0.047230113,-0.33932316,0.11809602,0.056412593,-0.23660576,-0.23643339,-0.45929965,0.11575547,0.24480888,-0.0008890225,0.11374213,-0.10988438,-0.109894425,0.056784857,-0.24551924,0.0005691868,-0.09278548,0.19801761,-0.4611143,0.15765196,-0.58970875,0.21960068,0.14568673,-0.14317243,-0.037553195,0.28699875,0.044027064,0.056926925,0.06140324,-0.65384436,-0.19255345,-0.27679923,-0.18643694,-0.39756498,0.21949665,-0.22693019,-0.09803953,0.08410813,-0.04712697,0.10883386,0.35463378,0.027040793,-0.017910914,-0.20673433,-0.28106868,0.037999477,-0.27786934,-0.32971337,-0.21451841,0.37392288,-0.537556,-0.12885645,-0.17134464,0.092601255,-0.070062935,-0.07976068,0.13773127,0.18205458,-0.036085695,0.1382585,-0.014848643,-0.59670234,-0.047952652,-0.099576704,0.008835756,0.15621716,0.108268924,-0.33670142,0.0915489,0.120053306,-0.03296704,0.083397634,-0.05340134,-0.083681375,0.046789825,-0.26843172,-0.25203544,-0.082047924,-0.14849529,-0.44947657,0.18842445,0.40347412,0.13231516,0.08036567,-0.071707495,0.17785038
0.011436834,0.12420384,0.051299058,0.05949498,-0.029733086,-0.1209508,-0.047202338,-0.46633852,-0.1352144,0.18245053,0.16276798,0.015141768,0.24837391,-0.21171689,0.166646,-0.09628171,-0.0034906832,0.09793289,-0.17640105,0.05281295,0.47759497,-0.16824327,-0.34116027,-0.063107245,0.11421613,0.054523844,0.08648331,-0.16575776,-0.0058686766,-0.09273028,-0.17921819,-0.069481425,-0.3370342,0.14074595,-0.12707493,0.18599135,-0.37607172,0.21293095,0.074566685,-0.28135958,-0.31934255,0.35389802,-0.030454425,-0.049557157,0.12371378,0.25754732,-0.041447442,0.112287685,0.13121793,-0.017590884,-0.21858071,0.10666034,-0.19805466,0.26904216,-0.0938641,-0.3056352,-0.033136915,-0.17427944,-0.2167687,-0.0700684,0.08945666,-0.21266116,-0.5392774,0.2813118,0.047165412,0.096003264,-0.09988094,0.07372965,-0.37579745,-0.10935289,-0.06794152,-0.04046179,-0.8024865,-0.14481463,-0.12710468,0.08489753,-0.41431826,-0.17749822,0.00864018,-0.29775947,-0.11253699,-0.06854227,-0.11199966,-0.19402795,-0.1638121,-0.13776739,0.1414716,-0.07855565,0.117051266,0.048474994,-0.28988948,0.038420927,-0.13990426,-0.11233011,-0.069803834,0.12294497,-0.025223227,0.046695724,-0.11782841,0.17904876,0.014330576,-0.09458148,-0.22957766,-0.51565635,-0.5027346,-0.011280423,0.051019374,0.09224533,-0.17615208,0.02347492,0.18604493,0.052047063,0.03414192,0.13934346,-0.35409582,-0.2309667,0.057458192,-0.27197737,-0.029265495,-0.020636173,0.140997,-0.17445427,-0.10913857,-0.2971968,0.044368982,-0.7556042,-0.7296485,-0.11804337,-0.124018505,0.2645746,-0.5276791,0.008240266,-0.019767597,0.45997325,-0.3936079,-0.24888523,-0.3933034,0.046119023,-0.091666356,0.18046327,-0.3785446,-0.026078261,0.16257548,-0.35358953,-0.16582419,-0.039852433,-0.20345688,0.02740053,0.37613297,-0.055649977,0.16003439,0.2871263,0.12144415,0.006525131,-0.08241797,-0.60665184,-0.01638153,-0.2887217,-0.20336105,-0.6210489,0.25009894,0.22996241,-0.73261815,0.010597106,-0.0853361,0.11540516,-0.38502318,0.030115793,-0.4957807,0.34923953,-0.021259496,0.30797186,-0.04074881,0.27326775
0.053074844,-0.44214,0.22278969,0.040584527,-0.29968154,-0.21777415,0.10939433,-0.35006854,-0.114714846,0.0935647,0.14949371,0.16661224,-0.5535785,-0.1314474,-0.3145511,-0.47320154,-0.41603616,-0.10300133,-0.10061846,0.05503777,-0.28594792,-0.056088194,0.5561754,0.024366977,-0.22434445,-0.0076874127,0.051850464,0.16094364,0.034914717,-0.00042811222,-0.24304876,0.26720905,-0.07119344,-0.24525772,-0.059939187,-0.004549989,-0.00743413,-0.033374563,0.25682235,-0.32836893,-0.16299123,0.016142093,-0.1381329,0.004052125,-0.5625822,0.023695432,-0.40513778,-0.39735296,-0.11542568,-0.21212798,-0.3075032,-0.13293482,-0.51433027,-0.0033752255,0.12170362,-0.32558182,-0.56215024,0.16680725,0.22867991,0.041759584,-0.09441758,-0.06914215,0.07308843,0.020362502,-0.16662085,0.14065683,0.03094091,-0.2839357,-0.04989759,-0.04226805,-0.17451267,-0.27379054,-0.09834523,0.039166022,-0.35222718,0.042313952,0.15318145,0.12552635,-0.2840093,0.24241515,0.118248075,-0.1513901,-0.19724502,0.2782281,-0.19758138,-0.18224932,0.13312396,-0.17930661,-0.34983593,0.07675307,0.20026422,-0.20838559,-0.048826188,0.03853102,0.14601167,0.08890968,0.11827917,0.18259545,0.11017908,-0.10746321,0.15373531,-0.32627422,-0.5037267,-0.108071215,-0.04568941,-0.19122483,-0.64361835,0.0334754,0.3849025,0.119032264,-0.07821865,0.101133265,0.027816594,-0.6804713,-0.2986846,0.3705885,-0.48764336,-0.12397611,0.09698854,0.2689211,0.16486922,-0.16596174,0.1903492,-0.5071247,0.03309163,-0.17269629,0.012873084,-0.15627332,-0.47703314,-0.017521953,0.119230144,0.15348229,-0.08897262,-0.30978987,0.22673081,-0.13425712,0.020501582,0.27348715,-0.020507205,-0.0049806377,-0.47140878,-0.0848148,0.079789914,-0.19621834,0.363932,-0.21956444,-0.06987445,-0.056193806,-0.036372893,-0.6278602,0.2519424,-0.09604801,-0.43870214,0.04237401,0.030537685,0.08764709,-0.05579489,-0.47428945,-0.05113803,0.15166539,-0.013925119,-0.20714405,-0.040712517,-0.01860692,-0.16500035,-0.050167494,0.18156765,-0.15096377,-0.324216,0.13100982,0.047728676,-0.008917146,0.16543968,-0.023489913,-0.094405,-0.056544483,-0.13062888,-0.0038064967,0.22794043,0.06933114,-0.2200566,-0.090495564,0.13937217,-0.06949398,-0.050276347,0.1924355,0.13702844,0.2029349,0.028186854,-0.047088027,-0.1440801,0.03563226,0.044633143,-0.27480176,0.29772028,-0.119952895,0.090159096,-0.28249115,-0.01897176,-0.85675555,-0.33263123,-0.11482795,-0.13166156,0.22226968,0.045953296,0.09444599,0.054136354,-0.30171576,-0.2962922,-0.18218893,-0.25484988,0.20402557,-0.3181596,0.21010381,-0.032791294,0.21631499,-0.31822008,-0.5036286,0.13704006,0.0003166202,0.09694964,0.053161815,-0.4000407,0.10714222,0.06792841,-0.047125045,0.31477383,-0.08902286,0.11004775,-0.39796275,-0.01954317,0.021849545,0.099219754,-0.1072127,-0.024429755,0.4329526,0.3340799,-0.13836804,0.06290485,-0.20276594,-0.066201985,-0.6107958,-0.411102,0.069718115,-0.62890154,-0.07274784,-0.20096959,0.3037381,0.023660364,-0.01836433,-0.2185356,0.07642987,0.028457811,0.075198695,-0.049122743,-0.14313643,-0.21902479,0.053426843,0.08740005,0.12459861,0.019764131,-0.12220551,0.13766558,-0.16803566,-0.25491378,0.09215799,0.04223314,-0.102102526,-0.17865756,0.10998986,0.26767683,-0.4250446,0.17044604,-0.27898544,-0.15074699,0.005182255,-0.15938164,-0.2508505,-0.06601779,-0.1646214,-0.5922247,0.21755661,0.1934149,0.1853263,-0.16546203,-0.077322856,0.13711901,0.10891584,-0.09597904,-0.6140592,-0.14093688,-0.11513084,-0.24316004,0.17901754,0.058598287,-0.26599205,0.036466897,-0.102364756,0.18708655,0.15181707,-0.29700908,0.04501611,-0.21169199,-0.25495678,-0.44229037,0.010836682,0.24420577,0.11423999,-0.056662336,-0.123963915,-0.025616793,-0.060359515,-0.1593783,0.11662163,0.1629213,0.22434078,-0.06943547,-0.13171309,-0.049625084,0.10885604,0.08139547,-0.28336108,-0.025568802,-0.1716466,-0.027788064,-0.39900413,-0.08905818,-0.23729236,0.0981619,-0.1700926,-0.03666054,0.25454554,-0.16384242,-0.12488369,-0.36332282,-0.3004808,-0.24912782,-0.34039262
-0.14952779,-0.25353426,-0.15708697,0.10423283,0.09059129,0.18443953,-0.62418985,-0.19546211,0.09196218,-0.20407727,-0.0600583,0.1427239,-0.21721554,0.05330214,-0.22236548,-0.06372359,0.027686896,-0.383477,0.16825905,-0.17820808,-0.3061629,0.20813307,0.27005595,-0.16430405,-0.27958232,-0.0064590904,0.06685671,0.109686226,-0.035666283,-0.04819452,0.1461491,-0.14988573,0.072666,-0.21408123,-0.090455465,-0.0029966615,-0.09733205,-0.22331907,-0.22038598,-0.09488175,-0.038029518,-0.09615849,0.070814036,0.2594345,-0.010713542,-0.13758667,-0.11151042,-0.11325091,-0.64049155,-0.17231344,0.18937013,-0.11139924,0.024238773,0.006913959,0.085512884,0.28661126,-0.11507743,-0.096966974,0.07390079,0.21354318,0.17262591,-0.32286108,0.22845311,-0.47388697,-0.021668458,0.0008379654,-0.17510296,-0.09126811,-0.23173201,0.052846264,0.08617077,0.09971033,0.51015115,0.0060796957,-0.16926116,0.048824985,0.18488473,-0.033603206,-0.06700358,-0.63487005,0.011574036,-0.011607462,0.2108526,-0.16331,0.17217022,-0.35917926,-0.13280489,0.12608753,0.040861797,0.2437584,-0.7061369,0.35192478,0.032008387,-0.6485738,0.120391026,-0.13846777,-0.24354166,-0.042098396,-0.02596796,-0.25406832,-0.2723856,-0.16511269,-0.059139512,0.028751925,0.30151743,0.0029280442,-0.07898811,-0.01677106,-0.020897461,0.06333929,-0.18380323,0.047087643,0.12480993,0.057818893,0.24673732,-0.2505589,0.15131846,-0.15645427,-0.010367594,-0.11904742,-0.20154233,0.09453377,0.0686879,-0.04240798,-0.29400167,-0.7356508,0.07667837,0.14877322,0.17310461,-0.5123665,0.029172031,0.03940818,-0.098526604,-0.12794119,-0.23137596,-0.027258417,0.16257238,-0.18808553,0.01776431,0.17834099,0.07375228,0.2589573,-0.43207595,0.20536588,0.091790594,-0.22044633,0.2503918,-0.09967357,-0.54178035,0.06504481,-0.101469,-0.17761578,-0.41770652,0.101872735,-0.002181326,0.35760036,-0.0009424489,0.11259008,0.095834196,0.054488283,-0.15881538,-0.50437725,0.09361488,-0.2117929,0.056863826,0.05278745,0.04838486,0.009073341,0.1949131,-0.40813416,0.13474958,-0.14193879,0.00578863,-0.18256731
0.06995018,0.19374429,-0.2137526,0.0502164,0.14205362,-0.030083083,-0.1488253,0.22444691,0.034334965,0.216783,-0.27036878,-0.049599357,0.04905763,0.10160046,-0.0020188456,-0.047720682,0.4678454,-0.0027210987,-0.12976559,0.10753469,0.18437006,-0.0036409332,-0.017603222,-0.23990123,0.11396938,0.09258502,0.0846962,-0.24976355,-0.072781146,-0.03237214,0.12652719,-0.059566554,-0.22905074,0.26046133,0.25388408,-0.265688,-0.034055907,0.0024189956,-0.22410344,0.16611321,-0.88956493,0.16934308,-0.07281375,-0.0493748,0.14680827,-0.21439373,0.5026041,0.039534155,0.3940543,-0.007205121,0.06435653,0.20782146,0.036849424,-0.1173719,-0.22701876,-0.10342171,0.04183632,-0.16130197,-0.18507494,-0.43329802,-0.16789974,-0.22030511,-0.15781656,-0.14996247,0.03527916,0.1386902,0.14856113,-0.23870452,-0.17766275,0.3675446,0.021217765,0.23463859,-0.60588115,0.17275597,-0.4604979,-0.4607895,0.30160558,-0.11697944,0.32077754,0.06352335,0.18026878,-0.0996118,0.32312605,-0.3373883,0.14818992,-0.22691278,-0.4115215,-0.14473408,0.24486755,-0.09754908,-0.4135635,-0.09310377,0.093754865,-0.39948192,-0.2062235,-0.04186439,-0.41442946,0.16363168,0.21367666,0.107251614,-0.12337076,0.5215365,0.30129024,-0.078867815,-0.061302904,0.034550026,-0.26299438,-0.06735108,0.009419378,-0.100831605,-0.0057279062,0.0047221268,0.01367109,0.27332574,0.6523795,-0.08862042,0.345991,0.19267938,-0.24731116,-0.041873146,-0.039185293,-0.15281147,-0.08225141,-0.46389115,-0.0038917994,-0.17267278,0.00062500587,-0.13494517,0.4360752,0.25792557,-0.16368365,0.061179675,-0.25851858,0.06636148,-0.16451786,0.09748772,-0.23841299,0.1674362,0.34446892,-0.42972922,-0.35023922,-0.10841613,-0.15559897,-0.04347617,0.18204075,0.11137921,-0.0212333,0.17336038,0.17637911,-0.17241716,-0.40857962,0.2350913,-0.025948642,-0.107549675,-0.20701684,-0.021144325,-0.053202167,0.39683956,-0.4330623,-0.4113786,0.05090096,0.121464685,-0.07505185,0.06798827,-0.31429175,0.07171818,-0.19434941,0.0856958,-0.39332286,0.2977033,-0.04132349,-0.27906436,0.0050533446,-0.37047175,0.2147108,-0.05853991,0.060725186,-0.027756713,-0.22082339,0.066180415,-0.59868664,0.01757828,-0.15770425,0.098062225,-0.08228559,-0.28888765,-0.26550302,-0.19456053,-0.13830219,0.24379542,-0.24269758,-0.28820103,0.13644992,-0.09414835,0.018383745,-0.17389484,-0.16799125,0.3910856,-0.008938281,-0.050049502,-0.6661139,0.4281549,-0.047874667,-0.22826004,-0.052163262,-0.02687756,-0.20470315,0.09027487,-0.04895729,-0.19518913,0.0073852823,0.0325107,0.16159035,-0.15143478,-0.009307909,-0.4890724,0.07695303,0.23881309,0.058566626,-0.30575016,-0.0048349,-0.02314175,-0.25174072,-0.19628312,-0.03099779,0.2026521,-0.014488678,0.19774286,-0.21441908,0.23438737,-0.08530936,-0.018828772,0.1618537,-0.10116295,-0.5949199,0.0011229519,0.064113274,-0.09819839,-0.048146617,-0.12859198,-0.0050862124,-0.10869632,0.20030765,0.08510275,0.22697042,0.30887666,-0.3640319,0.38232413,-0.017773066,-0.42169252,-0.22319952,-0.8710866,-0.010828751,-0.08101895,-0.08044806,-0.6346874,0.10897061,-0.105570056,-0.10044844,0.14093441,-0.72409964,-0.00035358442,-0.48769644,-0.17744102,0.3023237,-0.1921292,0.22051479,-0.027762486,0.11967713,-0.1551763,-0.21381775,-0.04747339,-0.30318975,-0.0076038754,-0.048486568,0.14503795,-0.14077519,-0.07329157,0.17938082,0.021740071,-0.1762288,-0.008909591,0.07726917,0.092000805,-0.02238301,0.16723074,-0.30948105,0.14037028,0.14050473,0.056262523,-0.46083698,-0.028998835,-0.025283402,-0.15341361,-0.04994936,-0.21004142,-0.051985208,-0.04061518,0.31589094,-0.29999542,0.004085253,-0.3115307,0.24986888,-0.22374098,0.03557033,-0.43055713,-0.2553782,0.17784955,-0.30007386,0.051543925,0.22043198,0.19289117,0.022605248,-0.39840555,0.22367367,-0.06810865,0.11316262,0.17808604,-0.24696837,0.086996734,-0.08929581,-0.14138712,-0.007908436,0.025777843,-0.1810618,0.6748864,-0.19729356,-0.19697976,-0.66124064,0.12667134,-0.07407174,-0.38957313,-0.29491487,-0.339185,-0.58740014,-0.25995097,-0.4844891,-0.12840772
0.13149038,-0.056853216,0.041650813,0.18860148,0.056321416,0.23401816,-0.41826737,0.097308755,-0.11348747,-0.3296284,-0.13555522,-0.18248358,-0.009487624,-0.16916321,0.31419283,0.0016824827,0.17912628,0.3063178,-0.7238003,0.35238385,-0.3448358,0.11871941,-0.4738005,-0.11587661,-0.08869378,-0.037634593,0.049978763,-0.40782484,-0.04034855,-0.096644476,-0.050689824,-0.06696779,0.103530854,-0.0057475436,0.14047386,0.34058005,-0.12094217,0.44695848,-0.113923185,-0.24880892,-0.16006371,-0.30121613,0.11413306,-0.21436161,-0.47784606,-0.08918508,0.14071375,-0.42792097,0.18549569,-0.17701596,-0.31859714,-0.4265758,-0.1016589,-0.10418227,0.07279572,-0.5001739,-0.006254963,0.20387487,-0.36810797,0.31990662,0.058033187,0.06793991,-0.43050873,-0.0011961986,-0.2580562,-0.31220007,0.072297364,-0.030043578,0.286094,-0.34563833,0.2272147,-0.38576767,0.30807623,-0.18724136,0.079690225,-0.11464588,-0.49056113,-0.006113031,0.04758222,0.15636837,-0.15618356,0.022815872,-0.17668644,-0.07722661,-0.23423736,0.11670747,-0.10572051,-0.9439396,0.049423244,-0.18647233,0.2721128,-0.25813106,-0.26608312,0.08142566,-0.69566226,-0.0091338055,-0.020090278,-0.32194373,0.22679985,0.2560202,0.46900052,-0.19335961,-0.5559175,0.15788239,-0.0027471778,0.025819683,-0.25886694,-0.03789992,-0.67428684,0.026401984,-0.26933488,-0.17567617,-0.4100962,0.1438179,-0.55086714,0.19628692,-0.2823169,-0.038045257,-0.06384837,-0.59174514,-0.04742934,-0.09319445,-0.09584201,-0.31228176,0.16247192,0.22689356,0.24239017,-0.33557996,0.0001561288,0.058275085,0.44504657,0.152732,0.37529048,0.019555211,-0.0100443885,0.0073335636,-0.24363424,-0.17833257,-0.028493775,-0.11378759,0.11936939,-0.035494164,0.24004288,-0.048002336,-0.17166619,0.36606103,-0.5168364,0.39907268,-0.20438516,0.0068889796,0.04559339,0.12228937,-0.05453784,0.1371215,-0.20850377,-0.551208,0.042920314,-0.069084056,-0.052681964,0.011099686,0.06358219,0.42782018,0.15608849,0.30405343,0.3211927,-0.08320616,-0.082447246,-0.045668796,-0.1893859,-0.20346962,0.035036914,0.057421565,-0.27199385,0.010392092
-0.11334484,-0.04996282,-0.19713558,-0.2624695,0.081331246,0.084817335,-0.29511565,0.22999059,-0.30477053,-0.249832,-0.14094059,-0.33896488,-0.053009644,-0.00013346622,0.12887411,0.11088225,-0.074610636,0.049719576,0.04357916,0.00685806,0.039843004,0.13586038,-0.31384027,-0.0087810345,0.035662174,-0.051855516,-0.07740375,-0.049877264,0.044688612,-0.06009365,0.08405448,-0.14070308,0.08603399,0.042100806,0.028918637,0.14096788,0.004179045,0.20973113,-0.16820925,-0.00088838825,0.11984037,0.08146123,-0.10483102,-0.11628526,-0.058101144,0.10015964,0.049559947,0.24677454,-0.25986195,0.047024317,0.28357723,0.20189092,0.090028174,0.11688216,-0.40959743,0.36168304,0.18139368,-0.17696626,-0.17263888,-0.13571253,0.19704136,0.19777769,-0.012640812,-0.23950513,0.25173193,-0.25985253,0.30429843,0.3963364,0.04615834,-0.10942039,0.052915823,-0.26653802,0.094861574,0.10842665,0.24054793,0.15378436,-0.19157583,-0.26806343,-0.16801493,-0.7251076,-0.56957144,0.18501556,-0.3002672,0.016445031,-0.10941651,0.12989277,-0.86826056,0.07938593,-0.00861273,-0.67118335,-0.6076757,0.2039775,-0.022394523,-0.1526624,-0.20259075,0.20469227,0.05403597,-0.5984839,0.21743268,0.4408241,-0.35229862,0.2334092,0.34799778,0.04912662,0.13183434,0.24707276,0.6140721,0.38289592,0.06948893,-0.45873466,-0.3198203,-0.39439845,-0.39533976,0.21983197,-0.33095977,-0.18411411,-0.19711667,0.17062466,-0.70505965,-0.14478199,-0.45935273,-0.08388474,-0.14511926,0.45190573,0.013497471,-0.35836,-0.31437156,0.31576896,0.14141303,-0.11556457,-0.40280208,-0.19806643,-0.10364943,0.059770342,-0.22673897,-0.15615746,-0.18783747,-0.2331208,-0.08352443,-0.18136376,-0.17906764,-0.111453556,0.09780578,-0.054848056,0.08676,0.029929383,0.12538154,0.2583109,-0.1859664,-0.09990313,-0.21401516,0.15480447,-0.18885244,0.11072883,0.15252258,0.094000466,0.019071903,0.46911892,0.3100187,-0.21200867,0.21525289,-0.06514548,0.0716355,-0.026486434,0.07587275,0.10063193,-0.1948394,0.0915821,0.04952258,-0.2897831,-0.06239563,0.29608184,0.008298897,-0.16155547,-0.054528262,0.08114111,-0.13233292,-0.05930596,0.07955712,-0.004525725,-0.15114285,0.14151338,-0.29378074,0.11123283,0.23255172,-0.007970373,-0.16975011,-0.07470791,-0.074031875,-0.054966588,0.04648695,0.0813027,0.14697702,0.09412963,-0.2005299,0.18661143,0.061080977,-0.13321544,0.23029397,0.27162403,0.15192771,-0.22888097,0.1672221,0.03962875,-0.025946515,-0.09971955,-0.22344446,-0.47248653,0.021619944,-0.3081209,-0.07952664,-0.12884757,-0.38555345,0.18535529,0.059436508,-0.03453994,-0.1547565,-0.092320465,-0.23438743,0.118277386,-0.0013965435,0.18376511,0.19447556,0.17834625,0.006247481,-0.072416134,-0.3919643,0.33928043,0.13300402,-0.45181954,0.20795465,0.15551713,0.22728658,-0.06279831,0.3859312,0.0035362574,-0.37417182,0.15910788,-0.41903237,-0.33857292,-0.06783753,-0.20095922,-0.33125007,-0.16057305,-0.43477958,0.12845153,-0.06481283,0.09437834,-0.30476147,-0.22040848,-0.23943149,0.30993935,-0.06830199,0.12076623,0.119007304,0.1584755,-0.13863756,0.0051150997,-0.096919745,-0.36507532,0.009098304,0.19867817,0.03925494,-0.18725285,0.12136918,-0.030797724,0.19850388,0.095733196,-0.61583847,0.12622619,0.132232,-0.20942146,0.39555693,0.03622438,-0.039256234,-0.0900095,0.0069280337,-0.060113717,0.006702785,-0.18874688,-0.2859501,0.08779448,0.21204273,-0.020345021,-0.17387798,0.131546,0.10285584,0.16710807,0.109842315,-0.17418876,0.06629448,-0.010441933,0.07804224,-0.11963171,-0.10891476,-0.15311979,0.07077808,0.025081119,0.049312197,0.17022659,-0.41905156,0.005864658,-0.2555819,0.2545063,-0.1262302,-0.10222635,0.15053308,-0.054933887,-0.042025156,0.14065589,-0.10130213,-0.20587264,-0.23226552,0.15408678,0.047404766,-0.10567487,-0.13336053,0.027957257,0.06000181,0.056638855,-0.1091059,0.24391882,-0.34906602,0.050321136,0.19983138,-0.43712178,-0.08132023,-0.021188948,0.33252585,-0.025025299,0.16273658,0.040759977,-0.12392913,-0.0053454074,0.16503632,0.07763379,0.1491901,-0.3454055
-0.05654653,-0.073984176,-0.06278839,0.030690076,0.1472439,0.07023729,-0.17421037,0.15573117,0.07027114,0.0066654366,-0.1377558,0.17408802,0.12154112,0.015102858,-0.13834734,0.10637628,-0.09935935,-0.36635098,0.21618775,-0.5781008,-0.27037942,-0.098100446,0.26554596,-0.06189627,0.100925505,-0.38739067,-0.22741166,0.07156245,-0.16250658,-0.017356943,0.104064554,-0.2904378,0.115802586,-0.27162594,-0.10705143,-0.57596517,0.032763794,-0.22808106,0.01067735,-0.2512506,0.047349304,-0.13442078,-0.061495267,0.09024642,0.18355528,-0.06126007,-0.122609496,-0.050678268,0.27084503,0.16743258,0.14872965,-0.24757794,0.11260254,-0.30426812,0.099729985,0.050535228,0.10779184,0.37226376,-0.12617728,0.08087586,-0.20131253,-0.65535825,-0.021187533,-0.18502557,-0.42609042,-0.022587677,-0.3864122,-0.21492413,0.22759247,0.09591558,-0.3348463,0.0811887,0.0865449,-0.0063653956,-0.084900945,0.026387412,0.18573917,-0.06358629,-0.025556471,-0.02971158,0.039180893,-0.25771055,-0.08430045,-0.04084041,0.08045646,0.06565338,0.13786452,0.21563545,-0.050725855,0.12511879,0.11342153,0.13029939,-0.16268231,-0.12774561,-0.067997046,-0.26891512,-0.44678977,-0.12310296,0.10208623,-0.4248736,0.13144195,0.11747388,0.11170157,-0.066255234,0.27048317,-0.2216417,-0.03176097,-0.0003787427,-0.03733566,0.11979299,-0.35616142,0.060205027,0.036039826,-0.5312248,0.4229118,-0.0032061653,-0.039763436,0.038531628,-0.20516235,-0.00025379012,-0.11823938,-0.013943774,0.026571631,0.2516327,-0.14209834,0.5076243,0.06743868,-0.20290442,-0.0502553,-0.44408014,0.19405845,-0.104870714,0.07565027,-0.058305778,-0.03077246,-0.15602148,0.20680526,-0.07104413,0.054967083,-0.4578275,0.16053487,-0.16227567,-0.793731,0.21298869,0.09718132,-0.28050482,-0.093710706,0.07955588,-0.1387028,-0.10587833,-0.16992679,-0.029272132,-0.43894184,-0.06739676,0.033452865,0.27693552,-0.062268924,0.1760895,0.064004764,-0.11581377,0.061976667,-0.2789028,0.28597128,-0.16457194,-0.01877898,-0.06340205,0.1060217,0.00455562,0.07696736,-0.3754094,-0.13504249,-0.12615041,0.044531,-0.37269515
