-0.028868897,-0.5937333,0.32508287,-0.13334587,0.19926848,-0.12994926,-0.15707439,-0.0833431,0.047011513,-0.336454,0.102260865,-0.003226101,-0.072563484,0.08273307,-0.45945936,0.1490621,-0.029247183,-0.16100791,-0.19003046,0.13672651,-0.33498937,-0.124303676,-0.3202546,0.116717204,-0.2793401,0.3089233,-0.27842247,-0.100634515,-0.007132043,-0.018150846,0.07228575,-0.39877814,0.063047834,0.0073918267,-0.34759706,0.12164392,-0.0246006,0.1602825,-0.03984108,-0.21640344,-0.20032194,-0.09060208,0.07484875,0.02938704,-0.017021984,0.14569202,-0.019836228,0.12195567,-0.118191525,-0.013418563,-0.058037765,-0.095511585,-0.070698,-0.12594974,-0.074624054,0.0028332,-0.020991014,-0.0026635318,-0.1782172,-0.32240906,-0.24847166,-0.06520515,-0.13880634,0.037264418,-0.2293129,0.1573549,-0.24479146,0.22791797,0.06954791,0.11439058,-0.0112294955,0.18436101,-0.06268902,-0.21527804,-0.06453874,0.011308116,-0.043534406,-0.13277547,-0.029281007,0.1664451,0.16413489,-0.017832207,0.072750084,0.16528462,0.057257645,-0.008800135,0.03230762,0.17346135,0.08068196,0.18240286,-0.18483934,-0.34076098,-0.063518845,-0.14539212,0.046720713,0.17584053,-0.16833583,0.3998278,-0.14787725,0.1574117,0.0121447295,0.10237983,0.36832547,0.16969974,0.05814619,-0.48669225,0.06756381,0.12713502,0.016862294,-0.3245018,0.3304702,-0.15286422,0.24204518,-0.14858653,0.14705828,-0.06660727,0.19832803,-0.38374814,0.012074452,0.2061101,0.34080267,0.17715788,-0.11449386,-0.12859818,-0.32159495,-0.09817532,0.34610695,0.00423681,0.25249094,0.06507596,0.091255374,0.16716291,0.12249907,-0.3816774,-0.41136545,-0.07397094,-0.32906374,0.20008169,0.12234778,-0.27490425,-0.4097525,0.3307448,0.234995,0.07805036,-0.24669689,-0.5471215,-0.70878327,-0.05563694,-0.13592058,0.18185471,-0.27750608,0.20889668,-0.3480044,0.26785895,-0.24132363,0.17801777,0.24535489,-0.1867475,0.040612157,-0.031190764,-0.08349455,0.007293881,0.21540384,-0.31010184,0.03343735,-0.49878123,-0.2675852,0.5122746,0.35894495,-0.107800156,-0.21947399,-0.4147945,0.050475452,0.08062692,-0.107614174,-0.07197161,-0.28532675,-0.27944943,0.064481035,0.024441315,-0.07187034,-0.53567845,-0.009048566,0.096802406,0.037414253,-0.0715057,0.15137333,0.05357156,0.1230532,-0.10569275,-0.17471227,0.3691799,-0.054505233,0.13346982,-0.19269983,-0.25621602,-0.52216333,-0.13978224,0.17564826,0.28270176,-0.25550953,-0.3404599,0.12797688,0.0511211,-0.28587726,0.08492543,-0.008366449,-0.29691184,-0.65528953,-0.017782718,-0.027883122,-0.7356755,0.11741234,0.19772567,0.20308138,0.022205722,0.35080975,-0.015943987,0.30602887,-0.14778793,-0.19989,-0.19825742,-0.049172375,0.41180953,-0.027841501,0.599652,0.17660473,-0.21338579,-0.096132874,-0.12782829,0.0063817967,-0.01962983,-0.01774211,-0.5152561,0.13227454,-0.24608289,-0.28609604,-0.25201872,0.19355783,-0.064925075,-0.121683285,-0.010175928,-0.0994325,-0.21447434,-0.10623519,-0.21393125,-0.35905507,-0.01486565,0.17607859,-0.41415954,0.10677419,-0.08351492,-0.081041865,-0.64063,0.07533281,-0.035947606,0.112322256,-0.3538016,-0.37377352,0.26144123,0.0062694256,0.0102876015,-0.80794686,-0.34405348,-0.46726626,0.091147296,0.15098123,-0.6058281,-0.30245474,0.24252349,0.067142814,0.073620446,-0.56995106,-0.8882009,-0.3837907,-0.12472332,-0.33911702,0.20336255,-0.0049019414,0.38836762,0.22154735,-0.06701075,0.19082163,0.20467743,0.13060895,-0.0357152,-0.4563399,-0.055886522,-0.05152201,-0.25513858,-0.1301472,-0.04604469,-0.22100388,0.0060022543,-0.34637314,0.17153001,-0.03261768,0.20939346,0.048597533,-0.47718918,-0.04894278,0.062483,0.049510412,-0.11114814,-0.23929822,-0.31794345,-0.19165888,-0.12040114,-0.18379259,0.17831032,-0.021536179,0.21163855,0.09023731,-0.14046519,0.3375914,0.3692365,0.2204417,-0.12617025,-0.15469004,0.007095605,-0.09777759,-0.07754259,-0.1475587,-0.29168084,0.21938646,-0.1522598,0.21856597,-0.16506764,0.22223091,-0.2386341,0.10148647,0.056219056,0.20800036,-0.40701678,-0.35103437,0.30158782,0.07622092,0.03520878
-0.10883315,0.12204696,-0.33867657,0.07511995,0.07422395,-0.5050322,-0.03819277,0.008241604,-0.051907327,-0.03385276,-0.13931075,-0.37526453,-0.24694595,-0.14488748,0.09785233,-0.025673581,0.26274037,-0.5993132,0.011789483,-0.60446894,0.09965096,0.006767353,-0.43289202,-0.19531757,-0.057830747,-0.19259681,0.15976009,-0.16902149,-0.04631544,0.1661447,0.33215287,0.26826397,-0.8980133,-0.006117719,0.11852331,-0.35689148,-0.1642829,-0.250956,-0.35654396,-0.2817065,0.0135786,0.0018989687,-0.004575661,-0.18836628,0.07490762,-0.37106678,-0.10722371,0.15530679,-0.10715855,0.16174765,-0.16475575,0.03807037,-0.056412492,-0.35202202,-0.22423069,0.1654056,-0.265639,-0.2758836,-0.26229754,0.07180399,0.30114958,-0.5332497,-0.31966782,-0.5009967,-0.17424494,-0.1308638,-0.06496599,0.30558175,0.05419404,0.035154786,-0.0010779004,0.23199764,0.45341665,-0.0047310414,0.31118122,0.19714868,0.005360752,0.306835,-0.5104357,-0.29293263,-0.2544465,0.14009713,-0.33091798,0.0029698357,-0.11420205,0.5019578,0.31134996,0.23001751,-0.24369696,-0.046718333,0.0119160665,-0.08896955,0.14724192,0.14244823,-0.13667074,-0.4589928,-0.24341539,-0.23270942,0.026240662,0.14740454,0.01255624,-0.21391633,0.045947373,-0.041423976,0.25278276,-0.082839236,0.0009792808,-0.15527931,-0.6553579,-0.27904627,0.023041744,-0.15379721,-0.13192639,-0.42755678,0.10077593,-0.15711205,-0.017319521,0.040920347,-0.6291122,-0.08541554,0.03317613,-0.08838928,0.011014877,-0.16898684,-0.35537374,0.12280106,-0.040115844,0.1064842,0.16120812,0.05224598,0.20235975,0.14384754,-0.00963879,-0.10432991,-0.29962784,0.09969215,-0.11423869,-0.28018907,0.17914894,0.070714965,-0.66895664,-0.77526504,-0.06505048,-0.2430605,-0.041621927,-0.4667621,0.13210358,-0.5781311,0.129349,-0.50164354,-0.8803195,-0.1723569,-0.1758266,0.2520122,0.09629665,-0.25455117,-0.6961987,-0.08103241,0.2414303,0.22827548,0.09191321,0.33785653,0.033786003,-0.2899546,-0.014125386,-0.26808158,-0.49058908,-0.13768049,-0.2622484,-0.09316625,0.0035396088,0.20130363,-0.30188346,-0.6916722
-0.15185884,-0.07997599,-0.034007564,0.014056029,-0.053056493,0.008945877,-0.12622605,0.15759002,0.40818122,-0.015630186,-0.16537282,-0.07771184,-0.057372835,-0.74925554,0.24086717,-0.20719682,-0.07716611,-0.42115068,0.13856934,-0.31990787,-0.47453177,0.19098082,0.20121233,-0.55152315,0.29520798,-0.2516869,0.18320139,0.13396202,-0.13840227,0.19660552,-0.48795998,0.09957211,0.15550847,-0.045180455,-0.10726569,0.2770734,0.07412826,-0.22539434,0.0027331908,-0.21207978,0.1287393,-0.10370586,0.07892437,0.25398886,0.2037783,-0.2909351,0.20024222,-0.053520773,-0.33592886,-0.22887142,0.026898488,-0.15605472,-0.28235686,0.14859536,0.010138687,-0.25104195,0.05598124,-0.011332977,0.053385887,-0.1767582,0.35270485,-0.039587967,-0.037797,0.13104406,0.20570153,-0.06851683,-0.08072831,-0.018213103,0.15431711,-0.22399327,-0.1971092,0.052354068,0.019694602,-0.049515586,-0.022622384,0.04591076,-0.0862934,0.0323097,0.08987716,0.15530148,-0.22789982,-0.37633246,-0.07912089,0.22298767,-0.1303599,-0.29700586,-0.09160937,0.30641118,-0.6448084,-0.17070656,-0.051866103,0.12335347,0.19815326,0.33827886,-0.085058995,-0.18800506,0.16945137,-0.25969717,-0.2653676,-0.084653616,0.23769349,0.061463032,-0.1609139,0.10794683,0.04575414,0.1687717,-0.09106208,-0.18399724,-0.526634,0.39843267,-0.2977515,0.15459816,-0.53234553,-0.3666773,-0.30748487,0.20480552,-0.2177681,-0.044483077,-0.1923464,0.13885069,-0.13549371,-0.22123897,0.07015629,0.013002396,0.084303066,-0.015252606,-0.5364613,0.018243648,-0.14679156,0.1791251,-0.3632666,-0.06621318,0.010114529,-0.5883649,-0.02162712,-0.4023979,0.03633846,-0.21376343,0.13252231,0.09635048,0.004447006,-0.14055975,-0.3105914,0.076247334,-0.022953931,-0.1302343,-0.089809366,-0.37038386,-0.03289092,0.048348915,0.15282187,0.087843195,-0.5600317,-0.17509177,-0.028743742,-0.13087107,-0.18882003,-0.21978761,-0.2660499,0.005160357,0.11200781,0.014532235,0.07040695,0.039357185,0.087432526,-0.5976713,0.03089308,-0.50320756,-0.18388884,-0.59327114,0.18406963,0.19940694,-0.45706207,-0.15737818,0.15686406,0.04493618,-0.5529131,-0.20293228,0.1539243,-0.27160332,0.0101104565,-0.89562243,-0.060906775,-0.06378297,0.16389331,0.01036637,-0.27074668,-0.19180052,0.106461816,-0.294994,0.025017373,0.0543645,0.11239711,-0.3964252,-0.071991324,-0.4950755,0.3740698,-0.6262397,-0.5121307,0.3194489,0.18081279,-0.11529409,-0.15499495,-0.67103887,0.3339639,-0.08091166,-0.08218501,0.17012894,-0.13464913,-0.22722512,-0.17059885,0.20430641,-0.58279985,-0.56198424,-0.34251487,0.04451661,-0.20144495,-0.03200984,0.06652617,0.1751092,0.06542036,-0.39048728,-0.22879542,0.32059753,-0.11477289,-0.57322437,-0.18983366,-0.38413984,-0.064804606,-0.25404218,-0.15387747,-0.24295229,-0.009627712,0.11458256,0.058206506,0.11421833,-0.032958005,0.22074015,-0.45536855,-0.0480036,-0.49316815,-0.3707668,-0.2252972,-0.11427131,-0.34151447,-0.09227376,-0.15326187,-0.053583924,-0.15614107,-0.19834936,-0.06878742,0.1177993,0.22258854,-0.2876262,0.0009391152,0.078879006,-0.011926015,0.28026277,-0.5306151,-0.362785,0.009909888,-0.12364847,0.04633183,-0.7354276,0.36060762,-0.15205619,-0.043086752,0.02838174,-0.004097129,-0.38912448,-0.22791846,0.076761864,0.05466909,0.08651083,0.13081858,-0.08844224,-0.082768075,0.10618693,-0.27165404,-0.03707602,-0.72601604,-0.31257373,0.051556703,-0.2601478,-0.46466467,0.16687642,-0.38789755,0.067143366,0.25076964,-0.1094538,-0.1543879,0.053023975,0.16950795,-0.2841515,0.081751175,-0.31854954,-0.38149825,-0.7482467,0.2114241,-0.049912233,0.22613543,0.014203938,-0.020214358,0.13470352,-0.38108206,-0.089690976,0.36695892,0.18923806,-0.025305834,-0.5875454,-0.12876728,-0.10970542,-0.17208244,-0.390675,-0.122032784,-0.24078664,0.14984158,0.12959337,-0.21720417,-0.2613817,-0.0844571,-0.32454738,-0.4029258,-0.1444561,-0.1123286,-0.024328958,0.10774973,0.15794379,-0.14528994,0.01177735,0.04323534,-0.29962304,0.15586193,-0.05086871,0.19883321,-0.40449238,0.10107391,-0.20813812
-0.42184734,0.06371022,-0.17853881,-0.09295378,-0.1896014,0.110403545,-0.21557713,-0.12538716,0.15779512,0.1917611,0.07489614,0.04106053,-0.2635353,-0.21976553,-0.4589281,-0.05394981,-0.3223829,-0.04793554,-0.30374414,0.0799689,0.28901687,-0.06283288,0.019192364,0.016458647,-0.12396535,-0.29138628,-0.10440175,-0.4379012,-0.18389933,-0.26411605,-0.09257789,-0.24787243,0.1427836,-0.08610136,-0.12986395,0.031519983,-0.10326512,-0.23059905,-0.065128066,-0.2501626,0.13885963,0.07425923,0.081431426,-0.2780753,-0.62213546,0.040164154,0.347868,-0.027319452,-0.2566441,-0.12324758,0.25028592,-0.030094346,0.052866906,-0.5821982,0.15215792,-0.5770274,0.24841394,0.016587518,-0.025037574,-0.16777381,-0.55616784,0.112029076,0.23523147,-0.100463755,0.09210955,-0.11358552,0.1619117,0.14028272,0.1408141,-0.15367916,-0.27714336,0.08885696,-0.0086759655,0.30276176,0.2340366,-0.064515166,-0.28900945,0.1695028,0.17556898,-0.1663255,-0.14325573,0.12657234,0.08213579,-0.123806864,-0.23702551,-0.110242225,-0.08727498,-0.18849891,0.048775513,0.32424214,0.26922122,-0.0632078,0.11840159,-0.055110514,0.37227878,-0.023362758,-0.18996568,0.15745266,0.07569299,-0.2111083,0.08341953,0.31162575,-0.26232854,0.061497133,0.097974,0.5654369,0.14183904,0.20665443,-0.62517756,0.1177537,-0.1698561,-0.06415271,-0.30324015,0.20082754,-0.14548029,0.15048054,0.13443767,-0.14110863,0.052414607,0.15971775,-0.11696032,0.1562008,0.09277233,-0.22540714,0.14536738,-0.4540339,0.48150054,-0.123947255,0.15531091,-0.57117754,0.0063451403,-0.01287839,0.10579225,0.006032776,0.0018510305,-0.023006683,0.14194635,0.11069837,0.109582886,-0.059006043,-0.16109908,0.30146506,-0.77077323,0.0002848928,-0.4917877,0.11812039,-0.46451333,0.23722908,0.22379778,0.060468327,0.026958548,0.16631357,-0.19305627,0.2234406,-0.15939729,-0.65340155,0.100639656,-0.36615342,-0.590302,0.2220097,-0.25169283,-0.45992124,-0.057388872,-0.0708631,0.059066642,-0.24784221,0.23495741,0.09660284,0.07587633,-0.03990148,-0.8300204,-0.39202648,-0.32120058,0.14975898
0.21943063,0.2368516,-0.3884388,0.016527278,0.007924942,-0.07559289,0.115807034,-0.21768087,-0.11903125,-0.30807662,0.1135032,-0.028929256,0.014126975,0.013383209,-0.1443873,0.049446613,0.10722821,0.41059476,-0.19838527,0.23476686,0.054579817,-0.27909997,-0.0021347879,-0.010821684,-0.3281139,0.015649237,-0.2407333,-0.15825385,-0.31993002,-0.08108703,0.0824725,0.031353433,-0.24535908,0.2427968,0.010118684,-0.23330235,-0.14190298,-0.20228453,0.03683053,-0.039893806,-0.10665074,-0.2507563,-0.03582224,0.066467054,0.054943357,0.123324625,0.14393227,-0.09788244,-0.0052840775,0.16072994,0.12584567,0.09066515,0.15876381,-0.25961065,0.13324164,0.18195163,0.25493398,-0.07817978,-0.112103485,-0.002285226,-0.48312658,-0.08258529,0.101534955,0.17829397,-0.13838844,0.14479443,0.15423338,-0.025730167,-0.46651703,-0.12462053,0.03280204,0.19436553,0.34060034,-0.36184737,-0.018533383,0.1788401,-0.11593591,-0.31603286,0.11760893,-0.32301274,-0.10594956,-0.023837755,0.31508285,-0.374615,0.015108098,-0.5712795,0.19873261,-0.059316296,0.2758911,-0.03023165,-0.06364155,0.10723069,-0.13798757,-0.39084837,0.09083415,0.29541308,-0.21555237,-0.11594624,0.022836598,0.21051788,-0.40283948,0.013633069,0.017435374,0.14935279,0.08894251,-0.35500184,0.05241113,-0.21370266,-0.17242634,-0.4749586,0.1434722,-0.20714656,-0.16247429,-0.10987212,0.017344564,-0.11618547,-0.40753677,-0.13703136,-0.5465939,-0.27357972,0.016995031,-0.643043,0.06563485,0.07082471,-0.06405801,-0.018135682,0.11743774,0.117228545,-0.08607915,0.040514935,-0.23623924,-0.0861687,-0.002595959,0.25470203,0.2470925,0.08191628,-0.40539163,-0.2871696,-0.03530633,0.1525541,-0.005299516,-0.23857065,-0.7668716,0.1644538,0.2559279,0.19981939,-0.00031007975,0.105692044,0.22778717,-0.23409715,-0.041026164,-0.17506915,-0.08875074,-0.1494628,-0.019478621,-0.37173706,-0.250616,0.2694243,0.17996779,-0.122450426,0.001600757,0.1198791,-0.050753996,-0.012839425,-0.13051288,0.06008786,-0.023964634,-0.035898868,0.09742531,-0.19126308,0.09414118,0.17395961,-0.12410349,0.01940695,-0.060396366,-0.036024712,0.18378273,0.30197307,0.2346985,0.36915776,-0.072494686,0.06565333,-0.023716185,-0.112617046,-0.2622528,0.024373105,-0.16418412,-0.048272956,-0.15200247,0.107306935,0.0412017,0.10317935,0.08209736,0.036873404,0.09456465,0.08415264,-0.008194338,0.10168514,-0.00443171,0.15164737,0.3565566,-0.02050476,0.063085385,0.3384836,-0.14305921,-0.16792,0.030812904,0.087272495,0.015351703,-0.05456191,0.14369996,0.07487729,-0.10008264,0.035716567,-0.15069932,-0.26349854,-0.58862644,-0.30256155,-0.094866864,0.051701326,0.035029747,-0.06326087,0.067108005,-0.07094716,-0.01050865,-0.28964633,0.22504824,0.02605926,0.22968397,-0.0394494,-0.21120054,0.009707126,-0.03245463,0.060420666,-0.02490505,0.086116664,0.16491836,-0.22248258,0.026565176,0.26518935,0.12967558,-0.07701907,-0.07332855,0.14553347,-0.2238035,0.096032955,-0.13174467,-0.57103884,-0.02848006,0.11160839,0.0006531762,-0.0066031306,0.1208379,0.0067537683,0.037733644,-0.10846133,0.052252844,-0.023948118,0.20024993,0.014482007,0.1681166,-0.084616646,-0.323342,-0.10330819,-0.27927697,0.17837273,0.1446929,-0.15039219,-0.45479894,0.08102139,-0.28355762,0.20007876,0.18772914,-0.015578208,-0.20321196,-0.23667063,-0.18140556,-0.17990623,-0.5895253,-0.03422082,-0.23853189,0.24026053,-0.44586563,-0.27117392,-0.2621981,-0.24581796,0.091676936,-0.23554747,0.17799373,0.08647987,0.28637257,-0.12244463,0.016406674,-0.07456018,-0.5378701,0.10642052,-0.30234525,0.04102905,0.091798455,-0.16551098,-0.28423727,0.03385093,0.2652848,0.028998168,0.26675162,-0.07904799,-0.16879629,0.05324668,-0.16126953,0.0717451,-0.15365444,-0.007095424,0.13681889,0.2151977,-0.623118,-0.0681305,-0.055027492,0.044026036,-0.021484224,-0.09848672,0.04042742,-0.32977724,0.10747178,0.14551105,0.31451094,0.09201166,-0.2667594,0.19139302,-0.13729657,0.11094057,-0.1887659,-0.048826993,0.21188574,0.16517517,0.14024875,0.29314387,-0.14101288,-0.24548894
-0.3075,0.051608637,-0.10333661,0.03384372,0.044090025,-0.09969758,0.030561302,0.106217355,-0.20791043,-0.10506265,0.047413107,-0.041826606,-0.14605452,-0.19959114,0.053094365,-0.05988519,-0.21193646,0.188281,0.48133168,0.24395436,0.29241502,-0.0727474,-0.13547862,0.19832543,-0.1630267,0.6687734,0.36233103,0.21020588,-0.062410682,0.39050043,0.16122018,-0.12958139,0.042339645,0.18847182,0.3315711,0.14467092,0.4156668,-0.0012767966,0.15798579,0.24183163,0.014051369,-0.12629284,-0.057423662,0.1025606,-0.22505352,-0.21652487,0.16656865,-0.122848965,-0.27123997,-0.029020438,0.15556858,-0.05937166,-0.16785894,0.049915362,-0.27834293,0.23067963,0.14911024,-0.10485286,-0.010847887,0.4109162,-0.12104172,-0.011526231,-0.35268265,-0.34913635,-0.19769631,-0.47318605,-0.011899426,-0.10372661,-0.060547587,0.1315418,-0.00018930365,-0.097599134,0.06354397,-0.18898237,-0.036681604,-0.5676471,-0.45676288,-0.19220772,-0.03935592,-0.016497089,-0.1402674,0.24053988,0.15340863,0.1026352,-0.066576876,-0.033021018,-0.17706855,0.18665656,0.13351116,-0.1251247,-0.15678023,0.2694581,0.05672005,-0.028248845,-0.2486807,-0.15581726,-0.1299812,-0.2563097,0.111725666,0.06242621,0.053958945,0.22947142,0.053737435,-0.008277919,-0.2857424,-0.33640355,-0.11336518,-0.1658782,-0.35249183,-0.25681415,0.1354712,-0.10814584,0.096302375,0.23949431,0.07005537,0.2387235,0.053061496,-0.2409047,-0.0961371,0.2612017,-0.32866302,-0.067881234,0.26738924,-0.18087927,0.10907715,-0.04921894,-0.2933536,-0.10800704,-0.036511023,0.23162788,0.09414193,0.15473554,0.2829486,0.0179802,0.23866254,0.076462045,-0.06093048,-0.3979074,-0.06445843,0.034179714,-0.22042488,0.047239617,-0.36731166,0.2328941,-0.290793,0.39823723,0.18001185,0.54019064,0.21072793,0.06983511,-0.42471147,0.0697551,-0.45411003,0.17449857,0.4867138,0.06763182,-0.05519822,0.2076608,0.13756275,-0.17709033,-0.0083047645,0.06912617,0.2266026,0.433072,0.008697482,0.14122316,0.18586943,0.18073137,-0.19902551,-0.21671972,-0.1427382,0.12680697,-0.250916,-0.40841097
-0.14417647,0.16151531,0.4191981,0.1530356,-0.19809008,-0.0010046134,0.10528271,-0.22300759,-0.24008809,-0.14015968,-0.28515467,0.0507822,0.13257122,-0.006159243,-0.49852428,0.031374082,0.072837375,0.07151867,0.043001074,-0.18385221,0.29566818,0.021046441,0.13593762,0.14002061,-0.2068016,-0.0023609013,-0.34146073,-0.087373994,-0.45102897,0.06682094,0.36483073,-0.20671959,-0.22411121,0.028833035,0.34421274,0.15710501,-0.4311549,0.10015203,-0.008608442,-0.009934126,0.23898308,-0.012271177,-0.19700785,0.10197365,0.017196042,-0.09970781,-0.121109396,-0.25711218,0.17566481,0.108628094,-0.24754228,-0.012396531,-0.11588681,-0.2175269,-0.07831399,-0.38589546,-0.114836924,0.062454104,-0.4339453,-0.14251272,-0.18642262,0.21159174,0.17263326,0.05259946,-0.008810386,0.018835194,0.40005615,0.11004531,-0.39851066,-0.090512045,0.23075482,-0.009754769,0.17337881,0.16867273,0.18896812,-0.0013109593,-0.18841065,-0.08068675,0.0861329,-0.31113186,0.08518673,0.0635549,-0.39769593,0.083223,-0.09466553,0.14185439,-0.30077255,-0.24917263,-0.11411306,-0.04655439,0.048967354,0.05699093,-0.069866,0.017895525,0.22809353,0.26266563,0.16649874,-0.9075862,0.32092735,-0.041972615,-0.45190728,-0.31295773,-0.25889993,0.025174914,0.04580959,0.23777173,0.09637624,-0.2902581,-0.48355576,0.13010195,0.02482816,-0.4709366,-0.118805796,-0.018497035,-0.12094328,-0.057610933,-0.23911268,0.43959242,-0.26210925,-0.13318376,-0.3352482,-0.1024072,0.054881822,0.039232284,-0.036921423,-0.045318257,0.19229692,0.01242256,-0.34672666,0.05599821,0.22276285,-0.2380467,-0.15040024,-0.28520596,-0.06226655,-0.025593044,0.11634039,-0.6117472,-0.33031663,0.057889257,0.056806196,-0.48362154,-0.20710306,-0.34810996,-0.08715349,0.028216697,0.27002218,-0.09559696,0.08537681,-0.37035716,0.24491335,-0.23157932,-0.37751842,-0.41815928,-0.07231067,0.2507008,-0.2531488,-0.030824121,0.12836044,0.03951898,-0.30641118,-0.054850604,0.2157961,-0.1360543,-0.3079516,0.0006386854,0.13058151,-0.20496666,-0.49319324,-0.009002355,0.06768136,-0.03480961,0.27070895,-0.20595609,-0.110071324,-0.33268896,0.23131505,0.13169125,-0.15187553,-0.27404502,-0.10849834,0.1572434,0.019193418,-0.28046748,-0.18880905,0.04870318,-0.16847722,-0.30459607,-0.41077498,-0.026723148,0.14076224,-0.5209179,0.08250128,-0.41021287,0.32218808,0.09799453,-0.2159494,0.025132373,-0.32382557,-0.335822,-0.37338802,0.11794999,-0.119712956,-0.20420066,0.21340871,0.1385525,0.1083523,-0.2821552,0.21018371,0.12733722,-0.26434422,-0.23280998,0.03230863,0.06153982,-0.36412093,0.115068875,0.08798141,0.35848874,-0.48181778,-0.46249375,0.05680116,0.1885601,0.12853475,-0.660851,0.2890609,-0.52606076,0.1761361,0.013942275,-0.33228245,0.08402485,-0.33670568,0.06891642,-0.08823654,0.21896316,-0.01565418,-0.30551174,-0.40263498,0.24496153,-0.08739646,-0.28900003,-0.27538022,0.1866962,0.14086206,-0.16108635,0.15054794,0.2971936,-0.032874778,0.30947435,0.08527889,-0.055272706,-0.080045156,-0.034575067,0.23368104,0.4547513,-0.06606882,-0.14343028,-0.26814118,-0.085809186,0.07761638,-0.20100737,-0.27787754,0.006068751,0.10332593,0.26537767,0.0074912454,-0.30948257,-0.50458556,0.069675684,0.22710145,-0.41455707,0.053766135,-0.45054814,-0.019746033,0.051619764,0.3592192,0.24196905,-0.18387991,-0.14122291,0.38618428,-0.24088547,-0.30483,-0.14755888,-0.035228632,0.3023599,0.041418515,0.13608368,0.055874806,-0.2769674,-0.27653754,-0.0060087517,-0.08014316,-0.122807786,0.2200905,-0.12844805,0.22904244,-0.20381106,0.06271883,-0.17887592,-0.18150698,0.115262285,0.14457905,-0.07119708,-0.061483722,-0.21998224,0.070953645,-0.005977882,-0.04937348,-0.047037385,-0.023936175,-0.42037874,-0.08502315,-0.05719588,-0.1876361,-0.16638972,-0.020829495,-0.28820914,-0.4723116,-0.14064899,0.11005177,0.024674207,-0.08364507,0.11829747,0.08620892,-0.14703064,-0.31597427,0.08028988,0.051700234,-0.2682929,-0.08563816,0.041806575,0.030625757,-0.10386224,-0.13288099,0.108108796,-0.09176004,-0.07508238,-0.067138575,0.19819689
-0.021978907,-0.13715208,0.19309098,0.09302892,0.025614407,0.029056594,0.14145118,0.16005674,-0.33798125,-0.21365124,-0.17398861,-0.06992958,0.07665927,-0.19417827,0.027953329,-0.0829553,0.08002599,-0.18741465,-0.0715189,-0.15060006,-0.17258707,-0.00050539395,0.07825663,0.014230474,0.098426506,-0.31641397,-0.42030933,-0.097018525,0.07007215,-0.23292106,-0.20445701,-0.016271215,0.08686746,-0.29667524,-0.29946396,-0.01691967,-0.39620242,0.10389004,-0.059303906,-0.42643476,0.04257474,0.014299837,-0.031067615,0.09043391,0.12909353,0.035049483,-0.16987401,-0.09137029,0.15157774,0.023116821,-0.46277794,0.06710994,0.17799266,0.3273087,-0.035707515,-0.046834588,-0.10273522,0.16786712,0.21502812,-0.28550062,0.10760144,-0.3124248,-0.0038866699,0.14272366,0.17575231,0.42494586,-0.19315515,0.10981161,-0.0988795,-0.38530847,-0.021567544,-0.13311864,0.10187032,-0.036008406,-0.35247323,0.2704359,-0.025862034,-0.052254453,-0.40597564,-0.19612888,0.11636962,-0.20606951,0.07780824,0.018482206,0.16312173,-0.21919574,0.050440855,0.15607841,0.09002862,-0.14436474,0.025501477,-0.25914448,-0.0841193,0.2534587,0.08143714,0.18044782,-0.12762505,0.019255262,-0.18685749,0.07385689,-0.25068074,-0.1681776,0.1838225,0.0178799,-0.32914874,0.0060735825,-0.5403451,-0.19114886,0.29347423,-0.4729268,-0.13110667,-0.08246101,0.04345624,-0.29573554,-0.2527868,-0.17253308,0.08795826,0.03438651,-0.20096707,-0.37377012,0.083666384,-0.14749062,-0.3569027,0.17669284,-0.004314082,0.267991,-0.013798974,0.24745232,-0.14217725,-0.11132296,0.07620559,0.03179413,-0.33199337,-0.11095924,-0.01268007,-0.07633473,-0.19320206,-0.23437056,-0.04216467,-0.08341721,0.1552533,-0.42640835,0.116407216,-0.73604053,0.10300351,-0.547563,0.20516858,-0.6945029,-0.45012695,0.13569069,0.2561884,-0.2260135,0.27081615,-0.7141253,-0.58561355,0.07701484,-0.018176151,0.068428166,0.010354839,0.2541182,-0.13451216,0.0066394703,-0.19899717,-0.33991668,-0.5630868,0.01669717,-0.34843898,-0.5222836,0.1484601,0.05537756,0.053105794,0.07805512,0.35711876,0.19951786
-0.014849163,-0.13043286,0.07532332,-0.25230482,-0.032048892,-0.37503034,-0.09082269,0.40772414,-0.2140109,0.11002054,0.16426748,0.06407606,-0.16388923,-0.016975828,0.39202908,0.040267356,-0.09572675,0.21206103,0.15072753,-0.043807168,-0.07745111,-0.03398224,-0.13279301,-0.19738796,0.002574852,-0.48520374,0.026198603,0.40489617,0.20531595,-0.16542184,0.16435544,0.048085865,0.0999048,-0.65109515,-0.068572216,-0.3350917,0.008920673,0.0892253,-0.33588073,0.3375191,0.101005234,0.27771094,0.066753514,-0.5288701,-0.21160068,0.010556209,-0.13161685,-0.01841285,-0.05504646,-0.0687006,0.044996634,-0.019927682,-0.46931535,0.050105974,-0.27055103,-0.35159907,-0.27787536,-0.13685241,0.41072774,0.48398367,0.30851465,0.040120386,-0.17261586,-0.057404984,0.038966812,-0.42405123,-0.8082221,-0.1493982,0.23581849,-0.33409977,-0.36244974,0.0630006,-0.18763034,0.05618858,0.10325498,-0.38842192,0.21246777,-0.082577705,-0.19374494,0.03148148,-0.31067082,-0.3254946,-0.12075756,-0.03960683,-0.53093565,0.2928323,-0.23846422,-0.24424353,0.18135926,-0.40570557,0.351095,0.22409733,-0.025793526,0.17868933,-0.568545,-0.23993063,0.12756318,-0.052736755,-0.43197083,-0.1028382,0.28877765,0.0073676305,-0.06792097,-0.04869458,-0.014927796,-0.039066635,0.012065553,-0.4594165,0.052230403,0.03876255,-0.0990448,0.26851204,-0.09891085,-0.11633274,-0.11036373,0.17910986,-0.094476335,-0.073642276,-0.20352928,-0.13600598,0.18877615,0.02646553,0.043194283,-0.17493194,0.1076487,-0.23642287,-0.47711095,-0.101807766,-0.010863226,-0.13825567,-0.09352581,0.19625251,0.072143026,0.1320416,-0.4854669,0.1154307,-0.44050905,0.16572273,0.030631991,-0.34149912,-0.11477594,0.16468513,0.26578018,0.0648382,-0.4037503,-0.15593922,-0.4260009,-0.11812733,-0.009219094,0.091231674,0.20145679,0.05376935,0.30254272,0.10346879,0.021744814,0.26913196,0.043442823,-0.20756899,-0.35305253,-0.13262923,0.027068727,0.07340358,-0.12436456,0.014819161,-0.09899877,0.29703525,-0.030449228,0.13020049,-0.20387952,0.20749107,-0.38143197,-0.0705582,-0.2831938,-0.115191795,-0.078918956,-0.068480164,-0.2639675,-0.32210675,-0.28343785,-0.13233745,-0.23912494,0.3422691,-0.05662919,-0.1028548,0.11922671,0.028079184,0.34284368,0.21548934,0.21877202,0.060083717,-0.14751904,0.008827625,0.011450171,0.049324416,-0.18272789,0.17578535,0.14783342,0.0061223414,0.28853238,-0.28783306,-0.7831841,0.0334291,0.1933884,-0.06872846,0.27279824,0.013445177,-0.11637904,0.041005433,-0.22779737,-0.31857005,-0.20544055,-0.0061851507,-0.2625869,0.21989247,0.009903895,-0.15032138,-0.016446827,-0.26129916,0.27362657,-0.0679404,0.06565342,0.15248719,-0.22043951,-0.2789988,0.051478364,-0.28444535,-0.48780373,0.1854694,0.16183223,0.16998227,-0.47943813,0.02641655,0.06314904,0.13083646,-0.14856242,-0.6852748,-0.4297459,0.1473186,0.078911774,0.16028695,-0.3960091,-0.32042277,-0.43524408,0.055562556,-0.07781532,0.18915789,-0.105876915,0.014602054,-0.049519602,0.046737093,-0.026040286,0.023132395,0.009465695,-0.045278795,-0.26461098,0.1004566,0.071048275,0.25366095,-0.30390564,0.15020195,0.09543701,0.14302145,-0.0073880884,-0.10360435,-0.2564384,0.061811775,-0.18213828,0.02565445,-0.23724422,0.101098515,0.15928775,0.09811822,-0.2892378,0.03097966,-0.08170642,-0.002147584,0.23949447,0.044007007,0.15408231,0.029162403,0.24037305,0.027927537,-0.12235591,0.12196581,0.24235274,0.0812417,0.1817302,0.112934425,-0.28492287,0.29660857,0.023739401,0.15293008,-0.6591624,0.24999492,0.28562003,-0.0191833,-0.33965564,0.22913755,-0.22584252,0.035168607,-0.11800541,-0.08585329,-0.34960932,-0.13362539,-0.26493746,-0.15903267,-0.124424875,-0.37318558,-0.16233227,0.30838153,0.22262695,0.05753553,-0.04490963,-0.061663345,0.346332,0.036382783,0.064227335,0.30439058,0.3016238,-0.19172339,-0.068733975,-0.08467518,-0.1964727,0.18680719,-0.020045841,0.03297551,-0.08171715,-0.18484162,-0.6737698,-0.12078102,-0.37882167,0.10758711,-0.31742683,0.104164734,0.10766889,-0.41621694,-0.10357442,-0.442197
0.09542337,-0.08530208,-0.22578664,0.075152956,0.034066882,-0.028412856,-0.41844818,0.07950886,-0.057344895,-0.118750885,-0.05920423,0.21100192,-0.08323739,-0.25654298,0.116171755,-0.18768008,-0.29271305,0.4393375,-0.021756092,0.15797858,-0.49865898,-0.2979072,-0.1387775,0.14641312,-0.31444559,-0.046140734,-0.05286191,0.23515143,-0.09851267,-0.13685253,-0.5206898,-0.29109812,-0.86585283,-0.2112867,-0.12798311,0.15721902,0.19619949,0.2679309,0.19833295,0.39714363,-0.10794729,-0.06799229,0.18520398,-0.00015245847,-0.23538549,-0.06462264,-0.2826669,0.14707462,0.29447237,-0.39989975,0.09564953,-0.28671402,0.06347085,-0.10927395,0.5123425,-0.35336924,0.21961088,-0.14883634,-0.33946902,-0.12648426,-0.40579408,-0.0189177,-0.14281872,0.1119159,-0.0015860617,-0.3201856,0.19349988,-0.3350778,0.032724947,0.21929562,0.09476361,0.10611198,-0.06760301,-0.015532649,-0.66094285,-0.17658089,0.45567235,0.06053857,0.06096268,0.25493616,0.09287292,-0.19102485,-0.09287289,0.025761416,-0.012715781,-0.26615387,0.55358213,-0.4287919,0.09133347,0.12774476,-0.095779225,0.15588674,-0.5622109,-0.14143486,-0.44883776,-0.41579065,0.15335445,0.050198365,-0.10867411,-0.56431293,0.04919067,0.029665913,-0.30415213,-0.19222967,-0.06583908,0.066638954,0.11181129,-0.4038164,0.36145926,0.39770293,-0.05616786,0.011368908,0.043425355,0.045797624,-0.15387163,-0.057295013,-0.14144644,0.017643811,-0.38939226,0.16962627,-0.04264123,0.14279696,-0.07126038,0.32421604,-0.025176248,-0.5552152,-0.47589657,-0.68754107,0.11505714,-0.4579409,-0.1492028,-0.26914564,0.18160774,0.12564069,-0.36192128,-0.20524314,0.0035438205,0.22033714,0.17285575,-0.29717687,-0.2300834,0.2127844,-0.5224462,0.0028554029,-0.20229277,0.34493133,-0.2929632,0.26674503,-0.14573932,-0.3060032,0.05708435,0.1788912,-0.21161924,-0.30096987,0.10858112,0.5158884,0.3588395,-0.51290935,-0.3981482,-0.35993475,-0.20012408,-0.6366337,0.061271764,-0.21062173,0.026687857,0.284261,0.18967167,0.036989536,-0.23149106,0.068297476,0.013745077,0.076870084,-0.30181122,0.15489316
0.22740886,-0.30573067,-0.57626486,-0.08712517,0.106804565,0.13241576,0.08897065,-0.026385143,0.107378766,0.48240736,0.10342222,-0.324533,0.017223727,0.3255553,0.17764135,-0.012308728,-0.0945399,-0.2648465,-0.045464795,-0.16497605,-0.24528077,-0.19008294,-0.27012405,-0.010097548,0.24350105,0.08151403,0.22272865,-0.29392752,0.39578912,0.13502401,-0.37186593,0.050822407,-0.041025613,-0.4187786,-0.1350372,-0.011045168,0.10306212,0.0151759265,-0.30015337,-0.0853241,-0.55759364,0.14555134,0.14858462,-0.33821467,0.040680304,0.06252082,-0.09789794,0.050562438,-0.025466634,-0.22074403,-0.25153157,-0.08543499,0.17542662,0.0650245,-0.027293587,0.2141373,0.061119016,0.24680749,-0.057188466,0.008191583,0.10705121,0.04140036,-0.27461,-0.4737194,0.039756753,-0.12436523,-0.32624316,-0.081644945,0.109374166,0.22861105,-0.12869455,-0.45888966,-0.38632146,-0.031194694,-0.47984236,0.19549696,0.14001526,0.07545407,-0.31991497,0.22514908,0.22734377,0.020848615,-0.072037235,-0.011038298,0.3119173,0.06847948,0.11718253,0.16390029,-0.024487942,0.16540399,-0.46121088,-0.57102114,-0.17147635,0.008846105,-0.79670435,-0.47771913,-0.2891303,0.2537368,-0.63887507,-0.22513019,0.041290063,0.19599505,0.26626194,-0.43427587,-0.42245716,0.09675134,-0.64281094,0.30985495,0.30773538,0.22551236,-0.6686362,0.08806999,0.21863563,0.19624075,0.10358058,-0.12621236,0.5419952,0.04245326,0.4985554,0.10944546,-0.23672676,0.32262668,-0.4744384,-0.39339694,-0.15957443,0.3629606,-0.73077524,-0.40301287,0.15169232,-0.27139083,-0.14988315,0.11024307,-0.03381585,0.28374574,-0.07184784,0.13231742,0.40377948,0.45130983,-0.178527,-0.09424321,0.15527305,0.17326567,0.11502498,-0.20288777,-0.15453966,0.033841804,-0.10240591,0.1543696,-0.22688363,0.1894753,-0.09789677,-0.18209964,0.38494733,-0.020926943,0.017353116,-0.60362744,0.17346542,-0.080958106,-0.3068245,0.00036779398,0.0679601,-0.01824641,-0.11195407,-0.10118981,0.14370015,0.1359523,-0.12543279,0.04580292,-0.029827233,0.30233264,-0.12340369,-0.020983305,0.110354565,0.08919403,0.09639164,-0.005524204,-0.12023629,-0.027029114,-0.21502344,-0.10498975,-0.086041674,0.19817524,-0.082812645,-0.015929032,0.09917244,0.102259606,-0.10892286,-0.108967364,0.20257978,0.07852808,-0.24799715,-0.34002483,-0.06655993,-0.21566388,-0.4749203,0.12506326,-0.178006,0.15886664,0.15157838,-0.1146011,-0.084271125,0.05059848,-0.081638195,-0.27451614,-0.096023366,0.076749355,0.053102486,-0.0696565,-0.0039653657,-0.24146514,0.23572758,-0.17298265,0.28178918,-0.14126764,0.1097454,-0.02697103,0.09707167,0.24568997,-0.4877589,0.049956404,-0.07977034,-0.09202765,0.14870876,-0.18323648,-0.527131,0.31800628,-0.44905645,0.11780222,-0.3651247,0.06594503,0.40824404,0.057747673,0.0039244574,-0.3815426,0.15921263,0.49449039,0.2982205,0.02598268,0.20225611,-0.5947683,0.14002167,0.0016434623,0.3469888,-0.08803121,0.28283042,-0.2075558,0.3311287,0.08624826,0.039810244,-0.048388485,-0.18894598,-0.07590145,-0.5909149,0.1897282,-0.019155242,0.058330417,-0.10389158,-0.100655586,0.05586983,0.045159407,-0.14019686,0.100694805,0.032028034,0.33863693,-0.019913683,-0.16459651,-0.10326942,0.016574232,-0.041497156,-0.1594861,0.062328,0.048648052,0.15047099,0.015554111,-0.112534255,0.15176424,0.16389397,-0.11996266,0.089626074,-0.35711598,-0.0670623,-0.10691465,-0.023553882,-0.35004297,-0.18867022,0.09909123,-0.14600584,0.09041975,-0.015788827,-0.05002699,-0.006342631,0.09194191,0.038426496,-0.03580332,0.13991469,0.12475903,0.12151048,0.18377015,0.027752858,-0.06423256,-0.022882631,-0.02485146,-0.15046936,-0.22779866,0.0144905085,0.04576067,0.012664936,0.0072726794,0.1859363,-0.07194347,0.1123395,0.07433551,-0.051037893,0.23477739,-0.10893033,-0.07078633,0.113808185,-0.07663766,0.048385754,-0.043579806,0.12978998,0.12174792,0.15190214,-0.100187436,-0.39298832,-0.31330007,-0.08240092,0.08643068,0.12603281,-0.110488705,0.17834795,-0.24618328,-0.16952267,-0.12327434,0.102286935,-0.020960396,0.026910547,0.017733924
0.25055614,-0.28932214,-0.07540133,0.005640764,0.044130445,-0.1348156,0.03284595,-0.20648889,-0.04239253,0.08668638,0.076599345,-0.13931416,0.083988026,0.23218127,0.03605677,0.23321258,0.09120792,-0.12125423,-0.5216723,-0.22734271,-0.13889274,0.09501151,0.12647904,-0.08481789,0.095026486,-0.36375564,-0.27458525,-0.34268492,-0.0453887,-0.31213394,-0.42609987,0.01730479,0.20010948,-0.28244245,-0.20574057,-0.36802307,-0.09031757,-0.36670694,0.04173224,-0.27616554,-0.03249526,0.17412734,-0.15204409,-0.3977662,0.16309856,0.22790632,-0.6524017,-0.017815502,0.20076397,0.05591067,-0.5519978,-0.08442082,-0.06577893,-0.09771958,-0.47276247,-0.07109311,-0.48581463,-0.22006145,-0.002542067,-0.10912677,0.051036112,0.050276473,0.13414413,0.22085603,0.06964359,0.23257297,-0.021925693,-0.06546823,-0.015545574,-0.107327096,0.01855811,-0.13115689,-0.525768,-0.31042647,-0.026141614,0.018403014,0.020611243,-0.49560067,-0.20751287,-0.15737544,0.0067532654,-0.113489956,-0.4190233,0.11441516,-0.10259579,0.043865893,-0.3517429,-0.31091276,-0.34387088,0.050449852,0.062349897,-0.28004953,0.051765416,-0.06214495,0.049658272,0.21575609,-0.0018634888,0.29966176,-0.008310747,0.095195256,-0.02296752,-0.13609633,-0.04096069,-0.04129715,-0.008376431,-0.3508392,-0.09437587,0.123271875,0.30005378,-0.28506237,0.14360738,-0.00066892814,0.13234703,-0.23601714,0.17671037,-0.27537787,-0.085791014,0.070698135,0.62970364,-0.4212378,0.2491745,0.0501568,-0.120491095,-0.24976209,-0.21098068,0.08294168,0.09706667,0.20151865,-0.12990516,0.23039967,0.062309,0.08874767,-0.13971092,-0.24040923,-0.33614558,-0.18025532,-0.05884234,0.20747115,0.122469865,0.073111266,0.18496938,0.18485159,0.1502057,0.16526146,0.11521889,-0.2664675,-0.30131274,-0.5260468,-0.16515534,0.17245008,0.065760955,-0.18920597,0.35316756,-0.20952,-0.2370205,-0.03439061,-0.07415113,-0.029655615,-0.13240473,-0.11326454,-0.202672,-0.099144265,-0.37400156,-0.22879662,-0.26974705,-0.33885825,-0.16999245,-0.43846002,0.3204651,0.13437179,0.117225885,-0.024756148,0.18280154,0.15792477
