0.08620588,-0.030278618,0.054551776,0.016022375,-0.06832255,-0.08964087,-0.20938621,0.10923351,-0.085125685,-0.0030685992,-0.0919,0.013873008,-0.11550698,-0.034710757,0.16903493,0.12783223,-0.063947074,0.09066905,0.034244202,0.040995892,0.01266592,-0.11959863,-0.06751334,-0.2136346,-0.00015759999,-0.11181729,-0.0051285727,0.12760627,-0.106450096,-0.165064,-0.33110625,-0.1420599,0.11988633,-0.048633054,-0.11215848,0.06852116,-0.040047646,-0.10804606,0.10107965,0.058969617,-0.0029898502,0.045707557,0.0044123614,-0.13050705,-0.088394366,-0.19873145,0.05698693,0.009687161,-0.079949945,-0.16346464,-0.023827625,0.058089342,-0.028779913,-0.1258974,-0.2737618,-0.14704908,-0.0410108,-0.0025307469,0.088462524,0.06404985,-0.19095118,-0.05594686,-0.12126638,-0.047102794,0.11798683,-0.12070075,-0.07289639,0.13580593,-0.10135404,0.13949785,0.10820999,-0.031662356,-0.026856067,0.088976316,0.03495114,0.12634291,-0.17059435,0.10348682,-0.060018104,0.05608861,-0.014361898,-0.089249276,0.058253013,-0.0821453,-0.122957885,-0.062132515,-0.15108842,-0.17084917,-0.025409818,0.093339995,-0.07454718,-0.07440047,0.055203125,-0.05022007,-0.09818724,-0.07869546,0.11744773,0.12602283,0.02213484,-0.05251258,-0.17138511,0.08377219,0.16292234,-0.022954702,0.09149521,0.16156855,-0.097101316,0.062359527,-0.17854239,0.18624483,-0.17386146,-0.0050319796,-0.03182133,-0.016610434,-0.0057255863,-0.11702518,-0.08141715,0.050573237,-0.10392296,-0.21080156,-0.13898328,-0.036467083,0.03668305,-0.15314841,0.01362253,0.15041555,-0.1255329,0.1282554,-0.14896546,0.07668623,0.027206844,0.037926998,0.069923185,-0.2393658,-0.15088066,0.16095929,-0.00675659,0.17516373,-0.26853287,0.1596334,0.20071532,-0.034280572,0.04869844,0.04762365,-0.09885038,0.125084,0.06768745,-0.076100774,0.14126939,-0.25027,-0.08604298,0.073590204,0.11385463,-0.12554573,-0.13460216,0.17447661,0.16551594,-0.19233868,-0.19814347,-0.14766088,0.00031433773,-0.17650071,0.15993299,0.09703237,-0.09092238,-0.034121435,-0.24259551,0.12709859,-0.20100883,0.06585124,0.0052696196,-0.23059762,0.050380018,0.14553492,-0.2675464,0.08233412,0.28545618,-0.03213198,0.0024613794,-0.041954312,-0.09776599,-0.14611444,0.0014066334,-0.020804567,-0.07922828,0.07140487,-0.11791638,0.07971102,0.064917095,-0.10372412,0.079095945,-0.091823794,0.013998815,-0.32300004,-0.096547365,-0.13807671,-0.07789039,-0.0013947715,-0.13135295,-0.15029475,-0.15837853,0.09124999,-0.07342899,-0.04874643,-0.13134,0.02678342,0.042422,-0.07265002,0.20053948,-0.055761844,0.13401939,-0.017247504,-0.16179611,0.0388416,0.05266988,-0.009419417,0.059921034,-0.06882643,-0.23619881,-0.21103027,0.025604717,0.03420501,0.051885948,0.08810394,-0.116916,-0.03665472,0.03566292,-0.12422391,0.16382766,-0.20912382,0.04945612,0.20659405,-0.052990235,-0.0045945384,-0.14039461,-0.024809334,-0.18224469,0.10546869,-0.17154855,0.11076752,0.006641542,-0.1031989,0.12406623,0.019048382,-0.14238167,0.12710613,-0.04192053,-0.14423312,0.17381676,0.1266629,-0.14446017,0.0074698552,-0.034654688,0.15826751,-0.024083946,0.22434732,-0.07189234,-0.24238202,-0.41348124,-0.08239031,-0.24425624,-0.26846406,-0.2981433,0.110283665,0.026400559,0.027405687,-0.5486569,0.26367038,0.1589411,0.27773422,-0.20394233,0.16101561,-0.05615238,0.109425746,0.07716363,0.07527665,0.10233678,-0.33890098,0.17789485,-0.012967467,0.05642362,-0.35296035,-0.25430068,0.14288884,0.20057473,-0.23259105,0.16593884,-0.148587,-0.056890633,-0.1689719,-0.13383244,-0.043040145,-0.16222458,-0.07586846,-0.01291244,-0.12720142,0.09454359,0.0899799,-0.04064729,0.12996425,-0.006404938,-0.20764902,-0.07778579,-0.07262005,0.1303334,0.094336875,-0.014718481,0.20679238,0.10709668,-0.21659337,0.11459578,0.03555595,-0.1356885,-0.22589768,0.016460085,-0.00492658,0.118231766,-0.11177136,0.1648314,-0.10296209,-0.13380063,-0.030664872,-0.17155623,0.04492187,-0.0028824436,-0.028610656,-0.1078793,0.12371749,-0.22930647,-0.13985386,0.06453251,-0.20092468,-0.25485352,0.018241063,0.08852205,-0.109982274,3.2894153e-05,-0.14576353
0.102292575,0.05348532,-0.05036502,0.12549226,-0.044847675,-0.025319405,0.025222057,-0.06982923,0.01129065,0.04223833,-0.0133649185,-0.011407086,0.19199665,0.012573687,-0.27451304,-0.09879307,0.030470096,0.14909257,0.21052451,-0.21674521,-0.02156676,0.11308732,-0.08295619,-0.115592286,-0.21049957,-0.2452781,0.01830387,0.06444888,-0.48561525,0.06963981,0.0037950163,0.013612054,-0.046251286,0.0854511,-0.11103626,0.07039203,-0.0028884213,0.029575266,0.11772167,0.14544615,-0.18534006,0.030927893,-0.08128581,0.15358713,-0.015924292,0.03187445,0.009346682,-0.03776281,-0.052541174,-0.25187236,-0.18291639,-0.0052980697,-0.012957702,0.1432989,0.10213358,0.038606804,-0.15122508,0.15148726,-0.0033193363,0.09879794,-0.27109984,0.05648838,-0.27018028,0.094538026,0.020809852,-0.004349343,0.22221565,-0.0648318,0.08703053,-0.09995292,0.15373771,-0.011011679,-0.22407335,-0.16904533,0.11189006,0.09517858,0.2610842,-0.04798449,0.08944347,0.080821455,-0.29332224,-0.050136097,-0.2602499,0.099838816,0.026632553,-0.15956149,0.2553904,-0.06633366,-0.034044772,0.092710316,-0.005338364,-0.10931864,0.10180484,-0.11224917,-0.08966513,-0.019486055,-0.2816231,0.051268674,0.24671763,-0.21026398,-0.16139323,-0.16397636,-0.22945625,-0.16222444,-0.025289759,-0.21832827,0.11761121,-0.081689894,0.082097925,-0.10262548,-0.02997946,0.050757453,-0.040903505,-0.021290794,-0.11709863,0.12944561,-0.023545781,-0.022371924,-0.097565874,-0.08525807,0.04139211,-0.22114429,0.073267624,-0.40182355,-0.09945815,-0.17502958,-0.16590427,0.0109034525,-0.28296512,-0.3828888,-0.052278593,0.03455759,-0.46817058,0.093415245,-0.28881064,-0.18535773,-0.053771533,0.1105259,-0.14799738,0.04857885,0.14091918,0.04177727,-0.29137072,0.11554146,0.042726,-0.08937826,0.14621241,0.084188625,-0.057080362,-0.043943003,-0.06294114,-0.14341207,0.12989904,-0.27652517,0.15151592,-0.26935482,0.20589966,-0.104047954,-0.24299724,-0.02001985,-0.1915071,0.030046472,0.058474988,0.20743887,0.03621455,0.13546786,-0.09007324,-0.051260393,0.032210153,0.062110245,-0.160545,0.007977281,-0.084921785,0.0012593112
0.05400786,-0.08691609,-0.100677386,-0.31870627,-0.0350439,-0.059702847,0.06275233,-0.0880061,0.038006656,-0.44334862,0.02386279,0.021354327,0.19647475,-0.073340826,0.08643157,-0.002102866,-0.03872881,-0.043435182,-0.06645022,0.0690692,0.04953049,-0.21080054,0.031625353,0.09781963,-0.17599711,-0.15470013,0.08161049,-0.22758316,0.02425584,-0.037164617,0.13711332,-0.23474245,-0.13795814,-0.33029845,-0.26517248,-0.20075594,-0.19913095,0.12533231,-0.17129067,0.070143536,0.018042685,-0.33772567,0.18444806,0.17883584,0.3136737,-0.08907733,0.1868584,0.11066572,0.036292695,0.118876524,0.0734382,0.11861591,0.07447887,-0.10806622,-0.19524635,0.010662386,-0.029717892,0.03627108,-0.44639745,0.0055585974,0.19928813,0.123128675,0.06379441,0.016137697,-0.20490293,-0.22927178,-0.07057498,0.06717065,-0.08684443,-0.18349314,-0.20784566,0.07410439,-0.025088973,0.017380182,0.1266851,-0.04692004,0.25362027,-0.123506054,0.10872356,0.08603108,0.071770824,0.027419936,0.0006171274,0.26421267,-0.03711333,-0.23689021,0.20659004,-0.09784112,0.005932875,-0.012301649,-0.031111008,0.011927064,0.11400919,-0.011314312,0.122104645,0.11284136,-0.15509422,-0.1130272,-0.18635203,-0.046127837,-0.18953502,-0.0708283,-0.19836162,0.2825822,0.040905226,0.0806847,0.08055391,-0.21522559,-0.0054230113,-0.36788416,-0.1637785,0.018205445,-0.0013640692,0.106718495,0.056737788,0.097087994,0.10461696,-0.23679963,0.0020602983,0.07846196,0.14595833,-0.32099888,0.0043594064,0.21677022,-0.17114443,-0.12866578,0.1755619,-0.39603126,-0.06690762,-0.0408718,-0.062447727,-0.043860886,-0.27238294,0.1349177,-0.20081325,-0.056762237,-0.098383345,-0.06724585,0.019699834,-0.30848864,0.014889954,-0.020965228,-0.11983007,-0.0697689,-0.011105753,-0.09073093,0.07276092,0.0691621,-0.06105134,-0.0448257,-0.09569592,0.018163705,0.13659935,0.08416053,-0.21404305,-0.14311878,-0.18181093,0.08317017,0.034272812,0.010311722,-0.14338115,-0.078919575,-0.0030208316,0.08464198,0.0519608,-0.11295816,-0.23901346,0.041490607,-0.12248127,-0.023578774,0.1691691,0.09649227,-0.11617993,0.023621665,-0.062567994,0.05499481,-0.08879549,0.09334223,0.011990508,0.12548244,-0.27431887,-0.15102617,-0.100473434,-0.086965956,-0.04508452,0.051889062,-0.10092572,0.0046310783,-0.21832371,-0.16438878,-0.3160373,0.10640689,-0.39265755,-0.24732529,-0.27254903,-0.024763066,-0.040088933,-0.19808869,0.25947782,0.04967568,-0.024696765,0.076528504,-0.11345813,-0.069798976,-0.092996724,-0.14218429,-0.029718013,0.105967745,0.09527719,-0.023496943,-0.09921961,0.10600106,-0.110221945,-0.18643692,0.09908871,-0.090609565,0.13753659,-0.16729304,0.12312556,-0.017130123,0.030952768,0.029235808,0.020305077,-0.04399882,-0.20215993,-0.45479974,-0.15964033,-0.05361557,-0.27008823,0.016042687,-0.18898189,-0.10278172,-0.21780527,-0.020857142,-0.01652616,-0.056868393,-0.033041734,-0.16642247,-0.003802489,-0.07603149,-0.078230366,0.18008676,-0.097957976,0.047466286,0.11302961,-0.013040517,0.02852727,0.044477865,-0.16536234,-0.112013556,-0.025088236,0.03054164,-0.14683793,-0.17211214,0.037501123,-0.29101834,0.05717371,0.09514248,-0.23593962,-0.104526296,-0.0900004,0.13609827,-0.19020237,-0.0391969,-0.11841524,-0.4859566,0.05107649,-0.14728498,0.09988016,-0.2130232,0.17663248,0.049610645,-0.01709435,-0.16009136,0.06778834,0.06861365,0.100362934,0.04327399,0.003450438,0.030814385,0.0070048366,0.06590055,-0.060466222,0.1283802,-0.051662985,-0.018117515,0.019448616,0.07585194,-0.2534729,-0.01781196,-0.24979495,0.0323158,0.015939625,0.022757625,-0.037822537,0.16826648,-0.1911138,-0.16023892,-0.07747074,-0.41185415,-0.15741828,-0.0474352,-0.08525878,0.1067003,-0.08602131,0.09753114,0.049488753,0.14463851,-0.22764525,0.073889166,0.1007253,0.08677435,0.16722822,-0.18681377,0.081536144,0.08613876,-0.39763716,-0.08855194,-0.07141847,0.07032235,-0.053346183,-0.18048894,-0.16450368,-0.059825476,-0.056959692,-0.079372324,0.11506204,-0.027873661,0.18695274,-0.1677105,-0.06440176,0.04186713,0.05088988,-0.041082464,-0.11939383,-0.036018122,0.0049839355,0.041062634
0.068660066,0.07016411,0.0539899,0.060226463,0.0036916335,0.07005815,0.018600283,-0.24606653,0.012150774,0.009745787,0.017980294,0.076779366,0.014450889,-0.38452348,-0.05533054,-0.03640277,-0.30252713,-0.085587025,-0.21919516,0.0150331855,0.14339447,0.009219684,0.13334836,-0.1438161,0.112349756,0.0878757,-0.07715109,-0.2561692,-0.03319842,-0.064308636,-0.04074669,-0.008945102,-0.078413874,-0.021956604,0.022705965,0.040459923,0.053546783,-0.08839425,0.089094214,-0.17743072,0.025225403,-0.0070563103,0.037313983,-0.23106456,0.07619944,-0.24646266,0.12410223,0.21900839,-0.20564224,0.049268197,-0.037118834,-0.018808652,0.030882087,0.17045124,-0.27322215,-0.14661023,-0.003767701,-0.008823134,0.26770854,-0.23350273,0.030402744,0.060068347,-0.06975521,-0.13272409,0.021102909,0.0435887,-0.18181472,0.0021742252,0.021418141,-0.08076687,-0.06792061,0.10566841,0.2669562,0.22629112,-0.1413864,-0.07151377,-0.078545175,-0.06007325,-0.028551713,-0.0068080383,-0.27347374,-0.038187336,0.08160264,0.039689556,0.1108032,0.10267743,-0.19878414,-0.13191754,-0.14353018,-0.039038785,0.3296347,-0.022913007,0.0031625796,0.15690146,0.020685295,0.122129485,0.127177,0.038363446,-0.023123512,-0.09651889,0.104201846,0.12627907,0.07049218,-0.114383765,0.14694479,0.08523748,0.034898,-0.113448635,-0.2833092,0.0142838685,0.12597889,-0.095189266,-0.096034944,0.027481347,-0.091297455,-0.005853321,0.07215662,0.005904893,0.16546328,-0.051446214,0.18313563,0.075407125,-0.031695906,-0.09211416,0.15284756,0.18437111,0.077795506,-0.08688202,-0.12082818,0.13881446,0.044263054,-0.080458865,0.24913248,-0.16806933,-0.026628535,0.038056437,0.06401835,-0.11553553,0.097419016,0.12217729,-0.08684692,0.008033836,0.21169676,-0.097626984,-0.058002446,-0.12708,-0.293473,-0.061937727,-0.02127998,-0.13094878,0.05531979,0.026211012,0.10782383,0.031617854,-0.107690625,-0.088760495,-0.10745108,-0.1423305,0.12482352,-0.23953061,0.20652412,0.04453151,-0.050253883,-0.01297541,0.05965727,-0.20036727,-0.048170995,-0.09941174,-0.004544942,-0.17083348,0.02657511,-0.059565943,-0.05287789,0.11005368
-0.025146393,0.06508533,0.020362692,-0.061607447,-0.08497946,0.08835562,-0.14270702,0.065636925,-0.1882726,-0.042288642,0.23785198,-0.1801762,0.03284782,0.09880264,-0.031185031,-0.008714621,-0.04265296,-0.087617,-0.037085697,-0.031128172,-0.0872882,0.1599881,-0.044361167,-0.0734302,0.113001846,0.12451508,0.08773195,0.08211795,-0.09473634,0.034183335,-0.29177082,-0.014093644,0.019858267,0.01790498,0.035047494,0.017612794,0.067934826,0.05001512,-0.09412521,-0.081376605,-0.041343894,0.077690125,0.07170711,0.14348984,-0.18318959,0.03419964,-0.074288875,-0.116285875,-0.0054947,-0.0026521275,0.044929203,-0.019492565,-0.12863633,0.08636968,0.09515511,0.11322016,0.14665274,0.06373506,0.0394616,-0.035168312,-0.12653705,0.06768021,-0.17446055,0.02499167,0.101362795,-0.20461184,0.123618245,-0.0042755753,-0.010084321,0.08053666,-0.038656626,-0.14427488,-0.04344013,-0.04440219,0.06807194,0.023142124,-0.23604919,0.1697,-0.1295249,-0.07067193,0.13430236,0.06801543,0.08970136,-0.069244064,-0.07381668,-0.016051583,0.0689462,-0.07109988,0.02545349,0.099616244,0.06978143,-0.038988996,0.06275718,0.06732677,0.05565263,0.1262453,-0.076803535,-0.23883626,0.091570325,-0.385383,-0.07791057,-0.06728245,0.031573348,-0.12921676,0.064312786,-0.31927338,0.106368735,-0.07928571,-0.25514412,0.11366552,-0.04624979,-0.010443335,0.084971145,-0.15961567,0.036818378,0.10197994,-0.014891989,-0.17234291,0.024814101,-0.1586215,-0.013561729,0.041685555,-0.010017696,-0.10908838,-0.11251217,-0.035847697,0.053681213,0.12517151,0.050837282,0.14463185,0.09074306,0.07954635,0.04376028,0.1075957,0.17800753,-0.0352552,-0.17319514,-0.13753833,0.111269005,-0.15062426,0.06859451,-0.08586333,0.25275627,-0.014806272,0.048477903,-0.063348696,0.051695608,-0.09085779,0.019104894,0.13790874,0.056493156,-0.16001654,-0.017873945,-0.1031808,0.27151707,-0.079098925,-0.052417118,0.052816715,-0.20660675,0.05621222,-0.07928288,0.025791276,0.010614289,-0.09898658,0.035918534,0.102822125,0.1762024,-0.013661055,0.031147292,-0.1163721,0.04048423,-0.026150098,0.03247805,0.14392988,0.12277022,-0.05409341,-0.03472847,-0.10529545,0.03980527,-0.14046545,-0.15253332,-0.028453767,-0.06539344,-0.012661495,0.104211584,0.038595308,0.08622153,-0.036803592,0.019933334,0.1005505,0.012101333,0.0037084315,-0.061735634,0.03161564,-0.019459538,-0.18193498,0.14287587,0.02946048,0.16704383,0.003413211,0.085172005,-0.124142475,0.0112085175,-0.0957413,0.089825116,-0.023372432,0.050293293,0.17649743,0.15935951,0.08758801,0.14688744,0.119794935,0.16472422,-0.043241553,0.057912022,0.06469946,0.11910475,-0.02264918,-0.033841405,0.059788812,-0.036268454,-0.0562837,0.10526274,0.06607368,0.16089495,-0.22107598,0.007916142,-0.12122737,0.15963076,-0.002156977,-0.0093094455,-0.06414014,0.110904165,-0.20383595,0.004190975,-0.07273184,-0.10510173,-0.0492458,0.11286139,0.08243007,-0.05422596,0.040950038,0.034396555,-0.009551118,0.08979068,-0.061289173,0.006566982,0.052650914,-0.062296588,0.079802625,-0.07431903,0.0011500374,-0.07138641,0.017275834,0.08459275,-0.03471982,-0.018463083,0.06527585,0.13572359,0.19616547,0.1322244,0.03726927,0.034281116,0.02192376,-0.071918964,0.1604578,0.015953295,-0.2388401,0.016866995,-0.15744884,0.19364354,0.07393014,-0.18120474,-0.019528342,-0.07412492,-0.06738834,-0.16092736,-0.08732785,-0.0702452,-0.120839946,-0.015224262,0.026233176,-0.035720486,0.067030296,-0.023892878,-0.19422495,-0.27475995,0.10435427,-0.059308365,0.0006845475,0.078646585,0.16595335,0.031713147,-0.038517073,-0.0019627535,-0.024510764,0.046831977,0.10245256,-0.03947447,0.012118184,-0.026507948,0.031029798,0.14439502,0.02566733,-0.0119570745,-0.11259851,0.119006336,-0.14399213,-0.030508766,-0.1411139,-0.40328723,0.067378916,-0.116326496,-0.001716808,0.018729674,0.007696519,-0.017568663,-0.34467688,-0.12670715,0.025999362,0.11062622,-0.0028809577,0.024719609,0.17735381,-0.070943415,0.007857534,0.14156418,0.08481192,0.050367747,0.043014802,-0.28100553,0.082106955,0.0075493436,-0.07277405,0.1460388,0.027883625,-0.21000278,0.07157499
0.09850844,-0.02427878,0.03292302,-0.13174394,-0.17444998,0.14238079,-0.13136156,-0.029345388,-0.039771922,0.053553488,0.030907676,-0.24042003,0.0440277,0.082178205,0.13031124,-0.0007944852,-0.10960546,0.15798981,-0.19193041,0.017416218,-0.04769555,0.0014851356,0.006599217,0.06620351,-0.1511288,0.043648627,0.088168845,-0.2363437,0.33028764,-0.017412653,-0.12038455,0.07395857,-0.14522783,0.018035064,0.058432236,0.0035282476,-0.012389217,-0.00021157,-0.16400322,-0.21519162,0.02603701,-0.017003817,-0.00632584,0.09336562,0.048705816,0.02789403,-0.0040508164,-0.12852938,-0.12135715,0.12671031,-0.30466285,-0.017620875,-0.19564952,0.0019026191,-0.036739662,0.19680086,-0.059395317,-0.09066896,0.12692244,-0.25269935,-0.009519994,0.19137727,-0.18071467,0.13767849,-0.23046905,0.168837,0.01864268,-0.22328213,0.096876256,0.23007,0.021833215,-0.11004222,-0.24819596,0.054845296,0.08168389,-0.03201216,-0.044036187,0.14007072,0.06156518,-0.013747376,-0.17965588,0.2244607,-0.22029637,0.018885834,-0.17488806,-0.029045809,0.20238005,0.18431066,0.008474897,0.0017768291,-0.03192304,-0.14652383,-0.019485557,0.089951426,-0.212761,-0.10143723,-0.14216544,-0.102536485,0.029143365,-0.0063903676,-0.05537551,-0.04915342,-0.035702474,-0.065634355,-0.19666472,-0.17173988,0.12771964,-0.03607794,-0.086063735,0.068874046,0.18971457,0.0051308805,0.049585003,0.03318996,-0.26928326,-0.010613444,-0.04514412,-0.05294547,0.07051646,0.06522944,-0.007904544,0.1349764,-0.11048124,0.046572536,-0.11470903,-0.23921216,-0.40669954,-0.08138835,-0.30076057,-0.4408603,0.06584833,-0.061335545,-0.21287695,-0.050726537,0.12962294,-0.09161065,-0.0645656,-0.067421705,0.11226535,0.13339385,0.033625074,-0.025478497,0.21189488,0.19531521,-0.18435094,0.20154889,-0.25201932,0.034910683,0.21177025,-0.12028297,-0.01928985,-0.040487804,-0.06781569,0.20703693,0.053128485,-0.09898105,-0.083129786,-0.287804,-0.04494998,-0.08218121,-0.20044427,-0.06341906,0.076339945,0.008766728,-0.193283,-0.047935966,0.25166214,0.05486421,-0.09600098,-0.2872306,0.2180177,0.2504736,-0.041022945,0.14515397
0.12727578,0.05443483,0.15160489,0.048909485,0.17818242,-0.124385945,0.055621937,-0.04151936,-0.13803698,-0.011461396,0.009434482,0.032015875,-0.11992958,0.100545965,-0.056023028,-0.033729978,-0.0555856,-0.06957005,0.05309866,-0.13470131,-0.17759588,0.13613573,-0.09684784,-0.14651087,-0.030060964,0.0132586565,0.05252031,-0.093186684,-0.20786394,0.027381485,-0.15645204,0.18472476,0.037298974,0.075251855,0.24558978,0.003654112,0.12902597,-0.06590071,0.0877107,0.012349574,-0.15461525,-0.12197658,-0.09875404,-0.04815874,-0.01674068,0.14885597,-0.31176454,-0.10782747,-0.08192006,-0.14868453,0.1529152,-0.13684925,-0.072619125,0.12559474,-0.046939652,0.07450489,0.026543295,0.024360633,0.037552852,-0.18387565,-0.09113773,0.13814889,-0.28799075,0.14183317,0.010320206,0.04663593,0.1645335,-0.083267085,0.07547664,-0.12658267,0.04255045,-0.036539916,0.030437045,-0.08287025,-0.14507735,-0.061887376,0.016903302,0.12024859,-0.31179208,-0.035094712,0.08748167,0.008117495,0.028610623,-0.013171107,0.13878895,0.049458183,0.1463993,0.08699725,0.010294225,0.15595591,0.14215827,0.089569114,-0.06286862,0.1523239,-0.09977268,-0.05157827,-0.10155816,-0.09454363,0.114420325,-0.0030336152,0.032222155,-0.08091433,0.034446593,0.06173152,0.049405042,0.08722419,-0.10798938,0.060314663,0.056692228,0.117995866,-0.18262793,0.06996241,0.016751269,-0.083094314,0.020616096,0.07469439,0.15608448,-0.09605182,0.053894076,0.049799494,-0.12934661,0.06789456,0.09310428,0.15078476,-0.07724153,-0.082701825,0.059701905,-0.21335001,-0.23179157,0.009205858,0.04783796,-0.12058187,0.039639503,0.018765548,-0.012163818,-0.048867833,-0.27210194,-0.3439155,0.0895126,-0.4933282,-0.02719455,0.17509134,-0.09541629,-0.2352972,0.07604194,-0.14989807,0.15836836,-0.23627855,-0.3045126,0.14721857,0.073838934,-0.164736,-0.0053386334,0.088436514,0.10327431,-0.17658295,-0.23820697,0.09044294,-0.057691444,-0.01832695,-0.015715336,0.05271776,0.094426714,0.03225304,0.10143803,-0.066169076,0.04616177,-0.11541938,-0.12371175,-0.0456404,-0.09293584,-0.039608832,-0.056261778,0.10219187,0.11377166,-0.07290161,-0.31456277,-0.03765491,-0.10451534,-0.015725467,-0.066075936,0.053805176,0.020095916,-0.088691846,-0.1094379,0.00966436,0.16930692,-0.22356416,-0.014418084,0.04884366,-0.014545642,0.020896073,0.008971763,0.1545364,0.08943663,0.05914938,0.035642743,-0.039245334,-0.14339313,-0.09863626,-0.057633754,0.05459996,-0.12457126,0.009018983,0.0847709,0.009957351,0.006326827,-0.024565253,-0.31977433,-0.14047807,-0.23563313,-0.28902403,0.11957812,-0.06458434,-0.29439178,0.023694627,-0.16354121,0.08769399,-0.18532938,-0.06160053,0.045660652,-0.14980668,-0.08569327,-0.08794214,-0.14762217,-0.010755837,0.06992465,0.16809028,-0.08323524,-0.013340663,-0.028035786,-0.039739326,-0.13283098,0.1597275,-0.1448931,0.061765898,0.048831798,-0.0710066,0.01808796,-0.07630778,0.02786639,-0.06813195,-0.039090462,-0.07395464,0.14287686,-0.031254515,-0.053342834,0.16499543,-0.3396355,0.02533485,-0.16134566,0.048794474,0.13745561,-0.26633438,0.030012606,-0.3510974,-0.15706697,-0.034572236,-0.059464607,-0.21023849,0.025767608,-0.034163777,0.14153075,-0.17105974,0.008784805,-0.2360409,-0.02545684,-0.11838571,-0.27078462,-0.107569136,-0.056949753,-0.24774405,0.08544346,-0.11199217,0.034150448,-0.057968188,-0.19286539,0.13850844,0.06364993,-0.0749664,-0.10901545,0.029705668,0.111406274,-0.22035763,-0.23797902,0.07704098,0.19513687,0.042795572,-0.08572815,-0.09514873,-0.034909602,-0.17894976,0.120498896,0.03332605,-0.066249,0.09829323,-0.20676696,-0.14766164,0.049398813,-0.15895914,-0.14543605,-0.09655754,-0.10429364,-0.09350355,-0.03182433,-0.03417394,0.083030626,-0.11116184,-0.40542817,0.1030235,0.074511826,-0.16789488,0.19032805,0.008420796,-0.09290532,-0.035725564,-0.08501957,0.19625814,0.045244407,-0.01635828,-0.033308547,0.16168135,0.12716018,-0.042769846,0.030200375,0.10666855,-0.18186386,-0.11499825,-0.0960874,0.20877051,0.115102,0.034388866,0.051018443,0.108782,-0.19792593,-0.0076933904,0.012909078,-0.045188867
-0.09901159,-0.25781283,-0.14942117,0.06576015,-0.12249339,0.073769994,0.021472564,0.10974317,0.030180465,-0.12963063,0.077009454,-0.030229336,-0.2774521,0.042029746,-0.14166752,0.078061886,0.13739777,-0.10566467,-0.00029412564,0.07344949,-0.05983287,-0.023950329,0.0042770044,-0.10266041,-0.0025446683,0.07029807,0.04818701,0.15162209,-0.06029174,-0.033264518,0.099867895,-0.14593154,0.013774488,-0.0013455192,-0.05441693,-0.1920902,-0.02791097,0.015832687,-0.14388888,-0.0049201767,0.004279708,0.06391955,-0.026402948,-0.06239433,-0.06889869,-0.03497411,0.0043360963,-0.033252344,-0.006163607,0.033903703,0.16615246,0.089001104,0.21490255,-0.24386293,0.07350418,-0.23001796,0.021744575,-0.011800071,-0.1816413,-0.13530368,0.09883406,-0.10381195,0.15404987,-0.18871789,0.12458992,-0.05487057,0.113672465,0.16963482,-0.07015588,-0.1782925,-0.1325248,-0.15993527,0.15254062,-0.28370962,-0.117618054,0.016591538,0.032992177,-0.1863949,0.010481043,0.075184084,0.018584376,0.06513508,0.042766057,0.05407284,-0.1444662,-0.22425565,-0.012575647,-0.042826932,0.0999728,-0.08639908,-0.096159026,-0.12683398,0.015808905,0.034504734,-0.025059044,-0.087463245,0.055962276,-0.15186669,-0.13949221,0.14133535,-0.15191111,-0.32908875,-0.12826058,0.08593797,0.009753554,0.014557561,0.04822401,0.072717026,-0.038170703,-0.01596901,-0.10804641,0.19321598,0.15357341,-0.08730941,0.15402909,0.025623845,0.007790241,0.0011169687,-0.16682367,-0.019728208,-0.07763883,-0.029372973,0.016006041,-0.00033845787,0.011438018,-0.021111632,0.10653832,-0.06246674,0.06001101,0.033876512,-0.15436038,0.0035404037,-0.13410881,0.08579046,-0.2428082,0.10526418,0.13408911,0.14315347,0.055727758,-0.006835083,-0.11465191,-0.079801925,-0.3303799,-0.06962268,0.03861743,-0.0958603,0.2289395,-0.08971366,-0.064569585,0.11870414,0.0043724617,-0.044914424,-0.26759025,-0.09231859,0.057110034,0.0043725474,-0.06267617,0.123110324,0.10625831,0.012531117,0.19233556,0.037004046,0.10815111,-0.15894715,0.036515202,0.1379993,-0.12076425,0.16247626,0.07518643,0.10911962,-0.15085408,-0.24449433,0.0425527,-0.31862396
-0.25486484,-0.057802103,0.039620686,0.027368475,-0.035955913,-0.030395366,0.13110775,0.0798987,0.17379282,0.002947347,-0.28859818,0.26833466,-0.14485928,-0.100857995,-0.016777663,0.061898343,0.19339964,0.06559327,0.17710255,0.03480593,0.048859548,-0.0053183357,0.09002667,0.08375146,-0.02598899,-0.022835355,-0.05104179,0.009851075,0.175199,0.009887815,0.28451124,0.073272645,-0.2379497,-0.018152641,0.012062869,0.03658873,-0.09590452,-0.3352456,0.02017258,0.17278628,0.093177825,-0.07251563,-0.159669,-0.20316546,0.07605634,-0.25998417,0.003845656,0.04779504,0.1907065,0.017874433,0.07205542,0.0822846,0.21150896,-0.1749068,0.2899083,-0.023406,0.030524205,-0.09094521,0.17462943,0.100287125,0.004163233,-0.13366435,0.25918058,-0.11144823,-0.14120987,-0.01547086,-0.31456244,0.02358898,-0.19787864,-0.17772754,-0.1580387,-0.13192582,0.13991328,-0.3098764,-0.24456133,-0.08546422,-0.047047473,-0.18758757,-0.02168738,0.028286394,-0.047500696,0.048877873,0.09844556,0.21802959,0.18565992,-0.32385406,0.06685349,0.112591766,-0.07517941,-0.3736018,-0.1955533,0.08381882,-0.15121031,-0.18853629,0.2708313,0.10131348,-0.090050414,-0.0047654165,-0.2501397,0.0965372,-0.04400308,-0.20284347,0.045170486,-0.016430622,0.011306623,-0.03322301,-0.036040407,-0.09259234,0.032982986,-0.27971575,-0.05508948,0.017049465,0.06654447,0.26231453,0.039963022,0.06978845,0.05646621,-0.013495383,-0.010304592,-0.021973778,0.13273439,-0.4470909,-0.023050886,0.18501566,-0.01685893,-0.15556934,-0.065603614,-0.12562606,0.17026392,-0.1536461,-0.22745164,-0.042092662,-0.07010476,-0.26262292,-0.055729136,0.09853868,0.16253006,-0.062374577,-0.25915834,0.35224438,0.13684213,-0.022302212,-0.11127723,-0.022418234,0.13380559,0.05874869,-0.06829956,0.023322124,0.074160315,-0.3036524,0.062229667,0.13597327,-0.16688737,-0.23149042,-0.28066614,0.06812977,0.22022668,-0.078846976,0.031105889,-0.04029995,0.12857546,-0.06453303,-0.07675668,0.005836935,-0.09482371,-0.20190743,0.03744687,0.028666724,0.16259633,-0.06456524,0.059205834,-0.0750542,-0.05120534,0.051326126,-0.056796215,-0.061404098,-0.03205668,0.024441658,-0.009244192,-0.09813522,0.23801355,-0.2153282,0.12057351,0.13874052,-0.1786731,-0.09584562,-0.042013403,-0.09491209,0.067484,-0.13917258,0.09799634,-0.13550071,-0.04313844,-0.04180589,-0.078002065,-0.16221613,-0.010622847,-0.17858829,-0.3298159,-0.03077637,-0.010796738,0.027921783,-0.24909917,0.07001861,-0.27390996,0.008439399,-0.123621784,-0.028007613,-0.18895037,-0.026980937,0.21852693,0.08682443,0.14756149,-0.07597159,-0.021661786,-0.013841983,-0.118723944,-0.16487633,-0.0823676,-0.0017319926,-0.10332924,-0.13431232,0.09273728,-0.05360749,-0.02790354,0.033205833,-0.2154984,0.22132356,-0.14104638,-0.0809237,-0.1980061,0.05274427,0.11843067,0.11782557,-0.13894679,0.0751687,0.022783274,-0.13685513,-0.27850026,0.11535905,0.0023563078,0.11724942,-0.049556974,-0.009690756,0.04796241,-0.41526058,-0.049391333,-0.12353924,-0.038171932,-0.21697421,-0.016511966,0.13875651,0.062147494,-0.20340584,-0.030733602,-0.21979025,0.073474996,-0.18659583,0.026494434,-0.040019035,-0.16696015,0.02138731,-0.23004487,0.15352492,-0.025186475,0.064268164,0.16321628,0.17758305,0.030586632,0.03019002,-0.2874174,0.07916979,-0.01591646,-0.046019953,-0.027587373,-0.021596739,0.023053283,0.026541522,0.0024628164,-0.02761447,-0.04078843,0.14211185,-0.21937673,0.011222789,0.108763486,0.15089937,0.0069224085,0.12999004,0.08095347,-0.030630974,0.1609438,-0.10296005,0.04231866,0.11036196,-0.13665946,-0.2868832,0.18520416,0.038229216,-0.011560361,0.20035055,-0.024355905,0.07382732,-0.1153832,-0.13605271,-0.2295942,-0.053618338,-0.091371514,0.113696955,0.30252635,-0.009393849,-0.036683112,0.14384967,-0.008627504,0.13244343,0.021809136,-0.11451661,0.023854356,0.23046254,0.15896937,0.0129473815,0.065071695,-0.017915672,-0.058832187,-0.064297065,0.0073054307,-0.07789354,-0.19682184,0.098688655,0.025458448,0.016407574,-0.32502395,-0.061472706,0.010040984,-0.0068994495,-0.15963852,0.019839503,-0.30027202,-0.07207197
0.03486357,-0.022045955,0.048229724,-0.056656282,-0.10997907,0.030661985,0.012480511,-0.17148437,-0.07275414,0.010409104,-0.0719638,-0.10098845,0.08203497,0.05419158,0.17565577,-0.08084528,-0.17423712,-0.16188441,-0.03138888,-0.021340253,-0.3317041,0.06260137,0.09531165,0.085380726,0.009647349,0.047606766,0.03388393,-0.16709587,-0.18092573,0.0032542835,-0.08780266,-0.0043719457,-0.08910132,-0.021840554,0.049690396,-0.08753682,-0.016226087,-0.017280567,0.0015330759,-0.1181347,-0.23369984,-0.10844087,0.049993414,-0.20413719,0.012245305,-0.0955016,0.029376825,0.008144865,0.26273346,-0.15670481,0.07469258,0.030520046,-0.17153649,-0.09058123,-0.21559796,-0.08441511,0.08053382,-0.1228924,0.05412543,0.1418618,-0.10595457,-0.05128412,0.16292933,-0.31166682,-0.04583025,0.04822289,-0.38795212,0.0441963,-0.30853754,0.063911095,0.08409295,0.0037956939,-0.32775712,0.06711243,0.06608983,-0.0154671725,0.017615162,0.16592583,-0.007792699,-0.141176,0.12080902,-0.13034794,0.040595125,0.019889764,-0.21888548,-0.001082017,-0.18012314,-0.017700795,-0.043109823,-0.11960492,-0.10096397,0.2487074,-0.26936534,-0.025164839,0.1262959,0.17617224,0.12543511,0.15618269,-0.24920201,-0.03302057,0.20940092,0.027548783,0.18425216,0.12503886,-0.20143797,0.09842488,-0.022639195,-0.016141955,-0.0011324292,0.11498537,-0.05306322,-0.26348522,0.012617334,-0.08322634,0.002762759,0.02055166,-0.11414107,-0.042191226,-0.043208703,0.20897305,-0.028008005,-0.0013087031,-0.13141876,0.017920166,-0.0361299,-0.13637576,0.023504304,0.22984487,0.30826598,0.20145847,-0.09891012,-0.16521393,0.24094304,-0.14715005,0.37420458,-0.10609924,0.20149454,-0.17552121,-0.030143136,-0.01894765,-0.13274038,-0.110986836,0.09478005,0.010166536,-0.16402677,-0.21554832,-0.11022644,0.039620645,-0.10033813,-0.08531929,0.110925436,0.27710032,-0.117541246,0.10613206,-0.06363767,-0.08617198,0.09656924,-0.10572353,-0.10523963,0.025793647,-0.18031591,-0.026376126,-0.05907098,-0.059054784,0.0029600668,-0.24462631,0.06731701,-0.2585973,0.057650454,-0.23868085,0.1471096,-0.14216016,-0.08361935,-0.13104689
-0.047958247,-0.024302248,-0.2233028,-0.049333267,-0.006746878,-0.041761752,-0.043634173,0.07689097,0.15999702,0.18574834,-0.33694315,-0.015120936,0.32602015,-0.21393618,0.02263141,0.12032169,-0.23248263,0.090826176,0.024400558,0.060491484,0.06609869,-0.10238577,-0.028993707,0.12538451,-0.029897481,-0.14426371,-0.1292578,-0.003733354,0.1299065,-0.035298176,0.12861688,-0.15894064,0.124192946,-0.07460628,-0.023153527,0.055570796,-0.1463902,0.1157553,-0.0043078642,0.05610709,0.047721654,0.13036579,-0.08710015,0.08562065,0.23591919,-0.21323021,0.09792917,-0.015710779,-0.15863189,0.118631825,-0.19506942,0.09340083,0.028637249,-0.27680504,-0.13528694,-0.20814091,0.14241324,-0.13017324,0.03140068,-0.008278455,0.051022317,-0.09082917,-0.023366263,-0.117623456,0.19416578,0.11340824,-0.24032576,0.09983622,-0.06274599,0.18319602,-0.06327178,-0.049213145,-0.1132258,0.15658621,0.11233843,0.0472257,0.14526561,-0.3386607,0.10496908,-0.1117284,-0.2721901,0.075944036,-0.29570198,-0.25450814,-0.06116074,-0.041523624,-0.3901605,-0.00631916,-0.03885441,-0.21535513,-0.104129575,0.020125115,0.009390388,-0.15403013,-0.24680875,-0.082637556,0.11884442,0.12004992,-0.2536704,0.089343846,0.070314564,0.19972497,0.030021057,-0.076613,-0.22087805,0.07604115,0.09195158,-0.20307742,0.1010166,-0.37544256,0.20947537,-0.25862816,-0.2352176,0.081702195,-0.19210643,-0.20555566,0.055983517,0.033056527,-0.22641851,0.08408035,0.003579568,-0.21746361,-0.1840753,-0.27279446,0.053572886,0.06967501,-0.21750858,0.21510209,0.09192232,-0.10311858,-0.058510136,-0.06594217,-0.06954485,-0.24473469,-0.22672586,0.03610055,0.13682304,0.049848195,-0.10813349,0.0029225731,-0.33937368,0.05351005,-0.04887854,0.0795414,0.1477346,0.10688675,-0.061497465,0.04683443,0.09885207,-0.060292907,0.029285837,-0.041488815,0.09925759,-0.16862854,0.06598402,-0.10129795,0.09449796,0.045288768,0.19320573,-0.14239672,0.051154703,0.109647825,-0.05632168,-0.1325984,-0.12273705,-0.035746846,-0.07415457,0.08462947,0.000111614994,0.017384524,-0.029434074,-0.017341688,-0.025654713,-0.051071983,0.036009356,0.081281304,0.021613564,0.18751521,-0.09905,0.08403437,0.1148068,-0.025397148,-0.12723926,-0.2242463,0.10545265,-0.0007412933,-0.18590519,0.099341854,0.07987604,-0.029569577,0.16290697,0.03127946,0.035679556,0.20734198,0.010694264,0.05485981,-0.08165807,0.11814838,-0.106573746,-0.09097707,-0.19979618,0.07899636,0.08169955,-0.033403825,0.0044823657,0.015611942,0.14908232,-0.080618516,0.088732444,0.014081936,-0.21830435,-0.27301073,-0.06493403,-0.16071242,-0.13878508,-0.039469425,-0.029582204,-0.07840009,0.096641265,-0.045480564,0.09980964,-0.0051992335,-0.061237205,0.0189265,0.014403863,0.19498682,0.050710816,-0.18072176,-0.33172706,0.24217565,0.0747845,-0.22660054,-0.09124894,0.057569537,0.29469258,0.0318837,0.10465437,-0.0075488654,0.097831905,-0.0811851,0.10324064,-0.28167862,0.01113028,-0.21520133,-0.19138892,0.07547575,-0.15721546,-0.322145,-0.039597034,-0.14515767,-0.027011411,-0.3092713,0.10598573,0.1578179,-0.027186219,0.18426384,0.0037716238,-0.026092308,-0.087409586,0.07646153,-0.043668922,0.014624489,0.21469791,-0.1270528,0.12941475,-0.16845557,-0.0745409,-0.05899301,-0.11078108,-0.0488083,0.073384255,0.10104876,0.10229508,0.015977332,-0.024328226,0.048237946,-0.12984496,0.10856445,0.0009545428,0.044725526,0.04098825,0.061358765,0.13907716,-0.05712175,-0.064025424,0.12759103,0.06903399,0.06782455,-0.019458175,-0.045854647,0.042642612,-0.17520927,0.03459562,-0.03284894,-0.013115644,-0.103446305,-0.044333026,-0.031495877,0.035581324,-0.05694725,-0.022670383,-0.02369436,-0.07491161,0.05300441,0.034044415,0.008496834,-0.0045651244,0.048268586,0.041744135,0.038252067,-0.18095312,0.062066864,-0.01658383,-0.015777476,-0.025413433,-0.0601596,0.07109624,0.0707912,-0.069780245,-0.05449455,0.0704652,0.035308596,0.12439989,0.043907158,-0.020089773,0.053249635,-0.009393438,-0.12951176,0.0014437035,0.093682185,0.16423875,0.021017918,-0.050576307,0.059521135,0.027886735,0.08519451,0.16618262,-0.13786858
-0.0034366364,0.055402264,-0.021526396,-0.031234033,0.035507787,-0.08424571,0.05052946,0.09927174,0.08265796,-0.019094812,-0.0040550632,0.08039479,-0.090232424,0.022341179,-0.2458026,-0.024714997,0.07397398,-0.07795186,-0.010277401,0.08246802,0.038881976,-0.09754141,-0.045093417,-0.18100238,0.2736341,0.008000265,-0.182304,0.039722316,0.010513391,0.0611881,0.1383822,-0.09202123,0.16799244,0.01421259,0.03773333,0.03784562,0.016919216,-0.1880179,0.17507015,0.08349542,0.033391982,0.022502042,-0.14230174,-0.07275128,-0.021012528,0.198036,-0.038400725,0.0043630656,0.067699976,-0.116833895,0.094386,0.004122819,0.10768032,-0.056415286,0.02156828,-0.18859695,0.07438007,-0.100083075,-0.1838054,0.102638304,-0.035208415,-0.12825894,-0.022102658,-0.10306311,-0.036879834,-0.36504042,-0.07587768,0.024341265,-0.17728114,-0.093968205,0.037092227,0.12107134,0.12053035,-0.11720059,-0.10672373,0.034852803,-0.16057649,0.025270827,-0.011300549,0.13596253,0.0955964,-0.21267243,-0.047720145,0.044905666,0.018190196,-0.026600353,0.03759791,-0.21322207,-0.059751336,-0.1437804,-0.07113376,-0.00023615459,-0.025638625,-0.07821094,-0.037682123,-0.21864626,0.08969704,-0.0023946064,0.03585142,0.040397212,-0.108142436,0.10684707,-0.18166734,0.13227549,0.076507844,-0.0022254353,-0.027021453,0.017906485,-0.01199664,0.020135716,-0.16318573,-0.05762375,0.1701022,-0.10130493,0.20548792,-0.0656648,0.08873909,-0.07514697,-0.06654982,-0.101559415,-0.10890819,-0.11245304,-0.022828791,0.038171716,-0.008864974,0.045009587,0.18310773,-0.08533449,0.16847572,0.2163408,0.06613599,0.07932485,0.03315972,0.11112556,-0.15388964,0.04797996,-0.04404436,0.13031125,-0.09023992,-0.045758273,-0.02067707,-0.06810457,-0.14997737,-0.08761478,-0.011613968,0.10124303,-0.004824259,-0.16907898,-0.087167114,0.063242316,4.757296e-05,-0.15169172,-0.09686046,-0.26521096,-0.07670544,0.019727087,-0.061811708,0.15797564,0.08681518,0.047262464,0.2072775,0.13432129,0.069904484,-0.17778099,0.10117192,0.07472643,-0.07775238,0.08685802,0.16046515,0.11125764,-0.24827558,-0.2907972,-0.0051511754,-0.15821417
