-0.091582544,-0.28354692,0.11527872,-0.25464657,0.29416642,-0.13683149,-0.47695535,-0.29519644,0.09039067,0.03157578,-0.0648899,0.19131441,0.079301275,-0.025279244,-0.24823834,0.07551719,-0.069382645,0.13075319,-0.01799291,0.035696737,0.15814558,0.19169211,-0.04403616,-0.39117575,-0.0044901776,-0.54405737,-0.22773692,0.013127375,-0.13389409,-0.08905929,-0.12448587,0.019383868,-0.06322697,-0.14978509,-0.12131785,-0.094166525,0.09271337,0.0011238907,-0.057856627,0.0521365,-0.056381904,-0.2302748,0.0068137217,0.18172231,0.024970295,0.023807896,0.0060230135,0.056892738,-0.149231,0.1410966,-0.6103038,-0.09822956,-0.2628824,0.12257695,-0.0875438,-0.068585925,-0.020297123,-0.22243693,-0.2607102,0.07767663,0.26892918,-0.16352698,-0.19810405,-0.12189238,-0.15400043,0.03426224,-0.12237103,-0.054556634,-0.017912649,0.06023755,0.16879922,0.08300177,0.13078362,-0.25663483,0.061324067,-0.22834495,0.07872902,-0.10437845,0.10400221,0.112541236,-0.3160582,-0.2855245,-0.3533614,-0.23599127,-0.32832623,-0.00841593,-0.22134104,0.23603535,-0.16833921,0.08020649,-0.100856714,-0.10267615,0.17523314,-0.088154554,-0.20448712,-0.15520635,-0.11481344,-0.15128951,-0.25835586,0.1954526,-0.014415108,0.26714376,-0.051832248,0.11471208,0.2160129,-0.2606729,0.14737847,-0.31809682,-0.38157502,0.23643973,0.034471624,0.073423006,-0.15884237,-0.27663633,0.038583606,-0.5759602,-0.66585404,0.083956465,0.051284913,0.25232348,-0.058441676,0.37403053,-0.06679085,-0.6125763,0.25519854,-0.3844261,-0.24028438,-0.009637126,-0.038863845,0.22326595,0.2206183,-0.097090855,0.40362343,-0.40991008,-0.40057066,0.04527584,-0.5520734,0.1416297,0.20809662,0.32142067,0.12922107,-0.5498742,-0.52985334,0.069677964,0.35097203,0.27191314,0.12044499,-0.2949044,0.22642855,0.01912951,-0.060125418,-0.81227577,-0.13454567,0.21785225,0.15250097,0.29267344,0.25958666,0.34195408,0.122502275,-0.12480643,-0.019053848,-0.062383544,0.22588742,-0.015561391,0.07707703,-0.06786135,0.02169708,0.11019185,-0.3367964,-0.1566934,0.179884,0.23315471,-0.04780053,-0.042185955,-0.102111846,-0.0733853,0.10976722,0.046779443,-0.2421132,-0.19525357,-0.052051514,0.04043456,0.11026499,0.17253761,-0.40988025,0.13951096,0.5128463,-0.1526138,0.26700366,-0.059606582,0.14706023,-0.34859723,0.07540334,-0.020428523,-0.3896164,0.0935701,-0.12150444,-0.09770403,0.022894371,-0.07687204,-0.5005671,0.058078248,0.20274296,-0.033615716,-0.2863082,0.05279572,0.09052533,-0.041358076,0.08036166,-0.07920169,0.13027,0.11720585,-0.23195434,-0.055078927,0.020909889,0.18915996,0.07952816,0.27307644,0.19755356,-0.1990239,0.016037157,-0.5192494,0.08878057,-0.01147689,0.098754406,-0.1924304,-0.07816241,0.2909019,-0.1050483,-0.25351843,-0.15620495,0.2812019,-0.14155744,0.24959359,-0.101794854,-0.20737799,0.25243068,-0.03152611,0.010416776,0.031913266,0.07491673,-0.03638371,0.16365391,-0.24892776,-0.2456218,-0.084208466,0.24618253,0.3278156,0.28349826,0.12731199,-0.10838915,-0.8107793,0.11814136,-0.2053238,0.081780255,0.22381413,-0.060371082,-0.054059107,0.14579928,-0.80005044,0.18172042,-0.44625205,-0.6671439,-0.06250637,-0.91689765,0.23322281,-0.11639979,0.25412068,0.22311799,-0.7040812,0.02529921,0.029713415,0.19830696,0.23817094,0.21272042,0.3172258,0.30583712,0.10121202,-0.017157052,0.11899232,-0.24620503,0.32112673,-0.18435831,0.33590502,0.204249,0.25254944,0.18477303,-0.7804644,-0.0056512086,-0.08274995,-0.34608683,-0.58590704,0.0031771124,-0.10158783,-0.20321797,-0.36619034,-0.15720029,0.087937444,-0.33447537,-0.22522727,-0.021737661,-0.24830602,-0.11206483,-0.4568807,0.24845223,0.23062605,0.08408529,-0.06250573,-0.017766306,-0.6936459,-0.55776,-0.3679942,-0.001310231,0.14589885,0.33444208,0.13843721,0.1031561,0.08631329,0.21781804,-0.32479796,0.28797048,-0.39271244,-0.16652381,-0.05133852,-0.18454826,-0.10613768,0.023345556,-0.39794493,-0.05339479,0.12316558,-0.06364325,-0.056831107,0.27768224,0.009296434,-0.32273865,0.13240679,-0.250268,-0.20524435
-0.13594367,0.025523849,0.21188465,-0.13827017,-0.07449922,-0.016088527,0.050032973,0.2991624,0.10227238,-0.105752505,-0.49644282,-0.56303775,0.09238381,-0.037253458,0.03506024,-0.4684709,0.045733053,-0.030432928,-0.07946978,-0.21550383,-0.6776318,-0.14612933,0.02081509,0.01617664,-0.31344408,0.16668914,0.21762256,0.1466097,-0.5239576,0.13192424,0.16855735,0.08661074,0.17107396,0.23650017,0.06372793,-0.23025684,0.033922486,0.08277672,0.17174582,0.028289877,-0.25765598,-0.91293216,-0.4334949,-0.37135175,0.21722533,0.11205619,-0.094739184,-0.066913694,-0.21250069,-0.06621386,0.2325757,-0.13237838,0.053102862,-0.41376033,-0.47415227,0.029572172,0.048733093,-0.2391756,-0.45465672,-0.29085502,0.05094542,0.15555811,0.05381578,0.1872932,0.08254749,-0.17041446,-0.046880454,0.052119628,0.09140668,0.02706098,-0.048841257,0.14714076,-0.1211882,0.13603358,0.043225,0.25009245,0.104366526,-0.4769332,0.15414256,-0.12628996,0.09943691,-0.14025678,-0.05092422,-0.11030112,-0.044076137,-0.19445091,-0.1561777,0.41198388,-0.07524121,0.11896883,0.2104182,0.067124456,0.0095818,-0.12694338,0.23998588,0.04235315,0.21283536,0.03867948,0.24438491,-0.38200462,-0.3763584,0.044462807,-0.10966248,0.12629254,0.016958252,0.18677671,-0.114241846,0.03755272,-0.40702283,-0.6604772,0.27395582,0.15292253,0.06293555,-0.0561148,0.09639747,0.020146107,-0.1102713,-0.24540319,0.030623106,0.23125783,-0.01629962,0.0996105,0.20324825,0.13259472,-0.042173546,-0.051056005,0.094303064,0.03946427,-1.078915,0.0585516,0.10629279,-0.33549228,-0.524549,-0.5051621,0.13839196,-0.2849268,-0.51519626,-0.02247089,-0.39998868,-0.30003974,-0.3347375,-0.5716543,0.007904791,0.13594668,0.19285797,-0.12125849,-0.12592869,-0.14170547,-0.005693472,-0.12296035,0.39085406,0.07491134,-0.060986146,0.034249146,0.100079894,-0.11327197,-0.42618608,-0.3096912,-0.11871341,-0.024118943,-0.48975652,0.25829613,0.23137939,-0.14628404,-0.116548866,-0.63785815,0.09108085,-0.47230047,-0.14736684,-0.5575858,-0.26140845,-0.2554776,-0.04311051,-0.25479215
0.11136778,-0.04994589,-0.09534765,-0.12314776,-0.5270323,-0.12673698,-0.09767586,-0.07595313,-0.15370277,-0.028519837,0.0073475344,-0.32363325,-0.28944233,0.25210735,0.0034712655,-0.08452208,-0.15463142,0.2989583,0.19869858,-0.27664575,-0.14858742,-0.07725242,0.14026085,0.18910085,0.12049463,0.4136085,0.26554486,-0.02902532,-0.13892835,-0.13227975,0.24210471,-0.23298909,-0.017687397,-0.07585093,0.43216738,0.045849238,-0.013031907,-0.36900336,-0.032695077,-0.1851331,0.014060059,-0.17085306,-0.37790242,0.15075539,-0.027805196,0.11935864,0.22007747,0.15350811,-0.09369808,-0.03897576,0.069632694,0.23476367,0.23314567,0.056237884,-0.11422374,0.008478835,-0.053368114,0.15060435,0.034247156,0.04819131,-0.1951204,0.3206251,0.064672984,0.016041294,0.05426489,-0.055585902,0.28430358,-0.14438003,0.17203026,0.086800046,-0.21129066,-0.09393837,-0.46734682,-0.5318151,-0.14020379,0.17921859,0.0848386,0.067967415,-0.22787015,0.027148688,0.16033109,0.17500007,-0.032012235,0.10860497,0.18366235,0.32018057,-0.014797042,-0.329864,-0.3932934,-0.19078939,0.07024335,-0.14815563,-0.0968327,0.27334914,0.43250564,-0.01112678,-0.022754071,0.09621454,0.38468394,-0.29101634,0.26724878,-0.18568046,-0.22678374,-0.3661982,-0.24544944,-0.40677488,-0.16260774,0.15263087,0.32449853,-0.2923007,-0.20365725,0.27390826,0.16560672,0.22511289,-0.23659362,0.004406651,0.092141256,0.18222979,-0.15861128,-0.39854324,-0.08097715,-0.13862972,0.054506533,-0.27650604,0.13079683,0.13111298,0.1113086,-0.68711853,-0.008598604,0.113069385,-0.25908324,0.27632695,-0.2185408,-0.15561229,0.17858411,-0.13545386,-0.17429087,-0.11468448,-0.12181997,-0.039901327,0.029464753,-0.1478506,-0.26576024,0.15564157,0.1084949,0.0008193206,-0.018028077,-0.07395535,0.0021203898,-0.23708066,0.07525667,-0.0123968255,-0.27933854,-0.47499457,-0.078451656,-0.38038334,-0.52461964,-0.5889071,0.04962491,0.12694368,-0.013316378,-0.42476898,-0.05008117,0.19788882,-0.106004044,-0.55743665,0.08047177,0.3048261,-0.23717844,-0.040585317,-0.017308744,-0.00535327,0.021911768,-0.08637499,-0.27527097,-0.014597572,-0.1297161,-0.27837247,0.16029552,-0.1662319,0.1420811,0.08917327,0.0150816515,0.034608234,-0.48675135,0.21038266,0.12209143,-0.69080657,-0.05506902,-0.040792387,-0.044377286,0.050600905,-0.45677608,-0.10903693,0.10864946,-0.429694,-0.03440021,-0.39965928,-0.5662697,0.14129165,-0.67282826,-0.7268143,-0.0893184,0.17522219,0.18721339,-0.070782796,-0.78493714,0.25335214,0.25432873,0.11716483,0.02952251,-0.335974,0.15488587,0.32214457,0.060181696,-0.15059258,-0.44067243,-0.11998764,0.0549041,-0.3812688,0.20642626,-0.09645372,-0.0026682944,-0.31794214,-0.11691118,-0.11663372,-0.2289595,-0.37138382,0.237343,-0.156566,-0.3721754,0.07706738,-0.5037468,-0.13789722,-0.19692133,0.06728164,-0.35938984,0.039682146,-0.18619123,-0.2369417,0.05926355,-0.02718443,-0.5127628,0.13276671,-0.040704656,0.02634314,-0.36422652,-0.105724536,-0.3836116,-0.31153727,-0.0112998765,-0.25166374,0.2901612,-0.19001295,0.08125518,0.23378561,0.37259594,-0.2169747,-0.47629422,-0.12207929,-0.30573538,0.118497334,0.19999707,-0.38259274,0.08405641,-0.025253642,-0.32414332,0.020326795,0.19519907,0.11063025,0.032220498,0.08111521,-0.47699964,0.0054847626,-0.3663531,0.097953126,0.02283843,-0.016014414,-0.5828465,-0.001991446,0.25178918,-0.67130613,0.07417278,0.18798533,-0.3321742,-0.6072841,-0.011526988,0.23592554,0.10875002,-0.31662866,-0.31987596,-0.06864404,0.0035290918,0.11553295,-0.098655716,0.10649903,0.24866326,0.10023724,-0.5399615,0.29915792,0.1624157,0.2072186,-0.38148114,0.17122827,-0.31732586,0.12624021,0.31253874,0.31731674,0.2966349,0.0074600573,-0.15492354,0.102636166,-0.091365814,0.06962291,-0.41452533,-0.47581664,-0.14707834,-0.4429511,0.1333131,-0.15853924,-0.44233003,-0.11596909,-0.21634243,-0.37440294,0.02117905,-0.3581015,0.29683647,-0.185352,0.28245512,-0.25949723,-0.32568896,0.05343791,-0.42599154,-0.24451143,-0.18393713,-0.2116473,0.2271372,0.041907836
0.12764245,-0.05319403,0.24366207,-0.15033008,-0.22299689,-0.33151928,-0.08066584,-0.097854875,0.21218953,-0.12956084,-0.2659065,-0.060495254,0.3306205,-0.3713307,0.15572318,-0.07489016,-0.18234916,0.05786399,-0.4904339,0.035133515,-0.032182626,-0.26582226,-0.07803679,0.09040389,-0.3636719,0.10226074,0.2054443,0.118133634,-0.3555294,-0.07993912,0.024918802,0.11556476,-0.115084395,0.033901483,-0.16931698,-0.13752104,-0.3375871,0.053402096,0.054652527,-0.034350365,0.06996239,0.08208381,-0.30295604,0.022709873,0.05017419,-0.5601599,0.11530849,0.21966797,0.013421736,-0.017044794,0.35450572,0.053549733,-0.061257612,0.25348827,0.35378262,0.09636884,0.13555671,-0.057398893,0.35241127,-0.3711382,-0.06186876,0.1807826,-0.12902865,-0.00088683766,0.029583218,-0.16188107,0.3379588,0.15293987,-0.42640483,0.09694774,0.030529065,-0.15839055,0.2503058,-0.030474046,-0.30133638,-0.15426815,0.11410192,0.10007865,-0.2569428,0.16547057,-0.533048,-0.028004607,0.12523301,0.20381738,-0.068793856,-0.07748866,0.30783466,-0.2303697,0.16538186,-0.25138247,0.11428643,0.11163969,0.10357293,0.13541023,0.049573887,0.38144404,0.06847128,0.13317311,-0.19432655,0.14703147,-0.06438642,0.14483477,0.12547664,0.03918215,0.0742729,-0.20218265,-0.14586407,0.040676136,0.1461948,-0.1047243,-0.17909522,0.14123404,-0.2867109,-0.16926716,-0.27393,-0.4059469,0.024822483,-0.20608725,0.22246662,-0.4347911,0.16823173,-0.0976543,-0.4919803,0.010201553,0.09057375,0.20756486,-0.13141155,0.019122021,0.14150424,-0.15518276,-0.17404498,-0.19800292,-0.11201885,0.18990505,0.0673818,0.12606056,0.10864209,0.0068529565,-0.18282565,0.007523353,0.12581237,-0.12552029,0.080222964,-0.19194008,-0.14791276,0.0647119,-0.53321093,-0.29423425,-0.2766186,0.063258946,-0.11809067,-0.39030814,-0.021092696,-0.35284132,-0.41875413,-0.20378669,0.19171482,0.29417315,-0.33972877,-0.13914144,0.24431512,-0.3836219,-0.60143137,-0.24019842,-0.34359643,-0.007597105,-0.20970905,0.3340218,-0.029943986,0.17684174,0.26087075,-0.08571656,0.053838115,-0.5294613
0.091488846,0.19504967,-0.33447564,0.09648125,0.016240632,0.29521358,0.31633934,0.25388172,0.17728646,-0.08203593,-0.04649192,-0.0578559,0.036926873,0.046071082,-0.012986963,-0.09147899,-0.24632122,-0.32669076,-0.04259152,0.1539326,0.09014416,-0.10018075,0.11587939,0.074106,0.21048588,-0.28379098,-0.3720319,-0.046794727,0.26536012,-0.22717638,-0.056442257,-0.09407947,-0.007383095,0.041747924,-0.075660914,0.17943634,-0.047886483,0.19219476,0.1949008,0.016918352,0.045552943,-0.07838252,0.033627506,-0.035248123,-0.06853922,-0.09437343,-0.08125672,-0.034087904,0.021004245,-0.020683667,0.11075036,-0.037617616,-0.2771409,-0.22766581,0.34627172,0.13172638,0.12544443,0.04149824,0.23451635,-0.10877094,0.16871715,-0.28600636,0.15208195,-0.0032519638,-0.5570972,-0.13499163,-0.43683326,0.15377831,-0.37797585,0.051512066,0.06630919,0.16104983,-0.14796574,-0.0291624,0.052228622,-0.3825828,0.007563306,0.05107786,0.22448319,0.115237854,0.12204202,-0.19873998,0.1650104,-0.5521629,-0.108331904,-0.5073768,0.1914953,0.030384438,0.09468527,0.26986533,0.1688511,-0.23201801,0.19648819,-0.17294791,0.18323517,0.15809987,-0.32735115,-0.63116825,-0.19764516,0.23024482,-0.5677101,0.12610051,-0.44140524,0.044032414,-0.0047694924,0.035824865,-0.6908595,-0.091198,-0.3735656,0.032150082,0.014460277,-0.026624735,0.26037124,0.06478221,0.23153329,-0.26504606,-0.025126366,-0.15613718,0.2405029,-0.1432123,0.03404507,0.11119765,0.15849668,-0.0045382273,-0.05232291,-0.17071752,0.00863504,0.20305634,-0.060575787,-0.1409131,-0.0393916,0.11645049,-0.16370334,0.16668005,0.16563144,-0.39548898,0.086671524,0.024365002,0.00053325883,-0.112127826,0.013359929,-0.010878889,0.27778375,0.048474237,-0.76757324,-0.48182836,-0.35436398,0.17074193,-0.1689269,-0.07310882,-0.26057908,-0.27984887,0.29593518,-0.032254715,-0.28530225,0.18631932,-0.22098322,-0.6106243,-0.14963709,0.14311068,-0.24153449,0.076313265,-0.0022836158,0.14506671,-0.050028164,0.12597613,0.08900853,-0.28513166,0.22770186,0.009331691,0.05045302,-0.21941686,0.038886465,-0.036106657,-0.088469714,-0.21246931,-0.26154035,-0.13033397,-0.11813955,0.03141458,-0.08738753,-0.13717076,0.07909241,-0.098514915,0.29769742,-0.12207353,-0.22744492,0.006018999,-0.26961482,-0.18447505,0.01596376,0.036417294,0.10780424,0.12559526,0.066299245,-0.029191772,-0.23658429,0.08146902,-0.29017562,-0.24758552,0.1444362,-0.10330393,-0.15398018,-0.01675152,0.13299958,0.0072150202,-0.26837036,0.008159539,0.045613725,0.05300904,0.046074577,0.13339286,0.10420829,0.12698458,0.085990034,-0.0026198025,-0.04129751,-0.09921623,0.03434457,0.05007015,-0.49306065,-0.04079705,0.19965512,0.0703683,0.27122638,-0.41213575,-0.005558314,-0.15099098,-0.4405446,-0.07097373,-0.20612599,-0.2680837,0.25721675,0.12227613,-0.5097658,0.2522652,0.075744666,0.07984027,0.19953988,0.082610875,-0.037008926,0.029386505,0.06119479,0.108292796,0.12887517,0.09527947,0.12725532,0.02423932,0.26710966,-0.29085556,-0.00769629,0.14202504,-0.25900003,-0.12443056,-0.06253576,0.10093252,-0.14572708,-0.17382257,-0.09672477,0.0694974,0.26835367,-0.06840859,0.051933188,0.31170478,-0.0018983502,0.28647092,0.1869605,0.38306454,0.15091057,-0.6750088,-0.08609843,0.2902874,-0.41818935,-0.16468337,-0.061907213,-0.18597358,0.18093352,0.22023715,0.041523516,-0.19545157,0.037704777,-0.12874722,-0.46305624,-0.33935046,0.1699639,-0.048500996,-0.019225752,-0.07978952,-0.090774536,-0.13669279,0.15613604,-0.11268057,0.024485338,0.05249902,-0.45516133,0.19286947,0.06297313,0.23317929,0.08160186,0.17004609,-0.01980344,-0.4420323,-0.12314311,0.14574163,-0.045584455,0.058111705,-0.18678215,-0.30206463,0.15493597,0.048055936,0.045144755,-0.06833284,0.03998883,0.08812596,-0.07045944,-0.04327889,0.00063106057,0.047171403,-0.34601045,0.071073346,0.17121345,-0.11022704,0.15550761,-0.12994346,-0.07909739,0.0011065479,-0.16125225,0.050122276,-0.05306822,-0.047060005,-0.08031457,0.0061663087,0.24473996,0.028683662,-0.03209388,0.24813753,-0.088656075,0.22461669
-0.30335206,0.094702065,-0.15544692,0.2138007,-0.08335419,0.114808716,-0.015012988,-0.04967861,-0.2067497,-0.013082833,0.22236939,0.15193027,-0.18702172,-0.13695514,0.23184556,0.105135225,0.03847278,-0.19439623,0.1492048,0.3877571,0.12982295,0.09195792,0.19425046,-0.14711414,0.100233376,-0.29246396,0.21128011,0.12471825,0.32727647,-0.26719525,-0.16795214,-0.1505487,-0.46293846,0.15485969,-0.12715192,0.2189227,-0.18041891,-0.12267778,0.122944355,-0.069641426,-0.24847117,0.1518491,0.20100307,0.15312448,-0.0950005,-0.6553888,-0.014617906,0.036975455,-0.2604532,-0.03511805,0.20782292,-0.7836419,-0.06818225,-0.15308167,-0.4049319,0.20589826,-0.11661079,0.2721419,0.24246585,-0.027499799,0.07715199,0.23001477,0.15117955,0.101257995,0.099427044,-0.020589342,0.14389317,0.25650036,-0.5709769,-0.024742467,-0.28203645,0.042437017,-0.32568052,0.01958274,-0.03026161,-0.0109023,0.21707472,-0.5381421,-0.13131669,-0.045432016,-0.04094303,-0.061860107,0.16849566,-0.36833978,0.08499355,0.23010895,-0.17267866,-0.08612142,0.09808532,0.20589492,-0.15126272,-0.7693001,-0.043856207,0.0779697,0.0743698,0.05974189,-0.13703312,-0.27198386,0.046729356,0.22368053,-0.33758804,0.004740233,0.031907834,0.15906772,-0.05959201,0.0644326,0.1494941,0.1025473,-0.25216645,-0.34115583,0.032417353,-0.04122846,0.13939671,0.1294037,0.09845158,0.041319326,0.08928945,0.4403193,0.01989299,0.04085841,0.1347421,-0.072291955,-0.21950829,-0.14372033,0.24122292,-0.19718117,-0.007959558,-0.013852912,-0.10361316,-0.2569202,0.013811665,-0.11813534,-0.054487064,0.054744616,-0.19660123,0.20627028,-0.5088259,0.13251133,0.17394897,0.08989623,-0.40035245,-0.3354193,0.17902751,0.25423187,-0.21351917,0.14636494,-0.13803288,0.2808909,0.24913724,0.16728772,0.38199845,-0.73754317,0.27976665,-0.16127281,0.14781041,0.45468414,0.37502757,0.008747863,-0.319993,-0.11397524,-0.08328016,0.21331325,0.0048658955,-0.053516462,-0.4744739,0.023012452,-0.0024601046,0.07243604,-0.2852121,0.38461816,0.32633343,0.38269192,-0.22910422,-0.3412308
0.18555515,0.0038953025,0.19947301,0.42331564,-0.06962654,0.11387676,0.069624156,0.3050964,-0.1588235,0.018915694,0.13114691,-0.26635617,-0.14263049,0.05669627,0.051749423,-0.16939478,0.014737049,-0.41403347,-0.27864057,-0.009803513,-0.5241061,-0.15064152,0.32176536,0.11149829,-0.017820576,-0.2098083,-0.3741076,-0.17922391,0.07782738,-0.29619315,-0.32282498,0.10742678,-0.087314114,-0.022940867,0.28864622,0.20461467,-0.31760916,0.08601762,-0.033853326,0.15872225,0.15397677,0.1456387,0.05675038,-0.053937618,-0.30728382,0.06590959,0.018320847,-0.1918859,-0.33704326,-0.3466748,-0.25363216,-0.04550141,-0.22594029,-0.0758159,-0.019151056,0.12448649,0.1910968,-0.24933884,0.1612527,-0.31147256,0.102685176,0.016112885,-0.35644746,0.16914403,-0.13180724,-0.07975056,0.3351928,0.053726207,-0.1654555,-0.13161467,-0.4608852,-0.3811627,0.014753981,0.13856411,-0.16611768,0.098477595,-0.5372217,-0.036010947,-0.021997731,-0.39540908,-0.024736358,0.14705549,-0.24049565,-0.24789381,0.020461034,0.064917386,0.12931547,0.15110429,0.2542918,-0.27705738,0.2316637,0.17814155,-0.21021684,0.037682474,0.055188227,0.2765245,-0.07869074,0.03230986,-0.0045560854,-0.3291024,-0.09893515,-0.2837322,-0.32663321,-0.30981508,-0.19418037,0.16333054,0.014457039,-0.006451397,-0.34650585,0.010210813,-0.13156226,0.018283136,0.12975846,0.23696232,-0.4309668,0.10170712,0.27870694,0.008428167,0.27745482,0.23557249,-0.21944381,-0.48134685,0.012222105,0.27892506,-0.3883624,0.14704682,0.031084271,0.177192,-0.3533746,0.16686775,-0.013115673,0.06398642,-0.30677715,0.09138072,-0.011134089,0.39053476,0.09298444,-0.4205763,0.068980955,-0.5784798,-0.19382782,0.1289767,-0.16976126,-0.26404548,0.06270271,-0.06993068,-0.06255522,-0.10372683,-0.32371464,-0.28091884,9.4104835e-06,0.19348182,-0.23770656,-0.34523094,-0.07735952,-0.55412334,0.32826006,-0.22213353,-0.40404707,0.21613471,-0.011182694,0.06227182,-0.06707219,0.016898317,-0.14460835,-0.03710559,-0.16740014,0.124503374,0.116795756,0.24507047,0.05912886,-0.17319769,-0.25533336,0.07157461,-0.018261973,-0.24241267,-0.35026333,-0.105061494,0.055597026,0.06459042,-0.30074048,-0.28832975,0.06999664,0.21956336,0.30570942,-0.05711288,-0.5920352,0.05588094,-0.10233021,0.0041772677,-0.18220007,0.057560325,-0.1949677,-0.019983502,0.3449275,-0.07390884,0.123820536,-0.15684743,0.07048857,-0.022295838,0.09258995,0.07646042,0.040056422,-0.112436086,-0.3155738,-0.42898524,0.25269634,-0.15661891,-0.44661132,-0.21146469,-0.07878942,-0.3278057,0.078355044,-0.34743533,0.096730046,-0.21775,0.13032824,-0.18599676,-0.2099151,0.03390866,0.08428649,0.17182536,-0.7068949,0.0905616,-0.2343772,0.089981526,0.16284403,-0.643041,0.11645501,0.10451518,-0.06521796,-0.2954507,-0.07942292,0.073958226,0.060060054,0.029134003,-0.45742834,-0.038528893,0.007661851,0.17639871,-0.08001601,0.035733182,-0.36418766,-0.04062143,0.24877949,-0.074315794,-0.037739985,-0.2714885,-0.35186857,0.14648172,-0.016379395,0.26223236,0.09987741,0.24848989,-0.15999162,-0.045385323,-0.035285626,0.003002817,-0.094660774,-0.065781474,-0.3042118,0.13713583,-0.026916139,0.19258359,0.109166905,-0.43776128,-0.08155097,-0.50811523,-0.44389546,0.37529168,0.060000096,-0.2804587,0.22418804,0.05918212,-0.10369208,0.16771539,-0.2737185,-0.30944845,-0.09884837,0.24020435,-0.14028235,-0.37694803,-0.10004843,-0.2739838,-0.6589089,-0.12414188,-0.13104004,0.0142231,-0.005660897,0.20832634,0.16516818,-0.005267849,0.06504291,-0.0260929,0.03949916,-0.19625808,0.016220575,-0.4288504,-0.16725968,-0.22573699,0.050083857,0.13271238,0.24049205,0.044606656,-0.29503396,-0.56407773,-0.12447205,0.34415433,-0.2824368,0.15538669,-0.044492796,0.1969281,-0.00599343,-0.14500163,-0.11951651,-0.3689245,-0.062601365,-0.123110764,0.053903755,0.07819547,-0.3638359,0.2173029,0.18526262,0.10162467,0.08615808,-0.001902982,-0.054935552,0.08942145,0.023921907,0.080503546,0.14845219,0.0025264418,-0.12436857,-0.10061548,0.13865066,-0.11180454,-0.41755965,-0.12854663
0.0057374304,-0.5892006,-0.14717214,-0.5044401,0.09468767,0.1742357,0.11838519,0.32670927,-0.04860471,-0.068962485,0.16834562,0.084463045,-0.0103320135,0.16677703,-0.68368804,0.047545567,-0.05788069,0.13908401,-0.025025735,-0.19886713,-0.04965524,-0.26586062,-0.1376404,0.10709248,-0.13000675,-0.12401121,-0.3823212,-0.16862825,-0.16423506,-0.0027393636,-0.06857256,-0.12148341,-0.18012215,-0.34218746,0.12510905,-0.08992968,0.034352887,-0.026219575,-0.3383244,-0.20778276,0.015833208,-0.115668446,-0.0055589075,0.07554601,-0.028344043,0.09583406,0.16168359,0.06006591,-0.059007727,-0.0996899,-0.32419416,0.2756191,-0.09084939,-0.069390275,0.18664922,-0.25377312,-0.05236523,-0.1466317,0.035642434,0.27991173,0.036177784,-0.15094382,0.061316386,-0.1544528,-0.052389853,0.14496613,-0.59641856,0.082460396,0.12462698,-0.1130727,0.35108656,0.044659443,0.03461281,0.04423249,-0.06455174,-0.0694387,-0.43366814,0.09396132,0.21036121,-0.0062947883,0.21616764,0.0628539,-0.26847076,0.08999975,-0.13684285,-0.2204973,0.100490704,0.004274116,-0.089202076,-0.033534307,0.096937485,0.19741447,-0.03745353,-0.25063396,-0.30231786,-0.70856124,-0.20330796,-0.040653486,0.022216363,-0.18705928,0.3002369,-0.17745449,0.008784697,-0.06596282,-0.22869642,-0.002683377,-0.1943248,-0.04042566,-0.29297474,0.24796459,-0.02934197,-0.094899684,0.08570917,0.23662695,0.06332503,-0.009286574,-0.13769957,-0.26843306,0.11615646,0.015263669,-0.12266311,0.19354557,0.35292345,0.012884453,-0.10204128,0.027174225,-0.108071856,-0.23888145,-0.13429151,-0.19391961,0.15113309,-0.27014968,0.21480371,-0.36415833,0.107599355,-0.24430364,0.12585765,-0.14621937,0.1624017,-0.047225554,-0.16053498,0.27226144,-0.49269325,-0.2906801,0.016140744,-0.17580356,-0.13322565,-0.07246974,-0.33480003,-0.32135105,-0.055176478,0.21821803,-0.36100167,0.18064873,0.03434601,-0.10461392,-0.547281,0.24407849,0.22312261,0.10617599,-0.20047975,0.1546211,0.18447857,-0.113319814,0.22509716,-0.46847594,-0.03285931,-0.45700222,0.11254934,-0.6628577,-0.51643425,-0.2995474,0.013263499,0.30886683
0.1172425,-0.10683552,0.4149761,-0.3183306,0.05473543,0.05589676,-0.8509413,-0.5477964,-0.022571122,0.34225282,-0.6037428,-0.09170574,-0.07630545,-0.07680517,-0.5708927,-0.09219357,0.31605405,-0.048866205,0.048777398,-0.013738788,0.09739966,-0.051620632,-0.075214714,-0.06632669,-0.12625809,0.13100986,0.33775184,-0.0010168694,-0.43143222,0.27149644,0.00072621583,-0.038963232,0.21336311,-0.27743483,-0.07946937,-0.24273351,-0.17386392,-0.12154462,-0.29929826,-0.35990685,-0.2105316,0.038579542,-0.43836874,-0.24585019,-0.013937336,-0.022517273,-0.48329327,0.043239966,0.34008998,-0.08115105,-0.049169715,0.08749829,0.11676414,0.08703722,-0.13410231,-0.3435392,-0.15071899,-0.22122225,0.06622292,0.057475053,-0.029651595,0.089872874,0.05434939,-0.113098465,0.21618146,-0.47065827,-0.07933601,-0.3967492,-0.04222408,-0.28835514,-0.63259196,-0.22868212,0.055555306,0.2370223,-0.3742561,0.037603296,0.036595684,-0.16005532,0.0909129,0.109250866,0.14837092,0.2569587,-0.0957729,0.40602437,-0.08164142,0.29782102,-0.4854421,0.101429485,-0.2793585,0.008646076,0.00015659083,0.0103586875,-0.19693844,0.06828207,0.06050299,-0.36550936,0.3529897,0.057717983,0.0421925,-0.1301858,0.21921419,-0.051644903,0.012654369,-0.17440647,-0.06404287,0.07975183,-0.023823284,0.22561365,0.32579696,-0.2177434,0.24270491,-0.025681347,0.06831828,0.089214034,0.12875034,0.3126137,0.00026242778,0.23434374,-0.22263944,-0.28755057,0.09438638,0.0046994085,0.08373489,0.031894516,-0.12441961,0.2447654,0.15731585,-0.69593096,-0.022457356,-0.090798065,0.1702327,-0.6825217,0.116919994,-0.63103205,-0.28857273,-0.2797457,-0.5448407,0.1211742,-0.036879912,-0.10441144,0.16915847,-0.39822462,0.09466684,0.13263345,-0.086686246,0.38410518,0.078329965,-0.1577161,0.04371156,0.1089802,-0.016006995,0.04794559,-0.04990971,0.12455406,0.34641346,0.16993712,-0.060368292,0.24632664,-0.010279053,-0.39310974,0.28607187,-0.06820236,-0.16893752,-0.43352,-0.23041278,-0.1837817,-0.116149,-0.045585304,-0.1886497,-0.27425453,-0.11259572,-0.058928203,-0.044097148,-0.23224154,0.2688942,-0.024152163,0.16387902,0.24315055,-0.21650158,-0.034705557,-0.10287667,-0.1452492,-0.3087016,-0.40461025,-0.009302925,0.11252638,0.08352089,0.26945478,0.1383037,0.24660775,0.03390152,-0.24456398,0.2641136,-0.7080337,0.15679559,-0.21442525,-0.036253527,-0.34765235,-0.031928312,-0.09765637,-0.14321516,0.3742059,-0.3756482,-0.2670252,0.09485387,-0.03772712,-0.0813712,-0.016455831,-0.20044269,-0.011618129,0.0001565803,0.30758592,-0.074998945,0.28726923,-0.24403606,0.25533107,0.19066678,-0.02365629,-0.031212663,0.05446532,-0.23499545,0.07599187,0.119968675,-0.1223064,-0.00085186993,0.027098475,-0.014334472,-0.032208774,0.18128757,-0.5083998,-0.21224543,0.008768089,-0.31939197,-0.036384776,-0.03364891,0.0032633143,0.26450863,-0.34261182,-0.29319432,0.045882463,0.008860487,0.10772802,0.21510342,-0.06111771,-0.034178935,0.31984043,-0.35054097,-0.3377446,-0.04851698,0.17842425,0.02081907,-0.003832468,-0.28830537,0.29880136,0.04430754,-0.2931728,-0.13192122,0.3075426,0.085387364,0.27323517,0.07408777,-0.41675353,0.16554248,-0.17627352,-0.35328072,-0.12630878,0.15547344,-0.1311115,0.038607128,-0.021427652,0.1085926,-0.0021863168,-0.059608117,0.080465175,-0.037654504,-0.27545908,0.038558256,-0.0018746933,-0.116288036,-0.23888604,-0.2092693,0.106893465,0.009315437,0.17326532,0.005987872,0.11477749,-0.08926238,0.16177869,0.007587355,0.10473104,-0.5097523,0.16195619,-0.053723652,-0.2721799,0.25641763,0.015364612,-0.3316478,-0.1806641,-0.05762911,-0.2513009,-0.36151847,-0.020093309,0.03674075,-0.41489425,0.29337645,0.017454017,-0.17354822,0.09113809,-0.41565365,-0.35341206,0.2296788,-0.14168668,0.072041616,-0.1953841,-0.052820854,0.38821605,0.013878099,0.09618134,0.10334759,0.058591254,0.2377316,0.20913874,-0.13018197,0.06584016,0.23063338,-0.06670078,-0.24834947,0.09747183,-0.19672337,-0.029194985,0.0152552575,0.21649817,-0.19784607,0.060240813,0.049447976,-0.18879744,-0.089027405,-0.22662452
0.12632981,0.19358607,-0.10107759,0.62723017,-0.067340024,-0.24064425,0.011490294,-0.021764493,-0.47299236,0.067440316,-0.27094162,-0.109130986,-0.2588065,-0.14117351,0.22888681,0.15691537,0.027691904,-0.09106415,0.47418132,-0.53295237,-0.06572288,0.13495481,-0.55043113,-0.1436555,0.08725779,0.38152286,-0.02956053,-0.60819495,0.15117344,0.06914808,-0.004478674,0.06315209,0.1635501,-0.04724224,-0.12055989,0.562867,-0.07911994,-0.10666738,0.2197049,0.20834514,-0.08155218,0.16083765,0.06158379,0.20123255,-0.007635087,-0.3468568,-0.41972944,-0.09136729,0.1339263,0.11234915,-0.19615288,-0.30695906,0.08778456,0.17022066,-0.09223344,-0.144109,0.23653898,-0.35019147,0.09300414,-0.20714553,-0.04851147,-0.26713946,-0.10120642,0.095019676,-0.14891228,-0.2653548,0.069516964,-0.25104415,0.5434783,-0.12007087,-0.14455533,-0.13135897,0.29164046,-0.14232242,0.039636347,-0.49220976,-0.040638857,0.35691997,-0.19541682,-0.12622446,-0.013170935,0.06525212,0.23238128,-0.3916534,0.166923,0.2800922,-0.31442392,-0.17956875,0.061896324,-0.36323163,-0.0061083194,-0.34127662,-0.137716,0.08402928,-0.20655191,-0.085651964,0.13851008,-0.011669128,-0.31038636,0.04968483,0.22777447,0.029066859,-0.80278647,-0.27364635,0.19429477,-0.29228103,0.08660709,-0.41030794,0.24947311,0.16459584,-0.40819374,-0.053640172,-0.5190035,-0.066671565,0.15989736,-0.14726557,-0.013102613,0.1860784,-0.4165202,-0.5239973,-0.03789627,0.0233121,-0.5324642,-0.14106622,-0.20040204,-0.58827543,0.023768788,-0.25753066,0.17889225,0.1902466,-0.5026304,0.59801203,0.11898612,0.30869582,-0.61156315,0.08507985,-0.0076117087,-0.12446431,0.14250237,-0.005618188,0.4427079,-0.079979606,-0.29039115,0.10592263,-0.30158085,0.08383314,0.80527765,0.009835147,0.10956002,0.10134445,-0.18063594,-0.5755387,0.17406581,-0.122115664,-0.37040785,-0.09275473,0.15843356,-0.33178866,0.07611498,-0.15960261,0.40444255,-0.38381696,-0.5145374,0.48903492,-0.08382401,0.40082633,-0.5414732,0.48354995,-0.24823208,0.04436117,0.1018243,0.21985926,-0.07761509,-0.41009566
-0.28725338,-0.24694395,-0.29300287,-0.46572784,0.22159123,-0.09878451,-0.1839503,-0.25894877,0.0326807,-0.2418097,0.021557499,0.20959844,-0.09410715,-0.13804975,-0.009670851,0.13674083,0.062760964,0.15074827,0.13338712,-0.092036515,0.042032097,0.091736436,-0.59628147,-0.0708368,-0.3085534,0.20074978,0.0630405,0.030651845,-0.21906495,0.5619346,0.1455453,-0.0043448033,-0.098970026,0.06771363,-0.34130347,-0.34301707,0.20449604,-0.2137417,-0.19995826,-0.42099866,-0.064726554,-0.010872045,0.119584434,0.09220512,0.093351334,-0.34428218,0.15927374,0.1346273,0.09246236,0.020934548,0.23703751,-0.17821844,-0.047064323,0.15165475,-0.3089008,-0.106142886,-0.14077732,0.14229399,-0.56392777,0.13389654,-0.27474394,-0.07913775,0.17094797,-0.23101737,0.27246442,0.32905054,-0.015980037,0.0989372,0.18374167,0.15439786,0.19165842,0.062901884,0.13051203,-0.077645496,0.25891465,0.16043457,0.05418197,-0.028952293,0.109674156,-0.27027762,-0.47653276,-0.20072038,0.20593318,0.167237,0.023534486,-0.015309267,-0.85161555,-0.68100554,0.26660857,-0.06141096,-0.43832713,-0.0041112993,0.042410776,0.046564016,-0.9296414,-0.50720745,-0.0020283235,0.32375637,-0.099209405,0.25945273,0.20389408,0.19789077,0.53632814,0.22098702,0.15694371,-0.5659032,0.2484647,0.055270445,0.056062765,-0.016663283,-0.021238998,-0.48732287,-0.49922946,-0.45555994,-0.8422334,-0.02848248,0.016665496,-0.3151309,-1.1271129,-0.12684995,0.18148619,-0.7105943,-0.5232803,0.18627316,-0.11605617,0.20030496,-0.33991045,-0.74620146,0.13783805,-0.37669885,-0.18061954,-0.18481933,-0.011924789,0.23323178,-0.14306855,-0.019777376,0.038041186,0.17327984,-0.44338378,0.0802283,-0.112679735,0.28565764,0.23343611,-0.018765328,0.06355223,-0.18315023,0.011588997,0.20575652,0.07405999,0.24155492,-0.03058576,0.10271525,0.072229736,0.3578574,-0.002483954,0.1923672,-0.18782201,0.34226158,0.177461,-0.07668699,0.11864699,0.116451845,-0.02507987,0.12508842,0.07949226,-0.09651154,-0.13078788,-0.28840792,-0.07192347,0.06687778,-0.074930236,0.12290942,-0.11127893,-0.082089946,0.08921556,-0.074709184,0.28590438,0.005673345,-0.019127712,-0.12927239,0.24931984,0.2051051,-0.10522516,-0.26899117,-0.31856698,0.041939355,-0.07185675,-0.11417283,-0.18537766,0.05855296,0.033918086,-0.2666038,0.14981218,0.34061295,-0.81850445,0.22134219,0.15719044,0.25581846,0.12602322,0.08372718,0.121903844,0.1081111,0.21474075,0.010047461,-0.2264892,0.09212532,-0.022899123,-0.11232531,-0.26825982,-0.13198143,-0.055288214,-0.2143366,-0.08722453,-0.2921809,-0.033791374,-0.16191459,-0.57954866,0.06560727,-0.056100138,0.06920164,0.27667576,0.13992378,-0.22533979,0.16341275,-0.49499118,0.22544521,-0.3326546,0.16764781,0.092457525,0.072754964,0.4547343,-0.07496493,0.21338122,-0.3138716,0.17043918,-0.417891,-0.9738538,-0.056724343,0.16953921,-0.14074294,-0.052388906,-0.77457297,-0.23830104,-0.27819768,-0.61804277,-0.1899187,-0.2034514,-0.25356904,-0.66405314,-0.19292407,0.050927844,-0.2197097,-0.0020133937,-0.08156453,-0.2792874,-0.16556753,-0.26623023,0.03722679,0.108967744,0.18590264,-0.39028695,0.15696147,-0.028991401,-0.0003214313,0.18311703,0.025066389,0.07250812,-0.5185161,-0.0456051,0.30101195,0.18638314,-0.08383646,-0.021291723,-0.5135734,0.14552313,0.058558136,-0.15468061,0.08308832,0.120876305,-0.098874316,0.05445798,0.11144891,0.29347125,-0.13740604,-0.07191593,-0.07196542,-0.14040563,0.053642727,0.099326946,0.071375124,0.09858588,0.05458897,-0.0047454783,0.028257206,0.15690462,0.2646101,-0.15856327,0.11971827,0.26182848,0.0134723205,-0.19292241,0.09191875,0.031986795,-0.1613655,-0.12993573,-0.14824186,-0.088595614,-0.33061215,-0.14420828,-0.07436219,-0.19153352,0.14432254,-0.03681019,-0.12808752,-0.09261592,-0.035199355,-0.16189979,0.06975828,-0.1706675,0.08918065,-0.61247605,0.123477705,-0.05004487,0.14205255,-0.31336248,0.067001626,0.15407878,0.062093426,0.058423385,-0.019597074,0.12527306,-0.24076717,-0.044776313,0.074927114,0.0020540839,0.12942159,0.27759477,0.046709917
-0.1896956,-0.26513225,-0.012859846,-0.2883989,0.055067636,0.03752505,-0.10997196,-0.16157572,0.2159053,0.010656728,0.15059501,-0.19333947,0.1344691,0.13579898,-0.68962467,0.093037516,-0.25670803,-0.041400786,-0.5779849,-0.13935786,0.14518148,-0.11517432,-0.16407396,0.11599872,0.1625087,0.082684696,-0.15560216,-0.2215065,-0.19449514,0.34503335,0.042430416,0.029966066,0.07531012,-0.35791188,-0.013429027,-0.33101767,0.17431508,0.03775697,-0.22538128,0.1928373,0.17967492,-0.37102538,0.10887953,-0.5019254,0.07547047,0.10193087,-0.14015315,0.041996896,0.14991494,0.11575925,-0.2279801,0.18280008,0.05154741,0.0044444837,0.10167204,-0.20626609,-0.07618607,-0.20213939,-0.4897042,0.08200968,0.06733453,-0.42239323,-0.17792134,-0.37794665,0.01671012,-0.013540859,-0.57022846,-0.22141182,0.12952374,0.10291823,0.06206625,0.0278101,-0.19450004,-0.15299542,0.107208006,-0.049833268,-0.34697437,0.29536048,0.09970341,0.023180624,0.15407011,-0.019701941,-0.2414551,0.102549024,-0.15844654,-0.1411979,0.0568338,0.17347507,-0.0265216,-0.12099444,-0.23190391,0.3204725,-0.04173207,-0.4720884,-0.102793016,-0.04585487,-0.33199593,-0.06586266,0.010123254,-0.3526466,-0.02008735,-0.14121349,0.13474952,-0.20258246,-0.12617552,-0.014334511,0.008554242,-0.13047123,-0.14064886,0.18377058,0.002875817,0.092451334,0.17270161,-0.18839799,-0.5202502,0.022563534,-0.18702236,-0.1016218,-0.052595817,0.15655099,-0.27834937,-0.22591993,0.021718366,0.13203944,-0.21056747,0.31337222,0.19942111,0.33949217,-0.18039536,0.07908395,0.06861173,0.24205561,0.21936092,-0.122451924,0.12326379,-0.16758104,0.3186945,-0.06604558,-0.14982693,-0.61459357,0.20362072,0.06848561,-0.24588849,-0.4627332,0.17535178,-0.1761627,-0.18526652,-0.017665401,-0.070558056,-0.08011832,-0.36849654,0.15256974,-0.25929615,0.08476902,-0.06317602,-0.12785476,-0.5853034,0.008939768,0.07641002,0.099485785,0.0039439294,0.042153154,0.08418902,-0.0723655,0.1134655,0.17609301,0.03502434,-0.116823494,0.361458,-0.59868455,-0.020046242,-0.45341986,0.22248518,0.06202312
