0.021493377,-0.017835794,0.114725634,0.12164374,-0.12170324,0.047110185,-0.028365295,-0.041077983,-0.38481945,0.08646489,-0.3232079,0.09609133,-0.11155635,-0.12789667,-0.15425617,-0.13510467,-0.315917,-0.012376666,-0.207299,-0.26870278,-0.08091076,-0.64988804,-0.47468978,-0.20518692,-0.15412506,0.18784316,-0.105477855,-0.20024583,0.09118715,-0.13450544,0.27739787,0.01138429,0.019667534,-0.06982456,-0.08501932,-0.04334889,-0.1695944,0.113123745,-0.1044752,0.16229051,-0.016229179,0.08080293,-0.06912976,-0.34045753,0.090522535,-0.25329667,-0.064583585,-0.033926792,-0.05091088,0.075410314,-0.15585989,-0.0566553,0.079708666,-0.104198724,0.12811169,0.21012938,-0.024811672,0.13627413,-0.034306098,-0.12079935,0.12447581,-0.496928,0.09471126,0.16166233,0.11551802,0.038771044,-0.02386058,-0.06386929,-0.12303681,-0.04394102,0.020777375,-0.13073896,0.03721708,0.2581535,0.21793532,-0.4256004,0.10431748,-0.38653207,0.12342707,-0.17567624,0.05203594,0.015203896,-0.33058688,0.1094555,0.057059173,0.12937407,0.1970013,0.13351738,0.120595306,-0.34523687,0.08039288,-0.2637752,0.23225135,-0.006594862,0.039241645,0.07343422,0.058760248,-0.20773628,0.06794245,-0.0615122,-0.12177381,-0.058852855,-0.2819035,-0.28221673,0.04565231,-0.17535877,0.17798346,-0.24703023,-0.054013707,-0.405994,-0.10008552,-0.14645763,0.22915626,0.19225554,-0.014242011,0.11425109,-0.038631037,-0.007294258,0.30756542,0.04974034,0.2544022,-0.23181568,0.041310858,-0.2570498,0.21988863,0.26485634,0.21622114,-0.00066151196,0.20531286,0.26880068,0.34335703,0.012221795,-0.7944751,0.2356897,-0.00490551,0.24047016,-0.15104568,0.19976199,-0.16946597,0.13730204,0.14625968,0.06525274,0.07636553,-0.060991965,-0.18033178,-0.5384067,0.08543157,-0.497246,-0.055187702,-0.11155114,-0.32760352,-0.031340726,-0.2834319,0.2351728,0.13035735,0.091881424,-0.20469451,0.2753676,-0.06793905,0.5374734,0.00161772,0.041774806,0.06598302,0.17213851,-0.35841638,0.042001504,-0.1806755,0.16417883,-0.11346721,0.07130723,0.1994115,-0.14044675,0.120103806,0.14621434,-0.24949914,-0.16583288,0.012446915,-0.18478964,0.08104983,-0.22758336,-0.19900385,0.021196026,-0.41813463,-0.39750436,-0.11101158,0.08174228,0.021904368,0.039114445,-0.067466624,0.052021205,-0.33009982,0.16151644,0.05009063,0.24299142,-0.12875764,-0.057064027,-0.06837427,-0.17931968,0.10144938,-0.28542525,0.22860008,-0.1325971,0.124475665,-0.03467166,0.067659825,-0.40258738,-0.32131785,-0.045126233,-0.19479351,0.10005412,-0.09930664,0.056974914,-0.4325936,0.13472304,0.12676096,-0.03342528,0.1495186,-0.32040346,0.006402181,-0.06571056,0.036195584,0.16561705,-0.50172776,-0.2346107,-0.23608774,-0.4634717,-0.24171636,0.19444731,-0.19094215,-0.21915208,0.59861517,-0.08687644,0.20732793,-0.18493137,0.14230478,0.20757675,-0.36217022,-0.18931447,-0.4972606,0.07920349,0.1815897,-0.07564257,-0.1474263,0.45723823,-0.14680909,0.23055562,0.2492254,-0.0962971,0.3213276,-0.21580726,-0.13661793,-0.083516635,-0.031543173,0.025448952,-0.60194606,-0.2561996,0.02669494,0.15545367,0.17764093,-0.122198746,-0.04492996,0.06421199,0.058467936,0.18928778,0.051026065,0.11641634,0.069741584,0.24809483,0.1804425,0.22769621,0.13846737,0.19901681,-0.49442184,-0.72326815,-0.3723599,-0.9681601,-0.23918171,-0.41647264,-0.11022008,-0.8753456,-0.6395233,0.2213527,-0.03580292,0.1237578,-0.044810634,0.2626943,-0.87264645,0.25552294,-0.45976263,0.12058018,0.021197256,-0.17092434,-0.03316297,-0.14726175,-0.16129978,-0.16590258,-0.13005087,-0.08718145,0.072299555,-0.11399845,0.117978744,0.07865854,-0.013652105,0.32504165,-0.008263618,0.011080045,-0.26500565,-0.30393273,-0.34752735,-0.32632378,-0.1383085,-0.029942524,-0.306779,0.035278324,0.0032249559,0.5208023,-0.09248843,0.13383746,-0.000103053375,-0.03466441,-0.27255005,-0.34817693,-0.052156202,-0.13089788,0.11884134,0.20627494,0.10648937,0.15824154,0.16032459,0.28113675,-0.27376786,-0.052372985,-0.20678185,-0.18703839,-0.11030867,0.0145018045,0.1477808,-0.24932814
-0.24501844,0.092301205,-0.17022994,0.12695388,-0.49127004,-0.012059477,0.03167896,0.08577903,-0.5134156,0.08260178,-0.45157775,-0.11717402,-0.11576122,-0.31868544,-0.31008124,-0.20610984,0.095446974,0.13751958,0.14025138,0.22005093,0.43049982,0.27892673,0.34629312,-0.04513174,-0.11297759,-0.051597442,0.23573595,-0.03161304,-0.6960895,-0.5007663,-0.061635274,-0.30387667,0.08729798,0.16623439,-0.0317747,0.17513275,-0.33436492,-0.62394345,0.21012217,0.20237926,0.3075497,0.018097108,-0.39531785,-0.13086268,-0.85833,-0.045010816,-0.12844573,0.25570107,0.3045843,-0.65308374,-0.04423148,0.055529196,0.11610675,-0.104594044,0.055223122,0.005825533,-0.039627187,0.21902892,-0.28172573,-0.1511405,0.20426694,0.096855655,-0.24332526,0.0630631,-0.00800421,-0.122735195,-0.28897157,0.23400825,0.018881837,-0.18821931,-0.24885131,-0.2134995,-0.11215736,0.18137817,0.072073884,0.23458676,-0.5464037,0.23659463,-0.14394636,0.07601517,0.18494329,-0.7783624,0.006517686,-0.08689525,-0.68942094,-0.016192138,-0.22787087,0.05797494,-0.19520508,-0.11555537,-0.27805558,-0.31809077,0.17037962,0.15284322,0.14470743,-0.08426725,0.14376113,-0.25608903,-0.18868424,-0.12220274,0.27970174,-0.15474723,-0.34734872,0.2628517,-0.3161518,0.26128408,-0.2227662,0.019065328,0.004871911,0.078604504,-0.071495384,-0.08986323,-0.40719232,-0.15415242,-0.054401428,-0.01143695,-0.5500984,0.109756075,-0.55589557,0.1288404,-0.74968386,-0.2824946,0.11126196,0.03737653,-0.23548654,0.04469292,-0.02919938,0.07832849,-0.0024947878,0.13165115,0.0064469897,-0.2160005,-0.5190744,0.12644318,-0.18632108,0.15214004,0.13894697,-0.3978259,-0.124920435,-0.5802917,-0.069943234,0.0020565449,-0.36835107,0.14824885,-0.17506087,0.22465068,0.21563369,0.09646096,-0.19588403,0.052577145,-0.87720376,0.31326717,0.011135983,-0.44759944,0.13976094,0.1552722,-0.5356619,-0.2432697,-0.27335468,-0.20659007,-0.012636348,-0.051004007,0.40739253,-0.056768518,-0.69066644,0.08731856,0.07823799,0.03650474,0.10997076,0.1630604,-0.29180405,-0.7878097,-0.14606662,0.037013866
-0.50605196,-0.09534794,-0.16281822,0.21575083,0.053835656,-0.14084324,0.07052745,-0.11222844,0.29926398,0.066012874,0.30709893,0.20510042,-0.32891405,-0.27180076,0.013901235,0.1700314,-0.26718912,-0.03505192,-0.28547373,-0.13212931,-0.13696274,-0.33086902,0.2522583,-0.2314466,-0.329555,-0.5165588,-0.31153595,0.10768464,0.22115974,0.42158177,-0.011083199,-0.105379574,-0.3246848,-0.41960618,-0.46183145,-0.03186133,0.1754145,0.2941923,0.11898597,0.030350173,0.18019152,0.15691195,0.44080204,0.10569931,-0.1359858,0.40607533,0.0012455578,-0.18974544,-0.19178988,-0.1040606,0.28414515,0.04994205,-0.39367908,-0.14280984,-0.1058352,-0.46983823,-0.0116608,0.20332952,-0.31527784,-0.1817234,0.24456859,0.12791212,0.35202417,-0.31649855,0.11633845,-0.0975754,0.053296585,0.06115659,-0.032280892,0.60488355,0.1704265,0.042770334,-0.08348841,0.34860322,0.24692217,0.23144926,0.054008495,0.08258891,-0.37992924,0.11985228,-0.010887903,-0.15576653,0.19319586,-0.42188904,-0.25262994,-0.24685426,-0.28570798,-0.3505545,-0.22670819,0.10761854,-0.5065953,0.16840649,0.4066538,0.006124585,-0.2368823,0.17164813,-0.24555802,-0.09642851,0.0208641,-0.124475695,-0.10477008,-0.09441824,0.17576192,0.29677582,0.11024362,0.17714553,0.058604605,0.43509623,0.060033187,0.14323017,0.17997353,-0.08837397,0.03833286,-0.3549589,0.12236722,-0.05885264,0.08973981,-0.08556459,-0.18259208,-0.27145323,-0.5124271,0.30120263,-0.35269558,0.15033825,0.45646334,-0.038193587,-0.115868226,0.076600224,-0.4449295,-0.23345864,-0.35908198,-0.14358155,-0.04865714,-0.18886843,0.057005275,-0.07830162,-0.037248682,0.04721564,0.0976249,-0.027017433,0.24262062,-0.19971144,-0.037797146,-0.4493079,-0.2713273,0.10958227,0.055580426,0.11967666,-0.19624464,0.03416963,-0.12846306,-0.19417472,0.054757565,-0.38620695,-0.068965614,0.15907867,-0.34026626,-0.12776536,0.17215568,-0.04540988,-0.22467275,-0.6032336,-0.43000454,0.10999363,-0.25404137,0.07734135,0.08679336,-0.03553457,-0.018586144,0.018138867,0.32881242,0.110794805,0.0003501461,-0.48047256,0.049662217,-0.35916606,-0.44628152,-0.19204003,0.097857155,-0.0603931,-0.09849615,0.006657217,0.27014753,-0.26740676,0.10272765,-0.068894885,-0.0882431,-0.62649965,-0.09556647,0.055512175,0.17538063,0.055481356,-0.04679139,-0.22120497,-0.015581896,-0.24548146,-0.09398586,0.2937077,0.0014331846,0.007973397,0.10663903,0.14934823,0.11755418,0.08440943,0.005115843,-0.15412591,-0.54339886,-0.13747668,0.25502074,-0.46729326,-0.13458332,-0.6273932,-0.3244111,-0.29724923,-0.08202389,-0.59813327,-0.5031796,-0.045740508,-0.47158092,0.11334092,-0.33914652,0.0652881,0.21570103,-0.064032495,-0.21317096,-0.05847561,0.18260208,-0.07013978,-0.014175046,-0.12721685,-0.5831823,0.042958446,-0.17860414,-0.23313433,-0.0107864365,-0.007049838,0.19888458,-0.17198104,-0.36154643,-0.045337748,0.034996342,-0.2207122,-0.23728435,-0.67321324,-0.6239347,-0.22094634,-0.11784015,-0.06370488,-0.29303622,0.12625653,-0.14892638,0.13091765,0.042848144,-0.25802574,-0.11178647,0.2744376,-0.32001182,-0.57554054,-0.38362306,-0.23657222,-0.22787483,0.20250975,0.12746057,0.01390394,-0.023821577,0.2019502,-0.11703668,0.020259244,0.004965465,-0.5345588,-0.0007703437,-0.61424905,-0.045673423,-0.17894058,-0.31302425,0.16458829,0.13967328,0.06227553,-0.22272553,-0.42027786,0.08674184,-0.106401235,-0.13422865,-0.039388504,-0.3690459,-0.29272613,0.14388137,-0.17809124,-0.17558673,-0.37448183,-0.17511788,0.026828688,0.16646497,0.023301708,0.16911137,0.31576473,-0.068588175,0.13979995,-0.101961896,0.09422402,0.14593695,-0.097096846,-0.08671081,-0.6234694,0.02236682,0.21149193,-0.3678698,-0.08753951,-0.059486955,0.21678707,0.27626953,-0.16064355,-0.032814126,0.19240251,-0.18599047,-0.5490869,-0.18522821,0.14006962,0.1693023,0.01207368,-0.19686775,0.03777221,0.10286866,-0.45073202,-0.093025155,-0.19807233,-0.3318826,-0.19011371,0.15661728,-0.0774838,0.20721968,0.18313265,0.28720444,-0.14721529,-0.13635212,0.061502334,-0.088107586,0.17820808
-0.5358433,-0.26378912,-0.64696705,-0.43357036,0.08364744,-0.13589409,-0.059044175,0.053034667,-0.21161836,0.0849929,-0.37016052,0.0744808,0.1464665,-0.013450316,-0.22445382,0.023522446,0.07158066,-0.7617587,-0.23372558,-0.03929549,-0.26966578,-0.3436253,0.23004422,0.03339684,0.07641077,0.14023119,-0.24532643,-0.3502786,0.09524595,0.21248099,0.17240506,0.131184,-0.26591086,-0.13180792,-0.1601611,-0.18506101,-0.20450602,0.2774337,0.043631855,-0.4315447,-0.51981527,0.015133517,-0.040468186,-0.24564062,-0.043815024,-0.24183941,0.09773516,-0.26218104,-0.18427332,0.1437534,0.13311905,0.0018707565,0.123571746,0.24364705,0.1089004,0.13815416,0.06422361,-0.03433972,0.34769648,0.11990663,-0.05561375,-0.6261015,-0.15504612,0.09343548,0.16135983,0.111230075,0.27180418,-0.10398512,-0.08251502,0.24589124,-0.06583842,0.23157376,0.18489456,-0.23707716,0.03345791,-0.33570173,0.40492737,0.055734724,0.050689653,0.035375033,-0.09993411,-0.11430425,0.14651604,0.24700686,0.23428784,-0.18411535,0.1528153,-0.050007217,-0.17971408,0.23032252,0.27249777,-0.09629468,0.12914333,-0.30931863,0.25711313,0.057165,0.13892941,-0.26160562,0.33203995,0.024431733,-0.193476,0.44175902,-0.15906668,0.030228287,-0.0100409975,-0.22297212,-0.042816132,0.13967294,0.5375838,0.20891012,0.05364846,0.030923342,0.11013096,-0.42171648,0.38608313,0.1976075,-0.044406682,-0.4459388,0.24471691,-0.50130665,0.2967355,0.109002784,-0.07390008,-0.20485282,0.12000062,0.14772841,0.12682201,0.102777384,-0.016069997,0.23089918,-0.17088157,-0.0005759629,0.12907243,-0.42440012,0.21737355,-0.37601855,0.13940983,0.30039933,0.12186166,0.017084239,0.012809001,0.1924594,0.055472985,-0.05683891,-0.5357738,-0.5327944,-0.09831358,0.0053438703,0.0054962677,-0.45907164,-0.06978991,-0.2622512,-0.08708903,-0.17909603,-0.008178068,-0.47197032,0.18331172,0.12712659,-0.31828657,-0.03934959,-0.05039373,0.13315447,-0.24932389,-0.13991861,0.28953958,-0.07481253,0.09770475,-0.55867964,-0.07252387,-0.057812367,0.06802564,0.029257648,-0.065174155,-0.37517235
0.022394788,0.051803093,-0.20972192,-0.10850978,-0.0028556043,-0.02949853,0.010837154,0.11003869,-0.2771978,-0.06450983,-0.004184944,0.0032086594,0.17812315,0.021410521,0.056672346,-0.19896352,0.28324947,0.09814011,0.073666945,0.07554974,0.013103797,0.38272497,-0.2693237,0.09863667,0.14019118,0.080831,0.12773533,-0.22408848,0.054875497,-0.5412721,0.024925813,0.18202533,0.019869424,0.025112716,0.0017013664,0.063765675,0.05233729,-0.2881157,0.0009857914,-0.14478791,-0.058465354,-0.20115308,0.0390171,-0.3226482,0.15313384,-0.5204869,-0.005705833,-0.101136625,0.1529072,-0.033134464,-0.18678047,-0.032027043,0.2563838,0.2557437,0.1523522,-0.052800305,0.034013808,-0.08182551,0.07456908,-0.13220717,-0.19195776,0.048259057,0.04869402,-0.024318585,-0.07640991,-0.1403332,-0.14063767,0.07617171,0.06693783,-0.32773554,0.07458098,-0.23689023,0.11442213,-0.34593582,0.121930696,0.06373031,-0.16609874,-0.044875696,-0.056726057,-0.3391822,0.07338727,0.12971117,-0.08146262,0.057806075,-0.11457148,0.09646905,0.19853756,-0.024607645,0.0853603,-0.55029,0.2298794,-0.08176735,-0.4250788,0.20384873,-0.07990663,-0.092959315,-0.2651264,-0.2520385,-0.2749059,0.14923128,0.25641716,-0.2500854,0.28962514,-0.38612482,0.09542704,-0.38793224,0.16780765,0.103902355,-0.90174645,-0.019485068,-0.37579623,-0.2849389,0.1400825,-0.43881848,-0.1101937,0.07356664,-0.3710426,-0.21709625,0.025949625,-0.10355556,0.111468524,-0.3986663,-0.37584373,0.078583755,-0.3261032,0.19310221,0.008913023,-0.4846101,0.2678724,-0.44146043,-0.35431582,-0.027683912,0.17028576,-0.22170818,-0.19588572,-0.21005206,-0.15893912,-0.12103929,0.0644647,-0.09751637,-0.03587064,-0.33666766,-0.0416437,-0.26429597,0.16345905,0.05673692,-0.048810873,0.019806532,0.2178024,0.03809016,-0.6164069,0.124658704,0.09787703,-0.20596896,0.23664083,-0.28588855,0.05484405,-0.70345145,0.075606816,-0.4351553,0.17749615,-0.12190406,-0.044291392,-0.0515552,-0.10652571,0.033804327,0.10146179,0.0919026,-0.090770684,-0.2306476,-0.04940265,-0.08695663,-0.14507315,0.13657346,-0.06822446,-0.016289406,-0.005825758,0.030414578,-0.14470065,0.17897063,0.10506377,-0.09472828,-0.11549267,0.316199,-0.007046487,0.099271886,-0.12998307,-0.34736034,-0.48785603,-0.27482396,0.25371537,0.08422485,-0.2916724,-0.0042388635,0.075435646,0.018308146,-0.28560743,0.10895391,0.119841926,0.0156862,0.16378467,0.09123492,-0.06917051,0.03631428,0.04314569,0.22529763,-0.08880906,0.0574634,0.10675607,-0.039870895,0.09160376,0.08584972,0.043753978,-0.0030280673,0.057081074,0.094199546,0.04029674,0.058207903,0.010413583,0.15334575,0.07154985,-0.09182968,0.13834299,-0.40266305,-0.04788608,-0.03565118,-0.07345017,0.032575224,0.0560737,-0.01918124,-0.0024095231,0.013766123,-0.016125396,0.5201119,-0.04460358,0.122575745,-0.22571187,0.12176022,0.13898844,0.17095432,0.14989944,0.0738253,-0.05976429,-0.12104977,-0.22310542,0.021669568,-0.070914336,0.17073347,-0.07365568,0.06043128,-0.27788353,0.096101284,-0.16121107,-0.22186753,0.016045842,-0.1596319,0.38345438,0.095032215,-0.03637592,0.0714128,-0.36649707,-0.16707833,-0.003231554,0.18316475,-0.269943,0.24195851,0.10692474,-0.0236512,0.11724242,-0.33251506,-0.22067782,-0.13702704,-0.28567284,-0.31527695,-0.028657679,0.1252724,0.15820329,0.079940505,-0.26830566,0.1940729,-0.012194633,0.016652156,0.14471927,-0.54686725,0.19900231,0.00282371,0.037065834,0.11683679,0.3321944,0.015501314,-0.06901007,0.09237606,-0.3909603,-0.012332506,-0.030914813,0.22424182,-0.3906887,-0.005811674,-0.2907955,-0.2285645,0.1173307,0.21126375,-0.063969344,0.03255995,-0.28729528,-0.43288934,-0.37625116,-0.010623253,0.22193998,-0.31213105,0.22298585,0.042325966,0.018471725,0.12917139,0.053816527,-0.45954338,0.092245415,-0.12767479,0.05999525,0.15451753,0.12606305,0.069414854,-0.10060253,-0.021033363,0.19786227,0.19770226,-0.12769637,0.12538153,-0.47996855,-0.08879438,-0.42610347,0.07087493,0.06021914,0.032096434,0.04970106,0.12601116,0.009053755,0.03919974
0.014505567,-0.16312626,0.11332543,-0.20238572,0.15014075,0.30773577,-0.13069858,-0.083588816,0.038409423,0.09079463,0.27509654,-0.06809486,0.2448589,-0.13044374,0.21125177,0.2801903,0.07800541,-0.33773187,0.19668756,0.3307406,-0.37868395,-0.04260258,-0.39231125,0.4192078,-0.2975732,-0.09801245,0.28939152,-0.012652065,0.046954595,0.025178524,-0.2046459,0.25957918,0.3709258,-0.44821474,-0.0075883134,0.27922234,0.0029257569,0.16044739,-0.31262213,0.12045563,0.25284675,-0.03766407,0.20537359,-0.2577864,0.23990007,-0.012224783,0.029212523,0.21121943,0.23676676,-0.30644453,-0.075894244,0.13406076,-0.005879075,0.3734451,0.106231734,0.11800342,-0.25305587,0.1143505,0.07729895,-0.16236286,-0.06758773,-0.01087372,-0.63979983,-0.06408825,0.026643347,-0.15982233,-0.47892097,-0.2072059,-0.031707536,-0.55718297,-0.2662719,0.2513233,0.11387544,-0.23807165,0.06812816,0.113629915,-0.3682312,0.3494669,0.29000112,0.16050443,0.24914347,-0.28579625,-0.022926848,-0.14439312,-0.12580472,0.11553714,-0.30968,-0.09127037,0.10271588,-0.05934749,-0.0117651755,-0.19402339,0.04519354,0.12165756,-0.5821289,-0.11039745,-0.084457286,-0.1980689,-0.0496835,-0.043641858,0.0019396162,-0.5002226,-0.03274171,-0.118564,0.044386603,-0.006353825,0.16372433,-0.3202223,-0.097791344,0.101230584,0.13766798,0.44647402,0.09124178,-0.29119006,0.06767148,-0.073081754,0.13308588,-0.082760975,-0.32275587,0.058673456,-0.32794935,-0.16050531,-0.035021372,0.008781996,0.21219337,0.24679787,-0.2558012,0.25508946,-0.023087244,0.11066526,0.041961223,0.08073558,0.23445371,-0.00045118397,-0.17914407,0.006011278,-0.0013363388,-0.18608256,0.12134835,0.007846936,0.08259608,-0.18181932,0.1814156,0.022472,0.09278696,-0.70981157,0.43960214,0.15438199,-0.058407955,-0.27039364,-0.30347395,0.19390014,-0.16385154,0.09379069,-0.011524084,-0.24560384,0.4194251,0.37752903,0.049541093,0.4180453,0.26976594,0.34963992,0.07503777,0.12484012,0.008481876,0.39171094,-0.25780028,-0.09202424,0.112747416,-0.21179354,0.019038254,-0.044789713,0.18966599,-0.10380354
0.1836522,-0.43404737,-0.39447254,0.27409098,0.18697098,0.17322649,-0.17080045,0.06414976,-0.15042134,-0.17235194,-0.46659318,-0.28312176,0.33594552,0.23275179,0.058991373,-0.2228979,0.019825537,0.1455931,0.10316939,0.113366954,-0.06538662,0.0977805,0.025782108,0.10234245,0.26690644,-0.059686758,0.20306143,-0.1740894,-0.12386423,-0.19907187,-0.17699851,-0.34508288,0.17918022,-0.048964918,-0.27972993,0.1519452,0.09163109,0.097948544,-0.34152386,-0.11474994,-0.13543275,-0.20831762,-0.7360626,-0.3099106,-0.084993064,0.23863508,-0.21396193,-0.14757437,-0.041487902,0.20020667,-0.06876379,0.16116768,0.002994727,0.002357914,0.0049729124,0.067996725,0.32819206,-0.2474036,0.0058953823,-0.36961114,-0.085487865,-0.26701868,-0.14679192,-0.09986841,-0.020074455,0.008275471,-0.39891645,0.20001128,0.004541515,-0.06394073,-0.26279768,0.08685771,0.09164993,-0.3105892,0.044640742,-0.21206118,-0.081306405,0.21494,0.2268305,0.067421705,0.19870974,0.07109382,-0.11927732,0.117174804,0.05397348,-0.265671,0.007755719,0.09464711,0.17502311,0.12773569,-0.12064359,0.07638986,0.22684382,-0.10252581,0.0005441267,-0.28608322,-0.11068892,0.42427543,-0.118112825,0.3152812,-0.1429406,-0.12737955,-0.49684358,0.24104995,0.1664281,-0.24203642,0.07210893,-0.13795556,-0.29650575,0.23350623,-0.010406447,0.26665467,-0.042061392,-0.10067123,-0.3498511,-0.30845004,0.11819304,-0.5588351,0.26394367,0.057917643,0.161788,0.20587601,-0.20632944,0.07038474,-0.2629015,-0.057135448,-0.027351605,0.04236297,-0.19397236,-0.13410962,-0.52857214,0.098754935,0.036313668,-0.15103905,0.024553021,-0.5743316,0.0013591942,-0.460194,0.23641883,-0.2464502,0.014807373,0.029881792,-0.28774145,-0.49671832,0.10823148,0.122485414,0.08408384,0.12621528,0.22608115,0.23004282,0.41096964,-0.1682357,0.18742217,-0.12677495,-0.078364976,-0.448139,-0.09283119,-0.11090519,0.13275163,-0.14890698,-0.14877953,-0.047586676,-0.126179,-0.005807779,0.3327999,-0.1043513,0.014089566,-0.2693571,0.05076991,-0.37159574,-0.5072074,-0.05548861,0.08051796,-0.13622133,-0.10147824,-0.0063462406,-0.018716333,0.024989394,0.13074096,-0.0148646645,0.048186965,0.056173027,0.29109633,-0.085558474,-0.0026778188,-0.12401627,-0.015458983,-0.18388167,0.09555112,-0.09796199,-0.043786336,-0.0834295,0.16959658,-0.20866501,-0.0777878,0.025427047,0.08030124,-0.28251627,-0.39326403,0.16795489,-0.17956263,-0.28726003,-0.31697428,-0.069977336,-0.09619998,0.24868836,0.15743083,0.0049295286,-0.25836614,-0.13293523,-0.24098015,-0.120211795,0.096295506,-0.18563093,-0.075801216,-0.20926544,0.011274527,0.14214073,0.15889557,-0.21157812,0.27994165,-0.12082605,-0.2042787,0.002045012,-0.15955104,0.062339906,-0.069109015,-0.10530604,-0.12824707,-0.059968248,-0.6922069,0.14692047,-0.19407727,-0.4333699,-0.0025665904,-0.5078414,-0.11069248,0.19964601,0.25263566,0.08444021,-0.13021258,-0.17204352,0.08275744,-0.85354495,0.098607354,-0.30145985,-0.15196997,0.09065524,-0.4165225,0.32444134,0.17512588,-0.05007475,0.0693749,-0.012607696,0.12334043,-0.03141545,-0.38815784,-0.1983971,-0.4176935,-0.02211379,0.30299494,-0.48586687,-0.15527415,-0.31913614,0.22336137,-0.4998069,0.13558185,-0.3148707,-0.021522012,0.19955681,0.026917445,-0.1497269,0.16392264,0.08036988,-0.06376579,0.07841298,0.020700825,-0.0006605619,0.19466664,0.15484276,0.077072576,-0.20218131,-0.18128526,0.19027871,-0.063409455,-0.21195205,0.17512444,-0.30886337,-0.064008996,-0.1392022,-0.12440353,-0.06018041,0.0661479,-0.018869985,-0.13833143,-0.14251192,0.06843582,0.033847876,-0.15434957,0.122995794,-0.10598596,-0.16105941,-0.43220454,-0.1819683,0.12021818,0.19385259,-0.0031663605,0.003949269,0.062060144,0.038400605,0.14246498,0.113361925,0.047101896,-0.19039525,-0.15074329,-0.17104112,0.25280038,-0.11518189,-0.18103208,-0.0092296265,-0.16993505,0.15995707,0.08268345,0.050078683,-0.10889522,-0.16053568,0.06882659,-0.07534705,-0.06262679,-0.35662705,-0.0074584424,-0.33429888,0.12721452,0.04820154,-0.16846581,-0.12791568,-0.064415485,0.04015971
0.01680486,0.0013957559,0.18989831,-0.085849784,-0.055384796,-0.30521074,0.07144333,0.036569398,0.25749612,-0.49295834,-0.17216145,0.025770832,-0.13882543,0.002944143,-0.34052244,-0.07340737,-0.29240337,0.09044767,-0.26504478,-0.45625314,-0.22156712,-0.03538008,-0.008234433,-0.13676521,0.24894728,-0.05429517,-0.21291538,0.15370008,-0.3518492,-0.15032361,0.038086098,-0.11303775,-0.4128948,-0.040958803,0.11107027,-0.35148287,0.08909473,-0.022414954,-0.19803156,0.09720717,0.017664108,-0.037037786,-0.14993656,0.13618901,0.075116426,0.121752985,-0.101730235,0.12324152,-0.1638453,-0.056179684,0.043226287,0.046009984,-0.11968924,-0.5588802,0.06870166,0.07506497,-0.01723395,-0.06484148,-0.28384236,-0.21995999,0.16149908,0.07803633,0.38599306,-0.07037092,-0.17964394,-0.046686035,0.063107714,-0.14145674,-0.09758891,0.20134078,-0.13663374,-0.57837117,-0.37405103,0.015651707,0.06758177,-0.13132781,0.078188345,-0.20819347,-0.09623957,-0.31264466,-0.09379807,0.2804997,-0.039573636,-0.015407025,-0.19588315,0.17110147,-0.13670295,-0.031820748,-0.15272035,-0.16331519,-0.1347954,-0.114896715,-0.08382301,0.10783932,0.19959499,-0.10082423,-0.11608059,-0.0155948745,0.090288125,-0.04996686,0.09336696,-0.052859303,0.19152142,-0.13342643,0.052497018,-0.17895363,0.06468321,0.12313219,-0.0014833676,-0.2436521,-0.12858497,-0.367638,-0.30805212,0.15923971,-0.30099988,-0.041552614,0.06410452,0.15751989,0.18724732,-0.051221382,0.07943831,-0.19274887,0.19046853,0.11624509,-0.18287219,-0.504918,0.026662719,-0.13274807,-0.11782765,0.042633023,0.20400444,-0.16831648,-0.010965194,-0.21118665,0.24665792,0.050483637,0.01432352,-0.46102175,-0.27464104,-0.0053374097,0.1879658,0.07707111,-0.58884424,0.0002772527,-0.16873154,0.2829079,-0.6416126,-0.027100341,-0.16060601,0.28364605,0.15017904,-0.09201039,0.023989512,-0.22823177,-0.27217254,0.06643395,-0.62246835,-0.41456777,0.166659,-0.36100543,-0.15376496,-0.2598794,0.14716579,-0.42472252,-0.040452052,-0.48926973,0.11203455,0.1257511,-0.025618201,0.05065084,-0.15805295,0.120724246,-0.5478785,-0.110329345
-0.27592704,0.47665372,0.2977383,-0.13560216,0.051895544,0.011894681,-0.017858762,0.037562016,0.021015458,0.116270855,0.24596852,0.086682744,-0.33173627,0.38838685,-0.08205896,0.061323863,0.12516558,-0.10068357,-0.17732581,-0.21124795,0.13092099,-0.3923828,0.19557467,0.17005569,-0.33131403,0.26586562,-0.29675183,0.052775543,-0.15294692,0.20854051,0.08485246,-0.098031245,-0.34368297,0.28609103,0.17451125,-0.047765102,-0.20000754,0.024600793,0.16866018,0.16291994,-0.009499088,0.006397641,0.16167668,0.116485,-0.32120603,0.11769549,-0.07396455,0.20857383,0.055278473,-0.42377886,-0.14605403,-0.47648087,-0.034447085,-0.4814066,-0.53453404,-0.18881394,-0.35267043,0.027203826,-0.21131477,0.50754136,-0.07941732,-0.019347426,-0.09384635,-0.28799886,-0.29864576,0.31583193,0.118160225,-0.21372461,0.05940191,-0.16484998,-0.095568076,0.10742363,0.13471597,0.21440107,-0.2890126,-0.028757088,-0.13862468,-0.018360175,-0.18858823,0.19484958,-0.26578152,-0.36114722,-0.3953128,-0.6464473,0.009653516,-0.42167866,-0.098459296,-0.17819275,-0.6036294,0.109834105,-0.20761736,0.27992696,-0.09707508,-0.07623342,0.059477795,-0.25757736,0.024482638,0.1835999,0.25432605,-0.51381516,-0.33053294,0.14336264,0.35290375,0.20151927,-0.03881516,0.42049354,0.047712907,0.0932153,0.25365207,-0.12007584,-0.33788428,0.17040406,-0.17736824,-0.12680492,-0.28395966,-0.51696944,-0.05201446,-0.4646754,-0.3721833,-0.03541205,-0.4573251,0.13777459,-0.1579222,0.047860764,-0.034543324,-0.022904767,-0.20592894,0.013648863,0.11293827,0.09897769,-0.017451962,-0.14851241,0.13830312,0.27391344,-0.05467295,0.16352983,-0.06259754,0.07686289,-0.02625581,0.013345793,0.05882607,0.31574476,0.2454213,0.37093464,-0.2753021,-0.094156034,-0.09636777,-0.21637534,-0.18430965,-0.23013613,0.2847996,-0.24000397,-0.4452793,0.30383012,-0.16061422,0.12479912,0.040147077,0.14424427,-0.49864787,-0.07108996,0.107610784,0.28464058,0.16002423,-0.24367717,0.10118781,0.050503317,-0.6688275,-0.13678826,-0.090398476,-0.0405667,0.34637702,-0.11365774,-0.16668843,-0.049017675,0.1007002,0.41516328,-0.039865512,-0.20153333,-0.30149087,-0.23829596,-0.28464293,-0.17376545,-0.16176592,-0.11890252,-0.33356732,0.055667523,0.11328571,0.43981767,0.2617475,-0.3382758,-0.2785507,-0.037288453,-0.26613054,0.1578606,-0.07289934,0.012470809,0.029584821,-0.03510644,0.15163158,-0.057792798,0.034856234,0.2702128,-0.30002555,-0.009666874,-0.070694886,0.07464,0.25828192,0.18652338,-0.024519794,-0.10311739,0.26420575,-0.17180413,-0.03479537,0.028462214,-0.32489282,0.37035885,-0.21777539,-0.0559944,-0.3695779,-0.010628789,0.055026587,-0.10107454,-0.048093256,0.060423784,0.21593581,0.12998307,0.006939291,-0.30996627,-0.5420208,0.041675508,-0.24603012,0.04274134,0.1759333,0.17795202,-0.108168066,0.28267574,0.053922907,-0.23632652,0.07217947,0.11825681,-0.016899532,0.067153215,-0.29685828,-0.49202204,-0.03693711,-0.16529489,-0.43379232,-0.15945607,-0.22094359,0.12388049,0.123724334,0.08736532,0.2871799,-0.059893057,-0.27201957,0.029233592,-0.07745777,0.095863275,0.08352786,-0.07200465,-0.1582338,0.20792508,-0.23339194,0.02444662,-0.085777014,0.044580612,0.17062908,-0.055023946,0.04517206,0.15704186,0.23130381,0.111770555,-0.32563752,0.1352571,0.12357289,0.15578507,-0.28107885,0.14692618,0.18128504,-0.25160262,-0.04198344,0.060211886,0.14918728,-0.06065646,0.20567831,0.13016851,-0.619623,0.0770134,-0.064952485,0.17191213,0.2347961,0.07058878,0.02645161,0.24107647,0.020489594,-0.5848082,0.059838153,-0.06804971,-0.005523635,-0.03546508,-0.13540268,-0.26187134,0.1885706,0.20895736,-0.06478845,0.13583618,0.594222,0.056963347,-0.3720205,0.327073,-0.40430152,-0.049706534,-0.019989524,-0.41073152,-0.06798281,0.23506968,-0.18348865,-0.29854342,0.13959497,-0.009365425,-0.11021538,0.10204355,-0.2829386,-0.061758004,0.035057407,0.21434005,-0.0740689,-0.19984792,-0.13297844,0.241774,-0.41026872,-9.095797e-05,0.0780887,0.043825075,-0.019773263,0.0070511904,0.062430717,-0.07778
0.5396518,-0.42055783,-0.48719835,0.16634214,-0.121258505,-0.015042979,-0.20160136,0.13093041,-0.090414695,-0.17341328,0.3524287,-0.0072252196,-0.27157184,0.06969136,0.36131662,0.049625453,0.066185154,-0.08043147,-0.15062322,-0.048201643,0.049751554,-0.072347276,-0.24655025,0.03151227,-0.0762601,0.45712313,0.07545368,-0.03334482,0.09992244,0.03602086,-0.45185754,-0.16193657,-0.08674156,-0.38172227,-0.42920268,0.01596254,-0.022125829,-0.2544187,-0.22697745,-0.018622292,-0.15401869,0.07798432,0.3527528,-0.013268172,-0.3040076,0.23419893,-0.14332114,-0.6206374,-0.439391,0.29114634,-0.16899964,-0.085549906,0.11507705,-0.0533623,-0.2801152,-0.12853295,0.24496491,-0.4007821,0.09498692,0.31000388,-0.43013057,-0.21051526,-0.3583433,-0.05453163,0.0047229463,0.031484935,0.011505918,0.061499882,-0.119845286,-0.26236725,0.15350077,0.22319289,0.37277097,-0.14377438,-0.24157146,-0.39909214,-0.13916415,-0.5661191,-0.13934924,-0.10906912,-0.16209689,0.034905028,0.07841014,0.0035760298,0.30998394,-0.17519687,0.23161413,-0.09897355,0.04871407,0.11340646,0.03911069,0.09909756,-0.25188747,-0.18248294,-0.4597488,-0.14869376,0.06666458,-0.07994104,-0.46791747,0.12635542,-0.20876643,-0.24900126,0.14944677,-0.020475375,0.038533315,-0.47008508,0.08253036,0.26465225,-0.37426126,0.30593863,0.010851722,-0.19778502,0.3076519,0.085011154,0.07791883,0.10436766,0.44797146,-0.43542752,0.3942124,-0.042433213,0.11005656,0.37379426,0.05555917,-0.54084325,0.020649085,-0.021827081,-0.44664142,-0.27579698,0.15945794,-0.22455181,-0.47541317,0.120028615,-0.22157742,-0.21529728,-0.2587315,-0.151645,-0.07297046,-0.0708278,0.41163433,0.26876053,-0.3263574,0.22586301,0.34033984,0.059008937,0.3800878,-0.40610546,0.11339719,-0.12324635,0.20997538,-0.52956986,-0.037491523,-0.06272435,0.047303375,0.5919081,0.0817518,-0.5727415,0.5150287,0.02511138,0.187593,0.30407143,0.20077409,-0.12157688,-0.32087734,0.0725213,0.09917301,-0.41414523,-0.30165473,-0.1834386,-0.2440853,-0.15620098,0.51699954,0.1911019,0.12445658,0.6224296
0.08682141,0.12433349,0.23998787,-0.34243542,-0.16706541,-0.23106217,0.19015504,-0.0030697912,0.1807863,0.080463864,0.007816463,0.025844261,-0.5727823,-0.35598093,-0.16705823,0.32178298,-0.2892656,-0.2789146,-0.16547015,-0.1253399,-0.0735772,-0.11792847,-0.0020523714,0.022951102,-0.20549391,-0.041470956,-0.23339173,-0.053662594,0.16335556,0.3913606,0.017366521,0.26042503,0.11597185,0.14494681,0.17293581,-0.34597656,-0.29953036,0.04728783,-0.26577544,-0.016443158,-0.12115601,0.06611381,-0.26509184,0.24029872,0.048217367,-0.19977526,0.032507423,0.09655984,-0.050406985,-0.17000234,0.05898087,-0.43094447,-0.1354149,0.026165696,-0.22801495,0.011956566,-0.47943538,0.09576516,-0.030227238,0.07034247,-0.0071548084,0.2310195,0.02018633,0.24160421,0.0766965,0.15040499,0.26579505,-0.7674817,-0.12759411,0.10350024,-0.62693197,0.041600157,-0.6460065,0.04984884,-0.1849562,0.0016184094,0.07058493,-0.068910845,0.16544332,-0.069519915,-0.37275863,-0.014690204,0.28243905,-0.03021652,0.1919049,0.14545994,-0.26364526,0.098698966,-0.6655539,0.27879956,0.19089234,-0.29208443,-0.0839535,-0.18591197,0.13103682,0.20820862,0.24458669,-0.107819706,0.18834837,-0.71640813,0.20131473,0.39515263,-0.083404005,-0.19122413,-0.50014746,0.24690239,-0.31952044,-0.17098938,0.36659506,-0.08012683,0.1287741,-0.04887861,-0.3379504,0.35339046,0.4471869,0.39985994,0.019037154,0.40709856,-0.46379864,0.25265828,-0.24952595,0.11283096,0.3543796,-0.42889288,-0.19888757,-0.5115002,0.028544374,0.15465036,-0.105338566,0.20874085,0.19850606,-0.10214536,0.2911496,0.07076146,-0.027084999,0.12527145,0.12188199,-0.104024634,-0.39504486,0.04574381,-0.3299905,-0.12701452,0.026032958,0.5421382,0.21080784,0.019596523,-0.13820422,-0.17186932,-0.12887731,-0.15986976,0.12754759,0.20498209,-0.18568547,-0.3622643,-0.26318938,-0.04450235,0.2179232,0.20639007,-0.11038175,-0.03849105,0.0533128,0.16076972,0.068814084,-0.28606316,0.082501434,-0.18867354,-0.20626816,0.2469242,0.06400841,0.0304902,-0.0959544,0.113790244,-0.025862217,0.08774578,-0.028602907,0.16263206,-0.11514886,-0.080595545,0.072412066,0.047288354,-0.045603327,-0.09576239,-0.21598662,-0.005506967,-0.18798551,0.028736219,0.11841933,-0.051382974,0.10746222,0.19565931,-0.08083655,-0.17805648,0.093983114,-0.07160735,0.23370509,-0.01248935,0.0123416735,-0.05139823,-0.005868288,-0.29443076,-0.18087773,-0.39263603,0.16163915,-0.14169174,0.15674895,-0.7486323,0.05064203,-0.0018338924,-0.028639244,0.15146549,0.00930369,-0.050975252,0.16466072,0.0042832964,0.0366688,0.030952983,0.18162806,-0.23512585,0.15499628,-0.40081257,-0.057144757,-0.0385194,0.23107073,0.2664579,0.04431204,-0.13782825,0.023109283,-0.119765535,0.26607147,0.30315498,-0.44115642,-0.36142603,-0.14217871,-0.2393244,0.080581196,-0.60963035,0.30571362,-0.42849553,-0.027390102,-0.29942733,-0.012960044,0.1632315,0.22375481,0.32135367,0.24461666,0.26119602,0.058196347,-0.04790022,-0.1166856,-0.37272257,0.0094999345,-0.18761417,-0.38057286,0.10160344,0.28571317,0.043832924,-0.24513121,-0.071583286,-0.0015631457,-0.008835274,0.12880893,-0.047039848,-0.19025303,-0.16689686,-0.03646135,-0.18581872,-0.20411034,0.079728186,-0.040579252,-0.03377094,-0.3028927,-0.006945305,0.3098043,0.19987592,0.20793271,0.08667498,0.23760332,-0.011268767,0.054670457,0.08769371,-0.069788,-0.45291707,-0.26877996,0.10591499,0.09262366,-0.00047120798,0.014187962,-0.2758488,0.24212681,-0.062741674,-0.17722356,-0.0028395306,-0.14739226,-0.15787081,-0.03406341,0.103428066,0.17178833,0.020204917,0.036313623,-0.080640346,-0.013848489,-0.06011616,0.04192912,0.027484976,0.10246486,-0.034494046,-0.055233687,0.08377778,0.05123835,0.041853547,0.029965457,-0.12283959,0.012690343,0.043727506,0.04529613,-0.15451254,0.06076826,-0.1928924,-0.034722656,-0.13027671,-0.047616813,-0.31314448,-0.118818685,0.13234715,-0.1550055,-0.29315603,-0.06903745,-0.18941477,0.060205884,-0.21434556,0.41004044,0.1101627,-0.0992552,0.02248216,-0.2231499,-0.2532681,0.025210613,-0.07873801
-0.21791966,0.14487326,0.02953773,0.0767624,0.2849253,-0.0012060005,0.19247884,-0.18188934,0.018597346,0.014647082,-0.40956244,0.12024518,0.08969842,0.16897598,0.01730684,-0.42810023,-0.25152686,0.06173178,-0.031638242,-0.6559629,-0.033827797,-0.049143795,0.004545932,-0.48252854,0.074165285,-0.29308853,-0.51547116,-0.026354793,-0.26104987,0.09296922,0.10336238,0.015636433,-0.123455584,0.14682135,0.13134311,0.103845455,0.18713602,-0.103697576,0.12652849,-0.32822028,-0.1670907,0.1934599,-0.22937922,0.07832141,0.2026484,-0.33958033,0.03768942,-0.13025016,-0.12682933,0.07139244,0.09746596,-0.061417058,-0.47127476,-0.35512102,-0.47898546,-0.25694755,0.055721126,-0.07073053,0.11199632,0.26073357,-0.053204875,-0.07010928,0.13117895,-0.064087115,-0.14602423,0.0500278,0.1499151,0.17582399,0.09403702,-0.08890817,0.22455642,0.055209,-0.16739525,0.10734419,-0.027248308,-0.04584029,0.08633543,-0.18005033,-0.12158411,0.044224717,-0.1409956,0.15524817,-0.06445728,0.0010083535,-0.04464678,0.041400097,-0.28524825,0.09522415,-0.03503181,-0.1888988,-0.014187084,0.24148329,0.0961193,-0.10906601,0.035897795,-0.12641655,-0.036865294,0.026872024,0.13477688,-0.14700079,-0.078098886,0.17533031,-0.029955527,0.120226495,-0.084473714,0.013939301,-0.1576603,-0.040167335,-0.05638751,-0.43498394,-0.39906856,-0.34682328,-0.65019584,0.26457697,0.0069728754,-0.029193375,0.06458357,0.04412528,-0.100715555,0.13240375,0.11623953,-0.2157002,-0.10525695,0.16480595,-0.45585805,-0.42696297,0.09156963,-0.11121461,-0.07579254,-0.012024091,0.07855568,-0.3205652,-0.14297836,0.07871089,-0.008796853,0.08575186,-0.2749252,0.05253966,-0.21822567,0.17688212,-0.23756002,-0.50448626,-0.29676396,-0.20216717,0.10220397,0.04760595,-0.41946906,-0.29879582,0.04058146,0.09297009,0.2903937,-0.15633719,0.1871231,0.016471578,-0.039147913,0.008707259,-0.8194091,-0.40159863,-0.04360972,-0.24700649,-0.39723805,-0.14874335,-0.2848866,-0.032761797,0.23253016,-0.13799977,-0.024902038,0.09199277,-0.15509887,0.13766631,-0.26170585,0.22354221,0.15361497,-0.17131664
