0.03333113,-0.18424822,-0.07359478,-0.047316067,-0.009205259,-0.072355025,0.09939646,-0.07972408,-0.18506652,-0.10313963,-0.18200178,-0.048392214,-0.12091418,-0.20348184,-0.044271834,0.14855842,0.07383272,0.010626265,-0.17795046,-0.17672426,-0.16978969,-0.0057262145,0.092849426,-0.086051,0.08575794,-0.12668899,-0.041865803,-0.03550992,-0.023739342,-0.0010710644,-0.1343789,0.09796435,-0.06246538,-0.08322991,-0.030829936,-0.024061602,-0.2765741,-0.043989703,-0.021314785,-0.0880937,-0.19472583,0.0072519123,0.13614088,-0.03655381,-0.09874196,-0.010060872,0.035637684,0.069801316,-0.055523787,-0.054246206,-0.10295844,-0.09958726,0.032290645,0.09319618,0.036166407,-0.12094614,0.0999206,-0.20919244,-0.10449775,0.0319068,0.042051375,0.001986259,-0.08594548,0.01685816,-0.16832359,0.097373515,-0.061685495,-0.14917448,-0.19318856,0.06933623,0.10105481,0.123351865,0.095328756,-0.07402176,0.11062207,0.18143062,0.016735712,0.024800928,0.1287849,0.07615775,0.030226901,0.12221257,0.058048293,0.053982444,-0.0703539,-0.17863771,0.12936243,0.054401882,0.0031839374,-0.17366941,0.007931398,0.042154275,0.087593205,0.03289314,0.023009328,-0.11756296,-0.080507755,0.18496642,-0.0007957039,-0.01464394,-0.051995467,0.24027412,-0.09879656,-0.07982011,0.2393559,-0.07182224,0.18665193,0.07659911,-0.0747744,0.016728539,0.17173968,-0.16073409,-0.07175728,0.053092476,0.08474608,-0.011062982,0.05017537,0.052725945,-0.113902465,-0.024915308,0.03336214,-0.14611992,0.08893724,0.07706007,-0.10231635,0.101343095,0.24479397,0.0134187,0.21538348,-0.29298174,-0.3241643,-0.14386457,0.17303973,-0.32355878,-0.13106844,-0.07638931,-0.020064332,-0.07334053,-0.18886957,-0.009294012,0.004944931,-0.11688727,-0.13202417,-0.0100931665,0.017862933,-0.10648761,-0.0763131,0.17241853,-0.21019998,0.06228933,0.06308554,-0.16806674,0.2099627,0.22449918,0.07456129,0.1879099,0.04156969,-0.16901793,-0.16457179,0.091244355,0.049355477,-0.014209099,-0.12455269,-0.078092895,0.058514174,-0.02044737,-0.27667415,0.018171642,-0.09110159,-0.13344644,-0.12332398,-0.033629768,-0.033254124,0.21479161,-0.26826167,-0.091745816,0.07881329,-0.06223546,-0.14138135,0.011078564,-0.0053104325,-0.055388045,-0.01070485,-0.03573049,0.16937113,0.04227211,-0.044324696,0.12583557,-0.0032247063,-0.00828031,-0.17561668,0.025793845,-0.071566276,0.09131239,-0.005111368,-0.053823184,-0.114789955,0.054031353,-0.11321733,0.092074975,0.068627626,-0.162201,0.016434863,-0.056945052,0.0044860323,0.0713582,0.05367822,-0.03546429,-0.0955238,-0.24866775,0.06853168,-0.23873317,-0.017740801,0.021930637,-0.059866346,0.038913764,0.020724976,-0.036678884,0.14243224,-0.13045745,0.038665812,0.0059525003,0.08274649,-0.19082782,-0.05152577,-0.009381527,0.094872445,-0.023496635,0.053378087,0.1433029,0.09613882,-0.009189937,0.32719335,-0.3619825,0.084056035,-0.08169284,0.036105517,-0.0014398837,-0.014770168,0.040513754,0.04389714,-0.21112005,0.38001105,-0.08045993,-0.112160765,0.021214884,0.10138882,0.03275418,0.034871247,0.025754295,0.14591111,0.06484686,-0.00820791,-0.014015959,0.23654068,0.076018594,0.24804533,0.0020700502,0.044484954,-0.00096630945,0.20440283,-0.44102353,-0.43858194,-0.29871628,-0.018808413,0.09609161,0.05161602,0.18133143,-0.1283417,-0.19220304,-0.23704262,0.02241341,0.042854786,-0.24677217,-0.46222252,0.06871031,-0.2552789,-0.014194576,0.0080720205,-0.21814418,-0.0009368571,0.16796435,-0.09176001,-0.047697376,-0.023951767,-0.072307006,0.06901451,0.044918057,-0.046074968,-0.1611145,-0.021836404,0.3179628,0.058821525,-0.14352696,-0.06486762,-0.1338927,-0.2634734,0.03892444,-0.005510807,0.11079308,-0.1004296,0.08483923,0.024473086,0.2080603,-0.23777771,0.054530878,0.06548945,0.12098102,-0.08545211,0.22284539,-0.24611767,-0.02052593,-0.09914178,0.06046494,0.061263245,-0.085033,0.06536891,0.08260171,-0.087007344,-0.092496924,0.022218795,0.11309323,0.044924017,0.09488277,0.00697731,0.015033952,0.06157305,0.069750264,-0.0007338588,-0.1646183,-0.30495593,-0.008559637,-0.08796185,-0.17925304,-0.14331399,0.29556197,0.020009732,-0.042275466
-0.022461288,-0.12891413,-0.08532094,0.10409986,0.005760361,0.010617665,-0.15301329,-0.01366129,0.027698848,-0.17219596,-0.2948376,-0.02071108,0.08716884,-0.06638567,0.11261153,0.050570413,-0.040365823,0.055460997,0.064145416,0.12310484,0.047313258,-0.053682104,0.09383471,-0.32612556,-0.24438477,-0.07413424,-0.07783677,-0.030348776,-0.09745713,-0.016792342,-0.011140967,0.020234564,0.24221952,0.032295037,-0.34221232,0.13391262,0.17270055,0.04879303,-0.1055501,0.07910353,-0.019437902,-0.13990888,-0.35614353,-0.00033421788,0.0476848,0.07579924,0.07893735,0.097953685,0.14132091,-0.15269971,-0.056564867,-0.15817644,-0.43827015,-0.015547183,0.008937981,0.0955721,0.104052655,0.17434303,-0.22147249,-0.13348767,-0.10861647,-0.08757788,0.01038463,-0.044306368,-0.116805844,0.14477621,0.06978332,0.036316067,-0.06033937,0.0009688023,-0.117605984,0.013961083,-0.121817514,0.045676373,0.08587163,-0.11227699,0.06732711,-0.026244685,0.02061826,0.03138639,-0.03552115,-0.0043748976,-0.066320054,-0.13444585,-0.09798802,0.066580705,-0.34574223,0.101613134,0.056125075,0.20676973,-0.17894275,-0.026632877,0.04974313,0.15931953,-0.0983751,0.13301551,-0.2202398,0.081391685,0.04508919,0.0152483145,-0.09103154,-0.123041175,0.02724702,-0.026858633,-0.12468232,-0.1485961,0.13409841,-0.05734112,0.10940298,-0.16813035,0.13194762,-0.07473259,0.064677544,-0.13139099,0.10400992,-0.054370046,0.13890302,0.007260972,-0.43003878,-0.18501005,-0.12863548,-0.104339026,0.09330893,-0.4523036,0.08123875,0.0022640983,-0.020388838,0.084967025,-0.0070365304,0.025345385,0.07290154,-0.27985248,-0.16182722,-0.21242392,0.09428329,-0.026140703,-0.03209844,-0.19241512,-0.29189423,-0.0049608275,-0.39949927,-0.09076382,0.011559212,-0.15920109,-0.16670217,-0.0498145,0.013651486,0.02056724,0.11263281,0.027794074,-0.15649414,-0.11265996,-0.37442374,-0.15735321,0.07676413,-0.07151288,-0.32495996,0.15504926,-0.00391224,0.03943285,0.0087382905,-0.05642834,-0.001770858,-0.006000442,-0.0054636304,-0.06952545,-0.079884805,0.004789184,0.034744836,-0.21727738,-0.43040884,-0.11100623,-0.4097203,0.02440741
0.041564777,0.073253006,0.086983986,0.14982302,-0.056622658,0.07278382,-0.02866527,-0.006487853,-0.14456807,-0.036794554,0.2729763,0.15540378,-0.11817797,0.035963174,-0.016662627,0.013999052,-0.04284813,-0.008669755,-0.045783337,0.0642568,0.032828074,0.14305322,-0.07045453,-0.113594875,-0.06332013,-0.047147233,-0.022728372,-0.11855396,-0.16515069,-0.15643294,0.09452546,0.009182295,-0.019388521,0.05379591,0.081348285,-0.048032258,0.07329798,0.038367506,-0.043903567,-0.0057517188,-0.08138469,-0.17734551,-0.06286278,0.12458997,0.015938057,-0.038682032,-0.04089949,0.0029205754,-0.0072756256,-0.02998523,0.00059746846,0.20608982,0.04966849,0.110924356,0.09034657,-0.24836473,-0.004470693,0.07361126,-0.023271622,-0.2651223,-0.1504593,-0.020138497,0.09370631,-0.015792528,0.07195624,-0.006184222,-0.10552381,0.045069315,-0.06490424,-0.122255825,0.12173598,0.067418076,-0.19340897,-0.17247799,-0.35273367,0.08764459,-0.06474052,0.11719319,-0.24629535,0.106212705,0.020819241,-0.20967336,-0.3435738,-0.023816291,0.13925931,0.20350547,0.111503735,-0.12346004,0.15352716,0.12549418,-0.09443458,-0.21593234,0.02028919,0.13736792,-0.10375764,0.007908218,0.20075394,-0.22244292,-0.14235634,0.04076507,0.032925095,-0.1899996,0.02210548,-0.14415206,-0.29768008,-0.16807576,-0.1379489,0.025945129,-0.13374302,0.042735483,-0.15247148,0.08319059,-0.0043489686,-0.13104658,-0.12853295,0.079819806,-0.149341,0.018752873,0.1393213,-0.3589999,0.026166365,0.064849935,-0.02131952,-0.08553464,-0.08407141,0.108232155,-0.16955791,0.11431747,-0.16315141,-0.029629383,-0.07907477,0.05314631,-0.244953,0.11223497,-0.0446621,-0.09523105,0.08686855,-0.42031255,-0.14266603,-0.17501813,0.06206622,-0.0036139782,-0.06475678,0.074183956,-0.03382516,-0.123551756,0.036488943,-0.14169283,0.10181434,0.00039235334,-0.0866197,-0.15464911,-0.046148922,-0.24871875,-0.06370179,-0.08354865,0.027822174,-0.021499114,-0.04771779,0.12081665,0.033387776,-0.0059548724,-0.0011795338,-0.20480317,0.0038656134,-0.09007216,0.043249514,0.069042504,0.14103532,-0.25039858,0.04364223,-0.057781566,0.09357046,0.08058207,-0.23747344,0.020220235,0.1189302,-0.19763209,-0.077160835,-0.041472226,0.031423558,0.120346,0.0605024,-0.16883358,0.12545542,0.008344906,0.057464518,0.030409928,-0.015896695,-0.03606066,0.030170444,0.10794638,0.08214182,-0.037907295,-0.10252105,0.07911857,0.010544704,-0.14459202,-0.08601361,0.06895394,-0.1846904,-0.22785395,-0.00065810955,0.09618862,-0.2233002,0.05400389,0.051193777,-0.15988259,0.12358982,-0.1856587,-0.16430886,-0.0476326,-0.13157663,0.121907026,0.19655745,-0.01256987,0.2330843,0.07271812,0.07511487,-0.23393124,-0.08165015,0.0866613,-0.031474456,-0.017284166,0.08539971,0.0070412965,0.055320706,-0.04311783,-0.16854846,-0.06259858,-0.058296733,-0.216047,-0.20457076,-0.102372244,-0.2383906,-0.15653072,-0.09051392,-0.08667803,-0.10113598,0.12536825,-0.23303883,-0.27247703,-0.1121839,0.02671182,-0.13325505,0.05690741,-0.047103483,-0.28910473,-0.14707369,-0.0071454314,-0.07795054,0.026662758,-0.119046204,-0.100132,-0.0769861,-0.083537824,-0.29246977,-0.1582979,-0.18685861,0.070837386,-0.004283628,0.08607777,0.04205496,-0.19066149,0.09990213,0.024551079,0.16400966,-0.1842986,0.03862282,-0.5012116,-0.09118382,0.08646045,0.008715864,-0.119130865,0.016639035,-0.32050616,-0.0052912883,0.15935145,0.00996074,-0.0091245,0.09574918,-0.35516754,0.0292413,-0.14126264,-0.13359706,0.021951899,-0.101807185,-0.0017155242,0.007941404,-0.062545754,0.08555291,-0.015497298,-0.020796098,0.18342137,0.014446811,-0.120261684,0.106913,-0.20146228,-0.30059156,-0.42750606,-0.017921615,-0.13226123,-0.11841742,0.075761676,0.20018598,-0.2849078,-0.2520851,-0.012851895,-0.09895751,0.012033958,0.12334762,-0.02029535,0.06549369,0.007575331,-0.0060568503,-0.28678456,-0.22393318,0.024539849,0.14600024,0.10427334,-0.042007975,0.088980876,0.060094137,0.052583676,-0.03370091,0.15629855,-0.16812944,-0.1435687,-0.24407579,0.08947355,-0.23034467,0.08764977,-0.12768222,-0.023625834,0.2066724,-0.07899478,-0.031353,0.10929558
-0.025993263,0.09575159,0.0073522897,0.1724033,0.07225555,-0.28021622,0.0015965392,0.027149998,0.028447326,-0.34108794,0.03188655,-0.032456707,0.09691174,-0.16891201,-0.2732821,0.12118904,-0.02850726,-0.00831064,-0.03769039,-0.152524,-0.054249905,0.017814795,-0.1312682,0.049815778,-0.24988465,0.055549238,0.01387501,0.01993491,0.21958219,-0.0019348856,-0.08600893,0.00032140219,-0.07016165,0.009571771,0.0069064857,0.037090812,-0.15323731,-0.29279646,0.055946697,-0.08777948,-0.03904375,-0.1686456,0.15012768,0.021711778,-0.0046013365,-0.20024264,0.15501928,-0.086673394,-0.05618535,-0.16177055,0.21119447,-0.102058284,0.18800831,-0.0116246035,0.06315508,0.03482785,-0.030853765,-0.20701243,-0.05017204,-0.31606492,0.029934028,0.07255153,0.14308944,0.027311467,-0.10892567,-0.042234965,0.15576114,0.114627376,0.020465959,-0.054255188,0.15449622,0.026708031,-0.011005664,-0.14608687,-0.010886405,0.022996603,-0.041854504,0.20436414,0.12183292,0.035784643,0.01777123,0.036443837,-0.010627803,-0.13594216,-0.06908187,-0.29701486,0.051131506,0.014123334,-0.013478153,-0.19270656,-0.013756158,-0.24071175,0.16873428,-0.042710263,-0.0018904516,-0.07078364,-0.14291058,0.04397754,0.16239914,0.14082515,0.106677085,-0.048454724,-0.1197343,0.107723415,0.032805208,-0.30242988,-0.22939184,0.03704934,0.10729196,-0.08658232,-0.12353924,0.12091044,0.018639836,-0.029752178,-0.18479711,-0.02654346,-0.03280649,-0.09826522,-0.019822162,0.12672913,-0.07484762,0.07303058,-0.02920605,0.043365505,-0.007111883,0.07862091,-0.10133544,0.080119684,-0.045480758,-0.012131093,0.026834495,0.21041761,-0.15807705,-0.104087435,-0.098025486,0.055867057,-0.11639845,0.0033814232,0.085133925,-0.13099541,0.055424146,-0.33227178,-0.3343355,-0.030013554,0.1897329,-0.016947392,-0.33937782,-0.07745824,-0.21555217,-0.0024811216,-0.2091516,0.04613267,0.13604602,0.16385591,-0.0053405156,0.06894718,0.0001502437,-0.10204706,-0.018659566,-0.019784462,-0.052825175,-0.18461896,-0.08695676,0.060304012,-0.1966385,-0.37611923,0.015569026,-0.091019236,0.0825883,-0.10049621,0.12123756,0.04611351,0.03602779,-0.2707471
-0.05231836,0.005336865,-0.06775641,-0.26728374,-0.08364941,0.017639507,-0.03922286,0.14974785,0.20106652,0.020958135,-0.13437706,-0.1874197,0.19483615,-0.34761935,0.038711794,0.03878279,0.052896872,0.020718629,0.079486944,-0.14103182,0.0707557,-0.10311013,0.025823608,0.030356867,-0.019158335,-0.14024465,-0.054981567,0.1007103,-0.11452431,0.040267684,-0.049292024,-0.11312553,0.049639247,0.044702884,0.07239449,-0.06354503,0.0075575714,0.010439942,-0.07973963,0.04086337,0.119580425,0.0038925838,0.23593986,-0.0308651,0.058433834,0.07561509,0.06731918,-0.17216115,-0.102307975,-0.10631988,0.071320824,-0.15276888,0.06545143,-0.08125748,-0.123160325,0.079386294,-0.014738615,0.115026094,-0.063473016,0.071038246,-0.02585092,0.023887923,0.122466944,-0.07947101,-0.15286034,0.06573864,-0.020059751,-0.050647184,0.11958557,-0.08542037,-0.22967634,-0.03960798,0.11746727,-0.091379166,0.04171537,-0.034109205,0.12528162,0.17158504,0.020043073,-0.19757718,-0.2214144,-0.10939978,0.13050993,-0.054001946,-0.04573032,0.10027205,-0.24048649,0.02219582,-0.07201008,0.0136830695,0.014004068,0.059991915,-0.17855433,0.08270612,0.16377684,-0.10748982,-0.23734646,0.08668639,-0.020081157,0.0422307,0.072415516,-0.05611216,-0.05473917,-0.10156335,0.14061972,-0.10451191,0.063428625,0.051943522,-0.24203797,0.05839243,0.10619811,-0.13464384,-0.008324555,-0.020030873,-0.096095175,-0.06454048,-0.29451028,0.079380624,-0.17050579,-0.07180149,0.024494454,0.021710696,-0.0567191,-0.07314833,-0.16632059,0.10279765,0.026835507,0.029509464,-0.19283418,-0.0627007,0.030860923,-0.2569433,-0.16268218,0.15448432,0.051892385,0.07541248,-0.08725624,0.11028242,-0.17559291,-0.25006172,0.033755206,-0.34238067,0.14131492,-0.036049634,-0.075298786,0.077740595,0.14779927,-0.31031954,0.10861689,-0.22129565,-0.078638725,0.13323757,0.08536227,-0.21763173,0.034873027,0.15181856,-0.012579247,0.0040351227,-0.19427481,-0.23119104,-0.073292434,-0.019263618,-0.095666304,-0.031089634,-0.04072959,0.1158791,0.009846547,-0.04140515,0.02063218,0.053707875,0.061491348,-0.067876205,-0.04671421,0.14981556,0.16424072,-0.03915797,-0.019289764,0.07485105,0.008870909,0.020443812,-0.045607902,-0.03643134,-0.062256258,-0.023967154,-0.031216884,0.024034478,-0.0339308,0.010943433,-0.094951674,0.049894974,-0.05901549,0.0527257,0.03221054,-0.12841477,-0.16702129,0.19887365,0.018882493,0.017836448,-0.05515328,-0.11181502,0.051772222,0.016597405,-0.19305322,-0.070788294,-0.0079421755,0.1242692,0.15962215,-0.040296633,-0.03102993,-0.017558374,0.04559557,0.051493596,0.03599559,0.050407566,-0.043020353,0.05487047,0.17218411,0.16026253,-0.10321836,-0.115740314,0.020851906,0.09546348,0.005685208,-0.034231454,0.033457536,-0.17292817,-0.19835249,0.014452936,0.14097224,-0.09192458,0.13205026,-0.19660282,-0.034135062,0.06112867,-0.19676824,0.06006736,-0.2673525,-0.08947124,-0.060531244,0.13773379,0.07159538,0.19354725,0.066750996,0.066011496,-0.3508114,0.11474889,0.24851196,-0.21604605,0.17500147,0.053665075,-0.002850512,-0.036297727,0.0006985063,-0.07662984,-0.0013419169,0.103294946,-0.061564673,-0.23484774,-0.09674448,-0.22457246,-0.022688057,-0.22732024,0.095267415,-0.076500274,-0.0044118767,-0.113746874,-0.33978727,-0.4378226,0.062414486,-0.22517242,-0.15850475,0.2466761,0.12236098,0.020958366,-0.016665313,-0.21303496,-0.14769894,-0.023122443,0.08558022,0.121233374,0.15196428,-0.10846667,0.015021802,0.11372049,0.041068204,0.02380796,-0.08209536,0.078909464,-0.01801068,-0.12500945,-0.25608918,0.03127934,0.085543245,-0.30017504,0.1307434,-0.12539381,0.1034629,-0.08178278,0.08636533,-0.17274773,-0.09902671,-0.033347156,-0.0897525,-0.0954694,0.14854318,0.10332127,0.043322872,0.01823572,0.043175384,-0.0955156,-0.009570678,0.011981159,0.10691818,-0.049827583,-0.09671394,0.18873972,0.13675936,0.012177226,-0.18262264,0.15291135,0.051555242,0.010499285,-0.022382371,0.0017894843,0.060067054,-0.07497244,0.17352603,0.07294122,-0.2019935,-0.02157828,0.104920335,0.041629422,-0.086913615,-0.014358702,0.034706786,0.10785237,0.16336024,-0.119915426
-0.18865986,0.042578146,0.015884984,0.08580962,0.039968267,0.12011702,0.06994648,-0.027908241,-0.101728946,-0.0038976874,0.06772614,-0.044640496,-0.19581273,0.1759307,0.11564523,0.031433616,0.06346942,-0.024191575,-0.03816795,0.025065795,0.2715993,0.038875863,-0.07401741,0.13800088,-0.043596555,-0.0033848342,-0.10328162,-0.09891369,-0.05376259,0.0632667,-0.08090211,0.081833586,-0.20953958,-0.005374772,0.12952873,-0.07066851,0.15878282,0.012893146,0.07792817,0.0056846603,-0.11899621,0.0018278402,0.05284084,-0.005450781,-0.069530144,-0.021464957,0.22850601,-0.038611386,0.026703311,-0.14025725,-0.17937411,-0.04295931,-0.21251014,0.08556046,-0.16771446,-0.10349279,-0.022032324,-0.16296127,-0.03658179,-0.03718408,-0.40410703,0.12530065,0.1547665,-0.15790395,-0.21176022,0.17647211,-0.051893346,0.11031079,0.04527474,-0.06743403,0.04728365,0.18288988,0.0027148786,0.038068935,0.027981725,0.020838752,0.062316637,0.063034914,0.020362418,0.017293334,-0.026289606,0.016936652,-0.1653218,-0.032446645,-0.040896147,0.038567603,-0.08412943,0.024492102,0.04661151,0.049333442,0.02628922,-0.023126608,-0.32272655,-0.1592312,0.008272824,-0.009311471,-0.008714078,-0.0224517,0.030512566,-0.16635528,0.096034676,0.05596679,0.26707226,-0.094868764,0.01511993,0.017774004,0.15031439,0.004400207,0.08557399,-0.04146494,0.05352562,0.14556913,0.13442068,-0.1291153,-0.08113941,0.09597276,0.010056286,0.14039293,-0.06449301,0.12728503,0.15283199,0.08229341,0.017611412,-0.3198272,-0.07481188,-0.14905655,0.05087203,0.12322554,-0.12835123,-0.0052393265,0.10675092,-0.4248814,0.026179329,-0.067480445,0.08964566,-0.25666937,0.1228388,0.035180353,0.13253795,0.042286474,0.106532454,-0.033410285,-0.008042641,0.11221232,0.17168872,-0.13468765,-0.21888079,0.22663668,0.16415004,0.20110348,0.15299252,0.2686583,0.1927085,0.04947711,0.052716684,-0.18335941,0.022262812,-0.12875088,-0.17243125,0.018190863,0.15685448,-0.029257612,0.1307785,-0.30329102,0.058176707,0.12991683,0.16666712,-0.13419193,0.01040719,0.0316219,0.17923996,-0.058517437,0.02147662,-0.24220838
-0.16037302,0.0067509757,0.0659977,-0.0130822845,0.11568039,-0.00119691,0.0941155,0.014595024,0.22905502,-0.071692616,0.055557154,0.017459871,0.16249904,-0.2688439,0.047527052,-0.16180938,-0.08213463,0.008805592,0.037403908,-0.38781783,0.079026535,-0.22831954,-0.045782164,0.1205108,0.05136913,-0.33174425,0.060646713,0.16997226,0.059883073,0.050744183,-0.05657767,-0.05226052,-0.034726202,-0.0024977915,-0.014827477,-0.042364243,0.0471904,0.104784615,0.095180765,-0.10986789,0.09542887,0.037263114,-0.09495361,-0.07906742,-0.12606457,0.033117726,0.1269118,-0.20521085,-0.066680044,-0.07360181,0.16456899,-0.19001135,-0.062099952,-0.315906,-0.117769,0.11956596,-0.12895057,-0.25297764,-0.0041473513,0.15545484,-0.0068216044,0.14861147,0.062033538,0.068715125,0.017564598,0.09018394,-0.04991196,0.054629963,0.18442483,0.074648246,-0.07395091,0.0863332,0.0034571786,0.06505804,-0.0121090505,-0.030772462,-0.2107002,0.09288929,-0.014601431,-0.07415094,0.047744155,0.04192778,0.20257492,0.028624926,-0.08870147,0.010854504,-0.12019166,0.037122678,-0.101578236,-0.01864878,0.08679757,0.05697784,0.060017776,-0.04905273,-0.11967626,0.16343594,0.041638304,-0.40703732,-0.26453274,0.05770887,0.049757596,-0.17935625,-0.33993676,-0.10440922,0.03988991,-0.08887887,-0.078023046,0.10958339,-0.23597272,0.056225225,0.07447537,-0.024241425,0.17874254,0.025719132,0.06720865,0.02890673,-0.30104566,0.04329534,-0.3545872,-0.2268621,0.028547686,0.042276908,-0.0891275,0.00079365086,-0.0067695053,0.053849578,-0.13375649,0.1896136,-0.07872663,0.0027347389,0.0374344,-0.1407206,-0.11778565,0.094845526,0.142303,0.013571159,0.18738495,0.07023397,0.0066937413,-0.23763925,0.14260013,0.056836907,-0.06586448,-0.0122296605,-0.18064111,0.045269687,0.12632515,-0.18527232,0.009163463,-0.033374734,-0.20308329,0.040531054,-0.33612737,-0.2688022,0.09282927,-0.06456635,-0.28348935,0.00600306,0.04713721,-0.10178295,-0.051034305,0.08313744,0.1258381,-0.20537475,-0.016670749,0.108407006,0.13426033,0.04402048,0.056726344,0.0646765,-0.06923922,0.0033383647,-0.07788923,-0.33267343,-0.10690726,0.08950941,-0.1898824,0.028630259,0.047720004,-0.05648142,0.0528332,0.16241214,-0.057132516,0.035167944,-0.20962428,-0.19319168,0.16469875,0.005419004,-0.005904729,-0.047181036,-0.006567803,-0.034317087,0.050969657,0.01791663,0.11314935,-0.16261162,0.121206716,-0.09816507,-0.016243247,0.067774124,-0.14665446,0.15124127,0.056986053,0.08942442,-0.12960105,-0.07712011,-0.13257639,-0.11689047,-0.140349,0.17786288,0.01697617,0.007869396,-0.10792147,-0.28067064,-0.09504789,0.0620658,-0.042672113,-0.0038905481,-0.08807968,0.0007677504,0.097529605,-0.06349677,-0.09230321,-0.0668174,0.041191038,-0.16697602,-0.12662762,-0.020158272,-0.029479638,-0.12178895,-0.12415595,0.003314807,-0.3472334,0.02788429,0.03325947,0.010561537,-0.0095903585,0.035183232,-0.008550107,0.0007100995,-0.06801218,-0.075914174,-0.18961616,-0.099669784,-0.0018669341,0.035792027,-0.165223,0.09108631,-0.017423213,-0.05847077,-0.04353738,0.04788463,0.037510667,-0.0021315508,-0.27486005,-0.011858908,-0.18425135,0.08185918,0.10805207,0.12738624,-0.09488463,0.13753678,0.006619342,-0.056526277,0.052295145,-0.04325075,-0.06713997,-0.1091211,-0.061305806,0.110562526,0.10385849,-0.02370265,-0.22062945,-0.06829903,0.0126774395,-0.24063629,0.063383184,0.10353011,-0.20097922,0.00019836024,-0.19308671,-0.13086341,0.0069319583,-0.27581182,-0.15282698,0.022713741,0.04620534,-0.07576919,0.06876759,0.035907425,0.07070347,-0.40184575,-0.13412939,0.11976743,-0.014668466,0.03795516,-0.08870624,-0.018329253,-0.0752959,-0.049466655,0.0025714082,-0.13972768,0.0014898308,-0.017060464,0.1062278,0.084995985,0.03554698,-0.09149265,0.065644674,-0.11091377,0.10903948,0.07500792,-0.052620042,-0.17941362,-0.08595368,0.02171379,-0.16298239,-0.07941868,0.052372873,-0.22074907,0.02408902,0.06410375,0.008430785,-0.32695016,0.02916847,0.044042803,-0.0039129355,0.03295393,0.055877898,-0.039983347,0.078668065,-0.044556387,0.07557535,-0.024220536,-0.075031266,-0.14977,-0.21159674,-0.046298157
-0.05166234,-0.042206712,0.11781938,-0.24613646,-0.10801545,0.09160207,-0.105861105,0.020833416,-0.02132386,0.0607055,-0.048278116,0.007420236,0.03693769,-0.12794729,-0.09258894,-0.14288267,-0.044322275,-0.08374928,-0.030898858,-0.028479286,-0.33125368,-0.14947982,-0.004511217,-0.047325566,0.08988689,-0.070647106,0.07395603,0.067033835,0.07024738,-0.1197449,0.07523377,-0.09084355,-0.114107266,-0.13866921,-0.13607185,0.008768895,-0.16824052,0.047986373,-0.09956547,-0.018744636,0.030217024,-0.05021093,-0.09771324,0.023980081,0.044366524,0.18855144,-0.08294449,-0.039143953,-0.029346678,-0.005987697,-0.046058934,0.12329583,0.07433526,-0.081866294,-0.15499192,-0.010552058,-0.11201037,0.10935323,-0.07098504,-0.073166765,0.21118683,-0.16012725,-0.045303874,0.10108665,0.03541595,-0.044765245,0.014588058,-0.021113895,-0.19627523,9.928316e-05,-0.090488926,-0.23670548,-0.023082674,-0.05141518,0.10912154,-0.037402797,-0.03433139,-0.07931345,-0.09193635,0.00063918857,-0.0873238,-0.06415354,-0.063816026,0.1430177,0.09907228,0.09484089,-0.122918926,-0.0603881,0.016186416,0.004009224,-0.057453033,0.0043098116,-0.028092703,0.023978481,-0.0021049953,0.11821369,0.18154654,-0.20545278,-0.048809703,0.060597368,0.100151695,0.04183098,0.019471718,-0.09200911,0.0606791,-0.07859205,0.012544957,0.092300326,-0.2080804,-0.12140993,0.06850937,-0.077878356,-0.16817635,-0.012444165,0.0957504,-0.016672026,-0.08556711,-0.02831844,-0.03098062,-0.10211434,0.18888544,-0.14953315,0.012560182,0.10081187,0.06435927,0.061266355,-0.14012249,-0.028698646,0.023108952,-0.059250593,-0.06548059,0.008855489,-0.1289129,0.008008104,-0.10289399,-0.027101394,-0.059194397,0.14141166,-0.17720248,0.02239892,-0.09255751,-0.008060502,0.036069904,-0.30321673,-0.3768764,0.14513898,0.09861203,-0.37346897,-0.13154577,-0.14956705,-0.06517726,-0.20605366,-0.117429465,-0.123798296,-0.24712352,0.19887258,0.022331318,0.16524707,0.28710625,-0.08861952,-0.04106322,0.092381954,-0.24702126,0.08151742,-0.05489843,0.05921162,0.037938315,0.057181492,-0.04159604,0.01445993,-0.3471037,-0.106218375,0.0057962243,0.15294649
-0.054866668,-0.1226457,0.07665075,0.12015188,0.14684442,-0.03239833,0.10813152,-0.17538749,-0.10132622,-0.115893394,-0.033700798,0.29179746,-0.042248882,0.34053603,0.15765716,-0.04736793,-0.015588457,0.056928463,0.026663132,0.20184849,-0.029584637,0.0448569,0.009965941,0.1676923,-0.03678763,0.26063007,0.09066241,-0.23689748,-0.02699505,0.054592926,-0.06707052,0.030967258,-0.02261338,-0.19877933,-0.054983195,0.33360824,0.10903544,-0.055517495,-0.097275145,0.044775657,-0.22093213,-0.046204433,-0.32025564,0.11383037,-0.37229642,0.044400506,-0.07231118,0.02808244,-0.024601197,-0.06715328,-0.30364555,0.18838465,-0.08422318,0.10803466,0.05559846,-0.22964153,0.04403583,0.06982118,0.027544908,-0.1666097,0.059940156,0.10626306,0.0140460245,-0.06609625,0.16435772,-0.080799066,-0.053291738,0.13878155,-0.12923351,-0.18363781,-0.17741814,-0.122051075,-0.05135091,-0.056839064,-0.160823,0.108025596,-0.12354479,-0.0049625235,-0.12771651,0.30735615,0.063380234,0.11588478,-0.36899096,0.10018209,-0.18791234,0.12434384,0.19739114,-0.20645517,-0.016600179,0.13575144,0.007891775,-0.18151459,0.048597377,-0.056669116,0.023309616,0.0026355258,0.10397363,-0.15271878,0.011273797,0.0020265642,-0.13418306,-0.25302538,0.03479639,-0.041345023,0.05652557,-0.16192488,-0.05759141,-0.07752871,0.08756103,-0.026457157,-0.034880117,0.18212716,0.09922143,-0.12702277,-0.12905574,0.11672321,-0.0809061,-0.021070968,0.2054859,-0.088379346,0.17753375,0.078316875,0.052235365,-0.22045222,-0.025169175,-0.019732596,0.07774715,0.002761062,0.06630732,0.022097334,-0.013130443,0.06832779,0.1667259,-0.20917404,-0.043653212,0.06914841,-0.29545003,-0.07650353,0.17210238,0.26678658,-0.22413003,0.17160031,0.07709947,0.038977355,0.09700285,-0.1642175,-0.19960617,-0.0043819756,-0.02729249,-0.04781885,0.045462616,-0.26988024,0.067691006,0.05473497,-0.041798692,-0.11228543,0.050931595,0.017531844,-0.03228574,0.1011946,0.047460232,0.09920579,0.118072316,0.24223794,0.05776631,-0.1343398,-0.2878182,0.014579777,-0.06456531,0.09004098,-0.027621485,0.10141847,-0.10034515,-0.12666383,0.13901053,-0.10063597,-0.047933865,0.089361444,-0.09161437,0.1096436,0.082517914,-0.025066469,-0.030262237,-0.25457537,0.07984411,0.047498904,-0.1223814,-0.06825251,0.18961598,-0.007543001,-0.17707852,-0.19609216,0.07810192,-0.020085724,0.018601092,0.09514891,-0.076287195,-0.09115208,-0.03991963,0.02989146,0.0033676156,0.13983603,-0.12800166,-0.04191226,-0.022718413,-0.033220444,-0.1298842,0.10806744,-0.07030154,0.040139038,-0.051869545,0.04217601,-0.23004939,-0.07874065,-0.015204428,-0.34148932,-0.18192498,-0.044957306,0.042090114,-0.08903758,0.09067083,-0.014902283,-0.030724978,0.19663271,0.10513397,-0.093454644,-0.06408597,0.07355182,-0.07331541,-0.32959688,-0.22551416,-0.18795113,-0.17762473,0.095184594,-0.08088906,0.0059064175,-0.031746257,-0.0042891353,-0.10908342,0.10106655,0.17166504,-0.0087221,-0.29117435,0.02818297,-0.12593912,0.071298026,0.009756717,-0.19777465,0.04297546,0.050863642,0.07455696,-0.044696502,-0.06609078,0.044217825,0.05010939,0.07603268,0.09129718,0.17953415,0.03498269,-0.20005368,0.17784435,0.075803444,-0.24224336,0.21932259,-0.018437281,0.18877839,0.08478508,0.06345691,0.13771924,-0.22811222,0.02655601,-0.24454771,0.007246862,-0.062656984,0.022256432,0.12175656,0.19057323,-0.064999565,0.036134984,-0.039648414,0.06912051,0.1205499,0.09226086,0.0027830272,-0.049964212,0.011055784,-0.10991612,-0.043899775,-0.05521919,0.122091606,-0.01984296,0.22173609,0.17485838,0.064600736,-0.013526622,0.095869765,0.120882615,0.17024055,0.14948182,0.20488843,0.015032898,-0.2100939,-0.042532053,-0.15332563,-0.2287986,0.0465568,-0.0080023445,-0.04086543,0.05936005,0.057582166,-0.27180922,-0.031340078,-0.30327561,-0.06967544,-0.018900441,0.23881567,0.2623764,-0.03132404,-0.10129708,-0.04789102,-0.024479276,-0.08493102,-0.05573935,-0.12368507,0.002396109,-0.10905342,-0.24437395,0.13459769,-0.090948716,0.09370619,-0.18567957,-0.16976953,-0.01674743,-0.112544835,-0.1747356,-0.19336411,-0.047099557,-0.2583234
-0.114265546,-0.1372605,0.03372028,-0.0010075966,0.16419648,-0.20106244,-0.113538474,0.0102155525,-0.0056550633,0.086374804,0.015150937,-0.030392457,0.18567252,0.18714266,0.020545116,-0.11860882,0.111221075,-0.044436045,-0.042922072,-0.2523091,-0.23089954,-0.059010163,-0.086232655,0.16882122,-0.08615939,0.09166042,-0.03610086,-0.12621675,-0.21601617,-0.079579465,-0.24256043,-0.09007643,-0.13473633,0.091707096,0.020820308,-0.1225861,0.13161536,-0.3550105,-0.14844726,-0.032359123,-0.013953959,0.050609086,0.03582444,0.008342838,0.16455388,-0.26800203,-0.1573205,-0.051434014,-0.17050962,0.18484353,0.21779539,-0.06988948,0.014158576,0.04274184,0.104546994,-0.3324382,-0.09777393,-0.05466296,0.10870747,-0.310192,-0.09318063,-0.119999155,0.0006740748,-0.13575259,0.07486077,-0.41043374,0.022054667,0.12764046,-0.05910209,0.022312962,-0.12812257,-0.12596935,-0.00421471,0.066814095,-0.2522782,0.050524496,-0.10695328,-0.083695136,0.14775252,0.008879325,-0.117738105,0.034442224,0.21270962,-0.06303786,-0.30334136,0.019048199,0.17682831,-0.4099672,-0.0782382,-0.3467387,0.065849304,-0.18650402,-0.30485925,0.01780298,0.0065058502,-0.5121221,-0.017774593,-0.017555848,-0.09012809,0.012866418,-0.005091221,0.044883538,-0.15492244,-0.016298769,0.07361687,0.29182136,-0.22511221,0.12174505,0.08042101,0.16527182,-0.050702214,-0.043470282,0.07907183,-0.008343035,-0.096298054,-0.04023125,-0.39886287,-0.040753044,0.1867232,0.02480046,-0.10964399,-0.063940294,0.071736835,-0.07805333,-0.47435525,-0.1265218,-0.13134535,-0.25011244,-0.15393846,-0.023488047,-0.108148165,0.12593277,-0.095199995,0.07448654,-0.18245685,0.14319554,-0.08647157,0.13375601,-0.1378386,0.15315479,0.20675999,0.005132908,-0.03454049,-0.027912091,0.12133852,-0.1622647,-0.25569445,-0.07379095,-0.020065676,0.15639594,0.030235201,0.3031137,0.009176389,0.040877625,0.06783071,-0.2569547,-0.10027294,-0.23558111,-0.14731084,-0.057228956,-0.16221815,-0.015958147,0.09600872,-0.08927188,-0.0009307866,0.09658902,-0.20203461,0.10688502,-0.029856764,0.17352164,0.15608059,0.011128349,0.20714246,-0.19892897
0.12488438,-0.14354819,0.012813316,-0.096105285,-0.06776654,-0.04990887,-0.17684166,-0.2124057,-0.15203802,-0.0948701,-0.09341813,-0.11819919,-0.30119467,-0.16549243,-0.21269536,0.04270728,0.071302,0.013745543,-0.09104736,0.14433901,-0.16156904,0.13621686,0.08534922,-0.087095164,-0.08030857,0.042212833,0.030664036,-0.21595407,0.055710904,-0.06656709,0.0006788523,-0.058560923,0.07224959,-0.053180326,0.11909189,-0.01387342,-0.20154265,-0.14312527,-0.03190415,0.0072165183,-0.34124628,-0.03741369,0.078465156,-0.04784125,0.021150133,-0.3761355,-0.13209784,-0.056335945,0.023878172,0.009176435,-0.2763343,0.03587794,0.0969166,-0.09551122,0.08072634,-0.032055043,0.024535874,4.957009e-06,-0.08320374,-0.0029310046,0.06580126,-0.0749985,-0.07413729,-0.10092148,0.040347822,0.020543057,-0.0674626,-0.3081267,-0.28306407,-0.09321327,0.15082304,0.08966509,-0.46297106,0.09719439,-0.00034353154,-0.13345708,0.1663662,-0.4014857,-0.04492741,-0.14192897,0.06431985,-0.00468735,-0.3297327,-0.07513376,0.1867747,-0.16299497,0.09192633,0.12744151,0.15443292,-0.10700747,-0.020675581,0.1048989,0.058671515,0.02846732,-0.24373499,-0.11200953,0.036542118,0.19790635,0.16530454,-0.30380276,-0.40328953,0.008045269,0.17456566,0.14256331,-0.24298391,0.14705426,-0.079640605,-0.16945057,0.30840307,-0.24835625,-0.08910356,-0.14928284,-0.279536,0.03608839,-0.06901399,-0.13911635,0.28469124,-0.21452478,-0.06652582,0.03713992,0.0934633,-0.2664355,0.089032225,0.12908922,-0.008920275,-0.061456036,-0.49243504,-0.27609044,0.09973226,0.0032487672,0.049983267,0.05041738,0.05751673,0.02135415,-0.16218786,-0.005888425,-0.06089943,0.0035461462,0.19527125,-0.00026172795,-0.26773444,-0.1320313,0.15865402,-0.05314727,0.05146175,-0.011544718,-0.1027584,0.12616391,-0.055842105,-0.04778806,0.028758919,0.015650166,-0.16450693,0.0069048335,0.14169125,-0.13045579,0.17531163,-0.14141946,0.034202117,-0.09521369,0.07760742,-0.055556603,0.0570594,-0.16578318,-0.016398942,-0.075866096,-0.18031813,-0.009090562,-0.11795487,0.013150092,0.021786153,-0.08490543,-0.03716284,-0.17048933,-0.016103448,0.105477095,0.14493005,0.09844522,-0.12657419,0.19608895,0.09038208,-0.32033303,0.120301045,0.05637706,0.03992525,0.09901355,-0.020480236,0.089241944,0.06925397,0.03754605,-0.078268714,-0.029268416,-0.039203137,0.085191846,0.08775676,-0.15372561,-0.1131487,-0.018328901,-0.040671986,0.041339833,-0.046547044,0.038986087,0.095593154,-0.026030365,0.08988145,-0.121208735,-0.10511618,-0.09865262,-0.059777353,0.033555035,-0.09356858,-0.040964413,0.15237144,-0.06163355,-0.005761745,0.16514368,-0.115288444,-0.13137199,0.034828886,0.10288811,-0.0749378,0.07848747,0.017143477,-0.027274664,-0.20975256,0.13848852,0.05675492,-0.105381876,-0.40406546,0.11438158,0.0819597,0.23761922,-0.08112392,0.107817166,0.1075811,-0.089811765,0.23662326,0.014531439,0.009151696,-0.47106206,-0.15532926,0.020406207,-0.1158421,-0.2637504,0.32669276,-0.01094255,-0.122122824,0.19783211,-0.13917461,-0.151184,0.14372864,0.027893785,-0.10567716,0.04855432,-0.1708276,0.012265609,-0.10179545,0.1643209,0.013840559,0.026039144,-0.13239877,0.089787625,-0.05201598,0.10779071,-0.048518784,-0.08727412,-0.077670485,-0.07565372,-0.07728692,0.18914045,0.12484476,-0.061923005,0.035439715,0.06675261,0.05639537,-0.18149826,0.10341504,-0.17658329,0.050535806,0.018672278,-0.055888977,-0.120179735,-0.0028408656,0.06334264,-0.11315685,-0.030389931,0.037175182,-0.09306091,0.023582513,-0.11548703,0.062434945,-0.05655026,0.05013338,-0.012416633,0.08142364,0.01586608,-0.019473076,0.058888517,0.014952371,-0.087676115,0.051723942,0.13729809,0.057898,-0.025764482,0.0007920662,0.0054378556,0.0001824055,-0.028475907,0.055075914,0.038973138,-0.068945155,-0.034895662,-0.09065179,-0.0205276,-0.037878156,0.075321615,0.07891856,-0.095224746,-0.045876916,0.05637126,-0.042665564,0.06898856,0.092392474,0.10613141,0.018108668,0.12077591,-0.024528561,0.056135252,0.07316756,-0.04311132,0.09394873,-0.0005060503,0.10545035,0.21770744,0.12749179,0.015163993,-0.053500876,-0.059788156
-0.02249073,-0.037769828,0.0958344,-0.0016387146,-0.008759898,0.05093928,0.05771039,-0.024678428,-0.10336664,0.14550567,-0.036245126,0.1199139,0.037877765,-0.031608585,-0.22644392,0.09352167,0.009939524,0.07592761,-0.061611753,0.028902886,-0.002597855,0.08124595,0.012265441,-0.04760068,0.06936839,0.020193115,0.07293773,0.07565311,0.17362939,0.07767807,0.017609298,0.014939669,0.11778742,-0.06474499,0.11292453,0.056064423,-0.11198596,0.022104945,0.13206315,0.05881892,0.1548538,0.019941865,-0.0077434136,-0.11315162,0.05526092,0.060506348,-0.21462479,0.034586087,0.007869018,-0.014559302,-0.087537296,0.06899292,0.12460431,0.0038539686,-0.02616161,0.038805265,0.14511593,0.0059310836,-0.014906898,0.15548284,0.10062001,-0.004902062,-0.20302813,0.04377305,0.08446074,-0.14399636,-0.06885212,-0.3681322,-0.2095297,0.03696983,0.043626506,-0.12273366,0.022881584,-0.010077524,0.055575628,-0.08244902,-0.0039915303,-0.08828613,-0.07693716,-0.0014968924,-0.017461665,-0.004480942,0.007855436,0.005552361,0.039896943,-0.05121224,0.038905527,0.07718617,0.052910287,0.09348834,0.054280978,0.021744369,0.05251071,-0.089379594,-0.16897352,0.107285954,0.04689419,-0.011036464,-0.12038908,-0.0027753452,-0.15868111,0.16109346,-0.11549388,-0.011495315,-0.09657545,-0.051045023,-0.03415629,-0.069857225,-0.19733138,0.19365115,0.054600127,-0.14767121,-0.22469528,0.1718354,0.1109266,0.07892141,-0.057561412,-0.15380923,0.031165265,-0.10724975,-0.027300442,-0.10999308,-0.11818239,0.2716199,0.12330622,0.14577974,0.029299494,-0.026092036,0.15952194,0.028145988,0.04045146,0.13913439,0.1445092,0.0736772,0.017899577,0.091393374,-0.06247096,0.010541641,-0.078354396,-0.09324668,-0.16224244,0.082817085,0.040664185,-0.034231905,-0.2615383,0.11902705,0.11415012,-0.17391789,-0.1597418,-0.23588459,0.11682808,-0.18152691,-0.08566108,0.01587819,-0.11319397,0.13930227,0.0694607,0.17329101,0.1182504,-0.09997403,-0.08917255,-0.0059223035,-0.27498582,0.103420354,0.046470694,-0.20872797,0.06306146,0.03876907,0.097910166,-0.13114549,-0.24459815,-0.044887878,0.18753053,0.14372832
