0.015624865,-0.4084867,-0.22160895,0.11332292,-0.15904936,-0.20860621,-0.006426462,-0.03073224,0.07756738,0.2023332,0.046366252,-0.4333768,0.09431712,0.06408929,-0.3792458,0.013751218,-0.2202691,0.051643886,0.05206399,0.120153315,-0.06627704,-0.0018285163,-0.25546664,-0.30884638,-0.017390225,-0.43896484,-0.046828173,-0.16096228,0.0015839621,-0.2149459,-0.040354,-0.07031954,-0.20562595,-0.058164652,-0.12706877,0.06980987,0.057538427,-0.202575,-0.061362427,0.016264593,-0.039764866,-0.06738862,-0.0016236377,-0.024443004,-0.13341936,0.18659495,-0.19559373,0.04303546,-0.21750426,0.15751396,-0.09303208,-0.1414209,-0.015170636,-0.20735864,-0.30072954,-0.16698568,0.20594187,-0.14819668,-0.06407364,-0.15925798,-0.23500302,0.07050984,-0.11322911,-0.14587699,-0.17387876,0.020814344,0.15422612,0.09894594,-0.14528827,0.029947244,-0.115415305,0.30258483,0.08300199,-0.18467568,-0.28853774,0.24932261,-0.018770423,-0.21001853,0.06614896,0.024654448,0.020362852,0.09409167,0.11819543,-0.20759544,-0.12838106,-0.020925906,-0.068346836,0.0705041,0.083036594,-0.1934955,-0.16980152,-0.075706646,-0.026450973,0.08667469,-0.22811429,-0.008767704,0.026725916,0.39148965,0.26296288,0.021066012,-0.35272256,0.3037776,-0.21876667,0.1805644,0.08867312,-0.09613966,-0.26850903,0.3175364,-0.17683198,-0.4585769,0.390794,0.35885155,0.086953826,0.14875276,-0.05071016,-0.628201,-0.28442684,-0.35591775,0.2536617,0.053774305,0.1219984,-0.31101006,0.11480369,-0.1988982,0.17555502,0.17889927,0.024695147,-0.17967837,-0.03221317,-0.7656947,0.1159047,0.13817246,-0.07924754,-0.38768348,0.1592468,-0.41080183,0.048701867,0.17521235,0.12627351,0.03265303,0.13216637,0.22605188,-0.5830903,0.067463554,-0.31225348,-0.1552928,-0.051018264,0.19989689,0.26810354,0.034602437,0.2977518,-0.52603227,0.15637363,-0.18819094,0.24176253,-0.44411436,-0.30379516,-0.008828563,0.14482895,-0.08501345,-0.027079515,-0.19476,0.15023892,0.31068063,0.070725344,-0.09566277,0.03585166,-0.1920442,-0.082956836,0.12970872,0.009951241,0.26543522,0.01465337,-0.1860033,-0.30910715,-0.0742114,-0.039949715,-0.29931062,-0.09845479,0.2644071,-0.3005231,-0.028127097,-0.104692616,0.2808105,-0.5133683,-0.22352326,-0.05827494,-0.18696192,0.09481453,0.4657958,0.18977366,0.0110567985,0.40566772,0.0741567,0.04709846,0.10952587,0.018549237,0.0044658524,-0.19297628,-0.31092057,-0.10639417,-0.05127777,-0.123336375,0.14943033,-0.104282856,-0.049513042,0.045623764,-0.015632166,0.01066211,-0.036134068,0.0046655843,-0.23583369,-0.24821629,-0.19071974,-0.11936525,0.087157935,0.08364561,-0.2555561,-0.19352591,0.0037002251,-0.1960173,0.07749394,-0.0905842,-0.05864044,0.12249857,0.33675513,-0.2059063,-0.054988846,-0.13913566,0.13019799,-0.2384352,-0.13069195,-0.5253794,-0.19508684,-0.008442905,0.10066675,-0.02673432,-0.60575104,0.19763707,-0.29450753,-0.0025613594,-0.00868564,-0.07867506,0.024628608,-0.57007796,0.038485914,-0.063466325,0.009520992,0.18449955,-0.42789775,-0.42426133,-0.06471335,0.1920737,0.12029381,0.023651717,0.15543167,0.06522079,0.008553612,-0.106971964,0.2593394,0.08284422,-0.17607214,0.18745859,-0.4947528,-0.4728147,0.06348556,0.15235765,0.29707834,0.11265411,-0.47908738,0.09362088,0.007401454,-0.66030115,-0.038468212,-0.044520766,0.22002414,0.25882757,0.25033358,0.2664091,0.17618951,-0.33843237,0.35613355,-0.004153391,-0.09128633,-0.50970596,0.044890273,0.1575898,-0.04203434,0.21714604,-0.32050878,-0.037609193,0.20713456,0.2439011,-0.25865155,0.12760952,-0.1894168,-0.46541634,0.112359636,0.13735811,-0.1462747,-0.32867905,0.13060185,-0.332823,-0.36327282,-0.407619,-0.08000716,0.116827175,0.29212534,0.25630462,-0.34219187,0.19393638,0.031493835,-0.029129656,0.07655705,-0.2903537,-0.34608635,-0.3419821,0.17916767,0.26820326,-0.3807679,-0.03865479,-0.23713055,-0.19956788,-0.21138239,-0.2745696,-0.133884,-0.13878219,0.04800669,0.17745548,-0.11161994,0.06960076,-0.3903465,-0.2938282,-0.03911888,-0.08141454,-0.15209538,0.12922035,-0.10427615
0.0040654438,-0.059962377,0.20292313,0.09470458,-0.11235507,-0.08078444,0.15673877,-0.14611457,-0.18689589,-0.6725855,-0.129285,-0.45744362,-0.22202769,-0.019629268,-0.04007369,-0.10841719,-0.4981706,-0.13653171,-0.14683476,-0.0192317,0.13156457,-0.14406107,-0.17712075,0.017410412,0.047605474,-0.17179953,0.1291015,-0.29930726,0.5256587,-0.009249247,0.19944319,-0.6902702,-0.02727669,0.23216043,-0.36791044,0.108805925,-0.44382083,0.053818177,-0.050872132,0.26814628,0.4045285,-0.5243177,0.025681894,0.19428773,0.028855272,-0.001556884,0.049506318,-0.09071997,0.19049136,0.029882066,0.21343012,-0.17145641,-0.03762948,-0.2631031,-0.68265396,0.19641037,0.086643465,0.103596956,0.21701072,-0.57885075,0.08045198,-0.3161763,-0.0011085023,0.15845396,-0.050507266,-0.14079803,0.16673751,0.13760251,0.0813043,0.1318147,-0.6422224,0.35734737,-0.14477304,0.08840802,0.0742636,0.102663815,0.12757486,-0.10716144,0.35167423,0.11331041,-0.09864829,-0.1487718,0.328953,-0.46519005,0.035452858,-0.11539805,-0.23382415,-0.5690885,-0.23313795,0.0664578,-0.11838273,0.07515171,0.01749178,-0.09625959,-0.029681958,0.048941918,-0.06940132,0.14812845,0.27190584,-0.13923457,0.15533127,-0.10639752,-0.03880729,0.09912023,-0.036839195,-0.045018777,-0.36336768,-0.09425945,-0.40885013,-0.4436759,-0.065142736,-0.4350638,-0.47043917,-0.13295288,0.045604043,-0.5917842,0.032854043,0.13378462,-0.060807157,-0.29581472,0.11570149,-0.7082585,-0.6349909,-0.47280934,-0.3656683,0.25369492,0.015322025,-0.21728782,0.106378384,0.08321509,0.20440076,0.07220827,-0.39015093,-0.33974952,0.05464016,0.11994816,0.1609,-0.09218008,-0.48788214,-0.3303635,-0.059198968,-0.56448054,-0.43384218,-0.4675185,-0.34692088,-0.51574355,-0.091984004,-0.36982414,0.087382495,-0.25590503,-0.14542751,-0.27477124,-0.19987357,-0.48662096,-0.3719674,-0.10159631,-0.12162246,-0.10511292,0.046835598,-0.5452152,0.0442352,0.13643344,-0.22331521,0.12231535,-0.53081125,-0.07765355,-0.120335706,0.17468193,0.069694735,-0.2527805,0.2251775,-0.35307768,-0.17968583,-0.5047838
0.20068054,0.21489933,-0.10212786,-0.7925769,0.091421194,-0.480065,-0.40819117,-0.4053349,-0.14096504,0.12311788,0.24725504,0.38230312,-0.08427295,-0.0336343,0.11125099,-0.121391244,-0.17556022,0.17293406,0.046403576,-0.17831704,-0.1322457,0.070572354,0.06472541,0.13962834,-0.038370628,-0.7156968,-0.55379045,0.104520574,-0.1319695,-0.08312202,0.20607437,-0.020581763,-0.11892307,-0.032561563,0.30875304,-0.44945997,-0.12799744,-0.13714093,0.28850886,-0.27299833,0.030351078,0.05716458,0.32930058,-0.10974722,0.012015673,0.24614774,0.021862563,-0.30002654,-0.19835709,-0.14035773,-0.10874913,-0.17491992,0.0023550764,0.21561728,0.0025155244,0.10997851,0.058946483,0.3543909,-0.19054097,0.2868114,0.0015337679,0.14182782,0.0694684,-0.21809024,0.10292411,0.057616398,-0.088327974,0.062310085,0.0022222926,-0.12552695,0.0854687,-0.4406087,0.068026096,0.15585138,0.1912592,-0.13353375,0.478456,0.38089916,0.21680214,-0.13766813,0.05613362,-0.3597491,0.0102930255,-0.065050885,0.2116075,0.12042395,-0.080492094,0.28941593,0.24412568,0.31332996,-0.18270461,-0.3337361,-0.1910842,0.028593346,0.13356565,0.02981879,0.0815527,-0.59100425,0.047753755,-0.011230649,0.12461291,-0.5635671,0.2283699,-0.24888013,0.12146157,0.042082645,0.124975905,-0.28566828,0.23701602,0.06768606,-0.06273791,0.005277726,-0.07623705,-0.43290758,0.06349499,0.057868958,-0.011783267,0.23174272,0.15064527,0.023914112,-0.050423544,0.31970504,-0.20238392,-0.19023255,-0.4911162,-0.16135941,0.03021945,0.09634641,-0.20842223,0.26607633,-0.014802056,-0.094292335,0.27747384,-0.012998262,-0.35609925,-0.1273173,-0.04728319,-0.13900676,-0.14912225,-0.20296156,0.119301155,0.115952276,-0.0001165351,0.17453398,-0.047948666,-0.16157848,0.033277243,0.05352457,-0.091676146,-0.03613053,-0.4586381,0.096024774,0.006531694,-0.27345273,0.13323258,0.19353734,-0.059384707,0.06537574,-0.15453991,-0.21971226,-0.47852126,0.040997464,0.21588628,-0.038798373,-0.6015016,-0.10275727,-0.15430081,-0.44423184,-0.18096168,0.09792332,0.025602326,0.17832586,0.064223036,0.3667645,-0.107683875,-0.24930836,-0.0746193,-0.28412977,0.10559279,-0.0064375955,-0.43435502,0.12676898,0.08254931,-0.19932707,0.13016015,0.29951,0.009473466,-0.05305114,-0.07968882,0.15975903,0.063627936,0.1593085,-0.07495324,0.08016312,-0.04620528,0.05549062,0.19683065,-0.18723667,0.013003921,0.15524237,-0.24774367,-0.09442997,0.17524652,-0.026870122,0.12185546,0.08870766,-0.17270653,-0.06385592,-0.15790957,-0.7070439,-0.052106183,-0.12745823,0.16824967,-0.01971898,0.13763212,0.29235676,-0.0026194837,-0.14073983,-0.01908052,-0.3483152,-0.16206884,0.037076868,0.08265096,-0.002163725,-0.066892155,-0.20214011,-0.15866092,-0.047190506,0.04547268,-0.109757856,0.23148221,0.005394825,-0.023175294,-0.14902787,-0.027976403,0.19783716,-0.29433942,0.1615663,-0.043397672,-0.08351254,-0.20646313,-0.56256557,-0.10605167,0.09689914,0.12454372,0.040375743,-0.114228465,0.12613723,-0.20797639,-0.13177812,-0.075280644,-0.4769715,-0.03312432,0.24854025,-0.2746991,-0.48799628,-0.2850088,-0.16919655,0.021283863,-0.32961857,-0.43745223,-0.27874818,-0.05283276,0.08450368,-0.18449582,0.17864439,-0.2372654,-0.5256026,-0.07646077,0.20054254,-0.15749668,-0.41510442,-0.08640389,0.37318623,-0.019769311,0.12206027,0.021731816,-0.10930892,-0.35875562,0.057693586,0.1261111,-0.2618721,-0.23939587,-0.18360195,-0.3645123,-0.56433606,0.04494183,-0.20403697,-0.52525365,-0.015151629,-0.1922089,-0.19173627,-0.68971676,-0.16519968,0.25165242,0.04522655,-0.33333504,0.16438672,0.019957744,0.12224971,0.1644004,0.24439792,0.35483238,-0.19161777,-0.056454904,-0.5913122,-0.08750678,0.0012120088,-0.6027344,0.09103804,-0.28184208,0.25287536,0.054612048,-0.13637216,0.48586407,-0.47409463,-0.19391263,-0.073414646,0.0015453188,0.11082913,0.4125524,-0.22432414,-0.15327361,-0.05839224,0.12024161,-0.31670257,0.0023732393,0.18636398,-0.33876956,-0.23961715,-0.114832506,-0.23221241,0.024166727,-0.23857547,0.34014302,-0.39688027,-0.15050885,-0.335311
0.065748386,-0.28718814,-0.09167804,-0.15113176,-0.04740791,0.2788901,-0.025674062,0.0413519,-0.27518597,-0.5031512,-0.27486914,-0.29353595,-0.011464092,-0.28229085,-0.071675815,0.055400394,0.09235967,-0.024183122,0.11192236,-0.35833642,-0.58806884,0.052869197,0.23448452,-0.6446799,0.11656307,-0.078891285,-0.08873856,0.16951537,-0.36160475,-0.18113177,-0.3771314,-0.165138,0.012337416,-0.33625603,0.11516589,-0.68445206,-0.22831063,0.1291206,-0.32787415,-0.27046958,-0.0649306,-0.5828974,-0.45936206,-0.27295843,-0.3452299,-0.2319884,-0.5139287,0.06152796,-0.12874891,0.17345054,-0.30589157,-0.25446084,0.27663603,0.019009762,0.33353856,0.18767922,0.48477346,-0.2777573,0.082165234,0.058972705,-0.067522824,-0.24277438,-0.0043527894,0.27450415,-0.08143442,0.055301953,-0.15195875,-0.03547212,-0.1558106,-0.039183266,-0.19011186,0.23965868,0.21467873,-0.027393067,-0.27456653,0.056011546,0.27731487,0.15700333,-0.5490181,-0.27003357,-0.31390285,-0.16614415,-0.20923014,-0.32551402,0.019252231,0.3245422,0.16147885,-0.06842875,0.30579868,0.03521014,0.1594133,0.23013903,0.11392791,-0.21276146,0.016745627,0.061840072,0.0681353,-0.23138021,-0.14941171,0.258594,-0.0007308458,0.4740223,-0.1987082,0.046058625,0.09491178,-0.056005836,-0.13193294,-0.07190402,0.2645565,0.19533783,-0.058453787,-0.08404844,-0.030950474,-0.07415003,0.023661071,-0.10880163,-0.1427429,-0.22726285,0.05397133,-0.53065556,-0.15179199,-0.013432294,-0.03575996,0.3821516,0.43686855,-0.15896651,0.10681583,0.123496406,0.0975517,-0.26330653,0.10881974,-0.41080764,0.058276385,0.27799407,-0.3563225,-0.19257209,-0.032851417,0.09414444,-0.08101829,-0.071358584,-0.014889008,-0.097070105,-0.044457275,0.19444823,-0.087441064,-0.21540383,0.027858498,-0.20751646,-0.5659407,-0.2373839,-0.16605522,-0.34648892,0.11533484,0.31822774,0.039287053,-0.07096161,0.039341968,-0.032722745,0.008927166,0.22071543,-0.13979216,-0.62918675,0.024721831,-0.49188292,0.05783722,-0.006013822,-0.28902164,-0.105533235,0.16805163,0.26548648,-0.024917834,0.079904445,-0.25279865,-0.163861
-0.2396811,0.16687095,0.33678705,-0.024273526,-0.4275682,0.31119025,-0.09937881,0.25090787,0.011664299,-0.0057523297,-0.5069121,-0.024844121,0.034392614,-0.07932403,0.10853659,-0.06892566,0.2809058,0.1484447,0.029430583,-0.14501548,-0.08139301,-0.09121192,-0.13663426,-0.0111272475,-0.02542175,0.05858887,0.00822084,-0.026936162,0.16591583,0.19961455,-0.29326358,-0.115220994,-0.2911734,0.22032824,0.25532064,0.09064369,-0.29059768,0.2739678,-0.05593371,0.1951465,0.031276967,-0.07698361,-0.17228764,0.3300003,-0.15390715,-0.32861224,0.045595642,0.036954496,0.15055464,-0.057086576,-0.040452875,-0.057441786,-0.035633374,-0.34166324,-0.037728917,0.0026201243,-0.050746236,-0.001557651,0.039736718,-0.09605147,0.13038072,0.043940958,0.07742129,0.1697122,0.100864224,0.14440104,0.037551798,-0.07660488,-0.17319454,0.23780182,-0.27696696,0.009293452,-0.14267312,-0.21716672,0.23358028,0.056741677,-0.15838596,-0.18308815,-0.121651456,-0.039185915,0.11926405,-0.09453582,0.15642783,-0.18668969,-0.45087844,-0.13409343,0.08615008,0.10501854,-0.22528358,-0.3565174,-0.03127026,0.02198046,0.19748926,-0.054065887,0.15242529,0.18490762,0.098300815,0.07839245,0.057197284,-0.3531007,0.12238464,0.07318561,-0.42814353,0.054753646,-0.5216782,0.1512928,0.09666679,0.084569305,0.03925895,0.31539765,-0.27235124,-0.4600065,-0.2740653,-0.06329488,0.07947309,-0.03758945,0.07742938,-0.31934708,-0.21549688,0.033628624,0.04390398,-0.27308473,-0.63548416,-0.20182586,0.13981591,-0.47016948,0.18221451,0.20800138,-0.030204372,-0.43937156,-0.001294533,-0.13551342,-0.25689757,0.09797712,-0.359193,0.25849432,0.07101097,-0.06943299,-0.8085602,-0.061671574,-0.061929695,0.008201235,0.19955279,0.19938141,0.12069324,0.2706224,-0.020912623,-0.4608263,-0.38876382,-0.23365535,-0.261055,-0.19032708,0.15253763,0.08114773,-0.09147942,-0.0022866984,0.23083457,-0.20593621,-0.3085365,-0.4038241,-0.13874212,-0.029368859,0.14211065,-0.09924315,-0.18351598,-0.02308261,-0.1301528,0.3456008,-0.18255025,-0.069703825,-0.18556349,-0.26003358,-0.087922536,-0.016754013,-0.0043726917,0.096960634,0.018591309,0.3604366,0.04948155,0.011206918,-0.1773638,0.060823303,-0.16816238,0.19752455,0.14644028,-0.05254381,-0.02323451,-0.060104102,0.20977959,-0.52944773,0.07555541,-0.14715639,0.13855147,-0.22853811,0.09440367,-0.3722419,0.23374248,0.059550997,-0.08444806,0.31659618,-0.19323544,-0.17576703,0.16423729,-0.044711363,-0.15856506,0.41364998,-0.10217182,-0.21851283,-0.13191444,-0.35857326,0.036919523,0.021198146,-0.08801415,0.111570686,-0.26984885,0.30790973,0.15260291,-0.09719166,-0.36314133,-0.1045771,-0.022373242,-0.6632605,-0.04962753,0.1346588,0.06398741,0.024599172,-0.30476385,-0.5999439,0.14016631,0.14468649,0.050623164,0.19082153,-0.057078805,-0.09508738,0.09352504,-0.15673442,0.010805578,0.1593994,0.25398496,-0.15916084,0.17247337,0.0060684416,0.031430587,0.10933546,0.1010706,0.09400386,-0.1831701,0.029021613,0.16365883,-0.1796694,-0.026165752,0.29164702,0.062258784,-0.34513748,-0.021079767,0.14539994,-0.11514024,-0.23223715,0.060007695,0.0677049,-0.55864686,0.12202724,0.189494,-0.07582781,0.1763326,0.24995358,-0.48078257,-0.30262673,-0.033155687,0.14120804,-0.31019446,0.3556458,-0.35471237,-0.015345029,-0.0011218581,-0.00776558,-0.36295176,0.11292773,-0.15083215,-0.73934627,0.20474683,-0.3500122,0.07386732,-0.253231,-0.24124223,0.08589705,-0.15366362,0.10316924,-0.1515744,0.017784527,-0.24694838,0.00024755462,-0.22619592,0.13909008,0.11924434,0.021574344,0.21786277,0.11186915,-0.054695494,-0.10223364,-0.24448317,0.0793244,-0.32899162,0.26379085,-0.32515928,0.1337017,-0.042385012,0.21455164,-0.103473604,-0.09794448,0.023070708,-0.35550606,0.12405703,0.021869153,0.21708085,-0.1702544,-0.16304864,-0.11978802,-0.049693238,-0.08579396,-0.06128051,0.09101948,-0.22278267,-0.059625346,0.047014862,-0.35046417,0.11234993,-0.094366305,0.06264347,0.109094895,-0.05724579,0.1357408,-0.027634013,0.3467553,-0.16505104,0.016356003,-0.21063828,0.009048941
-0.0005009048,0.13892393,0.013370227,0.108132936,0.055604182,-0.07448151,0.16500255,-0.010213677,0.11018894,0.17143509,-0.1399494,0.11320092,-0.1369686,-0.1313214,-0.028386362,0.026823694,-0.14842856,0.08672601,-0.14085197,-0.34343976,0.20274441,0.13672203,0.25128654,0.04403133,-0.06516704,0.35137194,0.07832718,0.08223981,0.11993588,0.18959655,0.23274876,0.10819939,-0.08985235,-0.04046978,0.028356163,0.25895345,0.20550485,-0.16054776,0.25715372,0.06544839,0.2847212,0.48311657,-0.2001394,0.18967581,-0.1727169,-0.30033433,0.07120316,-0.15844902,0.091130465,0.37235457,-0.27781692,-0.30211693,0.16959104,-0.75065947,0.09173432,0.1006507,-0.057060294,0.049187753,0.10751817,0.36165857,-0.053580523,0.2668879,0.023241272,-0.24696223,0.03166425,0.29496944,0.06901829,0.2152183,0.1265859,0.023894161,0.08340365,0.12507972,0.23676838,-0.07349468,-0.57138526,0.073130004,0.16688468,-0.118984036,0.12108297,0.06765277,-0.09400904,0.13521245,0.098903276,-0.09827669,0.08821324,-0.4880634,0.04347227,0.25330347,-0.32021526,0.22904488,-0.00062241504,-0.18157622,-0.018360404,0.3086645,0.0859531,0.046156004,-0.015726304,-0.104758546,0.07342705,-0.23157299,0.13626146,-0.4341675,0.09313502,0.059669945,-0.049336065,0.018349072,-0.3967971,0.3425019,-0.38883436,-0.16058505,-0.04194177,0.12715982,-0.085676365,-0.018026188,-0.11187433,-0.027654983,-0.034724206,-0.13344498,0.21644576,-0.024523798,-0.28251967,0.36544555,-0.024436653,-0.47671196,0.008948768,-0.27290565,0.22346541,0.10409514,-0.08549036,0.05838966,0.091729105,-0.119058244,0.23461361,-0.66545504,-0.38910213,-0.04926392,0.027757887,0.18252634,-0.18202195,0.22342844,-0.25472605,-0.0964157,-0.1290615,0.25446683,0.0677497,-0.048246466,-0.29195493,-0.15804194,-0.019053169,0.38106215,0.5715766,-0.2685904,-0.43129963,0.15290222,-0.43639192,-0.2772041,0.23520055,0.17607926,0.25485116,0.31847197,-0.011407527,-0.112704575,0.2770229,-0.32675305,0.5514882,-0.2700565,0.2704781,0.07691606,0.14413857,0.28525388,-0.4211223,0.11558259,-0.43190733,-0.23163007
-0.11033191,0.15869413,-0.64934707,0.09408795,-0.08095701,0.44490403,0.11227172,-0.094629705,0.14665799,-0.06856106,-0.28868687,-0.23558347,-0.16851656,-0.43023077,-0.0060322145,-0.08302073,0.08610108,0.15119639,0.12291161,0.110311896,-0.09235109,-0.2751749,-0.28297424,-0.05577681,-0.26650798,0.13213345,0.04112356,0.07235429,0.11784776,-0.29439726,-0.5027057,0.246926,-0.1346821,0.21175389,-0.18343846,-0.19814035,-0.13240515,0.23914133,-0.10414098,0.015196137,0.057146695,0.08482119,-0.16155064,-0.22125892,-0.17858656,-0.3901119,0.0733237,0.023404084,0.067551434,0.18655202,0.09723069,0.037824895,-0.35505474,-0.3041564,-0.21188708,-0.043932844,-0.5855122,-0.13504292,-0.13609357,0.17269796,0.11531856,-0.127835,-0.21754067,0.45227906,0.016391493,0.1042499,-0.005293868,-0.33381784,0.39679614,0.14548244,-0.025621139,-0.11999139,-0.15309301,0.08554737,0.25044706,-0.17180446,-0.3677113,-0.017603442,0.0399702,-0.05205201,-0.2318821,0.083305396,-0.05275178,0.22979885,0.0059701884,0.080164924,-0.044977564,-0.08383168,-0.3152785,-0.008443694,-0.13307285,-0.05791759,0.27576587,-0.033296105,0.21726185,0.058803704,0.031195788,0.026841307,0.009002234,-0.17279571,0.20284301,0.12332955,0.013629938,0.0037701044,-0.5604578,0.17139828,0.06945894,-0.55724937,-0.62898535,-0.11947887,-0.5984916,-0.27503917,-0.4375038,0.0246269,-0.04366699,0.2327559,0.3544132,0.11690368,-0.053963944,0.013364051,-0.16676687,0.10783371,-0.13266625,-0.06598051,0.17789532,-0.05380633,0.20093812,0.042533,-0.385908,0.24161913,-0.15321675,-0.29020634,-0.4456775,0.2056051,-0.055087958,0.07679951,0.09236932,-0.15472052,0.18953294,-0.32341114,-0.30865157,-0.3504841,0.045077194,-0.34742135,0.15272963,-0.49818173,-0.07941156,0.17900181,-0.51157886,-0.34367284,-0.5889801,-0.005431035,-0.4155027,0.23974968,-0.08823926,-0.110896945,-0.10435632,-0.06613126,-0.2329579,0.27806303,-0.13692765,0.039822876,-0.37106013,-0.13596183,0.14815979,0.090718105,-0.27816874,-0.008713345,0.3149707,-0.17632781,-0.74176073,-0.29490584,0.002573514,-0.5268928,0.117930435,0.02113613,0.12667225,-0.101447314,-0.002498257,-0.17188618,-0.06790091,-0.27810916,-0.024234105,-0.040848065,-0.01579132,0.055389635,-0.16637972,-0.036202848,0.09979364,-0.001658454,-0.47683108,0.20671251,-0.32558253,0.10677703,0.031677186,0.0563653,0.05632077,0.092660785,0.014352406,-0.15253615,0.23218685,0.3028522,-0.05200807,-0.02244615,-0.05041765,0.018305631,-0.07112884,0.13851832,0.02104673,0.14752007,-0.07774331,0.294708,0.02485167,-0.047609467,0.008030283,-0.289417,-0.49929088,0.2503898,0.15966754,0.042079564,0.05594104,0.42458025,0.005148483,-0.012078276,-0.12133238,-0.11394326,0.14648677,0.1651638,0.17753164,0.008047807,0.09548625,-0.0008587388,-0.16268937,0.15506452,-0.13899629,-0.009869989,-0.11050706,0.0978778,-0.5224042,-0.24974975,-0.25014535,0.09041307,-0.028643165,0.2736744,0.021022381,-0.11193908,-0.040979307,0.030576069,-0.36316645,0.32553148,-0.0129179545,-0.20520276,-0.0063841115,0.30120894,-0.02356748,-0.11123322,-0.041830376,0.25612423,-0.16960746,-0.23098601,0.1850756,-0.21872392,-0.52141804,0.12642851,0.13867348,-0.26031196,0.32184178,-0.28121558,-0.17932595,-0.15068309,0.09067849,-0.29926816,0.12780167,-0.37634647,-0.07092873,-0.6775695,-0.2142179,-0.31342596,-0.3300805,0.3202015,-0.26963493,-0.3776995,-0.33100012,-0.058551487,-0.008840624,-0.5059022,-0.037818853,0.13936512,0.058386285,-0.08864336,0.019759588,-0.2109608,-0.5527452,-0.14856528,-0.3411679,0.084454246,0.21393639,-0.18472286,-0.17191412,0.027100312,0.18015079,-0.34310314,0.30432588,-0.18708827,0.15069269,-0.24372941,0.10377448,-0.28746715,-0.1535738,0.002820451,0.01122216,0.061370768,-0.0908967,-0.18782106,-0.06798648,0.047413472,0.14249754,0.21591878,-0.6299292,-0.1896976,-0.49080643,0.14047903,0.24798606,0.12463758,-0.39458874,0.16274872,0.080255136,-0.16036762,-0.030770622,-0.070960626,-0.110589415,0.13118723,-0.17488831,-0.34600312,-0.12470373,0.08970085,0.09345011,0.13198967
0.055160265,0.20097607,-0.12185578,-0.063335404,0.014542745,-0.22755243,-0.04024022,0.12929943,0.183532,-0.0013324243,0.14212012,0.12199446,0.043375626,0.07198615,0.21738885,0.056899175,0.22761934,0.2329056,0.034100275,0.012859012,-0.027662976,0.16385525,-0.14383312,-0.028880244,-0.021639531,-0.24351594,-0.38698182,-0.010422508,-0.30799395,-0.195868,-0.18729123,0.07342064,0.020503374,0.13179246,-0.1231166,-0.32843584,-0.04148408,0.045756157,-0.03200464,0.00056625356,-0.04751288,-0.2763727,0.055092692,-0.41067514,0.07100615,0.008270431,0.1849096,-0.08936466,-0.16089894,-0.33241376,0.16079378,-0.19015822,-0.5588183,0.31330806,-0.037825357,-0.4535586,-0.17102039,-0.08777932,-0.28203937,0.123222984,0.06303361,0.24374205,-0.10370624,-0.07708601,-0.009859655,-0.7296677,-0.10745401,-0.47566634,0.03834271,0.07990758,-0.008734846,-0.60600775,-0.36951014,0.016356371,0.12195274,-0.18841477,-0.3457648,-0.07388695,-0.06875629,-0.10537797,-0.06879181,-0.29637155,-0.2869384,0.070772946,-0.03057368,0.17473246,0.13723968,-0.16934863,-0.13561743,-0.10406633,-0.20665231,-0.18213698,0.08946548,-0.016301397,-0.13521829,-0.116992615,0.014975948,-0.07255871,-0.14547521,-0.009658787,-0.07900958,0.046508342,0.38750234,-0.16384546,-0.016464436,-0.07129093,0.51987565,-0.12833765,-0.36367396,-0.026756218,0.18092366,0.15850528,-0.017007362,0.10148743,-0.2757496,0.16383317,0.1484741,0.028263409,0.30812213,-0.11150684,-0.06510541,-0.044742312,-0.35490343,-0.3973007,-0.5569229,0.07404175,-0.012287003,-0.08575207,-0.109454714,0.18445602,-0.45717236,0.18493564,-0.26077878,-0.06561308,0.2059292,0.09773832,0.054919746,-0.053017635,0.13949376,-0.36204383,0.044865195,-0.036161646,0.20394865,-0.2708577,0.09761279,-0.009110388,0.10448678,0.24980508,0.07049702,0.14199132,-0.24572888,0.17567651,0.11836216,-0.2547328,-0.029958716,0.03492247,-0.6436518,-0.38251558,-0.30642575,-0.2653928,-0.08564151,0.15099864,-0.12963454,0.084279515,-0.583103,0.05483611,0.0150411455,0.090919785,-0.15143639,-0.6250159,0.2373913,-0.32704625,0.25189075,0.16115788
0.25752175,-0.25851873,0.40849406,-0.114810236,0.41288236,0.048085235,0.040699083,0.120089315,-0.12863603,0.02636874,0.19289732,0.09161272,0.069099836,0.033928804,-0.1847475,-0.14120331,-0.30133092,-0.23956133,-0.10048757,-0.10391296,0.06671739,0.15863466,0.26009077,0.038455617,0.09213577,-0.104876705,-0.18137552,-0.53500986,0.07716591,-0.13647904,0.001992854,-0.05706688,0.26828602,-0.6011232,-0.27263677,-0.22476552,0.24244207,-0.2118546,-0.08426192,-0.07880576,-0.17387122,-0.022365164,0.20328733,-0.30172983,0.08487759,-0.024200577,-0.071413,-0.1278057,-0.4003126,-0.3935443,0.0257757,0.25142235,0.30700216,0.28822723,0.33028752,0.13880363,0.079814024,-0.17231803,-0.07457794,-0.18295495,-0.13189934,-0.133064,0.038819585,-0.040740844,0.061159715,-0.14401971,-0.32896763,-0.21442932,0.24644592,-0.29879755,-0.07627588,-0.13409829,-0.20841613,-0.1952504,-0.0029208942,-0.096379906,0.017820084,-0.046612978,0.007202517,-0.21893187,-0.36964944,-0.14555687,0.07522647,-0.02587511,0.23878434,0.21150069,0.19504751,-0.052172136,0.2933973,-0.1130129,0.045305893,-0.3225228,-0.35688373,-0.21219453,-0.10589371,-0.32981327,0.03849397,-0.12320694,0.03286639,-0.010384687,0.029212523,-0.5360834,0.041816253,-0.14159857,0.2706573,-0.14467965,0.14243697,-0.08404469,0.13087946,0.038765974,-0.17251495,0.1309853,-0.096566275,-0.24687777,0.040010888,0.19783252,0.110592976,0.23955412,-0.10690722,0.045372877,0.25486612,-0.15626776,0.19345126,-0.21223137,-0.5633993,-0.059221335,0.14287841,-0.16158997,0.2679227,0.20697491,0.09138491,0.029338615,0.31363186,-0.20287085,0.20249014,-0.2979638,-0.053919304,-0.0018585133,0.11238123,0.21727818,0.020535504,-0.115717776,-0.049885478,-0.10114479,-0.35069937,0.06815168,0.050055433,0.10557911,0.34142792,0.15420954,0.14669034,0.062333573,-0.055722628,0.22820675,0.00529498,0.04925741,-0.023376657,0.0190385,0.09487714,-0.06580527,0.43247256,0.106735274,-0.22771864,-0.17925583,0.333182,-0.23639466,0.049157143,-0.024397723,-0.10851114,-0.1709928,0.012078701,-0.06791979,-0.15210183,-0.1103805,-0.21651949,-0.02700546,-0.026995402,0.053699978,-0.06637832,0.15780589,0.18290189,-0.19041044,0.13572258,0.09060893,-0.4583119,0.04831735,-0.16986535,0.26652825,-0.14856803,0.06151968,-0.08214705,-0.5582035,0.05536184,-0.10042267,-0.08892327,-0.3664894,0.084406555,-0.2714951,0.036105517,-0.3104443,-0.44304362,-0.005182113,-0.09513104,-0.13741973,-0.025299903,-0.24465899,0.15073457,-0.1583754,-0.21491678,0.24033824,-0.06637029,-0.044636235,0.079868935,0.16537987,0.16613095,-0.3155273,0.29097265,-0.092719205,-0.43749073,-0.08328046,0.018631378,-0.08446626,-0.11369047,-0.06486829,-0.011749581,-0.3275853,0.06649401,0.13674794,-0.039460275,-0.27600983,0.1266949,-0.32759827,0.18284369,0.10380719,-0.0018015822,-0.095176004,0.2482714,0.014058732,-0.14793953,-0.117400624,-0.59008193,-0.33687696,-0.10191474,-0.18124953,0.056101885,0.23320197,0.24463539,0.03821952,-0.17090504,-0.028216697,-0.06739947,-0.12781666,-0.27015665,0.030576887,0.03909374,-0.2468285,-0.16881357,0.0839142,0.40110686,0.006625371,0.1380241,0.04309686,0.22404212,-0.4732721,-0.3288346,-0.13638271,0.25907326,0.103037156,-0.10140255,-0.2066793,-0.005162629,-0.28929776,0.26783177,0.30463427,0.07544715,0.25396606,0.27315843,-0.08373788,0.12053171,-0.10649164,0.023703564,0.24521492,0.04748284,0.15650922,0.20940869,0.12120351,0.0513447,-0.5528691,0.19243687,-0.104549274,-0.19242348,0.06405637,0.40348125,0.28628567,-0.33592764,-0.43053135,-0.29924625,-0.3012182,-0.06174336,0.026072634,0.10745332,0.017025674,-0.31457257,-0.20496397,0.28878072,0.21305336,-0.011410731,-0.29712784,0.27644488,-0.28454643,0.18877728,-0.12457701,-0.31218982,-0.061845567,-0.1781989,0.32305357,0.1996496,-0.050434995,0.100261986,0.10861931,-0.40071422,-0.03458222,-0.43674716,-0.020057956,-0.21945678,-0.19643942,-0.18226732,-0.09999843,-0.26621678,0.22234434,-0.1603001,0.068507805,0.52392673,-0.37476644,0.27619907,-0.12696,-0.017600495,-0.095655754
-0.046219166,-0.16921267,-0.07532059,0.059866205,-0.15106471,-0.28548962,-0.42968196,0.10566688,0.014577477,0.20349842,-0.1375972,-0.24612528,0.08736382,0.32633236,-0.07434637,-0.2375329,-0.46212608,0.049915623,-0.08610154,-0.4115896,-0.021943165,-0.62619984,-0.7128514,0.054337412,-0.056172345,-0.012082929,0.56647545,-0.03548331,-0.047078084,-0.2717776,0.03392658,0.054698043,0.0036309399,-0.26880094,-0.045566436,-0.045458283,0.3110127,-0.08967395,-0.25367758,0.1590402,0.08530085,0.23696087,-0.08883808,0.040084593,-0.15358509,-0.11062583,-0.35769182,-0.08181433,0.12406969,-0.13064955,-0.37220174,0.33446628,-0.10068041,-0.3777942,-0.043873273,-0.11482849,-0.18665102,0.005559479,-0.13694426,0.36907756,-0.29468137,-0.6103036,0.043102324,-0.20249198,-0.07105874,0.2424662,-0.6670066,0.045054898,-0.17890796,-0.22496498,0.17063314,0.085581444,0.12542608,0.04606711,0.39079484,-0.26085615,0.030922515,0.23080358,-0.21370953,0.07257548,0.33850896,0.10625338,-0.32355562,0.22193989,-0.23715281,-0.4419927,-0.37230915,0.20019801,0.09829266,-0.15568542,0.268555,0.07971849,0.02651236,-0.3826848,0.03349383,0.16272415,0.07036086,-0.2253838,-0.47909912,-0.055231646,-0.29537088,-0.0032430284,-0.13081595,-0.21657707,-0.040991988,0.20356007,0.03805493,-0.2802639,0.4239408,0.24302965,-0.22336897,-0.21621142,0.11679596,0.40457007,-0.136229,0.037840284,-0.37834737,-0.4402162,-0.327934,0.46383193,-0.14875847,0.023066163,0.542513,0.207845,0.42189312,-0.3097028,-0.036479518,-0.40045294,-0.06832139,-0.7408866,-0.08784087,0.025398433,0.1557257,0.12266386,-0.4315678,-0.2721573,-0.10811576,0.044604253,-0.17082252,0.2238717,0.27860412,0.2888208,-0.14835241,-0.14893058,-0.056879282,0.45491576,-0.12046218,-0.25207543,-0.053119216,-0.5564156,-0.20869204,-0.048608985,-0.15418082,0.18507868,0.69820154,0.046042804,0.5260421,-0.14057778,-0.020108711,-0.031297836,0.056800507,-0.6365723,-0.0061558723,0.12748054,0.40742794,-0.06287065,-0.34892595,-0.14246951,0.094828606,-0.06500033,-0.3600075,0.52003586,-0.10992421,0.3267509
0.03331715,-0.28111392,-0.300514,0.23388505,-0.17699197,-0.59997964,-0.12650271,-0.14852741,-0.18423001,0.024735691,-0.1653939,0.22313102,0.0833731,0.26845676,-0.106792174,0.09634935,-0.39926547,-0.37240848,-0.055103116,-0.06490232,0.21705069,0.19767812,0.44194588,0.067378074,0.0044047325,0.21696578,0.05495644,-0.23243175,-0.25720182,0.2909265,0.17488639,-0.2965565,0.146774,-0.51013815,-0.18581143,0.24017173,-0.07577788,-0.3615683,0.010234166,-0.024484947,-0.008513092,-0.055564906,-0.27159852,0.028594706,0.18755999,0.16144732,-0.24871014,0.05212361,-0.241083,-0.19381748,0.033542275,-0.08064639,-0.019616883,0.17266668,0.20984337,-0.59111965,0.16864023,0.27815786,0.1537804,0.113251135,-0.17687397,-0.031890765,-0.123852134,-0.39425698,-0.49061698,-0.51742625,-0.2003797,0.20258325,-0.30567357,-0.53012186,0.18833314,-0.080114394,0.15652849,0.019740494,-0.5580675,-0.04946532,-0.45463094,-0.05047368,-0.002275131,0.021865448,0.3058306,0.122691356,0.029971207,0.04291264,-0.03877365,-0.3810817,0.15798245,-0.53136045,-0.0083893305,0.26968476,0.34866166,0.23943761,-0.44218838,0.046553455,-0.42557326,-0.6323249,-0.456169,-0.46479368,-0.15390483,0.19668743,-0.02818418,-0.4060328,0.30765313,-0.050105467,0.24797064,-0.35472202,-0.37724054,-0.008939444,-0.44915652,-0.1421411,0.21430282,0.032046314,0.528048,0.109603904,0.033197735,-0.024989568,-0.32697782,-0.16070825,-0.0058533745,-0.38216484,-0.012674495,0.3270014,0.424792,0.3791241,-0.40859234,0.012288266,-0.4008413,-0.5405918,0.18960217,-0.008321159,-0.15803643,0.019182555,0.008553309,-0.36841425,-0.006842653,0.31357485,-0.27849653,0.014406137,-0.124481164,0.17447828,0.1687972,0.151665,0.21392633,-0.051886022,-0.13393824,0.23738608,-0.069528975,-0.1900372,0.07473834,-0.03745121,0.3307849,0.23124936,0.026089203,-0.25888044,-0.18164773,-0.014691386,-0.030027436,0.06993771,0.13729094,0.044254236,0.0111682825,-0.05281679,0.015631603,0.11197169,-0.18953715,-0.20924748,0.13950309,-0.15727006,-0.08294385,0.040814955,0.07814194,-0.04035251,-0.0424396,-0.005803583,0.026012035,0.029420992,-0.076509275,0.01217771,0.028415598,0.033147346,0.43572903,0.08281792,0.09715834,0.0024965769,-0.2783301,0.024701158,0.083366685,0.09579468,-0.17833437,-0.038110238,-0.09420347,-0.3109438,-0.1869343,-0.029240899,0.12232868,0.31328657,-0.6723985,0.08837116,0.017551582,0.0939782,0.14992493,-0.35676152,-0.22132082,-0.14889956,-0.0028313992,-0.2571647,-0.18578365,-0.024308395,0.10408822,0.14613552,0.031277865,-0.6542029,0.18691428,-0.2883418,0.1664102,-0.15445514,-0.071805365,0.062383115,0.17761412,0.1245136,0.038792327,-0.015138929,-0.19739257,-0.19556093,0.15186377,-0.0776416,0.24770516,0.059381105,-0.35606548,-0.20568123,-0.18928286,0.05870784,0.37071702,-0.20199727,-0.17169875,-0.31216466,-0.6948912,-0.22889473,0.06591651,0.38616017,0.17946993,0.20165159,0.117400475,-0.51465964,-0.18659338,-0.6693985,-0.0687152,0.000653522,-0.26280797,-0.031077841,0.23943804,0.3133757,-0.0784779,-0.17317133,-0.041806344,-0.5273066,0.31195417,-0.05715398,0.09220029,-0.22878519,0.12040086,-0.08914617,-0.49530616,0.21674845,0.0017275019,-0.09420449,-0.24279974,0.01148728,-0.057219468,-0.17096303,-0.053910244,-0.013850507,0.28678873,-0.116493605,0.06302439,-0.0249071,-0.12482038,0.045186475,-0.0701751,0.18851762,-0.07804191,-0.18272692,0.07630286,0.2409348,0.19446698,-0.022781136,-0.06774853,0.029691665,0.03821098,0.1381852,0.28553596,0.07787597,-0.17683688,0.08254607,0.048635893,-0.08998277,-0.032384586,-0.14319965,-0.15298037,-0.042451274,-0.046212804,-0.04792105,-0.15779182,-0.009521975,0.084978856,0.0608957,0.111336775,-0.22074822,-0.07392915,0.10748753,0.04743717,-0.017655449,-0.1021801,0.11823655,0.05984255,0.13972764,0.02601048,-0.24147655,0.1574748,-0.06557716,0.1643604,0.059266806,0.404837,-0.09442593,0.08591977,0.1589418,-0.26730692,-0.0019741212,-0.010387954,0.010107726,0.1787334,-0.25807866,-0.17923957,0.038446646,-0.0669299,0.21050814,0.08651722,0.13883813
0.0526706,0.12778473,0.0280291,-0.16357964,-0.27349135,0.043505203,0.044846848,-0.15969737,-0.30448282,0.047785986,0.1284585,-0.2258137,0.20700034,0.047527935,0.042980965,0.19653314,0.26828474,-0.24832092,-0.045749813,0.13529742,-0.43344003,0.19105561,0.24141937,0.076532,-0.022580754,0.019165048,-0.5704971,-0.0817719,-0.40128142,-0.028407162,0.021132896,0.04739755,-0.011683821,-0.021688627,-0.005448184,-0.21271007,-0.29346377,0.0078620585,-0.046561874,-0.12372209,-0.49058273,-0.21925832,0.07367919,-0.1383411,-0.011544852,0.17992721,0.080981515,0.24754432,0.0755302,-0.3116448,-0.1130652,0.083197854,-0.267786,0.20614636,0.13226739,-0.41995385,-0.36636278,0.004312974,-0.30765432,-0.58250207,0.11534408,-0.1638385,-0.06189241,-0.12071901,-0.07762062,0.1924593,-0.19212103,-0.35069072,-0.18170123,-0.05363797,0.08850507,-0.26203093,-0.30060166,-0.023103142,0.2623162,-0.23696844,-0.4056753,0.05483818,0.06055453,0.028191863,0.012787554,-0.07636863,-0.09100059,0.06860551,-0.066360645,0.2654863,0.06726625,-0.4305982,-0.06171993,-0.08037641,-0.31128708,0.22458069,-0.10586379,-0.12597902,-0.12521544,-0.105601765,0.020318352,0.114446506,-0.119290926,0.16230115,-0.08614261,-0.0067726397,-0.11523329,0.11822275,-0.05853848,0.03546099,0.0774755,-0.3323037,0.03171576,-0.027721591,0.019731807,-0.13262317,0.43944097,-0.4720748,0.01826175,0.21807201,-0.043870952,0.08008775,-0.12639171,0.2275904,0.08130132,-0.3751313,-0.026038935,0.03959497,-0.14596741,-0.0632632,-0.18383533,0.021965947,0.004351533,0.04485316,-0.016827509,0.09185574,-0.5409496,0.2799244,0.07990399,0.16061272,-0.105989516,-0.19270922,0.23090717,-0.15592843,0.20842066,0.09196976,0.13964422,0.10036534,0.0018032352,-0.38594297,0.09553791,0.092460565,0.060778547,0.059179313,-0.27544633,0.27589202,0.34807542,-0.060936134,-0.23613098,0.1280847,-0.2234151,-0.0707198,-0.41916856,-0.27361244,-0.020136653,0.16062084,-0.09730332,0.086294696,-0.659213,0.15046693,0.06403491,0.026152264,-0.24341251,-0.37404472,0.11119677,-0.026197959,0.17700243,-0.0537213
