0.06900749,0.038470957,0.22768238,-0.1872336,-0.6700037,-0.3536177,-0.06538697,0.0399317,-0.29140487,-0.31783867,-0.3703365,-0.16630472,-0.0042826957,-0.48970315,0.10403157,-0.013256899,-0.16217744,-0.2767975,-0.27438438,-0.18227102,-0.06475355,-0.2345284,0.25821087,-0.39388317,-0.31326544,0.23876455,0.0196448,-0.43016177,-0.0040771468,0.07379328,0.21379964,0.06127726,-0.025633186,0.1791032,-0.217756,0.3103277,-0.11502036,-0.20256637,0.07257716,0.1943419,-0.184319,0.08421318,-0.32897905,0.18069008,-0.038151957,0.0736133,0.087540954,-0.20147915,-0.037598584,-0.113317735,-0.36903632,-0.0895195,0.027420899,-0.07320861,-0.02805608,0.0058661806,-0.26340523,0.18515404,0.023823418,-0.0659868,0.020525586,-0.028834969,0.09643623,0.08284882,-0.016549543,0.35561162,-0.26358044,-0.057524636,-0.28609905,-0.13366827,0.06667217,0.06961707,0.14186153,0.13662201,0.06423818,-0.047746826,0.03323269,0.18155172,0.11944202,-0.07932702,0.30528134,-0.26097682,-0.08331428,0.032682355,0.06706973,0.10671135,-0.27715045,-0.21918344,-0.08101617,-0.10699021,-0.07177914,-0.06459835,-0.62666065,-0.1838562,0.09972024,0.19888946,0.09121751,0.23149052,-0.328964,0.09886527,-1.4845484,0.1899377,0.16643272,-0.24059524,0.13730478,0.3020586,-0.004396479,0.17026374,-0.19757745,0.20792803,-0.024536805,0.067097686,0.068091355,-0.35388935,0.2015255,0.08554193,-0.12619029,0.38203177,-0.031006776,-0.4774091,0.64525324,-0.043139905,0.08702502,0.2442282,-0.24391133,0.18387695,-0.011569625,-0.039916568,0.084613614,0.32896546,-0.13432975,0.27324563,-0.93082374,-0.35510623,0.10468108,0.5466446,0.33130252,-0.2953279,0.1416949,-0.48202127,0.16272916,-0.6242218,0.25673217,-0.16984676,-0.2703774,-0.053557962,-0.12682384,0.13386971,-0.5755785,-0.5701,0.084006496,-0.11941377,-0.50882876,0.2492211,0.00141092,-0.42406088,0.1392132,0.12745187,0.16302104,0.21458514,0.057597857,0.13459538,0.2159794,0.16026503,-0.16526473,0.09484645,-0.19943137,-0.019658456,-0.11145501,-0.5076128,-0.05158158,-0.120749496,-0.090385176,-0.44154325,-0.02382997,-0.122491084,0.22038373,-0.07510951,0.29931498,-0.253349,-0.2457666,-0.30837828,-0.00080034137,-0.21751875,-0.17223333,-0.42391214,0.028221564,-0.16398205,-0.0586371,0.07179177,0.086924724,0.13749014,0.07159932,0.21069641,-0.1510303,0.2077646,-0.38280538,-0.008059293,-0.2272953,-0.19369039,-0.07614079,-0.60948396,-0.44919717,-0.078779295,0.047755934,-0.31090152,-0.4257403,0.12402383,0.42451254,-0.15470889,0.29574558,-0.0732658,0.14181085,-0.354178,-0.02279186,-0.2350067,0.1939989,0.13534017,-0.045722205,0.03467039,-0.39959985,-0.06452557,-0.19096884,-0.56189513,0.0307359,0.13244936,0.2685153,-0.09166692,-1.1487379,0.14471968,-0.1293064,-0.23697466,0.2185503,-0.14126062,-0.3326497,0.19027849,0.1995206,-0.48393193,-0.17019676,0.050127015,0.3301123,-0.4000993,0.032011267,-0.7920439,-0.4756722,-0.4516844,0.3442537,-0.49474257,0.52870166,-0.19053137,-0.06843865,-0.10001709,-0.06879689,-0.08605887,-0.11166324,-0.11108138,0.010960837,-0.14376608,-0.17198174,0.16682675,-0.8794295,-0.5267034,0.22091748,0.1636744,0.2982636,-1.0341171,0.25265023,-0.32018653,0.15516086,0.061876055,0.079190895,-0.61169624,-0.029048355,0.31514043,-0.30599877,-0.08478807,-1.0299366,-1.1600015,0.15034708,0.07758869,0.028995927,-0.011121295,-0.034206543,-0.5209433,0.22091427,-0.079894066,0.26826105,-0.009395005,0.009666664,-0.017558016,-0.07968021,0.12281577,0.33475295,-0.30074123,0.20905013,0.18202886,-0.20945977,-0.45531687,0.10966555,-0.40584832,-0.18831396,-0.079924844,-0.51907897,-0.42276964,-0.07622857,0.13193604,0.11728695,-0.1637878,-0.15918067,-0.21739939,0.17905122,-0.21780059,-0.672475,0.15497102,0.095334366,-0.35121012,-0.2579071,0.06632038,-0.5809956,-0.26817957,-0.09194738,-0.4261328,0.06786684,-0.2567742,-0.22469674,-0.22903323,-0.49559715,-0.178212,-0.36690724,-0.034266923,-0.46381685,-0.54285884,-0.014599208,-0.09037083,-0.004088244,-0.22272244,-0.0142497765,-0.0537748
-0.51570934,-0.09793867,-0.10302984,-0.06306994,-0.17629191,-0.0753116,0.1270904,0.4004626,-0.07760039,0.008428161,-0.0644131,0.26295105,-0.19635229,0.18863311,-0.0781659,0.10567501,0.1227028,0.089728944,-0.14218459,0.19948354,-0.43616527,0.18103419,0.05086624,-0.3220999,-0.33319584,0.15782213,0.23586164,-0.5782743,0.0034651621,0.23012763,0.23257913,-0.14320445,-0.12746249,-0.39903218,-0.11099184,0.009692935,-0.1784486,0.18626143,0.32437098,-0.22406569,-0.06579304,0.04346171,0.1709653,-0.06792133,-0.12537625,0.11414568,0.041817106,-0.11761506,-0.6501046,0.280481,-0.6256556,0.19934289,0.22987235,0.16080742,0.40163404,-0.5226752,0.18671346,-0.23004788,0.15312465,0.11247596,-0.46496117,-0.66925085,-0.32637239,0.28079405,-0.089940995,0.19925684,-0.12804255,-0.45314667,0.26609337,-0.5360597,0.11212856,-0.43858603,-0.08687296,-0.09006559,-0.49819395,-0.35492975,-0.41437718,-0.13058454,-0.016901096,-0.32679003,-0.16837731,-0.18052079,-0.21192586,-0.32941392,0.19805336,-0.19886477,-0.38617966,-0.079896055,0.19685599,-0.012556381,-0.17760743,-0.011307552,-0.28434387,-0.87785167,-0.624,0.40844283,0.45927426,0.18119748,-0.0057048704,-0.15199406,0.28002724,0.17020236,-0.3179444,0.39184377,-0.07964468,0.07347671,0.23428172,0.14195862,-0.13991074,-0.45231944,-0.083340414,-0.30043864,-0.032533817,-0.58843017,0.03455264,-0.46210825,-0.30209863,-0.11905656,-0.50143343,-0.031238252,-0.0783917,-0.12954995,0.42319465,-0.31979597,0.15544054,-0.5799939,-0.84245366,0.17675842,-0.37227052,-0.23343845,0.049030297,0.045099583,-0.5322826,0.07258195,-0.59356135,0.16825469,0.019264948,0.012514072,-0.013039636,0.23698874,0.0114838695,0.0631258,-0.049414918,-0.53300655,0.0817941,-0.81866205,0.14478378,-0.32956457,-0.65881133,-0.25031367,-0.16295925,0.17311448,0.097231805,0.14272402,-0.4072027,-0.26479152,-0.016507884,-0.21418273,-0.39309272,-0.1753514,-0.9493903,-0.31825957,0.4354973,0.19174106,-0.84410185,0.21061216,-0.22828126,0.035486657,-0.058719743,0.029833328,0.20735943,0.16343309,0.1842705,0.100388564
0.05760332,-0.4543375,-0.09030972,-0.058266975,0.23610722,-0.56922555,0.034675937,-0.2410927,0.16913149,-0.10154483,0.2801918,0.044088464,0.17734987,0.35944453,-0.6282729,-0.04168623,-0.06360201,0.21016088,0.14448112,-0.31413165,-0.1099614,-0.37053102,0.057507858,-0.634856,0.10206834,-0.3014381,-0.12029087,-0.17071432,-0.27774566,-0.103467174,-0.6315953,0.08280802,0.046686877,-0.30922985,0.1877202,-0.3739979,-0.05415376,-0.18891379,-0.21694487,0.39229286,0.12729612,-0.43933278,0.5472157,-0.08532644,0.16570795,0.00075916515,-0.12074074,-0.14171232,-0.19880056,-0.10725364,0.046622448,-0.31026748,-0.10849106,-0.26175162,0.17360333,0.0694836,0.018368142,0.07572704,0.081891336,0.23470686,0.23688981,0.12759817,0.08112225,0.22052489,-0.056172658,-0.13576305,-0.17517689,0.37579957,-0.17594086,-0.15601982,-0.40052068,0.03540473,0.060537323,-0.59430325,0.1360149,-0.1914265,-0.024938088,-0.3755855,0.09382654,-0.07838355,0.18806033,-0.09611906,0.011731217,-0.2850023,0.13850069,-0.25046462,-0.005486739,-0.2270822,0.117805295,0.25724602,-0.04261612,-0.32892781,0.19495244,0.31834063,0.22540939,0.23120506,0.11459465,-0.109701075,0.15425143,-0.04645029,0.24904159,-0.76704603,-0.17688014,0.39428714,0.16086419,-0.6453008,-0.14397745,-0.1320955,0.44374454,0.094780244,-0.009071978,-0.68050766,0.09278226,0.14517397,0.06347125,-0.13958378,-0.10757037,-0.35182396,0.056435276,-0.039155953,-0.22229488,-0.23075199,-0.026989004,-0.55504155,0.24497557,0.08377891,0.5091901,0.33652207,0.059144974,0.27598727,-0.28775093,-0.042848174,-0.063554585,0.03245722,-0.24931243,-0.5588387,-0.4393938,-0.26401144,-0.08831359,0.17877366,-0.44425315,-0.15113649,-0.20135425,-0.7099232,-0.11063772,0.15900831,-0.1243465,0.07602879,-0.10037825,-0.20096582,-0.33984944,0.005329745,-0.04818994,-0.08896518,-0.02686622,0.21051145,0.020858968,0.036523834,-0.16189757,-0.22256999,-0.114330746,0.089797765,-0.04276947,-0.15329203,-0.48599398,-0.22325277,-0.5014774,0.0074840165,0.31138033,-0.13439883,-0.05115801,-0.13411771,-0.0023755704,-0.17587614,-0.16507524,-0.08020941,0.19959475,-0.9277374,-0.27226818,-0.17491573,-0.25149056,-0.697977,0.11148215,-0.32546633,-0.0259976,0.10017766,0.046256762,0.045306273,-0.3644641,0.226527,-0.07541212,0.004641112,-0.063948855,-0.037510067,-0.13609914,0.09143198,-0.10920821,-0.4444073,-0.21515095,-0.0960422,0.052485235,-0.4772426,-0.07540678,-0.4855175,-0.16688143,-0.7692304,0.05675807,-0.03236993,-0.10896207,0.14130017,0.10714096,-0.3065503,0.17340092,-0.37593338,-0.006130795,-0.41803485,-0.46814945,-0.36396205,-0.055472735,-0.9651436,0.045881815,0.18006583,0.1569721,0.33992943,-0.024096627,-0.060661297,-0.4443038,0.012486241,0.24228552,-0.413896,0.115688376,-0.23314694,-0.38506082,-0.49516252,-0.22596493,-0.28319365,0.06596265,-0.40631172,-0.29924142,-0.08653173,-0.05316323,0.08553332,-0.2068699,-0.2370458,-0.12924375,0.2114718,-0.1978149,-0.06803875,-0.37185472,-0.04812183,-0.08141573,-0.68131167,-0.069221884,-0.06786631,0.05534112,-0.16423237,-0.08747068,0.004962309,-0.05522556,0.1353163,0.18673478,-0.28543285,-0.88405716,-0.8155275,-0.40483612,-0.019031497,-0.47998455,-0.47790667,-0.2881533,-0.5698906,-0.14561357,-0.026786063,-0.08033674,-0.1349062,-0.2525244,-0.2465535,0.11934741,0.2500344,-0.28214145,0.14343418,0.2630433,0.16487227,0.095005445,-0.06528233,-0.06192417,0.06553447,-0.31464788,-0.032552727,-0.060013443,-0.20539789,-0.3568602,-0.14711638,-0.21925119,-0.58301735,-0.5870694,0.03877806,-0.119393736,0.037313048,-0.22860001,-0.3955971,0.046820365,-0.25430003,0.13142629,-0.19934672,0.30604002,-0.7228375,-0.5352074,-1.0293144,0.18679732,0.09020637,0.025880018,0.110347174,0.21177971,0.18277523,-0.0873697,-0.024457319,0.079794616,0.06925259,-0.024202997,0.1219211,-0.08005197,-0.52834076,-0.6666829,0.20480093,0.63693416,-0.6103336,0.0072643296,-0.049396142,0.056150712,0.32381144,-0.0109163895,-0.5325644,0.1523614,-0.20890296,-0.12771034,-0.6386123,0.09966176,-0.06208021
0.14400731,-0.09134331,0.36954528,0.52907896,0.24001777,-0.15033098,-0.5494535,-0.2899809,0.08840566,-0.12230794,-0.032542758,-0.60731024,-0.28282443,-0.022772947,0.065583505,0.03589061,-0.7163821,-0.023585621,0.19231056,-0.56901604,0.20113091,-0.26528037,-0.25924706,0.024583675,-0.23902631,-0.45740166,-0.22040093,-0.20579888,-0.3828385,-0.8441832,0.10535302,0.16674054,0.007123479,-0.09718773,-0.056849603,0.037463386,-0.0054491255,-0.12516335,0.49721625,0.18342263,-0.042435974,0.17698433,-0.39799726,0.14890835,-0.5406034,-0.5711154,-0.04670314,0.050871793,0.012599905,0.13387387,-0.06990433,0.014887072,-0.66138816,0.40724063,0.1273893,0.15430705,-0.1562977,0.22027937,0.10046669,-0.0012680695,0.21337934,-0.3266406,0.15292831,-0.5157784,-0.43347725,0.32460704,0.2217782,0.1193628,0.106873706,0.5104276,-0.0048537054,0.07618559,0.064458825,0.177238,0.28137803,0.2662591,-0.06719332,0.16048661,-0.090450875,-0.2605061,-0.2710848,0.18708503,0.04251024,-0.4419356,-0.2630731,0.14367394,0.3574226,0.5302942,0.5320053,-0.062337548,0.22777814,-0.05438927,0.272719,-0.23952436,0.08838102,-0.4442858,-0.8824218,-0.21608673,-0.37704533,0.13748097,0.031016098,0.17741945,0.32074007,-0.14774224,-0.04505438,-0.17777207,-0.22959186,0.16899022,-0.053983964,0.06440714,-0.060906097,-0.1542526,-0.56620675,0.2277999,0.33216015,-0.45808467,0.23664156,-0.06946258,0.25691396,0.13692202,0.25404313,0.15115081,-0.025898054,0.15492022,-0.38346568,-0.3251897,0.044344157,0.024573838,-0.25255874,0.10056299,0.14068301,-0.024621122,0.33920485,-0.38257977,0.34356654,-0.23044935,-0.0667226,0.18850063,-0.30808187,-0.042254254,0.009401216,-0.349528,0.0954769,-0.14589222,-0.61617076,-0.11300719,0.18830377,-0.3379869,0.32053816,-0.36376077,-0.009285389,-0.2779494,-0.20069152,-0.0016116038,-0.18219578,0.42106983,-0.46437544,0.061555225,0.08136928,0.016558226,0.12810327,0.42328772,-0.008565336,-0.16295487,0.112150505,-0.27636373,-0.26217145,-0.27015296,0.0018655868,0.047067866,-0.52269983,-0.065182075,-0.1585309,-0.49576992
-0.0030355498,0.26934755,-0.2350553,0.13549359,0.10408137,0.49146548,-0.33565477,-0.041325293,-0.17428851,0.2317337,-0.026663212,0.04303528,0.08667403,0.12928934,0.03953777,-0.1770015,0.23404299,-0.26408273,-0.44212404,0.04143985,0.22809479,0.2667029,0.0025392591,0.26058277,0.113581784,-0.008422299,-0.06367008,0.08489354,0.09986906,-0.078004666,-0.11441964,-0.07560224,-0.07055932,0.0860065,-0.017254196,0.07178862,0.14350562,0.34195894,0.10952647,-0.39015025,0.2632462,0.05019923,-0.012012959,-0.06973133,-0.31926748,-0.09883861,0.062507614,0.103385486,0.1895762,-0.36752093,0.17971429,-0.1388854,0.1043023,0.18758063,0.017977357,0.04850235,0.060707398,-0.063488506,0.0064958236,0.12843274,-0.21709408,-0.08040976,-0.055169825,-0.21841042,-0.06463096,0.25006256,0.25367415,-0.17897256,0.20298365,0.275187,-0.00032029764,-0.22111222,0.07352709,-0.056836355,0.06717263,0.009950838,-0.12732346,-0.15871853,-0.28778505,0.1420663,0.2718964,-0.35048693,0.16057211,-0.07658595,-0.2655501,0.05004036,0.19635203,-0.080289,-0.04252258,-0.34616563,0.06469753,0.11020448,-0.13919279,-0.4741759,-0.461486,-0.55049914,0.047202248,-0.42398143,0.026275856,0.079730004,0.06914774,0.058137048,-0.1414985,-0.026882153,0.23049794,-0.12297377,-0.08296665,-0.41233975,-0.5594251,-0.08897852,-0.4473138,0.08088015,0.08140012,-0.004220502,0.10219747,-0.4910922,-0.476604,-0.06616598,0.06846026,-0.81196856,-0.073637165,-0.16535322,-0.104871675,-0.05299563,-0.102441296,-0.42332125,-0.4671319,-0.42899454,-0.01832106,-0.27943024,-0.14072801,-0.42773575,0.09772298,0.2114096,-0.44615942,-0.85711056,-0.3807632,0.114835806,-0.19242884,-0.008049975,0.2445708,0.14965557,-0.03889686,0.2627712,-0.38575703,-0.11292719,-0.16493422,0.027483994,0.23170912,0.22372492,-0.41600126,0.07855348,0.01670231,0.11844843,0.113925114,0.14832836,-0.07712196,-0.12121309,-0.009107619,0.087147646,0.080593675,-0.020938452,0.04288665,-0.14283285,0.18596368,0.077884644,-0.07119661,-0.083092146,0.049166534,0.19148599,-0.059614714,-0.06344188,-0.11325114,-0.24168353,0.05020658,0.14552526,-0.15316696,-0.09050946,0.0948661,0.010223154,0.21169059,0.18626547,-0.23349266,0.25084287,0.20128968,0.092875004,0.048083406,0.17967989,0.018049352,-0.10280752,-0.13750662,-0.27340987,-0.07767091,-0.42414394,0.12074593,-0.14831626,0.29605934,-0.006227306,-0.0059611914,0.008109172,-0.0027361317,0.11570786,-0.22706364,-0.23347953,0.10592271,-0.5817727,-0.1764882,0.08993886,-0.089229584,0.0011555081,0.2054686,-0.11782021,-0.1893054,0.07117625,0.13488117,0.06701591,0.23088373,0.26110995,-0.077849455,0.15694778,-0.018657133,0.107846394,-0.4453749,-0.16279337,-0.070702426,-0.34534883,0.18007639,-0.35659772,0.017853333,0.1212014,-0.051975634,-0.03927056,-0.078347355,0.007132045,-0.41798916,-0.43136397,-0.032655954,-0.1948454,-0.12769955,-0.029828003,-0.13807458,0.03828461,-0.078276135,0.3018979,-0.11261374,0.11944231,-0.07581436,-0.21376419,0.022327198,0.09588543,-0.04184715,-0.26739085,0.037921567,0.19006233,-0.27727306,0.05887727,-0.10666344,0.389855,-0.061937273,-0.075284794,0.027130269,-0.09008962,0.06714734,-0.091939054,0.007693608,0.021353776,0.026705967,-0.15954918,0.23403269,-0.10322986,0.31551805,-0.13917434,0.003356466,-0.6165498,-0.5698145,0.35713643,0.061192907,-0.23741408,0.03780982,-0.124979,-0.48683584,0.043808136,-0.055152655,-0.16534956,0.17829584,0.06541583,0.30747944,0.28701296,0.09019017,0.06557307,0.13182546,-0.25808623,-0.0027603374,0.06435521,0.03724427,0.061002895,0.25357494,0.13427633,-0.076311916,-0.11438261,-0.24109852,-0.014278691,0.34520456,0.1298395,-0.2971562,-0.12213396,-0.28867427,0.23518024,-0.2149638,-0.24069019,-0.116922125,-0.037798457,0.070811,-0.077142425,-0.10638949,-0.6248517,0.5419214,0.087126255,0.2728097,-0.044273477,-0.11318442,0.11814982,0.08714293,-0.21567854,-0.27884662,-0.16768633,0.07360782,0.15405563,-0.17018788,-0.21437876,-0.0615529,0.03299384,-0.031168634,0.23064318,0.26981682,-0.12848112,-0.40864158,0.063510165
0.04514392,0.20944904,-0.33321622,-0.28012744,-0.06888451,0.055098727,-0.258591,0.06986873,-0.005749842,-0.25747696,-0.032395773,0.00052005507,-0.03007624,0.1601259,-0.06910107,0.24506336,-0.110345975,-0.104939096,-0.20966667,-0.3901019,0.28512862,0.19669212,-0.23595302,0.16923499,0.05206507,0.3281217,0.11696716,0.19664842,-0.24101608,-0.25726905,-0.29705855,0.017386377,-0.0076079126,0.38571423,0.42965114,0.307364,-0.31984827,0.14111622,-0.0074216416,0.31132245,0.102667876,0.12663843,-0.113567166,0.24507555,0.11845634,0.43492284,-0.008377147,0.0045476235,-0.34440514,0.31716296,0.11882791,-0.28060967,0.1602254,-0.09752412,-0.21026117,-0.5279866,0.23216629,0.0649712,0.13605733,0.20317285,0.5350791,-0.90147054,0.10819875,-0.28081778,-0.24459903,-0.19845107,-0.12781979,-1.0250747,0.081514165,0.13417937,0.030149946,-0.18901417,-0.07673478,-0.110850915,0.37628558,0.023080878,0.34628487,0.059015818,-0.015619255,0.22145455,-0.37445676,0.23151591,0.084474295,-0.10001777,0.17486385,-0.04501779,-0.8175076,-0.34185725,0.09964984,0.012872544,0.016975934,0.12364575,0.18171075,-0.17942704,-0.066234834,0.0028695571,-0.026653683,0.06284035,0.0481561,-0.573946,0.03560604,0.05389626,-0.14379752,-0.17994581,0.062348913,-0.116609395,0.19803461,-0.057239927,0.35672972,0.23903915,-0.03012303,0.1659284,0.047058005,0.16483583,-0.49258155,-0.20641477,0.3251365,0.27462932,-0.33233675,0.048264045,0.09376799,0.18654288,0.045191314,0.15096839,0.2619999,-0.3897854,0.08700343,0.08151416,-0.25075734,0.154055,-0.06694133,-0.3381494,-0.08557766,-0.013444942,0.08750974,-0.16497706,0.006736907,0.17344028,-0.09483791,-0.36637786,-0.064959124,0.048843417,0.08143567,0.2515462,-0.6043041,-0.1810112,-0.45524555,-0.19515425,0.67089915,0.013644111,-0.19543968,0.5626784,0.24788585,0.25339636,0.09503755,0.44997045,-0.07816998,-0.3622761,-0.40424672,-0.09651249,0.06049299,0.19319871,0.14736812,0.49030235,-0.19062753,-0.09706032,0.23619881,0.5615987,-0.102588326,0.2948517,-0.1071346,0.043351997,0.41479006,-0.050915796
0.0275231,0.25146043,0.4605746,0.06929663,-0.12483988,0.5074272,-0.29873294,-0.2837989,0.23396207,-0.21871848,-0.30899605,0.10550584,-0.2716868,0.30161706,-0.3012105,0.38643795,0.19455867,0.013570031,-0.58478594,0.18327636,0.10793432,0.1767986,-0.4981612,0.22645968,-0.023845268,-0.26974946,-0.08695951,0.15184191,0.1423379,-0.39086336,0.033679646,0.023007788,-0.08222803,-0.09400334,0.2638587,-0.45996663,0.12710398,0.20133784,-0.21341012,-0.121589854,0.17013967,0.3199884,-0.41841447,-0.06975634,-0.36500165,0.15695901,-0.08767471,0.21682711,0.11425454,-0.051055398,-0.087329306,0.16961429,0.05374953,0.037858777,-0.3127056,-0.13587442,0.13722955,-0.5069693,0.08557605,-0.28156412,-0.06313699,-0.35652676,0.029846855,-0.25082472,0.0845529,-0.53006387,0.2002905,-0.4924721,-0.4860346,0.23131527,-0.1054659,0.40986016,0.112833306,0.04924437,-0.20550445,-0.12059061,-0.23881088,0.084280305,-0.041121382,0.28384367,-0.23133639,0.28643408,0.09414041,-0.1478334,0.035752177,0.10277849,-0.20069166,-0.08123896,0.08716787,-0.45456275,-0.021037282,-0.16162632,0.18653528,-0.44749337,-0.03797522,-0.31155312,-0.13211825,-0.37727436,0.2797359,-0.16633844,0.018984994,0.09736578,0.06973044,0.14688839,-0.007216867,-0.04473159,-0.06902524,-0.45540684,-0.33623523,-0.24096695,0.1315689,0.15113305,-0.019640582,0.19332126,0.015630234,-0.326211,-0.653279,-0.33306196,-0.408511,0.16161273,-0.4381586,0.14035569,0.049722917,-0.88676536,0.028329985,-0.1915202,-0.19623823,-0.32788032,-0.02901868,0.16405687,0.016501298,0.13197754,-0.036877733,-0.04213934,-0.476317,-0.1370902,-0.077567495,0.1689484,-0.28322208,-0.024871424,-0.3411184,0.19355689,-0.7452484,0.14336355,0.293034,-0.42100394,-0.06800657,-0.42331624,0.09406509,0.17866205,-0.18735705,0.15330404,0.21860386,-0.5002627,0.02213199,0.11240426,-0.2916557,-0.35838982,-0.21181872,-0.23288897,-0.058615822,0.026298512,0.08228963,-0.060767133,0.058476757,0.13156554,-0.07106026,-0.28800204,0.113865584,0.26121,-0.031896144,-0.023509685,-0.41036183,0.08881321,-0.14696084,0.274207,0.3652993,0.09052364,-0.42971,0.088811964,0.07691294,-0.0243001,-0.1761255,-0.0605372,0.074456714,-0.09534085,-0.0075078164,-0.08002126,0.013510126,-0.1355562,-0.08378651,0.020213986,0.0785125,-0.24281892,0.1405706,-0.34701666,-0.6218475,0.09336464,0.01765039,0.1982227,-0.039624922,-0.13630149,0.17725414,0.085284665,-0.36798295,0.31648934,0.07480403,0.07526924,-0.49076322,0.14564532,-0.13480565,0.12161455,0.39289817,-0.09873256,-0.18481855,0.25479242,-0.45335233,-0.43546727,0.10417107,-0.37786278,0.30505192,-0.48520103,0.33401632,-0.13309142,0.0795542,-0.35067055,-0.16124776,0.039123792,-0.37761587,-0.07622611,-0.1382724,0.25201342,-0.067529656,-0.1621307,0.29638302,0.044340257,-0.49330017,0.22622825,0.081580505,0.0069644223,-0.3429101,0.12543224,-0.051390536,-0.27076656,0.1402109,0.01044738,-0.4296384,0.21250863,-0.954318,-0.2501331,-0.083170086,-0.36674306,0.2864965,-0.10484096,0.10237757,-0.21759222,0.016333384,-0.29295018,-0.33503366,0.060020205,-0.15359944,-0.30374426,-0.28995195,-0.0653985,-0.23715386,0.23565134,-0.569095,0.097903386,-0.45577037,0.017109688,-0.31664628,0.035118915,0.27985114,0.17447466,0.3952361,-0.40649205,0.15187813,0.25130802,-0.28135687,-0.30714402,0.30293995,-0.35297766,0.028030643,0.060975958,-0.36182117,-0.4552696,-0.32391438,-0.17377172,-0.03870003,-0.10599729,0.07857907,-0.10879077,0.26678413,-0.09657144,-0.22667116,-0.19483764,-0.18145914,0.12160604,0.14252768,0.15176734,0.15092048,0.14114617,-0.19908664,0.051752478,-0.050704576,-0.45946214,0.008742794,-0.35215628,0.09745331,0.17912982,-0.29184687,0.1149154,-0.095943436,-0.046728972,0.027219158,0.15509617,-0.2514419,-0.16959584,-0.27281687,0.13087246,0.05507931,0.15891759,0.081427276,0.024960529,-0.8755288,0.1853133,-0.010944837,-0.052178856,0.08592996,-0.16470037,0.21727599,0.2771031,-0.3352507,0.13133459,0.021896685,0.16132036,-0.096521795,-0.3373599
-0.12418097,-0.049889065,0.24360116,-0.087467514,-0.0075336257,0.1927791,-0.0037139854,-0.04772763,-0.09980098,-0.16026558,-0.03025487,-0.5346554,0.4029682,-0.2941512,-0.010321809,-0.5208084,-0.008144867,-0.0013863029,-0.15707728,0.095886976,-0.453852,-0.07770824,0.1867135,0.13806306,0.2902924,-0.19975704,-0.4219201,-0.14769717,0.15299092,-0.083030306,-0.36034885,-0.051247403,0.05424008,-0.5718052,-0.3391138,-0.24813043,-0.03625083,-0.18854377,-0.08930271,-0.53333646,-0.048119385,-0.2259882,0.18632376,-0.14239697,-0.09991135,-0.083637,-0.04286927,-0.38095814,-0.3410159,-0.0880284,0.18572529,-0.3481484,0.21068582,-0.45230216,-0.27745166,0.204597,-0.27566785,-0.23082869,0.0922131,-0.21512501,0.023740241,0.31686574,-0.13783388,0.023448229,0.26622126,-0.17138408,-0.067239396,0.34631807,-0.16473553,-0.2012497,0.03913174,0.28150666,0.10682645,-0.24337731,-0.45293295,-0.48926628,0.029694663,-0.06253198,0.07828441,-0.14135595,0.063297845,-0.4680174,-0.081337355,-0.0017589054,-0.1201072,-0.5705534,0.052308172,0.061488077,-0.15798429,-0.079472944,-0.35518548,0.015842313,-0.015131261,0.19949332,-0.37039715,-0.12729466,0.075887986,-0.068673395,0.3113466,0.08390171,-0.27621785,-0.2656546,-0.34419784,0.25954995,0.036138516,-0.054722458,0.029734291,0.017549504,0.128847,0.14561999,0.00460078,-0.21569552,0.1788949,-0.3176154,-0.24631788,0.14630742,-0.37289718,-0.1675977,0.06651163,0.024001058,-0.019253705,-0.011072919,-0.3014462,-0.24392422,0.02273598,0.2135029,-0.2808779,-0.33897924,0.30268335,-0.40509745,0.13415226,0.20778531,-0.26214883,0.10362098,-0.44907656,0.16991314,-0.008489557,-0.15836866,0.12521712,0.03444576,0.11897818,-0.04640004,0.017121825,-0.42780477,0.11693441,0.110852264,0.109206505,0.17602453,-0.51619476,0.14800663,0.15572973,-0.50100124,0.0057755783,-0.4216621,-0.18742996,-0.75485593,0.293662,0.31355196,0.0509095,-0.1055986,0.2337228,-0.53100836,-0.29087114,-0.4231024,-0.14120473,0.06257932,-0.704843,-0.37484577,-0.028972192,-0.5173517,0.16211674,-0.2839186,-0.04971468,0.09628225
0.036975715,-0.4763295,0.18638945,0.076191306,-1.39731,0.25047415,0.20397109,0.19485033,0.22992302,-0.2077061,0.2633766,-0.46220747,-0.008671621,-0.059240848,-0.058806475,0.016927449,-0.2473473,0.26349068,0.3460636,-0.25248972,-0.37450814,-0.23038104,-0.02392875,-0.22810428,0.0011941997,0.18914808,-0.09261025,-0.5160102,-0.014234568,0.1211259,-0.0022149717,0.10711565,0.10299331,-0.17882602,0.05984552,0.29060626,-0.685989,-0.3269807,0.11323826,0.19844887,-0.1457481,-0.1340849,-0.75381917,-0.7830947,0.2742436,-9.1387155e-05,-0.22458744,-0.34732923,-0.10643646,0.33224437,0.08629073,-0.37278056,-0.21783862,-0.121370345,0.08997823,0.13351816,-0.2252873,0.09353353,0.019749371,-0.349621,-0.19336502,0.071596414,-0.28299576,-0.061103314,0.020843131,-0.031631425,-0.33201787,-0.26712954,-0.14261754,-0.43097553,0.023292648,0.148972,-0.006798188,-0.2675138,-0.4197616,-0.7142168,0.26487708,-0.29727635,-0.2043363,-0.5674646,-0.015560543,0.29247737,0.14340387,-0.3896802,-0.34841052,0.025195396,0.06586187,-0.17762658,-0.073457696,0.15721378,-0.06255643,-0.4597759,-0.2100223,0.33302546,-0.09725772,0.095373444,-0.05007974,0.21437992,-0.22545691,-0.12405075,-0.391493,-0.5707782,-0.028108478,0.06631779,-0.14626409,0.07885865,-0.08648926,0.059591807,0.35688925,-0.3808091,0.32386318,-0.4104165,0.061597385,0.012063709,-0.08031134,-0.06521332,0.14993434,-0.19637877,0.24792056,0.11046724,-0.13817759,0.2525951,-0.042416375,-0.9613534,0.113412425,0.3755815,0.15764523,0.28135622,-0.011274425,-0.17938757,0.33090815,-0.20920548,-0.4791428,-0.41080618,0.2992219,0.25838253,0.08647616,-0.26712182,0.12552887,0.066058725,0.12634102,0.11885336,0.14080705,-0.13265094,0.066797875,0.32577655,0.12236111,0.12993152,-0.4667219,-0.6811844,0.08880541,0.021559753,-0.37571734,0.12289726,0.108057015,0.0260859,-0.09128846,0.13591485,0.121726766,0.13446653,0.094748236,-0.14600053,-0.21886104,-0.054074135,-0.22798084,0.08102155,0.29837677,0.12078271,-0.4666437,-0.16495368,-0.3519615,-0.008895263,0.098185875,0.31056845,0.010078058,-0.6354351,-0.23583366,0.5318509,0.19523892,0.08997156,-0.11279412,0.01922891,0.089550935,-0.007252127,-0.287674,-0.4163457,0.061757024,-0.15553443,-0.12874046,-0.09381601,-0.10292697,-0.041394234,0.06529857,-0.10642995,-0.23015136,-0.23036863,-0.24944092,-0.15106104,0.24924855,-0.07541497,0.030291168,0.16243495,-0.59593505,-0.347974,0.21366401,0.14352508,-0.07078418,-0.0948289,0.30664557,0.12006477,-0.16733737,-0.11952891,-0.3632537,0.31549454,-0.24187985,-0.08801389,0.16728798,0.13802233,0.032591134,-0.27713466,0.050829757,0.26795927,0.096920274,-0.032998953,-0.06549867,0.20776354,-0.27202553,-0.026772648,-0.34200338,-0.26376513,0.26492846,0.32717988,0.021752698,-0.13079755,-0.10604168,-0.52141356,0.204554,0.20433365,0.29957578,-0.3584021,0.11493654,-0.022671895,-0.09005826,0.27418008,-0.27571023,-0.52484953,0.5084365,0.118235335,-0.3724947,0.064853445,0.07529874,-0.77043885,-0.0017416457,0.14960021,0.2286122,0.44862258,-0.04105726,0.20059456,0.07776905,-0.1679072,0.08404068,0.61421233,0.15331592,0.27705362,-0.2545094,-0.34052664,0.26524004,0.38975897,0.10883219,0.16136636,0.05551708,0.06968098,-0.5119949,0.21784706,-0.9007478,0.25500378,-0.03930193,-0.6203567,0.043851312,0.12452269,-0.014032518,-0.06408634,-0.03750803,0.15965672,0.14930613,-0.047230624,-0.010175883,-0.19418958,0.060107864,0.21049331,0.06999321,0.25128686,-0.02836127,0.53336453,0.11926127,-0.28514388,0.0028243754,-0.37147015,-0.049661152,0.26044747,-0.10994125,0.039480444,-0.3236306,0.2805506,0.23484042,0.3604051,-0.28085676,0.18318377,-0.01631929,-0.44651204,-0.2624175,-0.20659034,0.100824274,-0.27371812,0.0057129203,0.26472464,-0.3742706,-0.5269126,-0.4530684,-0.5456619,0.012118924,0.1657796,-0.16417418,-0.1606191,0.16726202,-0.11162329,-0.14968398,-0.07891304,-0.10570591,-0.053889725,-0.15504026,0.07188202,0.11101786,0.106779814,-0.40466535,-0.034019433,-0.14848493,0.16495703
-0.39493066,0.18765275,-0.39134005,0.15364832,0.036656726,-0.27978638,0.26616928,0.07442748,-0.016953249,-0.3517504,-0.1192328,0.3734702,0.25107944,0.32395947,-0.0637744,0.4286839,-0.36628184,-0.20184165,-0.20039095,-0.5272137,0.26930723,0.0076886984,-0.092733905,-0.3969936,-0.28447348,0.022801677,0.3131269,0.25912508,0.106128484,-0.3541072,0.14072064,-0.053940043,-0.2437784,0.40199476,-0.24036843,-0.2641083,0.6232708,-0.0701284,-0.3977033,-0.23703378,0.008721054,-0.31615826,-0.07290541,-0.27572948,0.31789032,-0.27847338,0.056437735,0.21906401,0.46017736,-0.3764917,-0.13792002,0.4547982,-0.3836639,-1.0021037,-0.19446778,-0.05837691,0.09832672,0.091980636,-0.5195404,-0.23611581,-0.61866194,0.4960311,-0.21825357,-0.13614334,-0.47486234,0.19298342,0.006715386,-0.4691575,-0.28283003,-0.09932597,-0.053298704,0.06934752,-0.08307592,-0.0032438596,-0.24413401,0.06686255,-0.3782455,-0.24682604,0.045543067,0.44180667,0.2331726,0.27250955,-0.2435886,0.29146385,-0.49584126,0.024663687,0.17724963,-0.44451648,-0.36115962,0.12687369,0.0073201633,-0.12637605,-0.32554954,0.31675115,0.21537265,-0.23132679,-0.3267942,0.16793904,-0.12938416,-0.69706464,-0.06275599,-0.07242549,0.34601754,-0.6125999,0.055552,0.053798478,-0.5655816,-0.07600666,-0.15992016,0.1710162,-0.09633163,0.36967215,-0.42619962,0.4841715,0.033477396,-0.058878787,-0.1854352,0.04019812,0.08895154,-0.6765132,0.085684754,0.06292062,0.21174577,0.18589681,0.016454658,0.3623465,0.37120464,-0.34722042,-0.23280962,0.1623821,-0.3682911,-0.8725863,0.27492008,-0.387843,0.34838334,-0.63242364,0.084482335,-0.30491105,-0.742421,-0.57614684,0.010922292,-0.05563981,0.016818848,0.23320279,-0.61263025,0.48209667,0.024958383,-0.56466323,0.194678,0.100753866,-0.084630035,-0.49282303,0.03505756,0.11010314,0.6504943,0.22509596,-0.5739718,-0.50531805,0.11027332,0.012943113,-0.4364538,0.220625,-0.40064844,-0.71118414,0.7130115,-0.3894991,-0.15706763,-0.18105167,-0.087280266,-0.09166078,-0.49268413,-0.19822997,-0.08214141,-0.15660864
-0.064848594,-0.27028942,-0.6186888,0.00573989,-0.069623895,-0.67783386,0.30653143,0.14899911,-0.56517386,-0.14578879,-0.14338733,-0.25225344,0.04081737,-0.2273674,0.26305756,-0.38443255,-0.21341127,-0.30833775,0.050324045,0.14802413,-0.2360824,-0.57574457,0.20756863,-0.11734154,-0.067683674,0.0917944,-0.09483017,-0.5144711,-0.28899726,-0.00015289342,0.21640478,0.047407087,0.008909401,0.12157468,-0.37523547,0.28887948,-0.2676006,-0.27978763,0.15307221,-0.15327662,-0.26998925,-0.11230968,0.4973054,0.28891498,0.19540605,0.14739841,0.08013082,-0.14745447,-0.461178,-0.09399909,-0.16531163,0.15658428,-0.10477085,-0.31342694,0.056874525,-0.005928745,-0.4845907,0.15866177,0.032191124,-0.50768965,0.019820906,-0.03532678,-0.040139567,0.11070475,-0.10092068,0.18647106,-0.5202733,0.3586688,0.35898,-0.4521697,0.029562974,-0.27246353,-0.58734643,-0.04478703,0.23944366,0.28927782,-0.27643326,0.3291262,0.0964896,-0.44246438,-0.5893621,-0.47693235,-0.605894,0.22307123,0.23593634,-0.046952892,-0.5134682,0.24664402,-0.5219441,0.14592505,-0.0895282,-0.11589207,0.02729577,-0.123004995,0.08650933,0.04236385,-0.031238507,0.27314922,-0.4859656,-0.104617216,0.007953888,-0.38906375,-0.12146883,-0.3751179,-0.7875719,0.16253196,0.20808277,0.52916425,0.205173,0.14771552,-0.08002324,-0.55369794,-0.7760484,-0.34200218,-0.6061851,0.39669394,0.5467718,0.24182028,-0.76724875,0.4053318,-0.33744085,-0.1327569,0.08061734,0.6515965,0.001074576,-0.16132689,0.10989983,-0.11288382,0.056971367,-0.41313058,-0.12853903,-0.14123845,-0.13923812,0.0454033,0.3434084,0.05741599,0.02039923,-0.07350369,-0.050081078,-0.047275983,0.015120815,-0.09302224,0.023891242,0.106856205,0.04264023,0.065651886,0.06735411,-0.010284704,0.08506996,0.21422836,0.18906906,-0.48627225,0.047220472,-0.21320993,0.06713826,-0.15065256,-0.08900893,0.11157816,0.016106652,0.021994902,0.09389316,-0.1897504,-0.35104686,0.06377162,-0.08767188,0.0065456997,0.17759575,0.32552642,-0.24078241,-0.15016603,-0.04008272,0.0347768,0.28893432,0.21290123,0.11462017,-0.49937972,-0.47050723,-0.031589113,-0.3147635,0.17253657,0.029744372,-0.31665912,0.065650806,0.12697865,-0.03309691,0.14930584,-0.01862942,-0.01115148,0.2488058,0.105345115,0.18120484,0.13095677,-0.09251927,0.2197131,-0.83980024,0.21738982,0.2671493,0.25814745,-0.11260001,-0.2792032,-0.14447573,0.23981814,0.21597941,0.2664965,-0.020229984,0.2461025,0.18180189,0.07450459,0.0640338,-0.22001208,-0.061282847,0.17309433,0.065622844,-0.29711923,0.13179629,0.0318611,-0.14846176,-0.12060323,0.020930335,0.22981797,-0.4803725,-0.40024692,-0.028443666,0.016355926,0.08989595,0.28101096,-0.4695838,0.1261436,0.010789928,-0.0054298826,-0.13944088,-0.56559265,-0.029770017,0.22126853,0.21637177,0.35672894,-0.6779479,0.17541361,0.28264472,0.047385477,-0.027323358,-0.48525503,-0.11821875,0.10967691,0.48393825,0.050821077,-0.36095777,0.19168854,-0.32524496,0.0070035267,-0.017564695,0.44065273,-0.4722533,-0.6039894,-0.05501048,-0.4329396,0.028248783,-0.04479329,0.27212673,-0.27821946,-0.21841535,0.009737474,0.14562225,-0.21502912,0.010097624,0.20616698,0.09875109,0.060881738,0.0015682834,0.16627342,-0.14875844,0.039464068,0.032267123,0.058756225,0.37649587,-0.027635265,0.021998748,0.24103037,-0.0382713,-0.08634062,-0.11561822,-0.2058926,-0.09035781,0.12637714,-0.26477715,-0.20150357,-0.27650407,-0.12003251,0.06065238,0.0056857076,-0.08953324,-0.10229759,-0.5145149,0.057560515,0.053227454,-0.010185344,0.057358492,0.00537944,0.021369237,0.0612195,-0.06275155,-0.079973,-0.10822366,-0.08285175,-0.21550305,0.09330137,0.48693195,0.18372425,0.16334927,0.07022309,-0.054269895,0.15905271,-0.12509191,-0.010164438,-0.048746698,0.11881722,-0.12925747,0.05832262,0.13473661,-0.10750761,-0.09392737,0.017911257,-0.05631951,0.070075475,-0.081713185,0.098410085,-0.30828992,0.021938197,-0.018191477,0.048034787,0.08528481,-0.029880485,0.020302344,-0.19433291,-0.05336999,0.20380753,0.08809383,0.09061041
0.26745212,-0.3035474,0.10173473,-0.12795585,0.05668059,-0.18872288,-0.0015702234,-0.23588873,-0.044564046,0.11390739,-0.028182847,-0.081968285,-0.68570095,-0.33867827,0.12075099,-0.3114299,0.023621596,0.13985871,-0.15194409,0.22092266,-0.36464036,0.13211049,0.16293691,0.27269945,0.06304665,-0.27467576,-0.16168965,-0.23837923,0.11571214,0.13979551,0.16859761,-0.002489678,0.20187892,-0.43781275,-0.057821725,-0.27057293,-0.0041613374,-0.4436693,-0.062495843,-0.20447862,0.017492391,0.0593882,-0.11588878,-0.50185275,-0.422216,-0.49899638,-0.046376653,0.04035952,0.32992727,-0.3864704,-0.21236737,-0.14187387,-0.028185613,-0.07263914,0.087119445,0.34436008,-0.23797509,-0.13861164,-0.15115966,0.019717967,-0.6924655,0.29474476,-0.015777828,-0.05489365,0.12631598,-0.12125125,0.15631694,0.26081902,-0.3471753,0.04780967,-0.18868525,-0.28857332,-0.055252735,0.08285436,-0.1525686,-0.30565184,-0.11555962,-0.12975058,-0.06916944,-0.19066001,0.3002742,-0.112684324,0.2584403,0.12525573,0.0063183433,-0.19561678,0.2822542,0.09338526,-0.23164071,0.14267705,0.00505689,-0.09269348,-0.3669035,0.14245485,-0.22529602,0.10894948,0.14124733,-0.13110974,-0.106852606,0.24970232,-0.20073603,0.017918274,0.1379274,-0.11894883,-0.037421305,-0.17939927,0.20403448,-0.1608885,-0.10937983,-0.6259048,0.04538787,-0.077811114,0.15965469,-0.25857425,0.116216145,0.16297244,-0.503193,0.040425137,0.17342284,-0.21013425,-0.2196501,-0.23958147,-0.13981421,-0.25628564,-0.21866886,0.20810613,-0.08345974,0.03615023,0.3702824,-0.18836209,-0.10422448,-0.062808014,-0.3796115,0.1643457,0.09703859,0.15055752,0.0555465,-0.04597736,0.018708047,0.19444343,-0.16999029,0.08641826,0.06465561,-0.11524126,0.12215574,-0.12326644,0.0071509415,0.02785501,-0.6740851,0.08377848,0.17197649,-0.2035649,-0.6178125,-0.51422656,-0.29052842,-0.53300214,0.0050245696,0.09553138,0.27976432,0.09129721,0.15874796,-0.6780405,-0.4328681,0.14036404,-0.099744484,-0.050964646,0.30522805,-0.090828136,0.064728,-0.3816393,0.11966581,-0.03762035,-0.21951263,-0.31583995
