0.2408491,-0.025440848,-0.0099751,0.06941389,0.31073815,-0.025801385,-0.0039502606,-0.27168554,-0.26604936,-0.18459795,0.26950094,0.005399634,-0.26346508,-0.0428747,0.25547895,-0.91228706,0.18930289,0.063026406,-0.37887722,-0.4885078,-0.057094473,-0.08516135,0.07547035,0.22052453,-0.37972498,-0.37667876,-0.06441845,-0.15710747,-0.29098812,-0.54700184,0.21735439,0.1896857,-0.018450642,0.008604207,-0.4510623,0.05171592,0.23808892,0.014785739,-0.7289035,-0.05188667,-0.021827884,-0.119243756,-0.15298757,-0.25529632,-0.0932637,-0.26138994,-0.11499147,-0.14353237,-0.3750161,0.059959725,-0.2253223,-0.3668562,0.010765271,0.3184112,-0.03140744,0.095046595,-0.46405905,0.049629442,-0.07468223,0.117264375,-0.19296867,0.0025533035,0.0058903513,-0.10794739,0.07968539,0.19745198,-0.29762623,-0.19059151,-0.23243429,-0.0064101727,-0.4777033,0.09018705,-0.16755149,0.10472994,-0.19564073,-0.1734603,0.21083108,0.18983752,-0.22100173,-0.15470706,-0.48698866,0.036317285,-0.1287219,-0.3871653,-0.09396567,0.18662085,-0.07590947,-0.069814585,0.13202606,0.21626815,-0.071709245,0.20358258,0.17818074,0.26932368,-0.14845125,0.019095706,-0.31430554,-0.08731456,-0.298898,-0.054902706,-0.09340952,-0.5417695,0.10282895,0.33198085,-0.052945007,0.11246168,-0.12005887,-0.23145777,-0.1679611,0.3757999,-0.5626617,-0.2711462,-0.23935999,-0.24764547,-0.049038302,-0.14848676,-0.0977085,-0.005719349,0.19483389,-0.5655027,-0.07606901,0.14298137,0.25283518,0.20132591,-0.13958451,-0.16878995,-0.0012653045,0.3111766,0.24799609,0.27418283,0.20461547,0.37781903,0.20477805,-0.3099436,0.28344965,-0.48393637,-0.4138796,-1.0969665,-0.5514538,0.0665009,-0.61506534,-0.42342094,0.15992883,-0.010898502,0.14532539,0.241005,-0.05103318,0.40568736,-0.09746234,0.10495473,-0.61862415,-0.114100315,-0.7583946,0.4055622,-0.16934034,-0.48855606,-0.117369816,-0.3932231,0.23231192,-0.30099714,0.189188,-0.0387514,-0.06953301,0.3125798,-0.5693947,0.12998953,-0.040121708,-0.58129066,-0.30560833,0.010777751,-0.25515118,-0.71292365,-0.05413729,-0.08177695,-0.07815653,0.4061284,-0.10895487,0.17735131,0.14768001,-0.4432704,0.07298175,0.23485522,0.1793626,-0.019262819,0.39098936,0.052335516,-0.008036518,-0.10288552,0.21298578,0.31604052,-0.029935647,-0.5021156,-0.22403124,0.0670942,-0.4051883,-0.23887579,-0.39592388,-0.037590396,-0.124097295,-0.5827921,0.13101998,0.30107695,0.059301026,0.27515504,-0.06334421,0.46157765,-0.14655142,0.3285464,-0.14681584,-0.17926598,-0.61467034,-0.21120447,-0.033415727,0.06500852,0.37978807,-0.15860824,0.39190018,0.24340999,0.016775804,0.30454478,0.23001556,0.41834584,-0.44749013,-0.8346898,-0.088409096,-0.14911097,-0.8846317,-0.43610695,-0.18204752,-0.799572,0.14152047,-0.353479,0.06017399,-0.13720338,-0.28775737,0.21048632,-0.5439214,-0.009947444,-0.02612857,0.112135515,0.22688146,-0.04184524,-0.4473478,-0.014774283,-0.34989518,-0.21189798,0.030194186,0.052718338,0.2584441,0.100148596,0.103988715,0.5783364,-0.0018316008,-0.015190299,-0.3371424,-0.70944816,0.24650033,0.14018358,0.087665096,0.37680897,-0.24705926,-0.32319757,-0.27194977,-1.0877458,-1.0475258,0.13213286,-0.6154654,0.010903494,-0.47895652,-0.9594834,0.44311962,-0.5092274,-0.047530644,0.22404955,0.3359301,0.2797516,-0.51016945,-0.016001794,-0.39858258,-0.32577708,0.148358,0.19515121,-1.2543297,-0.54371196,-0.0861718,-0.13571137,0.17875278,-0.7747425,-0.07034497,-0.19942187,-0.015838198,0.04078129,0.044056743,-0.22905433,-0.33299088,-0.17394191,-0.26723716,-0.18803659,-0.7709,-0.53806496,-0.0004204194,-0.7674196,-0.011454545,0.4577937,-0.66594505,-0.32384902,0.20143403,0.15173127,-0.38483888,-0.3021171,-0.22679678,0.0874749,0.2401575,-0.06768286,-0.425501,-0.0029454187,0.705219,-0.18502325,0.13352153,-0.052550934,0.018893007,-0.73887986,-0.42301917,-0.35795474,0.2966892,0.2665814,0.12975773,0.031027103,-0.053141583,0.014135941,-0.25906903,0.04828054,0.065367416,0.019976744,0.13918433,-0.109244645,-0.07904387,0.25956577
-0.34916052,-0.11956928,-0.20554976,-0.22867697,0.17074996,0.443356,0.30016536,-0.1350663,-0.057145644,-0.1304517,0.12219413,-0.036602426,-0.59951115,0.020808894,-0.14800942,-0.48011482,0.23436092,-0.6674648,-0.71340984,0.047446575,-0.5878895,-0.30074283,0.20366909,-0.28637615,-0.43372732,0.14840215,-0.86022186,0.2906553,0.24711701,0.096221045,-0.0042521134,0.5166445,-0.6689156,-0.12947716,-0.40451643,-0.11675892,0.28390822,-0.13392772,0.037518296,-0.057105783,0.23457181,0.03422438,-0.034009125,-0.3561261,0.012719192,-0.8199908,0.12227951,0.15372421,0.20156035,0.26830456,0.20883353,-0.109859645,-0.07832596,-0.5396719,-0.6579879,0.09668332,-0.16320656,0.20506948,0.003773706,-0.057354942,0.26303032,-0.07500771,-0.37839308,-0.30436504,0.29475167,0.46408787,-0.10389477,0.1756441,0.20972396,-0.06970365,0.34885976,0.21742797,-0.71205205,0.030013874,-0.19671623,0.16749877,0.32054785,-0.12880407,-0.30973476,-0.13208838,0.13450813,-0.35907307,0.24550115,-0.010216718,0.10085699,0.14269574,-0.28744015,0.042691644,0.041243233,-0.44617257,-0.08486115,-0.22353323,-0.4561202,-0.6432099,-0.7532753,0.08746599,0.21555455,0.066964455,-0.13028829,0.020969896,-0.22600783,0.1392486,-0.64412117,-0.22265416,-0.84330684,-0.21004577,-0.5228744,0.09340886,0.23625004,0.099546276,-0.16602527,0.1187755,-0.06743326,-0.52290046,-0.2908608,0.0514219,0.16806851,0.1578519,-0.25350165,0.10341316,-0.3399557,-0.59482145,0.12791975,-0.0011410848,0.216977,0.12531267,-0.2833946,0.36493987,-0.31007263,-0.071067214,-0.035061464,-0.17559195,-0.06866084,0.24921586,-1.1362438,-0.3976263,-0.67795694,-0.6410724,-0.64125705,-0.22010507,-0.5691963,-0.09047203,-0.76657456,0.05895776,0.2790512,-0.24712841,-0.35177255,0.042409692,-0.010186022,0.09357087,0.28406134,0.13284707,-0.08215325,-0.06956505,0.3461658,-0.41094577,0.046838887,0.14700463,0.061910212,0.06911019,-0.36587504,-0.34858504,0.10646196,-0.38475186,0.059358638,0.2765215,-0.48830223,-0.2358704,-0.099336386,-0.69671255,0.059864562,-0.03892213,-0.39150074,-0.4511494
-0.38570476,-0.52856386,0.18763012,-0.5976076,-0.015051571,-0.060965125,0.034869645,-0.29647827,-0.062609054,0.15652709,0.07347482,-0.01147603,-0.06840387,-0.03850929,0.00914577,-0.49380943,-0.3170479,-0.697399,0.19919232,0.15956883,-0.25945595,-0.35883301,-0.25246423,0.24694729,0.20132297,0.09343577,-0.061583817,-0.015247023,-0.1225341,0.15788475,-0.41623563,-0.54714143,0.0051098233,-0.01876408,0.68810594,0.15557529,0.17928141,0.03689999,0.46679658,-0.31835452,-0.1343294,-0.00637717,-0.02839434,0.098920226,0.38803455,0.25987637,0.27536875,-0.2991538,-0.16047463,-0.18123841,0.09504378,0.32000077,-0.014234661,-0.07464173,-0.088710696,0.29717433,-0.10510746,-0.5907139,-0.34261015,-0.29304567,-0.24777539,-0.23051234,-0.14900647,-0.33950886,0.27592802,0.17918476,0.23234399,-0.025139058,0.30943155,-0.0035815313,0.01032418,-0.8129411,-0.21160577,0.06271852,0.4725179,0.21155399,0.009483244,-0.16473189,0.24408163,0.507156,-0.15531728,0.12668248,0.29677334,0.22639656,-0.05719714,0.23325609,0.37521484,0.1015828,0.28951555,-0.291662,-0.20160984,-0.22500569,0.46731544,-0.026424238,0.008716561,-0.20424992,0.37947142,0.3192628,0.18355125,-0.09808832,-0.27921316,-0.03903976,0.036203574,-0.20687062,0.04631695,-0.3678113,0.075827524,0.2863384,-0.28543434,0.09565121,0.16365325,0.16663665,-0.3337019,0.32550085,0.13706572,-0.045736022,-0.20493077,0.3271002,-0.49257278,-0.27745953,0.14640765,-0.4241898,-0.5412605,-0.5354381,0.10484835,-0.035243947,0.103984214,-0.43115512,-0.35885486,-0.14673813,-0.10155615,-0.6303467,0.1234201,-0.18349284,-0.034101777,-0.3535203,0.055579223,0.18882024,-0.23942855,-0.28301567,0.017951673,0.072605155,-0.124912344,0.057594344,-0.25066835,0.07224453,-0.08883059,-0.33268094,-0.046678808,-0.6882855,0.20146313,-0.050081845,0.08448383,-0.021265173,-0.47523615,-0.38468063,-0.0011128072,-0.020784285,-1.0931765,-0.40704995,-0.14349917,-0.29932952,0.37449148,-0.21753168,0.35909125,0.026335677,-0.036903776,-0.3220489,-0.27884796,-0.40445045,0.2675429,0.35176077,0.0942199,-0.46302894,0.06880567,-0.2902658,-0.018861283,0.031524025,-0.68789625,0.04921724,0.058461655,-0.10140748,-0.3618336,-0.010071835,0.059715167,0.23810689,-0.14349292,0.074245065,-0.05316745,0.38364196,-0.18694071,-0.68530375,0.21548598,-0.16253161,-0.05243956,0.28101036,-0.18135852,-0.053167596,-0.039555088,-0.91277176,-0.4056803,-0.43236756,-0.09895736,0.08764654,-0.28359747,-0.065249935,0.071785256,0.2651245,-0.24896625,0.08883771,0.01946702,-0.28658777,-0.43270564,0.010798456,0.23724829,-0.43896043,-0.16615865,-0.55223346,-0.6794882,-0.01694486,0.08243165,-0.16311316,0.013572492,-0.010134565,0.080922134,-0.14888903,0.10312829,0.045825496,-0.48312545,0.32005718,-0.10839004,-0.53073937,0.12491554,-0.36803344,0.08449294,0.25151905,-0.40956974,0.3001148,0.08419173,0.046227854,-0.7172556,0.08174221,-0.067012236,0.15233886,-0.5489324,-0.04800376,0.08113908,-0.16530447,0.05933983,-0.33986214,-0.62760866,-0.47811,0.1373001,-0.4235085,-0.038613137,0.23204735,-0.11394818,-0.5149107,-0.08366791,-0.7343779,0.22179349,-0.044171177,-0.2371989,0.096764825,0.16035064,-0.36009443,0.28302708,-0.036962286,0.42302302,-0.22814356,0.034564834,0.34912592,-0.31931826,0.14670344,0.064896986,-0.79354423,-0.12146641,-0.3741634,-0.04081314,-0.022421334,0.30737174,-0.72772855,0.010063089,0.078904785,-0.08845637,-0.35712826,-0.89261377,0.023037728,0.10715487,-0.27445647,0.36367995,-0.17307658,-0.29734364,-0.18853426,-0.46846163,0.11489644,0.2515521,-0.36427715,0.190892,0.2015858,0.046137758,-0.27407646,0.27907127,0.44136724,0.06838441,0.030661367,-0.46300253,0.23797834,0.04410561,0.015989974,0.5360433,-0.06082262,0.10118317,0.232405,-0.40271932,-0.053532306,0.12260812,-0.28597912,-0.19134727,-0.020223845,0.24901667,-0.39329636,0.23567685,0.06456485,-0.24845862,0.18610655,-0.39080757,0.19417827,0.41207725,-0.72955656,-0.8350914,0.10713592,0.014894091,-0.73551,-0.009623538,0.8017015,-0.5266511,-0.25785798
0.14662974,0.30438682,-0.17169349,-0.12882046,0.24603827,-0.65074396,0.045490135,-0.24124648,-0.34323418,-0.5923844,0.14617987,-0.58467007,0.19589257,-0.093526274,0.05484574,-0.7307211,-0.15749997,-0.26830617,-0.095986575,0.082192235,-0.041307595,0.025774052,0.049746186,0.30427876,-0.09892674,0.049973898,-0.013961108,0.73815155,-0.58336806,0.15047127,-0.92282027,-0.36655056,-0.11035286,0.12655103,-0.5299211,-0.43053254,0.054441016,0.16451398,0.08113154,-0.48074847,-0.5313656,-0.08734753,0.055876456,0.45756128,0.16095816,0.1467767,0.20202638,-0.3012928,0.08987408,-0.21709919,0.29882157,-0.06396463,0.4033195,0.086242504,-0.11552826,-0.08297927,0.24602859,0.21989284,-0.07272869,-0.15355678,0.1784517,0.018972969,-0.14946178,0.19261412,-0.25907248,0.09083647,0.23384774,-0.037947074,0.08818494,0.12347922,0.1274252,0.2665746,-0.49818572,-0.35394517,0.14980538,-0.16273256,-0.8308639,0.39991236,0.15753515,0.16084737,0.30653688,0.14174472,0.08681821,-0.19999887,-0.15381497,0.11773144,0.18398415,0.07921888,0.0141268885,0.18167105,-0.063634604,-0.25696817,0.1975619,0.40835387,-0.03812611,0.0335136,-0.08892691,0.14921235,-0.0759189,0.043025654,0.4713094,-0.14751536,0.14053491,0.37933412,-0.5293964,-0.3864706,0.1811468,-0.53223294,0.16291559,0.19112338,-0.17774379,0.1929569,-0.27192393,0.061939403,0.11663927,0.14778623,-0.18198234,0.25088915,0.419562,0.3038426,-0.23261386,0.6430194,0.16332613,0.1011107,-0.21290204,0.16670978,-0.61292243,-0.8694626,-0.065218605,0.31498986,-0.06359211,0.578195,0.069960065,-0.5057366,0.14553417,-0.119997896,-0.30838048,-0.5734582,0.44696653,0.029891837,0.19314022,-0.7422523,0.15837193,-0.15674768,-0.44750756,-0.6954521,0.10796142,-0.33152473,-0.1456165,0.1282181,-0.28024006,0.14856479,0.10611644,-0.0019605288,-0.20958403,0.41373762,-0.617298,-0.18141213,-0.3746827,-0.05816798,-0.12959497,-0.27968135,-0.091305785,0.22019176,0.028358607,-0.115744375,0.004984303,-0.25983974,-0.20804654,0.018024813,0.007266818,0.28209403,0.33624616,0.108670585
-0.036915783,-0.16385902,-0.006008681,-0.15866981,0.023408012,-0.058221728,-0.12102464,0.3735645,0.16852334,-0.1203724,-0.2522476,-0.09914671,0.24729164,0.19875528,0.2015479,0.69956315,-0.17526673,-0.045433026,0.012527597,-0.2382431,0.21071771,-0.2973183,-0.03420034,-0.14978847,-0.06471481,0.14382115,-0.124999486,0.4713247,0.32669985,0.056306675,-0.4850167,0.15732521,-0.09118632,0.07382082,-0.66918564,-0.023688637,-0.41132525,0.25251248,-0.14805682,0.09531353,0.114744425,-0.1755594,-0.10938019,-0.091597974,0.13867557,0.033357643,-0.14163204,0.35582334,0.0050965566,-0.104770154,-0.09451161,-0.33155277,0.0009727091,-0.03358958,0.2883744,-0.54812056,0.2861507,0.31446645,0.13360131,0.30832428,0.18880159,0.39387968,-0.11567746,0.36885548,-0.39611956,-0.20753047,-0.19710897,0.03747932,-0.3168678,-0.045127913,-0.08267706,-0.16723019,-0.012805427,0.035754476,-0.3019656,-0.20064965,0.14126511,-0.20198584,0.14874564,-0.24603908,0.15324263,-0.38301617,-0.3676739,-0.31676322,-0.3428428,-0.25394246,0.09110656,-0.6578315,0.34487212,0.025239686,0.21892118,0.16709161,0.14655489,-0.112962216,-0.26409924,-0.13366008,-0.27855492,-0.76849926,-0.7110381,-0.13019063,0.09302019,-0.4670975,-0.193906,-0.2908105,-0.09448337,-0.49594986,-0.10415097,-0.12638946,-0.28596467,-0.17904449,-0.1991229,-0.048362363,0.15331715,-0.69882333,-0.22680007,-0.27135414,-0.9634868,-0.31581253,-0.59255344,-0.46459395,0.14254715,-0.22177799,0.06331614,0.013950355,0.16261259,-0.19954222,-0.25109708,-0.20449488,0.039214823,-0.4133209,-0.21338442,-0.055298924,0.13264911,0.15217209,-0.19716412,0.189191,0.21807128,0.23435761,0.37135908,-0.04148924,0.106628686,0.15858838,-0.26738814,0.18607949,-0.11084121,-0.06231612,-0.29093558,-0.6894066,0.094739564,0.2895446,0.08321158,0.3323098,-0.21829635,-0.44847515,0.22351147,0.22017741,-0.33286816,0.17895262,-0.5726219,0.2835244,-0.2859231,-0.23577593,-0.057004046,0.060541943,0.2992454,0.0028145246,-0.2504722,0.29915878,0.35679975,-0.036371034,0.1216448,-0.1837914,0.26037067,0.15652998,-0.08216359,0.43184093,0.3563548,-0.14946601,0.14294448,-0.11020312,-0.15666428,-0.16902815,0.01449523,-0.2871305,-0.017364435,-0.090363614,0.2678305,0.022881795,-0.11350474,-0.045512564,-0.072444014,0.3794366,-0.4616956,-0.2794091,0.3618583,-0.61274326,-0.12536605,0.13118404,-0.30443156,0.28223786,0.16914566,-0.57386553,0.0771658,0.22727801,0.09951375,-0.26392195,0.07463069,0.23734123,0.12489711,0.05348218,-0.18521571,0.01846631,0.24526575,0.42373297,0.1365591,0.25457788,0.15176073,-0.22060183,-0.07483195,-0.026073607,0.13770092,-0.26369664,-0.042717986,0.340528,-0.2175026,-0.08184292,-0.1945267,-0.68437797,0.15430571,0.079276055,-0.11655299,0.12503178,-0.25698477,-0.20823339,0.19967988,0.078465946,-0.79973966,-0.48308706,0.033160992,0.19771394,0.060827,-0.043809358,-0.28861967,0.18157539,-0.40700087,-0.059508376,0.11617343,0.2613327,0.077291004,-0.13454728,-0.06424104,0.12009496,-0.005066201,-0.21771769,-0.04436801,-0.07771267,0.1367511,0.077467866,-0.19719738,0.06460615,0.26536396,0.19590884,0.3612653,0.07257274,-0.07253732,-0.40196294,-0.2947656,0.14719735,0.18533568,-0.4947444,-0.20729893,-0.22536673,0.1559038,0.19579151,-0.80794704,0.005067106,-0.07475506,0.008843988,-0.43198186,-0.2400573,-0.2713747,-0.08624336,0.26787287,0.074511126,-0.06856188,-0.08091305,-0.08908502,-0.09837006,-0.12388803,0.14718148,-0.013761518,-0.1132081,0.15205887,-0.051260963,-0.051009,0.11214927,-0.39908606,-0.2840189,-0.14675783,0.3575754,-0.1986622,-0.5266355,0.09135047,-0.5366066,0.008687194,0.20767501,-0.23713836,-0.15808137,-0.16325401,0.06810886,-0.32469088,-0.28354827,-0.5871524,0.048330158,0.085766114,0.27816683,-0.33706146,-0.17362343,0.12458743,0.0045606936,-0.09787005,0.053334095,-0.07304641,0.019260846,0.14738539,-0.3862511,-0.45639592,-0.24412529,-0.3146224,-0.036876336,-0.07735231,-0.10897383,-0.52537566,-0.51466227,0.037492316,-0.58316445,0.08954227,0.23048326
0.16652067,-0.22359864,-0.14238374,0.056860488,-0.40443173,0.37222508,-0.3918206,0.092996374,-0.23669548,-0.2643924,-0.120007314,-0.071308374,0.053934805,0.08829342,-0.33888704,0.17456388,-0.15557899,0.05147762,0.16825841,0.33436227,0.24517559,0.10742344,0.2853078,0.17836413,0.7152078,-0.11006679,0.10175809,-0.1737578,-0.055354774,-0.21136428,-0.27396,0.16838676,0.31262508,0.032411493,0.40317726,0.20874596,0.262085,0.2607271,-0.15006354,0.35387647,-0.41121376,-0.23657063,-0.026221037,-0.22515905,0.17556985,0.2161271,0.24850857,0.17714304,0.14029789,0.40239903,-0.067317896,0.045513067,0.14842874,-0.34810948,-0.46198103,-0.015993826,-0.24722828,0.26673803,-0.18467031,-0.08845215,0.096622735,-0.22790101,-0.60244393,0.20219167,0.0088755805,-0.08288871,-0.046884954,0.15132906,-0.09907259,-0.04711863,-0.06609689,-0.1566026,-0.46785662,-0.27556148,0.123055466,-0.27766934,0.03960036,-0.9712816,0.44943485,0.14404315,0.27754912,-0.0028119416,0.017850528,0.12798657,-0.032951947,-0.3719165,-0.34600928,0.10865153,-0.42120036,-0.21979071,-0.02094683,0.06929536,-0.1904507,0.05821649,-0.25682783,-0.050205182,-0.07543076,-0.24445334,-0.115595,0.24752082,-0.2887729,-0.20513792,-0.28317544,0.17206022,-0.14047018,0.08756612,-0.0883258,0.29447082,0.18955521,-0.46807784,0.02677454,0.27831188,-0.11452779,-0.16921744,0.06066458,-0.102432795,-0.17000295,0.0635785,-0.24611059,0.28328142,-0.068002366,-0.9424677,0.027436055,0.25607654,-0.22533034,-0.26244256,0.0737308,0.22117919,0.24567275,-0.23581883,-0.066829905,-0.02194373,0.11065262,-0.079192705,-0.25543118,0.28747773,-0.26870266,0.24253753,-0.18872862,0.22394863,0.1915746,-0.008934241,-0.27648348,0.16871418,-0.20352033,0.23453927,0.27238056,-0.04380383,0.2076598,0.44340688,0.28897256,0.44169632,0.17637397,-0.49884364,0.09138589,0.5329698,-0.45005924,-0.18456928,-0.49886116,0.12540781,0.36927146,-0.27608204,0.2967831,0.3666235,0.33188197,0.39179674,-0.29916096,0.11166233,-0.4653628,0.1367687,-0.36925635,0.044207335,0.4417466,0.60165554
-0.17754655,0.10955396,-0.19659026,-0.42537546,-0.46870378,0.39209798,-0.009463146,-0.10740826,0.2691435,0.13059694,0.36978474,-0.13242337,0.14007635,-0.16609925,-0.4564069,0.40460587,0.71718824,0.07245955,-0.15907356,-0.11335992,0.28400385,-0.05459831,0.050007164,-0.051164445,-0.3130252,0.35373706,0.43251017,0.11369626,0.18086475,-0.44004682,-0.64912814,-0.23255458,-0.17812257,0.026320089,-0.40264016,-0.4098114,-0.08586824,-0.045931336,0.17693326,0.22216746,0.14372182,-0.020734163,0.195973,-0.21831362,-0.45563975,0.25803638,-0.45209184,-0.18988204,0.3087222,-0.203727,-0.26305377,0.19023636,0.16552857,0.0032528492,-0.06813557,-0.07913828,-0.56448317,0.11308211,0.32221907,0.27720374,0.14941098,-0.12280669,-0.17664847,-0.16387929,0.09480828,0.09858375,-0.12161716,-0.11294895,0.059359323,0.1813721,-0.13869514,-0.004008963,0.3257661,-0.13187592,-0.05116051,-0.19764063,-0.44785732,0.027889697,-0.08918623,-0.2893088,0.3167236,-0.29894927,-0.19392762,0.43783477,0.058801796,-0.1694315,-0.26021296,-0.2227895,0.18856803,-0.24746725,0.14227268,0.24209806,-0.11272161,-0.35482827,0.063862644,-0.023579663,-0.38322088,0.062982984,0.13820744,-0.12713934,-0.028634897,-0.31119886,-0.3665325,-0.1344429,-0.51062983,-0.39779565,-0.44163615,-0.053407952,-0.084181376,-0.46026638,0.14345886,0.08586112,0.32426193,-0.4889543,0.2800565,0.4257315,-0.21766432,-0.26813042,-0.8919978,0.06910083,0.19855,-0.5274341,0.24716058,0.18109763,0.09034547,-0.83830625,-0.067775466,0.102929465,-0.23611443,-0.26020366,-0.08305416,-0.6889102,-0.8129536,0.016929425,0.37640917,0.28053892,0.26637363,-0.05467149,0.43782327,0.04677193,0.17348729,0.082732275,-0.38897032,0.36401626,0.07957015,-0.21102223,0.05115489,0.17766207,0.15760732,-0.30173117,0.12210443,-0.06382299,-0.044982567,0.2868334,0.29839826,0.1688529,0.27537727,0.06993886,-0.5914941,-0.093624905,-0.37203667,0.11102503,-0.24073644,-0.24253023,-0.53746736,-0.13796045,0.078692116,0.16737732,0.13125905,0.05136174,-0.027802967,-0.039084326,-0.37599748,-0.025476404,-0.1971165,-0.41805515,0.21002512,-0.1966482,-0.3221962,-0.027234953,0.08909559,-0.119649194,0.082119234,0.07485103,-0.0021077706,0.01400661,0.1553681,0.07291857,0.26867825,0.08067927,-0.030567203,-0.25353447,0.10414461,0.39475784,0.072305895,0.10901519,-0.06977262,0.03443641,-0.022877492,-0.07233459,-0.07797487,0.23412973,0.08341991,-0.7538588,-0.10746788,0.056303296,-0.13653216,-0.8439944,0.16606815,-0.24527393,0.18457407,-0.057164222,-0.36002925,-0.38907295,-0.54855627,-0.09680184,-0.4315728,0.099105276,0.031059815,0.037860665,-0.78848326,-0.24259607,-0.059156932,-0.16413859,0.12350095,0.43840075,0.3229644,0.2812809,0.059404187,-0.39596877,-0.25750116,-0.095486924,-0.57475185,-0.5300539,-0.36971006,-0.5230286,0.102503054,-0.6897891,0.20056121,-0.048877157,0.043814573,-0.36889774,0.25605014,-0.1740807,0.11789966,-0.7084511,-0.5540068,-0.11251915,-0.26870903,0.0075884466,0.07261048,-0.5184118,-0.1647045,-0.3870293,0.3307079,-0.00033282774,-0.18179567,-0.10318201,-0.21737193,-0.320044,-0.5562819,-0.058563575,0.019930096,0.1317217,0.12908654,0.14240009,0.061179165,-0.250067,-0.12231905,0.3078711,-0.23210709,0.43800753,-0.055416398,-0.44988582,0.18640769,-0.052153863,0.15756813,-0.13050446,0.36323285,0.17830041,-0.18051186,-0.111509524,0.10052806,-0.26047796,0.5104043,0.20440662,-0.01021009,0.25417522,0.14003612,-0.070398174,-0.2520331,0.116778225,-0.45653707,-0.16813658,-0.027349204,0.07493441,0.23921242,0.2387949,0.004246829,0.025062723,-0.035346355,0.2126335,-0.44960415,-0.020494096,-0.09350471,0.022535121,-0.34171608,-0.1967087,0.008436555,-0.12805584,0.26871535,-0.05996155,-0.13760202,-0.16725051,0.10055612,0.033752773,-0.35684338,-0.07055087,-0.39921218,-0.05277657,-0.13041855,0.23833826,-0.13327275,0.31898683,-0.21994688,-0.012963896,0.38662142,-0.07969387,0.09928007,0.19767953,0.26090237,-0.33121094,0.26540652,-0.095277555,-0.15833053,0.012287502,-0.0012682275,-0.2949997
-0.21285737,-0.6704154,-0.03293094,-0.38394126,-0.020384138,-1.1018561,-0.20866032,-0.0029726774,0.11525225,0.15910475,-0.08466025,-0.22975582,-0.015348885,-0.039985318,0.0016257302,-0.011884801,0.16873905,0.19614561,-0.17911503,-0.14208718,-0.06693403,-0.13822,-0.24072589,-0.3763096,-0.69604933,-0.052476473,0.10860398,-0.07638766,0.023706028,-0.12113654,0.14944236,-0.6235538,0.18915771,-0.10713076,-0.12942727,-0.00048663624,-0.51531434,-0.75049686,-0.21902366,-0.20805027,0.105989054,0.13809033,-0.024529912,-0.1981816,-0.3705661,-0.18619905,-0.2009772,-0.10341964,-0.5420624,-0.30501238,0.02173698,-0.49687606,-0.11813305,0.17665465,0.3192838,0.08121457,0.3719693,-0.39192256,-0.2935107,0.115311,-0.6996868,-0.34983557,0.18663734,-0.5075016,0.16131099,-0.058243703,-0.040938783,0.0024347128,-0.07993463,0.2437094,-0.17508249,-0.23935598,0.1416212,0.07633956,-0.2669599,0.03810694,0.21068367,0.30616623,-0.29876646,-0.104444414,-0.6008989,-0.23432885,0.07977636,0.12508804,-0.3235551,0.11801301,0.41320288,-0.0108885085,-0.046418115,-0.31772068,0.14471088,0.114949524,-0.10843194,-0.39653292,0.06976466,0.300802,-0.28180963,-0.22428298,-0.034408987,-0.14845365,-0.057501815,0.032495137,-0.08584414,-0.25842714,0.25245792,-0.05787266,-0.33513987,-0.10276518,-0.18671562,0.1481136,-0.44335306,-0.41057086,0.23438266,0.18314052,-0.0715279,-0.18420365,-0.19567257,-0.009010954,0.38976133,-0.40427178,-0.053305626,-0.08147081,-0.15431648,0.08335339,0.18191157,-0.3125682,0.23109952,0.14863062,-0.25627002,-0.28906196,-0.0018609363,-0.5669272,-0.31055987,-0.16882461,-0.24089241,-0.25429833,0.23557353,0.19791263,-0.39625365,-0.5993956,-0.26534867,0.14597896,0.14716366,-0.3282434,0.10594838,-0.21182606,-0.41776836,0.011623775,-0.5914846,-0.7501493,-0.20094374,-0.9204351,-0.6439289,0.028699216,-0.20399728,-0.6624724,0.19217283,0.08771736,0.22944331,-0.056779698,0.023339164,-0.07543035,-0.20422132,-0.4862798,-0.5891894,-0.44659406,0.055155173,-0.30700952,0.094077244,-0.21769531,0.111082695,-0.7454683,-0.64934003,-0.3331312
0.04559352,-0.15130025,-0.30605835,0.1349139,0.19741169,-0.06643796,0.061884023,-0.0471876,-0.26377103,-0.50755036,-0.7145525,0.2221915,-0.12856138,-0.2662132,0.064015865,-0.41649273,0.20048551,-0.03525725,0.18496342,-0.16017963,-0.22129083,-0.13014331,-0.036512785,-0.058623567,0.11582673,-0.40610048,-0.108859785,-0.84831476,-0.029362602,-0.5493503,0.38532686,-0.07347765,0.0100264605,-0.16832897,-0.1483836,-0.6737573,-0.07261192,-0.24684353,-1.0873463,-0.30509877,-0.49014574,-0.53248686,-0.18913421,0.21032752,-0.66797566,-0.028922731,0.047942888,0.09333468,0.004341119,0.024066433,0.24784891,-0.1459248,-0.35196948,-0.24016878,0.041804906,0.14895646,0.30476385,-0.5106648,-0.049385406,-0.6015005,0.4054036,-0.34824714,0.13893723,-0.068725064,0.028617693,-0.43775833,0.0060866447,-0.44036567,0.01691962,-0.2954029,-0.39178142,-0.38861823,-0.53496426,-0.052823797,-0.2555189,0.514798,-0.34309563,0.0161585,0.028386287,-0.17911083,-0.18685234,0.20494664,0.39763334,0.01763923,-0.90366197,-0.08656273,0.36863604,0.3287773,-0.1028109,-0.15605143,-0.63157845,-0.5157869,-0.15270452,-0.2549547,0.12455767,-0.09161566,0.6591394,-0.24720679,0.016494988,-0.011610736,0.004619614,0.2940825,-0.42483425,-0.07990665,-0.41908112,-0.40047732,-0.3956953,0.29659328,-0.0826255,0.0942106,0.2835147,-0.30506727,-0.4138538,0.37249818,-0.31141505,0.24220699,-0.07541831,0.035754666,0.1518991,0.6890216,0.0918723,-0.22246449,-0.6791685,-0.4286688,0.13873975,-0.59626955,0.068229936,0.14460361,0.003878142,-0.0039487826,-0.08101069,0.05776926,-0.17199609,0.19207312,-0.61834663,-0.65378106,-0.7592379,0.1771353,-0.97198963,0.020735623,-0.43061402,-0.031270012,0.07420388,-0.3809628,-0.011716923,0.043885227,0.003916293,0.1301857,-0.6726935,0.18733734,-0.061292704,-0.11772979,0.1899768,0.14756528,-0.10183677,-0.30429372,0.061139118,-0.17181177,0.35174727,-0.5812858,-0.043454394,-0.092669,-0.18728848,-0.04149267,-0.038791347,-0.07736281,-0.5307757,-0.1560837,-0.5767861,0.16715695,-0.1411056,-0.18588,0.010525405,0.09231045,0.04125355,-0.5727391,-0.78889793,0.026504014,0.26810086,-0.09651214,-0.3291514,0.13406286,-0.43004036,0.1528274,0.06668949,-0.4538845,-0.16881521,-0.3158656,0.18045072,-0.50631046,0.18952246,-0.08272265,0.15769856,-0.14230868,-0.22994007,-0.40570113,0.3061053,0.27973765,-0.34477937,-0.030063802,0.0103964545,-0.14839219,-0.1246957,0.4573614,-0.49968368,0.023183642,0.07632709,-0.43238127,-0.1972856,0.08542149,0.06925815,0.1397792,-0.3780532,0.033740986,-0.188871,0.18652199,-0.026413566,-0.5575931,-0.19416618,-0.11588058,-0.024574028,-0.28328848,0.08022454,-0.09627448,0.6155662,0.058897275,-0.09019624,-0.08477383,0.03959466,-0.39294785,-0.31069556,0.25805146,0.3021052,-0.17550986,-0.08381002,-0.093179084,-0.06338332,-0.1522409,0.10604187,0.06639342,-0.3627658,0.36909762,-0.20125607,0.21028167,-0.12495975,0.5450961,-0.3256235,0.04507316,-0.17050342,0.02134903,-0.46419084,-0.5796838,0.050575104,-0.29848394,0.103120275,0.100552365,0.121489316,0.24541998,0.082996346,0.08289766,0.070203565,-0.17751667,0.16031837,-0.23936234,-0.044699,0.13979647,-0.14413443,-0.31942242,0.09320881,-0.06373236,0.24546273,-0.32971656,0.12332843,-0.12396261,0.118053675,-0.059244346,0.19187824,0.06356196,-0.0313725,-0.021981398,-0.22279434,-0.10134652,0.16139437,0.18159004,-0.4745216,0.14565319,0.12855291,-0.8400698,-0.6941071,-0.14189264,-0.19160926,0.10455388,0.22355187,0.023437506,0.21190573,-0.46176594,-0.3864021,0.16227898,0.38438943,-0.19298023,-0.12570952,0.25779477,-0.6236893,-0.26424775,-0.1256386,-0.5290284,0.3442807,-0.43585187,0.12291621,-0.036773115,-0.38693458,0.35200322,0.3897938,0.16104925,0.03149547,-0.0098610725,0.18625219,0.14191896,0.19579908,-0.29326916,0.03246417,0.050219376,0.14486054,-0.18384157,0.20468125,-0.1235308,0.45367914,-0.11755024,-0.048059672,-0.04415031,0.55379176,0.4640219,-0.32098442,0.17277397,-0.1515407,-0.3362932,0.11028335,-0.115141906
-0.22106959,0.47882608,0.18344091,0.33003455,-0.24635091,0.27558097,-0.13114445,-0.0112397205,-0.42296937,-0.15723597,-0.36116025,-0.019352654,0.056460116,-0.031501945,0.7633284,0.25676712,0.014531417,0.01291843,0.3424827,-0.08984094,0.29409394,-0.19265972,-0.45298445,-0.23514047,0.15660171,-0.08515198,0.09664061,-0.40141526,0.09405801,0.50472647,-0.14170608,0.0111396,-0.085809804,0.77692354,0.07299208,0.5528078,0.032087535,0.2385401,-0.3172909,0.2166887,-0.67830867,-0.06288344,-0.14940487,-0.097411685,0.35259223,-0.3966352,-0.4043055,-0.39230877,-0.13008223,-0.30736852,-0.16526788,-0.17709477,-0.04098777,-0.3257722,0.07291435,-0.054399922,0.06836076,-0.034660693,0.18533659,0.025017876,0.009629611,0.24424689,0.516789,-0.09735177,-0.36738935,-0.6531628,-0.064118095,-0.4160591,-0.17469142,-0.3407771,0.032732148,-0.23983836,0.38876608,0.123196125,-0.025753213,0.13373967,-0.95510876,-0.697147,0.022948675,-0.11644617,-0.14707823,0.22025016,-0.3584233,-0.29814976,0.27895695,-0.53241324,-0.24497835,-0.08710642,0.27514976,0.5163056,-0.056489997,-0.020720357,0.123115934,0.17504758,0.15763198,-0.1882332,-0.18927549,-0.07957724,0.0002765274,-0.31334528,-0.016176676,-0.09012,0.08891154,0.25711766,0.08399458,-0.061437976,0.16883725,0.20872568,-0.33694845,-0.95454943,0.24167567,0.24734855,-0.24839348,0.28415588,-0.23452593,-0.52087134,0.3914129,-0.84518915,-0.66348773,-0.13281952,0.6208043,0.84162855,0.06357301,-0.20671934,-0.29966068,0.23300004,0.14596528,-0.6238197,0.13002375,0.26885718,-0.1116255,0.1832246,-0.18386145,-0.48391095,0.3657672,0.42362234,-0.3214913,0.29818106,0.18588518,0.39620325,0.111314066,-0.71155995,0.4960302,0.34726045,0.13528006,0.6609835,0.19659029,-0.09588942,0.2860261,0.1381196,-0.16514085,0.2710801,0.10024807,0.11261077,0.030271998,0.090594836,-0.52881926,-0.13968381,-0.4762631,-0.61661375,0.126996,0.57412297,0.026365561,-0.122694425,0.3153715,-0.5417111,-0.11525459,0.66061974,-0.4067003,0.16871747,-0.04304816,0.2586866,0.22434193,-0.38711232
0.024675492,0.19606411,-0.04820486,0.471994,0.023547031,-0.47569475,-0.082498364,-0.19522834,-0.5409229,-0.11847986,-0.187422,0.17439744,-0.684751,0.038565993,0.14879385,-0.61581665,-0.55131584,-0.060565285,0.0722303,0.31784582,-0.6953816,0.32053837,-0.11380954,0.08355031,0.3130821,-0.2210016,-0.4393473,-0.5115059,-0.13717422,0.53409976,0.5711723,-0.15858656,0.115465716,0.017860042,0.59233093,0.38196203,0.16170241,-0.10147052,0.39163008,-0.3181963,-0.22060129,0.19703987,-0.121631406,0.039172474,-0.0025591776,-0.5555313,-0.15715984,-0.45066345,-0.37783584,-0.008888377,-0.06711304,-0.054583937,-0.19707203,0.06761011,-0.14259036,-0.028457299,-0.38887012,-0.10467701,-0.3859889,-0.35288426,-0.3928424,-0.3287975,0.082515456,-0.122912414,-0.3279156,0.18827386,0.16942157,0.284182,0.23283061,-0.20431004,0.29100108,0.13581334,-0.2080992,0.0053512314,0.07497632,-0.71467,0.17149846,-0.08354565,-0.45463955,-0.033932075,-0.64824504,0.14548016,0.17970112,-0.2204024,0.3795142,0.13604026,0.10750888,0.2565961,-1.2541363,0.18552157,-0.82522553,-0.6953856,-0.49914762,-0.02847952,-0.15961356,0.15817828,-0.6340925,0.28062984,0.19952409,0.2849891,0.15967597,0.5698833,0.4513874,0.32084554,0.52124226,0.55185586,0.5000786,-0.45946667,0.51439023,0.12201577,-0.27484974,0.07826357,-0.9023575,0.17027105,0.12971023,-0.1917219,0.50828975,0.087842695,0.6872044,-0.020064699,-0.6054351,0.31384736,-0.82346946,-0.48531076,-0.49500778,0.5010823,-0.111686684,-0.020699231,0.23605917,0.10316839,-0.18612222,0.24634215,-0.26082724,-0.13821453,-0.15743983,-0.1098833,0.027980763,0.12790227,-0.35678202,0.16411185,-0.48733276,0.06907803,0.11288037,-0.5340459,0.062301323,-0.2633695,0.13731767,-0.012596311,-0.022909528,-0.071115464,-0.012431866,0.032052495,0.3518491,-0.15459438,-0.16083717,0.21957457,0.13577579,-0.20328775,0.32138354,0.31702983,0.4363003,0.058704406,-0.09257292,0.18571697,0.03333389,-0.049778245,0.19739525,-0.20259202,-0.20637739,0.084333085,-0.090608865,0.10943219,-0.022227783,0.102198094,0.018219858,-0.02341109,-0.48149416,-0.16235635,-0.011514082,0.19974707,0.057409815,-0.008260337,-0.21687762,-0.0027498782,-0.34780902,-0.0035190096,-0.48996675,-0.3368904,-0.6065239,-0.20398526,0.24546403,0.10082322,0.3256222,0.10128553,0.1642955,0.14947577,0.17270929,-0.1441597,0.23483284,0.32406294,-0.17632672,0.0973266,0.02608376,-0.5984296,0.19852526,-0.23677243,-0.084799916,0.101591915,-0.14277038,0.11475429,-0.0032451502,-0.13972154,0.118849084,-0.124539316,0.22276929,-0.19744162,-0.3172854,0.13992156,0.21599814,-0.0041382406,-0.12998015,0.08484904,0.049492523,0.2618415,-0.741118,-0.19164418,-0.004623947,0.2791621,-0.050750818,0.53505903,0.43291005,0.29702157,0.26309326,0.74181795,-0.035832085,-0.36159286,0.4729498,0.41567957,-0.46742287,-0.53814846,-0.14949387,-0.18959446,0.21461879,-0.49253634,0.44992796,-0.112800226,0.2004914,-0.7113111,-0.34492534,-0.013401973,-0.018150762,0.19282492,-0.04081677,0.5618967,-0.25861898,0.07878858,0.053498477,-0.19710346,0.037826892,-0.30863932,-0.44242832,0.19794804,-0.10337706,0.14307374,0.08877463,0.15706976,-0.046972603,-0.25060695,-0.03280116,0.31421492,-0.26607525,-0.092701726,-0.061799455,-0.3607404,0.18712594,0.07562371,0.26145613,0.07307385,0.059093114,-0.04083978,0.10399199,0.14722355,-0.08835168,-0.116430216,0.0079006795,-0.023581104,-0.04232054,0.21598917,0.00041218684,-0.0132131325,0.025197381,0.07574566,-0.07000989,0.21340515,0.25374755,-0.12515056,0.1783463,0.04107247,-0.026910359,-0.38703856,0.18027487,0.2654448,0.026902547,-0.16522019,0.10366015,-0.29324844,0.15183297,0.22188866,0.014298327,-0.29859608,-0.07738312,-0.23784082,0.056348626,0.119219944,0.100025706,0.16411689,-0.42118934,0.12749963,-0.071487874,-0.11631339,-0.23066404,-0.06305765,-0.18606836,-0.03781092,0.06698515,-0.37886587,-0.12753074,-0.14583045,0.13138852,0.23734525,-0.31045476,0.018867992,0.0066351816,0.15198264,0.18438518,-0.068978846,0.066994146,-0.34056213
-0.12145418,0.021126756,-0.006141621,-0.19617113,0.21575367,-0.44454274,0.1752886,0.09670762,0.13247147,0.12912266,-0.06692528,0.42273116,-0.27803028,0.007169815,-0.42413536,-0.18747357,-0.46071944,-0.010843456,-0.51740354,-0.3832527,-0.123135045,0.060996745,-0.015906423,0.39637324,-0.5636028,-0.0048212414,0.021617455,-0.09119835,-0.120054014,-0.10210387,0.09190432,-1.3316959,-0.24756758,-0.6962852,-0.33308172,-0.58322066,0.023169292,-0.8540128,0.06721971,-0.008098823,0.20253086,-0.0065406137,-0.07576814,0.3264944,-0.52726513,0.17645179,-0.37338907,0.11503026,-0.4562063,-0.19537911,-0.33924475,0.2838593,-0.1849528,0.21860912,0.10927711,-0.028727429,-0.025986608,-0.2780051,0.31417182,0.059203193,-0.55605996,0.16113128,-0.039279938,-0.5432842,-0.21970105,-0.1757913,-0.28326133,-0.20977789,0.1220098,-0.2764096,-0.41409987,0.16545737,0.3392781,0.18351685,0.019447155,0.04629894,-0.107660726,0.09742291,-1.0790553,-0.3390587,0.24915229,-0.122338645,-0.15904649,-0.16584098,0.05572258,0.17725065,0.09501382,-0.09600487,0.09782309,-0.106518656,-0.18610959,0.19677146,-0.034325484,-0.110175155,0.28459263,-0.5079747,0.064462416,0.046742823,-0.11976153,-0.31291175,0.057215914,-0.07538051,-0.48867616,-0.50303113,0.22066091,0.21861362,-0.091263056,-0.17532866,-0.08912693,0.08265493,-0.41889682,-0.7268822,0.19372936,-0.5535917,-0.056087807,0.06794937,-0.21429381,-0.07551774,-0.09593949,-0.34098822,-0.15668994,0.033364777,-0.25185436,-0.32300502,0.27322036,0.07776016,0.1203604,0.051897217,-0.6720971,-0.049293395,-0.11765826,-0.32148486,-0.2089734,0.1614429,0.19243239,-0.5085356,0.28237596,-0.061209228,0.27214175,-0.21418351,-0.4307306,-0.04723479,-0.43945393,-0.70705456,0.041839432,-0.58283657,-0.39589962,-0.08954133,-0.3821496,-0.23151384,-0.4245188,-0.5694663,-0.22030136,0.13884257,-0.13809387,-0.42690665,0.11290189,0.11986905,0.37845528,0.2113142,-0.38425097,0.051801577,-0.7393508,-0.18933153,-0.40714854,-0.33192644,0.46375102,-0.37514648,0.35768583,-0.23229274,0.2387836,-0.13308796,-0.3961786,-0.4011757
