-0.0039349687,-0.26285353,-0.31970593,-0.20851727,-0.056493625,-0.040738728,0.14102839,-0.63779867,-0.17792252,-0.18486321,-0.32002464,0.0826886,0.014991181,-0.03109835,-0.026348105,-0.61356056,-0.28360677,0.056012794,0.11062611,0.32115197,-0.31404746,-0.12737495,0.0018431979,-0.105186075,0.25209236,0.145272,0.1352588,0.06635001,-0.2803283,0.16668889,-0.25128683,-0.056670066,0.039246783,-0.25699085,-0.20755778,0.06485073,-0.30507264,0.02440753,-0.11894854,-0.12950106,-0.058053184,0.069492385,-0.05423527,0.17461894,-0.05823611,0.075620666,-0.03684332,-0.27711636,-0.22177386,0.09252348,0.115943335,0.1311073,-0.01303276,-0.1499833,0.1690193,0.22946109,0.052201957,-0.19831549,-0.05047035,0.1291758,-0.13916866,-0.15063795,-0.036359407,0.10568615,0.26013616,-0.07648719,-0.23648095,0.26763454,-0.2217761,-0.1167079,-0.39588973,-0.09789442,-0.07583884,0.14951359,0.18273592,-0.12150109,0.07099782,-0.012268397,0.25370866,-0.29049397,-0.34287643,-0.18181694,0.14615205,0.1371494,0.2455741,0.04154836,-0.010867974,0.037636105,-0.0410064,-0.23997037,0.079040505,-0.25202632,0.07767985,-0.23220772,-0.11981881,-0.41264042,-0.11475683,-0.19178507,-0.28343388,0.07629494,0.050292604,0.010096641,-0.58632326,-0.38339406,0.1279323,0.12421292,-0.12082389,-0.13945548,0.15872094,0.028433671,0.031061258,-0.09237268,0.18419509,-0.2353916,0.06440303,-0.13167037,0.057031207,-0.09574878,0.16657092,-1.826312e-05,-0.04209382,-0.3638918,-0.13901554,-0.21580085,0.09943655,-0.52316934,-0.17993777,-0.20453785,-0.061525483,-0.6034744,-0.23969603,0.25998405,-0.31059036,0.06980637,0.20183517,-0.21457714,-0.46160683,-0.102276064,0.111503735,0.324799,-0.19196977,0.30428267,0.20856453,-0.2009636,-0.57693917,0.14374505,0.1285202,0.111849606,0.15838248,-0.16204226,-0.396087,0.3723851,0.0672351,0.28687888,-0.33048055,0.3286068,-0.027405899,0.11622063,-0.66703075,0.22195883,-0.5167766,-0.23985398,0.11233025,0.1219154,-0.23529139,0.08623615,0.08322783,0.037390575,-0.38152558,-0.28500614,-0.11248059,-0.18834034,-0.38056332,0.11132897,0.34213278,0.038898963,-0.29342395,-0.2622228,-0.042033833,-0.023934556,-0.018930726,-0.046566486,-0.35018915,0.26904356,-0.15249023,0.3147147,-0.2414972,-0.014344658,0.007697502,0.10786889,-0.21506813,-0.23490122,-0.258394,0.17379838,-0.12435214,0.2106732,0.023300061,-0.39147195,-0.096439816,0.066695005,0.0059082946,0.08471361,0.1322363,0.09800124,-0.1903464,0.16822682,0.15432395,0.042918056,-0.085539035,0.04030339,-0.020323366,-0.2390239,0.21022765,-0.06593417,-0.031956695,0.23227687,0.20161885,-0.20454001,0.14269938,-0.4810301,-0.07987701,-0.4700826,0.26169738,-0.18537955,-0.38828757,0.19050176,-0.13057742,0.22357856,-0.14825529,-0.3325462,-0.112394795,-0.6337217,0.18601339,-0.01546445,0.045293257,0.22935803,-0.238179,-0.22685188,-0.14608952,-0.21017078,0.22671394,-0.0842096,-0.1384748,0.2778059,0.3311539,-0.3485945,0.15337299,-0.007434631,0.13627823,-0.07904844,-0.030556155,-0.4228312,0.16422337,0.061872352,0.28727877,-0.12831809,-0.8416635,0.24193138,-0.018696839,-0.12301236,-0.3536927,-0.24716316,0.13541877,0.2682087,-1.0446916,-0.072819255,-0.13638613,0.1686167,0.1342554,0.22311793,0.3022988,-0.5077176,0.027936542,0.023810962,0.17609783,0.22214974,0.046855923,0.09335208,-0.18377234,0.096445866,-0.07619264,0.23156786,-0.022989871,0.26010004,-0.026084878,0.20794357,-1.0110123,-0.042854726,0.03098749,-0.4400533,0.119235136,-0.051784657,-0.03939759,-0.32939136,0.1859781,0.0578541,-0.23423894,-0.112846464,-0.2900803,-0.23464046,-0.04821777,-0.16599318,0.084712006,0.100286484,-0.7296266,-0.17502432,0.18714489,-0.0856725,-0.38545394,0.034894224,-0.07979789,0.20253806,0.08993582,0.15361187,0.046492834,-0.27620983,-0.1855885,0.11442516,-0.17980847,0.28011185,0.16242765,-0.20167029,0.15774718,-0.009601772,0.09248923,-0.065311275,0.08957064,-0.47820148,0.08470017,-0.3234773,-0.11844892,0.14074215,-0.006565994,-0.3233047,0.02127819,0.043848053,-0.046402942,0.20170853
-0.10907498,0.005077796,-0.13989803,0.14077738,-0.33235675,-0.31709337,0.11120495,-0.31387275,-0.12099072,-0.46321428,-0.23958695,0.15238869,0.03385003,0.13003351,-0.7574018,0.42023176,0.13864782,-0.28764665,-0.4461482,0.24075277,0.0006394854,-0.25571913,0.09716587,-0.973194,-0.2834854,0.047165234,-0.84555376,0.11962236,-0.6627278,-0.7454343,0.29466155,0.21436931,-0.51980287,0.025476051,-0.25034183,-0.26425034,-0.1542824,-0.16961916,0.04628465,0.085643634,-0.29486862,0.34291866,0.07108875,0.12467152,0.089420594,0.0025631974,-0.3990038,0.06736928,0.1733777,-0.0983856,0.050855402,-0.27301985,0.17717852,0.22817451,-0.437896,-0.08685015,0.09330097,0.09600262,-0.010785108,-0.04682558,0.17234688,-0.08790323,0.3768709,-0.39007854,0.14977303,0.005501365,0.09859939,0.2138415,0.12535022,0.11253725,-0.1329473,-0.15975504,0.29904097,-0.3281866,0.066812396,-0.072072335,-0.15157793,-0.44773543,-0.039231785,0.030982956,0.16245173,-0.3133739,0.069027424,-0.15832953,0.20842347,0.2756372,-0.4522135,-0.023414573,-0.14305782,0.06837012,0.103180096,-0.29222155,-0.24038187,-0.018032042,-0.045290973,-0.12961139,0.35660556,0.25509968,-0.279548,0.11901422,0.1005336,-0.10874059,0.056379993,-0.116452396,0.42257285,0.06331781,-0.4126036,-0.4607246,-0.44454062,0.40064806,0.04388204,-0.6280136,0.26586485,-0.09745637,0.038974766,0.009912568,-0.11328138,-0.15121028,0.11416563,-0.17857508,-0.11846531,0.24156512,-0.117843464,-0.032707956,-0.54829663,0.20209274,-0.38746268,-0.042134166,-0.17338304,0.11362004,-0.08802066,-0.03391902,-0.0976377,-0.6702661,-0.40263626,-0.18548883,-0.13240089,-0.0890597,-1.0648221,0.07175994,0.46843725,-0.09397299,-0.4354102,-0.5527684,0.018766498,-0.22817971,0.08576383,0.23057754,0.06810772,0.04924873,0.29003787,-0.6069029,-0.18389043,-0.23685421,-0.4445132,-0.039394725,-0.061046276,0.20073085,0.21177627,0.2518127,-0.5778076,0.12546617,0.04854089,-0.085340925,0.1133179,-0.2250125,-0.44292083,0.030509204,-0.2598356,0.015475803,-0.5137521,0.13948388,0.37449202,0.32776192
0.049964916,-0.01037325,0.22399434,-0.22921228,0.13142452,-0.0052837813,-0.066996425,0.2544495,-0.032068472,0.0607032,-0.11826837,-0.03535244,0.25700414,-0.8311457,-0.18776897,-0.002646644,-0.032530818,0.009537682,-0.065217644,-0.3093578,-0.048999574,0.027150828,0.1894213,-0.24915034,-0.17203233,-0.26390848,-0.03580549,-0.37359214,0.09215631,-0.26754504,0.022436488,0.099437214,-0.2694157,-0.097208135,-0.28438693,-0.09962159,0.1336651,0.28002706,0.078022406,0.0045715165,-0.06413251,-0.4957567,-0.16831869,0.20726979,0.26058283,-0.3120127,-0.21798101,-0.06645202,0.018569343,0.09016532,0.2058991,-0.055713296,0.07868116,0.14967528,-0.08476408,-0.002231869,-0.124706425,-0.39200908,-0.10570538,0.2077015,-0.1341279,0.07424045,0.0009554336,0.029373683,-0.49997953,0.015411713,0.1897268,-0.2989235,-0.17057574,-0.30999166,0.27684075,-0.010995024,-0.16207923,-0.45789486,-0.5717317,0.14396639,0.12364608,-0.18606223,0.23160015,0.13491692,0.04013125,0.27431935,0.22808367,0.1993766,-0.27179453,-0.11686666,-0.54480445,0.030787306,0.16505778,0.20618919,0.3932882,0.28648943,-0.006266178,-0.06546193,-0.19771884,0.14327227,-0.017399533,-0.57087845,0.07361304,-0.29890218,-0.6445908,-0.0433351,0.1852485,-0.24641699,0.09824138,-0.40725324,-0.30977964,0.09185806,-0.30361986,0.033705626,-0.09648323,-0.039763793,-0.3806891,-0.18836734,-0.07267736,0.124562375,-0.48684153,0.17538083,-0.13400415,-0.0611446,0.12639932,0.16371508,-0.2153447,0.37710735,-0.17253648,-0.020281084,-0.51413673,-0.15322737,-0.39081496,-0.13446404,-0.16342036,0.081294134,0.16190223,-0.12170927,-0.20757899,-0.009894594,0.031446498,-0.51720804,0.10223226,0.077356294,-0.6600612,-0.4362127,0.064066105,0.10650581,0.09383307,0.03231513,-0.037128214,-0.13593325,0.12998329,0.21047077,-0.3659563,-0.09296994,-0.018224673,0.15732323,-0.4587779,-0.0061964584,0.0026789492,-0.66669077,-0.17563382,0.06994089,-0.12061567,0.012853042,-0.25942025,0.13992965,-0.03901075,-0.0789878,0.08691513,-0.7132649,-0.004959723,-0.015060498,0.35715455,0.14602056,-0.33326176,-0.060253322,0.051281516,0.12118906,0.18189396,0.09972085,-0.16005826,0.025110755,0.15684062,-0.31658015,0.03552902,-0.23210044,0.009433808,-0.43185073,-0.19601646,-0.17693195,0.06944973,0.09798766,-0.16531752,0.32463363,-0.03015634,-0.39112884,0.061442066,-0.24572577,-0.08513347,-0.084838,0.011311595,-0.30751193,-0.46324837,-0.28717822,-0.03834248,-0.032337993,-0.37834734,0.13897742,0.035011597,-0.21660252,-0.05587964,-0.015965225,-0.056346256,0.015380272,-0.123877145,-0.47488126,-0.29891694,0.17482808,-0.098107345,0.23172957,0.08395875,0.06033341,-0.120479755,-0.021646965,-0.23510762,0.119439684,-0.22549337,-0.14126085,0.045004416,-0.2956054,-0.13596676,-0.50904804,0.086651415,-0.2785328,-0.22337492,-0.25404245,-0.34163016,-0.45552135,-0.25580645,-0.0010189334,-0.08349621,-0.5373943,-0.4494344,-0.09458615,-0.20190571,-0.19402201,-0.1656035,-0.3442769,-0.3647231,-0.12297226,-0.09088406,0.058690116,-0.1721861,-0.033321146,-0.4833988,-0.28374738,0.13393986,-0.15668087,0.18027422,-0.07398609,-0.016817696,-0.096119374,-0.09560149,0.12215719,-0.16546957,-0.0076069455,-0.12816189,0.014173815,-0.012775651,0.056658566,-0.028285168,-0.47253478,0.2758222,-0.019634448,-0.27459225,0.07589405,-0.22778635,0.018537262,0.13114557,-0.16093858,-0.2972616,-0.24819542,-0.11701769,-0.5010187,0.059913322,-0.03139699,-0.06766704,-0.04075815,0.042478465,0.10101934,-0.08878953,0.24889933,-0.1018065,-0.19903944,-0.6986812,-0.013549833,0.17502815,-0.19564252,0.06757632,-0.19699305,0.07799907,0.20348167,-0.55248785,-0.0074932016,-0.14160366,0.038046632,0.15400831,0.28154242,-0.46913847,0.16236845,0.2774815,-0.7332899,0.006113371,-0.5505257,-0.055579826,-0.075914994,0.23606718,0.115169175,-0.038470965,0.06825703,-0.03325067,-0.009711268,-0.08680159,0.10714552,0.17593893,-0.17703985,-0.049428392,-0.27281103,0.13673615,-0.14557359,0.21545355,0.0170415,-0.5075793,-0.21979545,-0.16865376,0.09127076,0.083328284,-0.32771555,-0.50824445,-0.44934165
0.064600915,0.096007936,-0.013447797,-0.06580375,0.013556157,0.13156222,0.03806466,0.1224196,0.06786435,0.13947499,-0.024192784,-0.25257397,-0.2571631,0.11547475,0.031661257,0.013270273,0.07667164,0.1375573,0.18447447,0.15878145,-0.10569331,-0.10809929,-0.24812712,0.038009036,-0.29685923,-0.1972091,-0.46298915,-0.6426346,0.00827204,0.014834317,0.10091418,-0.030957103,0.07463002,-0.046053648,-0.15564442,-0.18842988,0.1122981,0.24137135,0.07413902,-0.017777653,0.0009945843,-0.100598514,-0.378802,-0.6006544,0.07200166,-0.23418172,0.16624175,0.022755107,-0.26234168,-0.10970034,0.12031412,0.35184205,0.14391287,-0.12773052,0.07631858,0.26017776,-0.0028372568,-0.16909777,-0.23639137,0.15033498,0.07121522,0.024869593,-0.19057038,0.13265677,-0.46111217,0.1190414,0.18901756,-0.11428065,0.11211403,0.12076775,0.10381105,0.2915698,0.12761381,0.40072155,0.10425088,0.518457,-0.26902947,0.22769068,0.06306172,0.13695426,0.28329352,-0.14049886,-0.040455963,-0.06596418,0.25031912,-0.14724216,-0.0007262597,0.17782289,-0.5328776,0.21734652,-0.091903135,0.18571065,0.55254245,0.042769752,0.25362462,0.07968462,-0.24709894,-0.18589228,0.025384624,-0.0048337034,0.31896356,0.08137445,0.038253773,0.38873756,0.13502611,0.17232057,-0.09419691,0.046956025,0.23549339,-0.045902967,-0.5000048,0.31570616,0.20114872,-0.2603322,0.08997722,0.22903003,0.16989179,0.10012155,0.16594335,-0.25111982,-0.19511595,-0.4944709,-0.0068484712,-0.10582994,0.23183697,0.13771206,0.4780352,-0.49254784,0.061447844,-0.13174033,-0.04477927,0.081156984,0.053531438,0.03502982,0.4351811,-0.033374865,0.027275873,0.054904774,-0.06126229,-0.5322611,-0.11456779,0.29840332,0.054143954,-0.04917348,-0.09174176,-0.29943827,0.18084726,-0.26451147,-0.22703211,-0.114351384,0.1395994,0.21122883,-0.18256643,-0.38848725,0.08598798,-0.4839343,-0.17567714,0.007864345,0.089825824,-0.41130883,0.18079725,-0.25374654,0.08704385,0.29363754,0.17232718,0.13123992,0.24581046,-0.15783554,-0.012503958,-0.23953877,0.31956655,-0.5876929,-0.604946,-0.095174395
-0.07755409,0.0813229,0.10062928,0.19723234,0.0892114,0.0015907073,0.058727115,-0.31289563,0.12309388,-0.009120055,0.24137686,0.0055854204,-0.16388623,0.050432652,0.18074456,0.18981731,0.14611857,-0.1566561,-0.12976083,0.16120538,0.061438546,-0.10954294,0.11551743,-0.1274218,0.005624611,-0.048456263,0.0895568,-0.18846223,0.1634051,-0.08054842,0.31862175,-0.16266233,0.019296579,0.10441202,-0.36145124,0.1759471,0.09732893,0.062159788,-0.036019918,-0.11461662,0.06960103,0.1133664,0.27496582,-0.117645785,-0.2244575,0.14301847,-0.07484865,0.12554015,0.14885601,-0.008128024,-0.20863736,-0.2356631,0.19258432,-0.2626728,0.04383151,-0.13021472,-0.1423699,-0.29402196,-0.015078093,-0.18018982,0.1328024,-0.05185478,0.30886248,-0.17453699,-0.13851236,0.2933278,0.043038312,0.18926944,0.30711395,-0.02696422,-0.11980067,-0.038380876,0.021400329,0.080968596,0.21732989,-0.28498492,0.08548691,-0.04113778,-0.037208185,0.05968053,0.109719835,-0.21960935,-0.16473174,-0.13398637,0.09800474,-0.04295669,0.08645783,0.15576458,-0.33326355,-0.1749079,-0.32546002,-0.6419812,0.15623611,0.08190658,0.27721992,-0.30129698,-0.34790152,0.19497012,0.1223211,-0.16259508,-0.33761415,-0.654559,-0.07724393,-0.2141146,0.036862932,0.07165916,0.14744242,-0.009871361,-0.00029618264,-0.31996894,-0.15677142,-0.27379614,0.2842768,-0.050425973,0.010721985,-0.40428925,-0.1364655,-0.22247271,-0.09833487,0.24977352,0.0570821,0.07263248,-0.1268671,-0.48029816,0.17030329,0.09242669,0.16567513,0.13447769,0.22101909,-0.020341827,0.18315347,0.08058085,0.13399653,0.29433754,-0.20037867,-0.08948397,0.24169652,-0.003512241,0.14774393,-0.085369445,-0.4561168,0.0817837,-0.1231783,0.0900897,0.0729298,0.022692699,0.11103767,-0.08696406,-0.24407253,0.11797047,-0.16122195,-0.49369788,0.008744982,-0.54520345,0.27335167,-0.26881164,0.14458099,-0.22860384,0.096718654,-0.18582286,0.0019838945,0.010284883,-0.30521685,-0.15575556,-0.14872369,0.15152794,-0.18564244,-0.17085156,0.021795,0.23584588,-0.09831014,-0.03642401,-0.0006896771,0.029940564,0.026185276,-0.014757373,0.06416965,-0.039771676,0.05936179,-0.2497989,-0.107398674,-0.12919964,0.0389075,-0.30284303,-0.21684076,-0.13798873,0.39729583,0.21696194,0.12641521,0.08337998,0.066128604,0.18333189,0.024337951,0.056583364,0.0959467,0.06245473,-0.14812443,0.030586671,0.049467005,-0.0066585895,0.17773497,-0.19868658,-0.20223998,0.17085506,-0.45213076,-0.18117383,0.027635586,-0.0021580823,0.19985215,0.20903583,0.023155916,-0.08356942,-0.019110423,-0.2909973,0.20977423,0.004413146,-0.04416802,0.108959965,-0.23123364,-0.072606586,0.08496851,0.18214624,0.13051888,0.14608109,-0.1595766,-0.09853545,0.144637,-0.4413673,-0.056521717,0.0272865,-0.037450682,0.32970417,0.00086169265,0.009495273,-0.04222784,0.21700622,-0.40830085,0.03194502,-0.31697723,-0.3191536,-0.040565107,0.4846568,0.23280653,0.066025086,-0.47894263,0.32484108,-0.00035331384,0.028564852,0.15332685,0.09752729,-0.1554461,-0.22633752,0.1857112,0.15135689,0.38080364,0.19626495,0.09044218,-0.3707777,-0.65825236,0.083351344,-0.4093535,0.33349922,0.14751086,-0.32854885,0.14708993,0.051326096,-0.01138285,-0.06638142,-0.31955308,0.42681918,-0.1130387,0.17102624,-0.10905275,-0.0038398523,-0.030225089,0.20392357,-0.028074475,-0.022957033,-0.20082068,-0.16219527,0.31778854,0.04571717,-0.33410713,-0.17350456,0.20403026,-0.18412848,-0.48588994,-0.03408351,0.16561265,-0.29136676,-0.44592005,-0.083242886,-0.22707458,0.38137558,-0.15993106,-0.12813543,-0.17324013,0.14297995,0.07984899,-0.0752789,-0.08195804,0.2968724,-0.3283543,-0.19681641,-0.1555601,0.054920662,0.04906027,0.0030609712,-0.06604212,-0.035117604,0.23886819,0.0007781523,-0.12905392,-0.027417714,-0.10798667,0.108585164,0.09371205,0.11720307,-0.359618,0.14423025,0.10121467,-0.27633,0.054393217,-0.19504051,-0.083503276,-0.0758095,-0.10385562,0.069524474,-0.44856486,-0.17704669,-0.096148446,-0.007928084,0.05966748,-0.014873883,-0.28934562,-0.3931778,-0.19371715,0.05154612
0.12955299,-0.17412622,-0.04364367,0.077923864,0.0326308,-0.1818576,0.03909796,0.21258889,0.20482934,0.059502687,-0.189127,0.120590374,-0.06846688,0.13602543,0.1926729,-0.4242345,-0.036430266,0.06386102,0.39094242,-0.018359592,-0.11143628,0.048787635,0.1564211,0.13774648,-0.068377,0.2189013,0.06671376,0.22699158,0.05362062,0.20382947,-0.48641902,0.2928116,0.096955046,-0.15483151,0.27814877,0.40528464,-0.10937281,-0.2651435,0.00015157572,-0.20580071,0.17087063,0.16734159,-0.44124246,0.0040179444,-0.07563397,0.0030833327,-0.23352486,0.045300446,-0.30535045,-0.073068954,0.05980802,-0.23682728,0.13995923,0.16005385,-0.025789687,-0.461623,-0.13232645,0.13931264,-0.011597285,0.4032999,-0.16225894,-0.016985152,0.08147444,0.09718182,0.06846078,0.3368625,-0.13324201,0.07977545,-0.477425,0.2901506,0.09221829,-0.007855794,-0.4122657,0.29880863,-0.32946864,-0.042474072,-0.3537118,0.20835929,-0.014170647,-0.022996342,-0.17787227,-0.013174114,0.06294268,-0.1638436,0.035326906,0.019324802,-0.1478965,0.039296973,0.04095049,-0.12906504,0.049441844,0.31812066,0.13690862,0.10677746,-0.20608167,-0.16940221,0.095181465,0.059737355,0.09484351,0.03890521,0.12617017,0.027115198,0.20541546,-0.30178127,-0.1112666,-0.019769756,-0.22142656,-0.20013028,-0.59324235,-0.07263487,0.17578276,0.20604248,-0.2290321,0.0465985,0.043143712,-0.24633084,-0.22241664,0.13366807,-0.10842163,0.1329413,0.27478415,0.15457176,0.20885962,0.007362955,0.03980498,0.054906987,-0.2305993,-0.055431526,0.16619353,-0.07731572,0.13257386,0.077597216,0.14278448,-0.10501899,-0.53179806,-0.10388142,0.2023996,-0.035993077,-0.24226934,-0.050895303,-0.17213067,-0.43771335,0.26192328,0.034694754,-0.24662098,0.43450904,0.3289525,0.03341607,-0.10106045,0.09289241,0.34696856,0.21843739,0.0595651,0.20793055,0.42373967,0.16075827,0.24580485,0.10920245,0.20755617,0.1389387,0.31871414,-0.22540277,0.19635783,0.22403564,0.13056143,-0.37674505,-0.3063184,-0.1576229,0.39805815,-0.07152585,-0.44759053,-0.31987593,-0.06256742,-0.5291836
0.079776205,0.08302045,0.1539352,0.27342957,0.08259541,0.14260031,-0.092024356,-0.1598664,0.10527548,0.20739423,0.08223598,-0.2219504,0.17107551,-0.03933309,-0.28935292,-0.2858709,0.20051657,-0.03489927,-0.1465525,-0.17718963,0.2932813,0.23912705,0.2641773,-0.22426502,-0.03373509,-0.30888438,-0.041795082,-0.028087657,0.27624837,-0.3127385,0.027264811,-0.25566024,0.14214304,0.057905592,0.19069338,0.005062968,0.09217498,0.09154507,-0.45163178,-0.38426697,0.10561728,0.058859747,-0.21040626,-0.3979178,-0.023976449,0.06895501,-0.38186333,-0.102786735,0.120664835,-0.3770243,-0.40193403,-0.10762937,0.1662403,0.15732199,0.18963288,-0.46310908,-0.10140549,0.06304826,0.011716487,-0.22231457,0.23048082,0.05695814,0.15370768,-0.46619317,-0.063587815,-0.13536277,0.28251117,-0.183092,0.022595663,0.19321442,0.29225522,0.3674893,0.21452229,0.053959217,-0.16810593,-0.3317548,-0.084517516,-0.017411666,-0.3335799,-0.35953274,0.023489803,-0.5279102,-0.010953581,0.109327145,-0.33381537,-0.07471754,0.23709202,-0.08440201,0.18605088,0.14218993,-0.20212276,-0.020323101,0.18095192,0.16414683,0.048807155,-0.29986954,0.012474624,-0.16311638,0.13284549,-0.16695826,-0.21016935,0.029665412,-0.029818045,0.467434,-0.32381773,-0.0565629,0.18627444,-0.38015828,-0.051500224,0.0110338405,0.04924709,-0.16156621,-0.3019692,-0.75112957,0.06434293,-0.0038709359,-0.49518895,-0.21237554,-0.100490615,0.06041402,0.12056596,0.18037967,-0.06790215,0.031751733,0.1394531,0.22206669,0.15723832,-0.25435176,0.1930864,0.20538619,0.20493217,0.029559726,0.007391541,0.014518631,-0.1126547,-0.0557614,0.16216779,0.058848493,-0.058463212,-0.4459656,0.22335827,-0.47663772,-0.16772906,0.15918933,0.20591025,-0.19333854,-0.7911613,-0.2758054,0.17323585,-0.3424946,0.062922224,-0.07447268,-0.29324657,-0.11494246,0.17536677,-0.42195407,0.0481474,-0.11572665,-0.03966254,-0.20574035,0.26394594,0.20507595,-0.16569875,-0.08633155,0.096033655,0.10876449,-0.33041754,-0.122569814,0.19133185,-0.15031181,-0.031823736,-0.23032765,0.08763011,-0.1316031,-0.69901365,-0.10594644,0.0027947638,0.31369993,-0.048266225,-0.14595307,0.34841144,-0.1092552,-0.28594264,-0.3588522,0.042591844,0.08658949,-0.20151743,0.021290852,0.11302788,-0.026200581,0.02937253,-0.21955997,0.1393916,-0.2731971,-0.2159475,-0.3105624,0.21975906,0.24044275,-0.18013158,-0.0286365,-0.02630664,0.06843315,0.08248786,-0.059370983,0.28030035,0.058629435,-0.25701767,-0.16983226,-0.054978494,-0.29245788,-0.030851396,0.17088826,-0.08890544,0.14079945,-0.017288893,-0.296177,-0.39961845,-0.22774608,0.07296513,0.22391589,0.016010135,0.23122144,-0.027766151,-0.22884363,-0.06482982,-0.4517732,-0.040004626,-0.11278813,0.14048289,0.14071408,0.15674044,0.24570018,-0.18146585,-0.0023801292,0.053446148,0.15580195,0.18318868,0.16410519,0.22614317,0.20624125,-0.30773953,-0.09274868,0.083246745,0.30463663,-0.3319182,-0.07140575,-0.21129142,-0.11597571,-0.0069635776,0.098322004,0.25296938,0.3205491,-0.058270533,0.14545278,-0.30492413,0.007411717,0.11455358,0.23711097,0.47060922,-0.10184594,0.07044763,-0.1713385,-0.38459584,-0.072168596,0.15044923,-0.14909323,-0.31942734,-0.34324932,-0.10065812,-0.58752537,-0.09500778,-0.21674442,0.140418,0.0623952,-0.26667887,-0.37473413,0.08662252,-0.063618936,0.010540581,0.10121012,-0.303945,-0.019554224,0.08992663,-0.29765663,-0.36593068,-0.5207599,0.2068312,-0.05195934,0.020336064,0.27222383,0.15598288,0.038869992,0.17315975,0.043690044,-0.18934421,-0.30271193,0.16306175,-0.16126661,-0.06428623,-0.17597315,0.12016363,-0.19776075,-0.24395964,0.06746313,-0.046615556,-0.11602694,-0.2230812,-0.2192777,-0.057943564,0.005633435,-0.32092157,-0.012824662,-0.0333843,-0.27092627,-0.23741086,0.080787815,-0.10765114,-0.3798008,0.052259285,-0.27936205,0.15700816,-0.00023882055,-0.42482248,0.012249742,0.051188327,0.27925828,-0.44702014,0.110096954,0.09737404,0.107507564,-0.020872153,-0.043876924,0.18497911,0.1740171,0.11576816,0.1976199,-0.02416179,-0.40701443
-0.022055259,-0.19892693,-0.02524337,-0.011862717,-0.046342716,-0.048789058,-0.43503815,-0.3387353,-0.31360704,0.054234896,0.08049481,0.015144165,0.01209766,-0.31699482,0.21426722,0.057513136,-0.0102988,-0.041149847,-0.25938454,-0.10153101,0.08227969,-0.082542256,-0.067535095,0.14917484,0.209697,0.03965567,0.20367984,0.025178395,0.08489211,-0.0014321837,-0.09461034,-0.7209466,-0.20236166,0.07192214,-0.49069753,-0.46005768,-0.015978025,-0.04356433,-0.14741246,0.023110654,-0.018802619,0.022910068,0.06596241,0.19697845,-0.07324448,0.16414616,0.04334698,-0.18560062,0.35220572,-0.1508326,0.014048087,-0.17897932,-0.15329356,0.16403346,0.258888,-0.02687682,-0.18159269,-0.11480639,0.096334115,-0.41349778,0.17545699,-0.04842014,-0.16663244,-0.06723269,0.19520575,-0.58699083,-0.08542309,-0.0100185145,0.110388,0.083343014,-0.031832978,0.10579343,0.26936325,-0.40495688,-0.0827618,-0.3341124,0.2672925,0.047174077,0.08540556,-0.16188361,-0.014804689,-0.1224771,0.005589092,0.16679876,-0.48174196,-0.2470575,0.18379688,-0.1981798,-0.11451509,-0.06913539,0.022676826,-0.26273495,-0.0055386503,-0.17161962,-0.048664603,0.043631364,0.0205242,-0.0624211,-0.12599984,0.016641337,-0.09600901,-0.055729304,-0.361825,-0.47178957,-0.05839854,-0.18225408,-0.064794175,0.12024204,0.26350358,0.07811972,-0.10547539,-0.26676896,-0.25866067,0.013216741,-0.28492072,0.13932739,-0.21107554,-0.21825966,0.05898892,0.059047434,-0.053742494,0.03673379,0.021079497,-0.026323909,0.049607802,-0.05831481,-0.09832872,0.03540721,-0.24805923,0.14276637,-0.25636804,-0.09150469,0.07698009,-0.26154247,-0.34181073,-0.070100166,0.051603448,0.12199534,0.14695764,0.1571471,0.02739496,-0.06758118,-0.3985709,-0.23827069,0.0045651454,-0.5878623,-0.4657364,-0.102441065,0.02135407,-0.13612773,-0.19426231,-0.22705178,-0.04521629,-0.23178756,-0.4001073,-0.055885073,0.056429304,-0.36253598,-0.27385938,-0.48230562,-0.46669346,0.23791996,-0.45488045,-0.43901834,-0.12533396,0.17232068,-0.027882472,0.06403546,-0.1079559,0.016585771,0.31761032,0.23019174,0.21637517,0.03640604
-0.066864416,-0.009262441,0.06043223,-0.3186969,-0.60182893,0.16093448,0.064636804,-0.08559962,0.025948502,-0.087405846,-0.32694077,0.04841066,0.006713412,-0.2896692,0.11475125,-0.23652326,-0.13148792,0.1402409,0.2187262,-0.058651626,-0.37798673,-0.24249552,-0.09415539,0.5122556,0.006040827,0.15075937,-0.12107172,0.082688265,0.11897897,0.028552432,-0.31224748,0.12930577,-0.02518476,-0.02588881,0.562126,-0.62366664,-0.45686692,-0.16524403,0.03855231,0.3276911,-0.21772242,-0.54272395,-0.20297424,0.006222948,-0.14158218,-0.05454181,-0.12631546,-0.5028568,-0.15707667,-0.050445758,0.12544098,0.13790396,-0.184499,-0.25080252,-0.26079926,0.24153249,0.16096984,0.27839565,0.1389385,0.00938815,-0.26455677,0.02021698,-0.14888938,0.08256964,0.05222238,0.03584481,0.26967487,-0.63867474,-0.42844677,-0.1130568,0.10094809,0.110127404,-0.47345328,-0.19925451,-0.24944827,0.3014326,0.0023204356,-0.16860552,-0.38110024,-0.6172395,-0.049331333,0.3177248,-0.1909349,0.09184014,-0.101042174,-0.17890051,0.06527695,-0.100638725,0.29122722,0.02951094,-0.034878574,-0.23247126,-0.4475213,-0.09775321,-0.20259784,0.24537368,0.15268415,0.12305513,0.07683619,0.11033669,-0.13550992,0.023590865,0.025239976,-0.049622457,-0.38768357,-0.32166392,-0.27871257,0.33673486,-0.30062413,0.10036055,0.24663475,0.04677371,-0.36556455,0.23914094,-0.014134977,0.22926646,0.0042295502,-0.34611332,-0.01904273,-0.01207194,0.09273584,-0.006150415,0.010946789,-0.0016537723,-0.15610941,0.08316526,-0.028533626,0.14015749,-0.5002199,0.05589398,-0.20152876,-0.1358665,0.022392265,0.073105045,0.03482174,0.1336928,-0.592107,0.09446339,-0.2796916,0.12065486,0.23642798,-0.020577207,-0.011411785,-0.29961622,0.09592561,-0.027361596,0.27285913,0.09449724,-0.15522712,0.22420247,0.2993936,0.00425085,0.03745458,0.14944561,-0.19648011,0.101808675,-0.22621703,0.3239744,-0.19601573,0.07803181,-0.23580915,-0.37874943,0.47294205,-0.15933037,0.057044234,-0.0035541065,-0.14841679,0.10841387,-0.34948328,0.2744195,-0.19420554,-0.041443694,0.27497926,0.16351114,-0.084109284,-0.08272845,-0.37135103,-0.52337146,0.1255772,0.027766854,-0.119424194,0.37011212,0.36199647,0.17150098,0.12666428,0.25248438,0.006148109,-0.20378914,-0.3772002,0.07862663,-0.04100732,-0.15512188,0.113281615,0.16277774,0.15237592,0.09635695,-0.4588562,-0.31783038,0.009235808,0.026952732,-0.12168791,0.12786877,-0.28680536,0.24397147,0.100797236,-0.1325148,-0.9762205,-0.12697925,0.0901966,0.0857882,0.17305315,0.13466835,-0.06458223,0.32108873,0.0042599416,-0.3354811,0.2716663,-0.14052694,0.03822561,-0.27214032,-0.07395152,-0.30947345,0.0010144128,0.18910915,0.12970509,-0.19330847,-0.08705712,-0.46028718,-0.37905645,-0.19582044,0.03921039,0.10506073,-0.5929197,0.08246757,-0.5520393,0.19702175,-0.18222103,0.019637544,-0.050945736,-0.7854456,-0.19113508,-0.34418294,-0.010873273,0.07300152,-0.17959495,-0.030755607,0.06338596,0.10712717,0.12160509,-0.06701061,0.122077174,-0.109087,-0.18385999,-0.020934468,-0.13691396,-0.2076646,-0.51091063,-0.0069383457,-0.25565687,0.2337123,0.1550784,0.011302682,0.037787482,0.24554405,0.0582664,0.15928547,0.01277964,-0.017623939,0.24320056,0.14186595,0.20804293,0.35965022,0.037301037,-0.17633039,0.12357911,-0.1201997,-0.031303898,0.106599025,0.24401304,-0.16050974,-0.15183651,-0.018603198,0.018472763,0.42827398,-0.0005062487,0.3887738,-0.099859804,-0.27748755,-0.14911081,-0.20568791,0.29998806,0.048818305,-0.008236201,-0.2833551,-0.25085822,0.35463122,-0.09053034,0.16119196,0.09746839,0.07494026,0.2838528,-0.20873073,0.078734696,0.060723014,0.10207317,-0.19476654,0.3198434,-0.06711,0.05555517,0.09989499,0.1916434,0.24133773,-0.033613656,0.20495833,0.26149026,-0.004151282,0.18588671,0.063002594,0.16390422,-0.20745412,-0.14326286,0.23331408,0.04905367,-0.09120015,-0.16155365,-0.2634088,0.25490734,0.3274339,-0.19197743,0.040406644,0.45140055,0.26520842,0.015916014,0.1488851,-0.09796609,-0.35975602,0.57526904,0.39076912
-0.12609112,0.1670643,-0.07306016,0.16201746,-0.026258586,0.024135582,0.15689772,0.066321954,-0.26602867,0.14857915,-0.050870534,-0.10001045,-0.042804092,-0.10668991,-0.03390083,-0.42665398,-0.026026702,-0.0957833,-0.050340407,-0.4452071,0.21076132,0.08803721,-0.31790224,-0.0073014484,-0.48354155,0.23811522,0.038943265,0.24362761,-0.08472443,-0.032673705,-0.17245285,-0.15991741,-0.014476401,0.20505777,-0.040290944,0.2664179,-0.14296834,0.09377782,-0.037025105,-0.023095908,-0.05542183,0.19898349,-0.3364052,-0.2959543,-0.12656535,-0.049139302,-0.2863096,-0.37542194,-0.5946773,0.22847645,0.0018242785,0.13653798,-0.27547687,-0.22970141,-0.027464213,0.039990976,0.17589019,-0.37385148,-0.15930727,-0.27109355,0.09041353,0.02505291,0.048402444,-0.13739564,-0.42290264,-0.19025567,0.2173706,-0.043517124,-0.1976927,-0.12603828,-0.305773,-0.22660263,-0.2653071,0.15484104,0.37452176,-0.01759233,-0.038522508,0.12608401,-0.7224429,-0.03878767,-0.3690675,0.19628954,-0.17618942,-0.1598132,-0.12359692,0.11016615,-0.11899928,0.30436608,0.37209105,0.14660901,-0.025113784,0.030867003,-0.098333724,-0.2043785,0.1809892,0.19308889,-0.55437315,-0.4650231,0.18247177,-0.04287019,-0.20231606,0.013776473,-0.041784838,0.029208161,-0.52181053,-0.1308099,0.31910017,0.14983466,-0.091150306,-0.3622649,-0.23712659,0.35106033,0.018869624,0.17295638,-0.14965542,-0.30565956,0.23905016,-0.13913967,-0.43964022,0.18859878,0.24295305,0.40811482,-0.2222745,0.29281762,0.28910124,-0.20022012,0.05929147,0.2572933,-0.14573489,-0.6169257,0.30523255,-0.27666587,-0.266072,0.36501607,0.5302929,0.11640026,-0.46158046,-0.13654871,0.14724357,-0.39228782,-0.5611377,-0.14543147,0.1742594,0.34455052,-0.17429163,0.101037234,0.014517851,-0.2254179,-0.14174752,-0.27596897,-0.37011924,0.014170779,-0.1619612,0.41315588,0.1544923,0.06994388,0.20332174,-0.12976104,-0.10416231,0.19843832,0.30066663,-0.74013096,0.24345115,0.001454512,-0.2807676,0.06660922,0.02209485,-0.1625034,0.091882885,-0.08901914,-0.27886277,-0.6148035,-0.6891655,0.044189006
-0.06839715,-0.07988246,-0.20679513,-0.4561064,-0.10748074,-0.14795287,0.083048955,0.21428847,-0.2769372,-0.3006055,-0.03329704,0.043067418,-0.1981117,0.07687678,0.049153473,-0.014210192,-0.23010668,0.10408099,0.0049964297,0.027805768,-0.17759155,-0.23824407,-0.4180711,0.18492144,0.045865588,-0.059727415,-0.065528266,-0.2142319,-0.25916457,0.0036210222,-0.30820385,-0.002475649,0.09256196,-0.28012797,-0.20045584,-0.0685211,-0.0950823,-0.35097525,0.21343918,0.18252663,-0.31362078,0.15197475,-0.3554252,0.23981366,0.21844177,0.02528136,0.3328168,0.537558,-0.15197738,-0.01974522,0.096580654,0.05575745,-0.43312258,0.282088,-0.21171637,0.11005071,0.041380912,-0.10438039,-0.03681951,0.121366255,-0.17428054,-0.027594436,-0.3125301,0.0482168,0.11458782,-0.68236274,-0.34122515,0.27131385,0.26919094,0.11475242,-0.46003586,-0.22546266,-0.14270775,0.047586653,0.23632006,0.068513304,0.1263833,0.07189653,0.3482806,0.35256568,-0.44871762,0.2340323,-0.15421328,-0.17706625,0.1827723,0.1839456,-0.019571278,0.09183503,-0.2756008,-0.0058900397,-0.03412375,0.38458565,-0.57090455,-0.00089563744,-0.16770627,-0.021569924,0.18926501,-0.41486102,-0.37655857,0.19100012,0.5562726,0.41594598,-0.0061338814,-0.12033251,0.1751176,-0.04901688,-0.35870692,0.24748355,0.09294327,0.2371266,0.085389845,0.22702803,0.031736147,0.24338011,-0.32877195,-0.033738013,0.37162232,0.36421075,0.0036932651,-0.5566945,-0.689139,-0.24448386,-0.027100636,0.26609436,-0.7807125,-0.29668653,0.01379678,0.1117495,-0.14777803,0.04817776,-0.05377885,-0.28658104,0.010424729,-0.19438757,0.13024849,0.091769256,-0.12494138,0.1702288,-0.35241744,0.021094069,0.12688597,-0.009977471,-0.060719028,-0.24385653,0.06320511,-0.0069526266,0.32320002,0.0859123,0.019405518,0.095335945,0.23653233,-0.021453876,0.22155134,-0.23001711,0.25273716,-0.34301373,-0.012949782,-0.1200762,0.18905401,-0.0018339693,-0.18574037,0.17060459,-0.02596477,0.03204064,0.12771115,-0.05025629,0.16960062,0.11677337,0.09854144,-0.095401265,-0.02056375,0.18160564,0.1364333,-0.019659406,0.0059844903,0.00057965866,-0.06628699,-0.13460621,0.17229576,0.2619684,-0.28116974,0.07352334,-0.024971459,0.1284793,0.18270113,-0.33592677,0.017497454,0.006227591,-0.25854585,-0.068938114,-0.062138043,-0.06984279,0.19945596,0.006580346,-0.4472831,0.04284495,0.10644611,0.021222025,0.21554111,0.039056957,-0.22547795,0.08642728,0.1346692,-0.29521504,0.25325108,0.11763201,0.11971415,0.16555662,-0.17186706,-0.3801062,-0.029913826,-0.52246,-0.0019460429,0.18663405,-0.022984538,0.10299757,-0.44547406,-0.13227792,-0.12557298,0.0341665,-0.052174613,-0.40796304,-0.1384586,-0.22034971,0.10143405,0.04578349,-0.33248258,0.34149024,0.1351846,0.27078992,-0.4827474,-0.41392747,0.10926858,-0.05977196,0.34621435,-0.54740155,0.25204772,-0.111975364,0.17851947,0.32454202,-0.025429782,-0.26143143,-0.44283158,-0.68776953,0.4273051,-0.02633151,0.03345315,0.040565968,-0.5027307,-0.13852273,0.034927107,-0.0075529194,-0.015769927,-0.17367032,-0.3175088,-0.100778334,0.16421607,0.1340859,0.1958358,-0.17087601,0.1861721,-0.23689368,-0.17709073,-0.20107101,0.23062404,-0.028238498,0.17422082,-0.04100774,0.030336551,-0.07762865,-0.19441341,0.08258826,0.10154986,-0.4312252,0.21919109,-0.041579194,-0.025124244,0.099535905,0.18747917,0.0025868425,-0.2316732,-0.016952932,0.06753661,-0.05166035,0.03697948,-0.06792692,0.14117117,-0.12796111,0.041637328,0.06075387,-0.17310615,0.029718058,-0.007902745,-0.07013117,0.032814182,0.15748668,0.11471406,-0.113822214,0.08592843,-0.18492387,-0.044576377,0.077724926,-0.020357257,0.08333194,-0.057499323,-0.3570351,-0.040182296,0.11776926,-0.1295757,0.030992458,0.091056764,-0.12983404,-0.043774534,-0.1971792,-0.24548623,-0.0017740349,-0.011177304,-0.24785519,0.117221944,0.13405715,-0.15012197,-0.032139093,-0.09038241,0.094936766,-0.02671124,-0.05820576,-0.06520739,-0.10591132,0.065253094,0.3160826,0.011393276,-0.2138245,-0.13009351,-0.12814446,0.21485348,0.115137696,-0.023476297,-0.019642197
-0.054901786,-0.09273594,0.017851703,-0.3314647,0.092419215,0.10759265,-0.32442504,-0.09926216,0.23929991,-0.06406755,0.13447052,-0.03310761,-0.02778487,-0.36850423,-0.06136666,-0.14488384,-0.030876035,0.042519014,-0.04524708,-0.18365036,-0.22004731,-0.07147004,0.064352915,0.06406943,0.17052555,-0.2000186,0.08689069,-0.30687934,0.13722819,0.06889842,0.08021349,-0.36837313,-0.049109608,-0.16312402,0.2959335,-0.3448263,0.19567247,0.04507939,0.012973014,0.02694229,-0.15121485,-0.5968317,0.11473142,0.07831963,0.093192056,-0.15587689,0.10713433,-0.07409037,0.17296842,0.06291892,-0.011308798,0.19906598,-0.1808047,-0.30719638,0.16749458,0.17936343,0.1574256,-0.2372439,0.046144035,-0.24476692,-0.32523674,0.01598177,0.053291414,-0.2977558,0.18965401,-0.18176007,-0.08338639,0.040063474,-0.09779946,-0.33466637,-0.23581341,-0.2733272,-0.17050889,-0.007036285,0.13255705,-0.065231666,-0.0631548,-0.7855832,0.049383108,-0.09890222,0.15800506,0.08010721,0.12107943,0.013802208,-0.2001043,0.047890905,0.17054999,-0.025190456,0.07687289,-0.0048055006,-0.0029496893,-0.4207451,-0.14818235,0.045385763,-0.15934458,-0.17686711,0.14075087,0.053163953,-0.07406872,-0.036305934,0.076704055,-0.13774402,-0.2742854,-0.18936388,0.061866287,-0.062478464,0.041912343,0.30064887,0.20993176,0.11783506,-0.07792892,-0.18136835,-0.035542663,-0.011234048,-0.08506218,0.03952647,-0.06265249,-0.12043575,0.0077137006,-0.21643017,-0.07304193,-0.0701029,-0.14754868,-0.19944394,-0.3729435,-0.21199808,0.045296695,-0.03698206,-0.099020414,0.022449147,-0.13965431,-0.16792858,-0.25350913,0.09856876,0.18640813,0.2825878,-0.15495287,-0.054026533,0.27788472,0.2598632,0.23016895,0.22951508,-0.12114331,0.01838612,0.18377085,-0.0090131285,-0.48693973,0.15328619,0.074836,0.13143602,-0.27245167,-0.067104585,-0.06355489,0.16042852,-0.6483327,-0.117063336,-0.26048967,-0.15872948,-0.16775575,-0.28225675,-0.3280706,0.071689114,-0.17860393,-0.5707227,-0.33401844,0.07053564,0.273514,0.12486884,-0.47490168,-0.06492011,0.2183939,0.2540924,0.17285548,0.0908979
