-0.083787985,-0.08632733,-0.08785311,-0.1275808,0.09602,-0.20395589,-0.22371052,-0.13695228,-0.0032536078,-0.09991925,0.062047493,-0.12503028,-0.005013676,0.0894041,-0.08190697,-0.0077365255,0.0030460455,-0.12274329,-0.23168029,0.021655656,-0.1372611,-0.08314679,-0.21779875,-0.043807592,-0.38009867,0.10092841,-0.22248371,-0.34794378,0.11374587,0.05939,0.0664176,0.072352074,-0.13763635,-0.069472775,0.039170712,-0.017880818,-0.04852229,-0.06530331,-0.10792868,0.040177733,0.036691688,0.0315823,-0.113200895,-0.113906,0.02204524,-0.0031534075,-0.14023979,0.07680766,0.09417987,-0.07924658,-0.17016281,0.008157277,-0.087768614,-0.07024682,-0.16099092,-0.122817405,-0.15366136,0.036812685,-0.18366084,0.06865602,-0.02652881,0.037173536,-0.01621906,0.010985474,-0.06502277,-0.023072071,-0.06125482,-0.0019250376,-0.07673152,-0.079597905,0.052783303,0.14249098,0.08681578,-0.012485331,-0.21022959,0.07338647,-0.15017805,-0.00820964,-0.08738191,-0.052112475,-0.031834625,-0.09891794,-0.16720697,-0.009595616,-0.020613877,-0.18565272,0.0060058283,-0.060803063,0.145664,-0.07332228,-0.12444274,0.1451621,0.013044849,0.13577971,0.08677865,-0.00018690666,-0.14778323,-0.1461326,-0.06520507,0.16670239,0.0717667,0.027420528,0.0155858025,0.27556682,0.073469274,0.02124167,-0.025860874,0.038462605,-0.15777901,0.015488557,-0.065190166,0.06100612,0.11588543,0.36856902,-0.1496687,0.29390106,0.11676576,-0.19463061,-0.055186145,-0.27100483,0.05063592,-0.018814912,-0.16974123,0.028792435,0.15139614,0.15483274,-0.04205252,-0.17864776,-0.0843252,-0.14535278,0.20904574,-0.25055566,0.005525604,-0.11678267,-0.068073735,0.0836159,0.15287198,0.09059434,-0.018235162,-0.14136106,0.048761345,0.069463916,0.15606385,-0.10579737,0.017110057,-0.42931852,-0.053823594,-0.1651658,-0.2523597,0.02836822,0.066358365,0.18731207,-0.27117613,0.011709308,-0.041935124,-0.16579425,0.06279728,-0.090638466,0.07384566,-0.02003758,0.03593693,-0.10721516,0.005630747,-0.11287398,-0.024799973,0.03926772,0.16735429,-0.18338412,-0.06344377,0.08862712,-0.0013466039,0.23894759,0.028008223,-0.23508394,0.030669376,0.2963721,-0.17355174,-0.29613745,0.053677946,-0.37289053,-0.10866506,0.01719684,0.016259093,0.023596883,0.06866011,0.18175994,0.09498954,-0.14231077,-0.06267948,-0.012139105,0.10223109,-0.066517316,-0.20290056,-0.04925789,-0.1562108,-0.0020070747,-0.099585265,-0.022272784,-0.016803615,0.013141116,-0.09432145,-0.07101916,0.15350054,0.012025215,-0.06448661,-0.25132743,-0.062813886,-0.18345186,-0.007903145,0.071415566,-0.074068055,-0.20249994,0.07840433,0.023807338,-0.016058516,0.01641542,0.047512457,0.0012170371,-0.14489534,0.12237101,-0.055278156,0.042696185,-0.11898409,-0.20213644,-0.10534396,-0.25101385,-0.2639133,0.04074608,-0.03628985,-0.18976268,-0.022592511,-0.09487516,0.10735879,0.09481977,0.20076224,0.16361693,0.09551687,-0.11611236,-0.032576025,-0.029390352,-0.075720415,0.17344376,-0.2945003,0.09953594,0.051741134,-0.09282968,-0.18332292,-0.027577188,0.23120505,-0.03916155,0.040863845,0.2745929,0.10661118,-0.023930013,-0.04857122,-0.1196451,0.020217415,-0.029378662,0.067766674,-0.29808185,-0.03219875,-0.07862662,0.0811729,0.13502783,-0.07541827,0.10818078,0.058595832,-0.18918261,0.009866393,-0.06274843,0.19046712,-0.1728523,0.06309772,-0.54762477,0.21180804,-0.50289,-0.45462003,0.18989319,0.11515434,0.044354554,-0.27435002,0.02810045,-0.039043825,-0.058060396,-0.19666603,0.04436375,0.009874243,-0.11643567,0.31929034,-0.18873468,0.12291276,-0.34734747,-0.0026227776,-0.05323136,0.20741853,0.019064035,-0.1097346,0.121649966,-0.104812436,0.0882062,-0.06834282,-0.1586894,0.0795399,0.047887165,0.009334527,-0.42602313,0.111750305,-0.14274518,-0.16025777,0.09219091,-0.0834095,0.113496915,-0.19959207,-0.028709853,-0.00074412517,-0.091498405,-0.07824439,-0.049469206,0.0030108416,0.06407694,-0.13016963,0.13578698,-0.070155665,-0.37007222,0.053612508,-0.094095,-0.11234266,-0.17915837,-0.07078586,-0.14853443,0.14034174,0.1168166,0.07992105,-0.020892892,-0.12602876,-0.022102728,0.03958536,-0.007335294
-0.32764557,0.055122692,0.055557612,0.124268286,-0.19524269,0.02224724,-0.063223265,0.10173748,-0.1524734,-0.052928206,-0.06848905,-0.18401098,0.12712798,0.14507578,-0.10494121,0.22897203,0.060549255,0.021817004,-0.03373299,-0.28674904,0.006965405,-0.42371824,-0.06204869,-0.05395578,0.1436941,0.10269416,0.12834792,0.104634665,-0.20185143,-0.15440552,-0.3076841,0.21611813,0.0023856056,0.14669733,0.05288529,0.09757347,-0.3527156,0.032552157,-0.06855609,-0.15846118,0.061621234,0.13631076,-0.11570112,-0.48367986,0.07999898,-0.057866592,-0.06598123,-0.08911953,0.05747957,-0.042957474,0.13200241,-0.13121974,0.13121563,0.14419861,-0.15799968,0.12835467,0.059654996,-0.022289632,-0.0759162,0.025714558,0.23015864,-0.10947219,0.08648464,-0.0631456,-0.16400659,-0.21853088,-0.050799455,0.05978444,0.059975456,0.041447766,0.10987767,-0.09404389,-0.003181787,0.0032112342,0.0076304246,-0.03086854,-0.14689031,0.09418061,-0.2826871,-0.02094185,0.13654251,-0.13220394,-0.18303639,-0.17050143,0.05273713,0.11431964,-0.05152701,-0.11746384,-0.121300325,-0.12149167,-0.04495918,0.07170394,0.08242408,0.0545243,0.14728606,-0.15900421,-0.027346069,-0.14292258,-0.0048979884,0.17775777,0.096411616,-0.049114034,-0.037243355,-0.055108316,-0.10458059,-0.3748139,0.18956712,0.0819534,0.123133264,0.07222266,-0.15661785,0.039102897,-0.05849356,-0.033720188,-0.068263315,0.01550379,0.05715625,0.0019056243,-0.058188755,-0.09492358,-0.059095632,-0.2690624,-0.03513711,0.12099633,-0.22871836,-0.23402399,0.06789341,0.05549117,0.19720304,0.09279349,0.15112585,-0.035954576,-0.010424814,-0.07619835,0.102627784,0.05776617,0.06214508,-0.13022995,-0.09997909,-0.049714703,0.19735335,0.1698175,0.07144931,0.14038776,0.092864186,0.049937274,-0.06360263,0.0708128,-0.024371253,-0.21271262,-0.06425014,-0.21593867,0.1337084,-0.21193983,0.09199625,0.07236154,-0.23313175,-0.4723387,-0.21681395,-0.14887227,0.15748264,0.07376773,0.16008957,0.0077655013,-0.078681014,-0.050806444,0.0916449,0.12605363,0.09618176,0.15363012,-0.110758066,-0.32489458,0.013078633,0.041678507
0.13227686,-0.07757723,-0.17906743,-0.08338367,0.061967187,-0.2337104,-0.009250725,0.21262677,0.005474079,-0.20307298,-0.08160679,-0.015709614,-0.21990725,0.05325956,-0.26596048,0.050299954,-0.086115874,0.08372649,-0.07625403,-0.121470146,-0.059964683,-0.08677236,-0.13375406,-0.19898903,0.07192946,-0.011988944,-0.11607248,-0.19684234,-0.1374539,0.03349888,-0.19931647,0.06596994,0.011498576,0.038504113,0.12456937,0.032943707,0.12076446,-0.164213,0.19545156,0.08753184,0.060725335,-0.15255333,0.10447585,-0.25954443,0.021816103,0.030603625,0.070311576,-0.035094805,0.08120686,0.02422016,-0.12939064,-0.05530754,0.024634006,-0.1008391,0.09703389,-0.39290684,-0.10289259,0.02839925,0.023331558,-0.097967625,0.09064071,-0.03984505,0.19592936,0.047416907,0.19387762,-0.0054422026,0.04973513,-0.14860605,0.18865801,-0.15177754,-0.019943861,-0.19623779,0.024419382,0.14971498,0.07099099,0.0037712792,-0.004634187,-0.12027037,0.101406716,-0.017649593,0.09252706,-0.1559258,0.10508687,-0.038388662,-0.10351518,0.18208991,0.16242118,0.08447725,-0.032734923,0.20196767,0.107327655,-0.1390036,0.030176425,-0.3575068,0.053838056,-0.21628186,0.08386975,-0.12078156,0.06834802,-0.20974939,-0.041028354,-0.11193774,0.007728134,0.0052037016,0.0024046863,-0.023355003,0.08680079,0.07048835,0.080837145,-0.16151501,0.0962855,-0.15048988,-0.09641463,-0.23209144,0.13580252,-0.16976517,-0.16418868,0.14368759,-0.0817123,0.08093696,-0.33930638,-0.060909644,-0.082242385,-0.11535868,0.05030621,-0.2196738,0.11424654,0.10533772,-0.023474436,0.018358324,-0.28409606,-0.11829779,-0.046473503,-0.07235631,0.12172514,-0.2494066,-0.0736675,0.047656808,0.020630714,-0.027680874,-0.03640138,-0.13909787,-0.38477516,-0.15049762,-0.11908969,0.07603377,-0.0059388983,-0.07220343,0.085404515,-0.16729072,0.04142673,-0.14557745,0.04317559,-0.01621522,-0.25989673,-0.0073173856,-0.11688101,-0.14573444,0.044273622,-0.107319154,-0.10912557,0.08438102,-0.17810492,-0.016377948,0.060725726,0.0491695,-0.05212579,-0.05070336,0.11580259,-0.17623805,0.0940578,-0.15466546,0.007315933,-0.12659428,0.010004261,-0.50361776,-0.14198238,-0.26237687,0.008165801,-0.12685741,-0.024329443,0.017992066,-0.11941038,-0.2982759,0.059445184,0.046602134,-0.17345865,0.12402177,-0.14539891,-0.117640525,0.13575378,-0.2744233,0.20398498,-0.023502262,-0.035822418,-0.096436225,0.2599863,-0.14852649,0.14466329,-0.19757399,0.0035524084,0.1252914,-0.033364072,0.09937935,-0.009231868,-0.3735173,-0.020908637,0.10224292,-0.10005305,-0.16816108,0.008255895,-0.13205765,-0.3049213,-0.12515467,-0.17894463,0.026368048,-0.01163245,0.23853984,-0.02032135,-0.25564766,-0.06347994,0.0380623,-0.0039504506,-0.108477004,0.05200824,-0.078811705,0.13827918,-0.20279516,-0.02930791,-0.21538134,-0.09980849,-0.1502526,-0.21532753,-0.04502158,-0.04525593,0.05125412,-0.15775223,-0.17636065,0.049114607,-0.0030664448,-0.21859984,0.20037714,0.06743721,-0.036771264,-0.121630505,0.112929754,-0.27231407,0.14235854,-0.25992775,-0.06557266,-0.19427258,-0.21811792,-0.14032885,-0.360132,0.039946802,-0.07946377,0.021168742,0.10655198,-0.32137036,-0.21054107,0.0083163,-0.109569445,0.13424413,0.1492227,0.013937677,-0.0024871738,0.034219153,-0.26839828,0.055231724,0.07975278,-0.5701518,-0.17199564,-0.10319347,-0.021342734,0.058685195,0.0654726,0.04871878,0.015667196,-0.14860532,-0.15084831,-0.029040663,0.06250274,-0.24508756,0.09417593,-0.08965452,-0.02147765,0.069073536,0.19759403,-0.22334726,0.07570254,-0.028137565,-0.14317617,0.12033844,-0.1411409,0.13002259,-0.12805694,-0.017617319,-0.123216696,0.12682214,-0.21658161,0.014446105,-0.028845334,-0.11213112,-0.11938678,-0.28077537,0.015553441,-0.29274374,0.16035073,-0.04421183,0.10799364,-0.25422156,-0.014781044,-0.08867538,0.07298878,-0.035105083,0.08296708,-0.2713366,-0.2805281,0.09080891,0.1843513,0.15665165,0.06129509,-0.009781401,-0.31255713,0.07373244,-0.19326806,0.15733321,-0.028717332,0.022723977,0.118256405,-0.042665564,-0.034276746,-0.21795613,-0.12437841,0.0592214,0.03879504,0.03319905,0.10437095
0.054284945,0.12086078,0.042986,0.008067156,-0.10102025,-0.008299837,-0.33628646,-0.045828972,-0.0024321591,0.12228517,0.18272495,-0.029993625,-0.23381968,-0.08872741,-0.0033211822,-0.11277298,-0.18264845,-0.15030922,0.003047343,-0.1001715,0.021316737,0.008924349,0.011483595,-0.19475669,-0.06358003,0.105288,-0.29679817,-0.13445505,-0.07361712,0.10919396,0.025487993,0.079235114,0.018855073,-0.08856263,0.12036287,0.0020755946,0.016164701,-0.04626812,-0.100081176,-0.10591987,0.07769307,0.027951388,0.056637358,-0.08329266,0.10334585,0.15444317,-0.17128053,0.08350498,0.039701518,0.030096125,0.09178812,0.0075849355,0.16546138,-0.075419076,0.102163985,-0.032954216,0.08511859,-0.32602006,0.01619124,0.07807894,-0.23782767,-0.105886474,-0.1414891,-0.22174138,-0.07569442,0.063900225,-0.018845886,0.11982946,0.1613654,-0.01365941,-0.11822244,0.09976261,0.07798362,0.11040131,-0.17282377,0.12692113,0.19160089,0.06632374,0.31571794,-0.022037074,0.008606512,0.03886238,0.01600051,-0.02977523,0.20809506,-0.18769878,-0.20790775,-0.1034558,0.11724787,-0.025718316,-0.09592151,0.0828293,-0.0060728444,0.11815003,-0.16981648,-0.14247984,0.40403056,0.056217212,-0.2478995,0.0073451395,-0.0002141524,0.11315173,0.009320194,0.01879467,0.045271788,-0.045949128,-0.23566607,0.17638339,-0.14522833,0.134048,0.118584946,0.12711228,-0.08990568,0.024775984,-0.096093975,-0.09411943,0.19086029,0.0070349355,0.118246526,0.10883211,-0.3032257,0.013749973,-0.30281422,-0.12232512,0.13987349,0.053177904,0.045043103,5.6646706e-05,0.10057019,0.123500265,-0.12560947,0.0055051376,0.103325464,0.08457841,-0.041658934,0.041249722,0.11836566,-0.07767088,0.10188428,0.06448034,-0.10013715,-0.22060755,-0.006889781,0.027409215,-0.07784381,-0.0071541294,0.0032311557,-0.17252257,0.14414479,0.13007936,-0.055932388,0.027408535,-0.06090349,-0.009826452,-0.25906175,0.023905832,0.04762967,0.1352647,0.10852058,0.028077535,-0.0862697,-0.21136315,0.07863152,-0.0060055447,0.09960433,0.004921139,-0.018196445,-0.059526775,-0.2942753,-0.1030917,0.052005768,0.18955393,-0.019484814,0.021908281
-0.21836294,0.08567082,-0.1665266,-0.02937615,-0.027656998,0.14201766,-0.0930116,7.496499e-06,-0.010411224,0.119926564,-0.06496432,0.09258624,0.010782966,0.056444652,-0.2101124,-0.19571878,-0.06618023,-3.3291886e-05,0.051037397,0.108068086,0.1384633,-0.016099716,-0.012938671,-0.06405651,0.12286188,-0.031245178,0.029603098,0.20961687,0.033824757,-0.11843431,-0.016952693,0.08472695,-0.1980129,0.009716708,0.03145519,0.011794176,-0.1435952,0.086850025,-0.014111744,-0.0030981924,-0.05679414,0.097255595,-0.12514623,0.12236613,0.022590356,-0.14891754,-0.058900762,0.091795646,-0.075006865,0.10477639,-0.07069808,0.0500396,0.090889096,0.014910781,0.042911973,0.07839038,-0.0017367294,-0.14482012,-0.056482457,0.14393368,-0.02912528,0.03179239,-0.043762825,-0.06960817,0.1010763,-0.100986436,-0.05940996,0.07989211,-0.043177024,-0.057955164,0.11488978,0.09001696,0.025782384,0.0861347,-0.01475936,0.16962828,0.023857169,-0.21107188,-0.047567293,0.13057792,-0.11450721,0.007950336,-0.13773453,-0.07620973,0.104335904,-0.05112323,-0.21286407,-0.0615182,0.1773794,-0.30998886,0.055506192,0.07062888,-0.09744203,0.045173377,-0.17868784,-0.12047324,0.03325405,-0.34848902,-0.30576116,0.06029879,0.07796946,-0.24116786,0.03822912,-0.10080654,0.080628164,0.17219226,-0.065066956,0.0068884473,-0.021995904,-0.109298125,-0.031600095,0.0786127,0.01036045,0.022999415,-0.26915067,-0.12489854,-0.09080976,-0.061784316,-0.23595592,-0.038995042,-0.06958143,-0.19665931,-0.00092574704,-0.0961922,-0.07821522,0.0072592543,-0.15880837,-0.062304713,-0.124395944,0.06316698,0.0020916488,-0.014945764,-0.16584615,0.07171146,-0.17483512,-0.18961841,-0.0020162591,0.012309828,-0.079982296,0.03335357,0.06405828,0.19397941,-0.27396825,-0.10305366,0.04234748,0.036486916,0.057003662,0.114695795,0.16540141,-0.030580875,-0.057429995,-0.20023283,-0.003064213,0.030205553,-0.08322307,-0.04724434,0.08648045,0.11166021,0.0053691883,0.12128148,-0.22010325,0.034744564,-0.053950526,0.04727467,0.004469548,0.057551526,-0.177444,-0.110313386,-0.01928359,0.058315918,-0.023153972,-0.17840129,-0.042355802,0.04679978,-0.08433044,0.20749907,-0.032470178,0.05371033,-0.10610813,0.099149615,0.115447044,-0.028516594,0.040263053,-0.05989546,0.05903701,-0.20411904,-0.03539729,-0.018589951,0.067736425,0.19255294,-0.10402491,-0.04294716,0.15894732,-0.05023631,0.0134064695,-0.04495557,-0.0067267288,-0.103168786,0.025669595,-0.104043424,0.049290895,-0.016599383,0.06167404,0.016421258,0.09919525,-0.047303393,0.03466666,0.19483998,0.033342797,0.106183335,0.27563396,0.11078429,0.13871235,-0.008848695,-0.21623355,-0.027099932,-0.07640967,-0.13603269,0.08620223,0.049964767,-0.09291932,-0.1755656,-0.15642278,-0.118207164,0.043525517,-0.110441975,-0.085093476,-0.042319205,0.07439501,-0.3362783,-0.055951763,-0.03067003,0.008586161,-0.07657165,0.12637512,-0.019912647,0.028068177,0.036987085,-0.030695988,-0.11529772,0.061486494,0.006961373,-0.057663314,0.33871904,-0.09474737,-0.032652605,-0.12791933,0.10112536,-0.15464684,0.07097109,-0.014241452,-0.2066618,0.17621206,0.021461228,0.11054261,0.12469609,-0.20517859,0.09742263,-5.137635e-05,-0.06684933,-0.106158175,0.096249945,-0.17223394,-0.18260841,0.10945384,-0.103947975,-0.02572134,-0.18524516,0.08696913,0.06294602,-0.017171323,-0.51376295,0.05722,-0.19174694,0.004638517,0.017971441,0.041422516,0.040967505,-0.04966727,-0.12753375,-0.114767924,0.07877744,-0.15149128,-0.04514821,0.15900818,-0.053960722,0.2099283,-0.117117696,-0.3816107,0.070327505,0.097456634,-0.026584046,0.085113086,-0.0033914968,-0.06252492,0.060719576,0.1434986,0.0544211,-0.018160166,-0.079856694,0.12680806,0.04120029,0.050645236,-0.13957281,-0.026291212,-0.28809223,-0.03700588,-0.054922327,0.0684059,-0.21403289,-0.0891819,-0.019383755,0.0045875716,0.0020042823,0.10543267,-0.071447894,0.1022026,0.061721507,-0.06513852,-0.4094237,0.005012253,-0.06270842,0.11102411,-0.055862796,0.13928184,-0.10046637,-0.047355216,0.089854516,0.13883683,-0.09926478,0.021141633,-0.17113645,0.08123747,-0.03910451,0.008867232,-0.27784443,-0.0021590171,-0.30253547
0.08523958,-0.19994873,-0.10666182,-0.08432921,0.017615587,-0.081484884,-0.14015748,0.045947056,-0.012122076,-0.06408137,0.039564177,0.048472483,-0.024790801,0.07947651,-0.08646077,0.08921557,0.16517378,-0.023643663,-0.13255566,0.044483017,-0.04512263,-0.0116928825,-0.1950493,-0.08892833,0.09225884,-0.13511509,-0.026204737,0.05389322,0.13784382,-0.12966551,0.050277464,-0.31526446,0.012899902,0.19092973,0.08250266,-0.069247834,0.19011007,-0.03914124,1.9811918e-05,0.35179412,-0.09414145,-0.030371485,-0.030159513,0.11091237,0.12703916,0.121484116,-0.21917279,0.12272595,0.082059644,-0.051354557,-0.14374182,-0.049818452,-0.06512261,-0.050312452,0.17254888,-0.057053633,0.07872746,-0.05332224,-0.04292026,-0.21843743,0.1287113,-0.3026466,0.041972693,-0.20557538,0.12562257,-0.37900832,-0.1743382,0.114214264,0.12642853,0.08937803,0.054327015,0.11217568,0.084037535,-0.07070904,0.047828823,-0.12584227,0.093902245,-0.23831694,-0.4389817,0.081000514,0.072223105,-0.040621188,0.008773667,0.02676347,0.18438345,0.072712444,0.15580127,0.020738594,0.042585585,-0.038776897,-0.045981422,-0.06649913,0.020082787,-0.2528266,0.09918063,-0.37805045,0.075284265,-0.114483535,-0.07169911,0.0028112931,0.11159056,0.09877164,-0.027032554,0.122576244,-0.1012596,-0.026135182,0.0019520423,0.041175507,-0.09786583,-0.16888261,-0.29370093,-0.041264057,0.03421551,-0.028416969,-0.03333801,-0.17183244,-0.1009645,0.19384123,-0.04394378,0.038531613,-0.3531675,-0.17037259,-0.05985331,-0.0068323486,-0.014315451,-0.23230213,0.16483004,-0.33876497,-0.057737675,-0.19545366,0.07266426,-0.043161232,0.010674475,0.027102977,0.15196392,0.21896869,-0.22547455,0.07125611,0.19910163,0.08515623,0.019310553,0.11412253,-0.15593778,0.14092912,0.0055049188,0.07679639,-0.32294726,0.1689508,-0.0345312,0.20937842,-0.1878665,0.036343556,-0.10741818,0.03298562,-0.24809559,0.057674896,0.005972214,-0.11250469,0.22315495,-0.0043963054,-0.05896953,0.036875766,0.25351065,-0.1580441,0.23971377,-0.06891376,0.1556752,0.21297666,-0.152781,0.09141971,0.081294246,0.20847088,-0.07186123,0.17824304
0.007829664,0.12913468,-0.028371,0.08264608,-0.18532698,-0.07824364,-0.09245216,0.027321972,-0.1088693,0.2552561,-0.23039311,0.011023811,0.04361123,0.0025926195,-0.1773169,-0.2963181,-0.004069645,-0.013770899,-0.052044567,0.0611318,0.14525968,-0.05025079,-0.026791958,-0.106522426,0.07545909,-0.12233906,-0.21539678,0.25883436,-0.005549108,0.0806792,-0.03643715,0.048629824,-0.31535074,0.004881427,-0.026111344,0.16441083,-0.2370764,-0.026576862,-0.19791892,-0.03601979,0.09598117,0.14531305,-0.27872872,-0.058121894,0.10066173,0.083712354,-0.24849904,-0.09756877,-0.13370426,0.13970459,-0.1642491,0.10568653,0.16808785,-0.21862166,-0.09604718,-0.0064754086,-0.050970387,-0.18910949,0.15120956,0.095774345,-0.07662082,-0.01413742,-0.08551238,-0.23880658,0.13530324,-0.050859362,0.057264574,0.08139388,0.054436777,-0.067752235,-0.082510345,0.12988259,0.038538627,0.01658721,-0.23537208,-0.0124385385,0.17414604,0.14883326,-0.04674616,0.054696027,0.0636041,0.23653194,-0.067571454,0.034912102,0.14008197,-0.069441706,0.09778091,-0.078552194,-0.17316785,-0.13103983,0.19199687,-0.100065485,-0.005946485,-0.024275659,-0.043829992,-0.07619638,0.10180228,-0.16295291,-0.0018780003,0.092357874,-0.07765345,-0.11564043,-0.06634627,-0.027387591,0.13597292,-0.019231383,-0.20526376,0.018448262,0.09408532,0.083269104,0.03246504,0.040815834,0.06629856,-0.10778134,-0.011393425,-0.11338565,-0.20109864,0.12602621,-0.03325219,0.20892571,-0.2438123,-0.114559524,0.067991495,-0.2945658,-0.010923878,-0.0025652812,0.20095362,0.06027374,-0.036923073,-0.044458065,-0.10108727,0.18018886,-0.06360892,-0.05352246,-0.07952077,0.030799247,-0.3088437,-0.06148235,-0.17503043,-0.032153428,0.14664386,-0.11010383,-0.10203151,0.18759742,-0.2351033,0.0077883205,-0.08707139,0.05835865,0.108951464,0.049550045,-0.10473148,-0.06272315,0.06083479,-0.16949059,-0.029234914,0.13226928,-0.18646374,-0.20086308,-0.31540602,-0.06840262,0.113842726,0.09537881,0.00753499,0.057220973,-0.24545409,0.012476207,-0.25194335,0.044064667,-0.11062868,-0.11627827,0.07638822,-0.041267075,0.027005788,0.08113818,-0.18115294,-0.18805176,0.057198532,0.064745866,-0.16651978,-0.028504342,0.03962342,0.15490481,-0.009237117,-0.18378736,0.07450729,-0.0878794,-0.07242956,-0.01219724,0.03093984,-0.2089946,0.011612508,-0.10173938,-0.0803999,0.13587603,0.21435073,0.11853685,-0.03658595,0.11543288,-0.07652075,0.051556,-0.042380333,-0.12102412,-0.19585595,-0.08244021,0.17848231,0.078998506,-0.084490635,-0.16132942,-0.07559846,-0.15634738,-0.03755943,-0.0417855,0.011080283,-0.03776565,0.05019,-0.10395756,-0.078121625,-0.16288109,0.21519719,-0.22041562,0.033968817,0.026784968,-0.0033340093,0.03929879,-0.03572095,-0.0498012,0.1451251,-0.09712839,-0.040876813,0.15277728,-0.074610725,-0.027201114,0.03318103,-0.037211396,-0.14924282,-0.07416765,0.13934445,0.06632582,0.027828649,-0.029870808,0.025154484,-0.018727897,0.08190724,-0.11580083,-0.10628877,0.07838308,0.09560178,-0.0015539201,-0.048456654,0.018479386,0.16091,-0.1977969,-0.15387727,0.08965921,0.07173904,0.026682872,0.06138576,-0.07058081,-0.23756945,0.029947085,0.025545042,0.04338484,-0.03574384,0.048576348,-0.15041524,-0.2277729,-0.1776644,0.1852722,-0.15036091,-0.027582165,-0.0701924,0.26979393,-0.14938396,0.13719925,-0.0748005,0.089169554,0.09190977,0.19468132,-0.18596411,-0.19636758,-0.026287146,-0.23240505,-0.14048912,-0.0037028764,-0.073819995,-0.103625484,-0.10638416,0.10856778,0.19853222,0.14798243,-0.059109356,0.08461618,0.084229454,-0.03538594,-0.116192184,-0.09690784,-0.040092096,-0.2755056,-0.053362243,0.026788902,0.014997322,0.01668823,0.017841533,-0.08277055,-0.09761532,0.09344246,-0.140957,0.021145096,0.04470983,0.006795066,0.022801807,-0.23939162,0.10755203,0.13356765,-0.03020293,-0.11139695,-0.087586224,0.027855603,-0.02053248,-0.24345748,-0.2613694,0.1677152,0.11327897,0.10201919,-0.20420639,0.043626305,-0.12921153,0.111528814,0.0419472,-0.08100407,-0.26519147,0.04387384,0.07410923,-0.034390006,0.058749806,-0.0023517595,-0.1908465,-0.098022655
-0.13560306,-0.04429753,0.01331417,0.021830596,0.08684144,-0.13334699,0.05266416,-0.17245553,-0.007890284,0.071864106,-0.0319579,0.04353024,0.05607225,-0.28714314,-0.07099369,-0.2436003,-0.03620458,-0.14423932,-0.06445333,0.13895793,0.04335132,-0.11325393,0.16924046,0.03694095,-0.0423445,-0.06670066,0.0654185,-0.07020245,-0.10491764,0.028092805,-0.10676375,-0.069752604,0.008547033,-0.108305074,-0.15476784,-0.058517285,0.124068774,-0.046029706,-0.042626373,-0.08410297,-0.015365855,-0.2175835,-0.0040886104,0.07959053,-0.10467911,-0.33690247,0.13524023,-0.04556255,-0.112044394,-0.0054509263,-0.12774473,-0.072923094,0.026359579,0.1136421,-0.027329372,0.028665254,-0.14297326,0.047839478,-0.1487553,0.10695392,0.06044543,0.092974015,0.12521788,0.17564465,-0.036364455,0.106273286,0.13141315,-0.09439937,0.0364691,-0.17968473,-0.08991171,-0.021735137,-0.21461962,-0.19500269,0.17704798,-0.026291192,-0.15271711,0.23140703,-0.30084062,0.004625854,-0.06598293,0.06693052,-0.1256441,0.058657758,-0.09072251,-0.09698659,0.05229417,-0.21350166,-0.03679796,-0.040260695,0.06224391,0.033291616,-0.0769592,0.037232332,0.031722464,0.18533933,-0.18330121,0.1913915,0.16217376,-0.26339084,0.08447825,-0.18958953,0.0065533808,0.084736034,0.033699024,-0.17953545,0.048586193,0.0007306164,-0.028875006,-0.015096243,-0.16721441,0.060487427,0.10438811,0.022271624,0.02100484,0.14151014,-0.0021185782,-0.10122291,0.21991193,-0.042393416,0.10362597,-0.050797746,0.038808886,0.032943472,0.02393157,0.05540016,-0.15313572,0.19058193,-0.08479894,0.10539244,0.07922696,-0.14196797,-0.15635154,-0.027395947,-0.02813613,-0.18202741,0.023502098,-0.057695955,-0.03383901,-0.07709392,-0.015526739,0.0092447465,0.06314558,-0.116189025,0.0035566976,-0.08714465,0.033167902,-0.14761715,0.04786171,-0.15240969,0.09962921,-0.053684466,-0.041958917,-0.0884156,0.11915086,0.03870821,-0.030099958,-0.03901961,-0.18828869,-0.029960275,0.08510442,0.060093705,-0.27152622,0.07626366,-0.17297673,0.17920402,-0.2674062,-0.07169231,0.16100056,-0.30962703,-0.04839057,-0.18696675,0.05172744,-0.24295965
-0.020158438,-0.14834289,0.050245307,-0.22008494,0.10421358,0.07301042,0.33044952,-0.023754045,0.061409578,-0.047931317,0.0551642,-0.05148968,0.10641072,-0.020338366,0.26432315,0.28246725,0.006337017,-0.06701264,0.07028953,0.009296529,-0.15421413,-0.0063922796,0.03030663,0.08888353,-0.056120083,-0.011509684,0.124712706,-0.22838193,0.092386484,-0.01385018,0.068656154,-0.04977264,0.35309803,-0.036970202,-0.011408957,-0.20187025,0.1345955,-0.07961656,0.12609427,0.07377292,0.028481506,-0.080299936,-0.00014216275,-0.00238053,0.066815294,-0.22516078,0.1101456,0.121387646,-0.01945775,-0.099418774,0.20587893,-0.1325315,-0.3524705,0.12839948,-0.28342843,0.08378634,-0.19264542,-0.020395558,0.04449168,-0.35527015,-0.012986332,-0.1648417,0.13700135,0.16111623,0.048227992,-0.036188897,0.040114168,-0.3067026,0.20970291,-0.21057089,-0.0924064,-0.07450439,0.0145912375,-0.123497225,0.3719262,-0.23732401,0.022530038,-0.2280353,0.13405704,0.06667225,0.06581838,-0.26179326,-0.045225233,-0.21359871,-0.33231637,0.3240084,-0.069655895,0.03765266,-0.29782945,0.11194013,-0.0453066,-0.1271707,0.013033102,-0.19924682,0.12479451,0.27347985,0.047491614,0.17350605,0.12016093,-0.24863736,0.08125325,-0.1436246,-0.08571095,-0.16223405,0.044232164,-0.11701527,0.287751,0.056959573,0.19340603,-0.19865498,0.010964541,-0.023809532,-0.010958719,-0.081366815,-0.11758995,-0.15772524,-0.28769407,0.021981586,-0.10107038,0.070727855,-0.42189607,-0.02477149,0.0035288574,-0.1606482,0.035944805,-0.20382857,0.1322476,0.1506347,0.12725501,-0.06652202,0.17164406,-0.20426121,0.0030923588,-0.1583571,0.112039626,0.122590624,0.044154126,-0.16955861,-0.01820007,-0.096835434,0.06365418,0.0042586015,0.08925786,-0.22901486,0.14879581,-0.2269252,0.06437166,-0.16757442,-0.28448045,0.07394097,0.012247082,0.027341355,0.026692193,0.011832189,0.05769108,-0.27266666,0.027195472,0.115206204,-0.04142743,0.019606574,0.20715307,-0.048746467,0.07056298,0.052349422,-0.07421071,-0.099375516,0.036884513,0.05582574,-0.026795616,0.0890603,-0.1742909,-0.13737547,-0.17959991,0.02843656,0.08862108,0.022963697,0.1398549,-0.08049232,0.2443971,0.025952835,-0.04633849,0.086458094,0.022065476,0.045048065,0.09041023,-0.063762374,-0.024231298,-0.10982679,0.09169241,0.2092853,-0.012828004,0.23222536,-0.27466425,-0.22373267,0.11231603,-0.09535424,0.07834189,-0.16904971,-0.0044259694,-0.07080992,0.11616194,-0.22156633,0.0936425,-0.133557,-0.048980717,0.12313672,0.06625927,-0.014122224,0.14045586,0.059762437,-0.28687683,-0.07307135,-0.1801622,0.028570484,0.081741765,0.018915633,-0.14700969,-0.0452781,0.14870329,0.11549179,0.13026921,-0.0006022377,0.05979137,0.1255522,0.045855656,-0.061884556,0.07638674,-0.30337456,0.04863449,-0.11655434,-0.0037244393,0.083428815,0.10217604,-0.13135155,-0.0801219,-0.010651782,-0.07370312,0.050044354,0.052487534,-0.0359527,0.050861627,-0.26573464,0.00789212,-0.49063906,-0.4344755,-0.05799209,-0.076339975,0.004250328,-0.23151079,-0.11062559,-0.038735263,-0.24274564,-0.020109816,-0.086536154,0.038080905,0.050360546,0.07594553,0.03459211,0.113310486,0.094457656,-0.021260787,0.02272653,0.035156842,0.073556565,-0.16276847,0.007613958,-0.061787315,0.22991833,-0.06751268,-0.12825125,0.14837512,-0.23916754,0.0011978815,0.03307458,0.0857051,-0.13745096,0.022279222,-0.106134996,0.11218739,0.20469266,0.16285324,-0.005420234,0.2653663,0.017485734,-0.1552196,0.08943807,-0.14096378,-0.0974213,0.07324052,-0.09275683,-0.025453497,0.104277946,-0.16969898,-0.20751147,-0.111540295,0.18005131,-0.3647191,0.1119631,-0.16538921,0.11701641,0.02326065,-0.05233249,0.011666337,-0.057343148,0.14725374,0.075528696,0.029201606,-0.123543754,-0.12971076,0.05832719,-0.017566415,0.036506794,0.29748377,-0.19642808,-0.026856799,0.024573805,8.735544e-06,0.15113772,-0.01728705,0.13062905,-0.19860215,-0.0067169694,0.064458,0.0008537012,0.16468376,-0.0239759,-0.07669587,-0.076630965,-0.0073220674,-0.1075564,0.073004976,-0.2639717,0.08279859,0.08032722,-0.14464396,-0.2588713,0.05183792,-0.17283331
0.11422209,-0.06569166,-0.10414364,-0.03312901,-0.10088495,-0.09120939,0.030129308,0.06056717,0.11673427,-0.0077152564,-0.09980369,0.041608065,-0.08301258,-0.02242527,-0.13835315,-0.03310547,0.031366996,-0.034627303,-0.035843365,-0.22440417,-0.01769596,0.049614284,-0.18511698,0.11961295,0.11203159,-0.09787284,-0.1332398,0.15687115,0.08902892,-0.22871295,0.01923722,-0.21001358,0.12256993,-0.2714145,-0.23301917,0.06809193,0.19917472,0.017098224,-0.041130163,-0.042639207,-0.0035567745,-0.05351642,0.086645834,0.015609894,-0.06825732,0.15373272,-0.0011341838,0.027113877,-0.041971866,0.12840433,0.18401863,-0.02159205,-0.09174803,-0.16765358,-0.16971841,-0.054966774,0.0062361187,0.08269368,0.2519902,-0.07970396,-0.23083043,-0.06441691,-0.39782956,-0.038562804,0.08748293,-0.06890782,0.07596478,1.8168334e-05,0.010431708,-0.28953135,0.0670434,-0.16264325,-0.08918614,0.21007092,-0.22876629,0.011151034,-0.14198028,-0.16575556,0.016001616,-0.24835128,-0.01373384,0.03950965,0.015091056,0.016305258,0.012149154,-0.27356777,-0.12596583,0.22409284,0.09086388,0.069596484,0.10484173,-0.016254168,-0.04625138,-0.12072614,-0.33655503,-0.14419964,-0.11588251,-0.25220647,-0.1136929,-0.016225792,-0.12971756,0.041427027,0.018740203,-0.15443312,-0.023706635,0.078817464,-0.49082327,0.042574435,-0.028451964,-0.20086026,0.19039552,-0.26825103,-0.13756683,-0.028515536,0.07325646,0.026036559,0.013267609,-0.040046506,-0.2596148,0.13716376,-0.025329743,-0.016999798,-0.14550173,-0.24628894,0.072667554,-0.16359808,-0.3076643,-0.22938545,-0.15302274,-0.26844406,-0.15264249,0.06913869,-0.0032895552,0.033937432,-0.05031698,-0.18485363,-0.13456972,-0.01610498,0.02499789,-0.09279384,-0.26673275,-0.34442165,-0.065406315,-0.2607183,-0.061214313,-0.006981404,-0.159871,0.06828732,0.06722263,0.059077043,-0.18797317,0.15123533,-0.027950846,0.0890624,-0.35551798,-0.25254914,0.3174302,-0.040569257,-0.2116769,-0.28829995,0.042870604,-0.265721,0.019992387,0.014395429,0.19375011,0.02925646,-0.0010322299,-0.07210496,-0.07396712,-0.04290074,-0.059910405,-0.0176653,-0.14945473,-0.14476617
-0.12925105,-0.19920084,0.14285158,-0.024665654,0.120755725,-0.07123056,0.04779601,0.020793235,0.0453238,-0.23185502,0.04508398,-0.18216297,0.018728578,-0.056044016,0.15387362,0.017459573,0.04880656,-0.06821369,-0.017720029,-0.02304755,-0.12932949,0.16973624,0.13922964,0.09695262,-0.14046577,0.097046524,0.1378315,-0.3017305,0.021120952,-0.11216278,0.10635119,-0.20559262,-0.21964572,0.090515316,0.11530263,0.04307646,-0.02233616,0.058019985,0.09434412,-0.0141983265,0.02597763,0.024909267,0.066848665,-0.029037297,-0.056186393,0.02494314,0.1378453,-0.2123455,-0.023100402,-0.11366869,0.13424143,-0.047602028,-0.0719845,0.04595964,0.16735218,0.021205693,-0.06399434,0.04527298,0.061833486,-0.26547197,0.03498213,0.0690729,0.043916833,0.047507573,-0.3084122,0.20466302,0.13486123,-0.044106454,-0.29612038,0.15266073,-0.16298468,0.027153552,-0.057541095,-0.07697637,-0.01286581,-0.15543164,-0.16387497,0.10428519,-0.05332316,-0.3841458,-0.08470228,-0.2588331,0.20404065,0.097539,0.0058207302,-0.16378233,0.13658412,0.06297572,0.107141666,0.091887005,-0.11757037,-0.055280052,0.017832339,0.14991246,0.0015778074,0.09344491,-0.2102207,0.40152767,0.05580092,0.20140794,-0.4819053,0.2517621,-0.21719733,0.014342429,-0.27576855,0.05168852,-0.073657416,-0.22538689,-0.37946743,0.16583635,-0.15245846,-0.20265079,-0.13817713,-0.09770863,0.09658047,0.14090014,0.15221158,-0.071753174,0.17099082,-0.18771748,0.15530574,0.10932623,-0.22841282,0.22493877,-0.19818027,0.12444405,-0.3095993,0.07905545,-0.16965312,-0.07769698,0.04368569,-0.16858983,0.004687468,-0.0704042,0.09597568,0.22905305,0.07400603,-0.07933095,0.040756892,-0.03501255,-0.05252008,-0.01981943,0.13082758,0.054456905,-0.017872103,-0.081874296,-0.3368807,-0.1756164,-0.026382787,0.008381068,0.04803937,0.06928584,-0.059898917,0.0875879,0.045782004,-0.16821049,0.025451759,0.07254688,0.012323795,-0.10552788,-0.19778293,0.026151704,-0.028368985,0.0042930553,0.10532333,0.10615115,0.13692074,0.06585279,0.10330302,-0.0056217927,0.18437456,-0.09836835,-0.00024006316,-0.011991784,0.026757913,-0.18904006,0.094557635,0.01804282,-0.022815408,-0.17402956,0.021438226,-0.13296962,0.043892406,-0.027583037,0.043994084,0.08991949,0.03325815,-0.13495345,0.07909279,-0.07391319,0.143545,0.15120752,-0.1885006,0.0024725846,-0.036123753,0.04978193,-0.31442747,0.15767197,0.13753752,0.08796275,-0.054541867,0.06504136,-0.3471185,-0.051162235,-0.25586316,0.052240677,0.087793946,0.02122056,-0.08624107,-0.05174126,0.2136718,-0.14014433,0.010553284,-0.05572841,0.05469127,0.10352317,0.01576123,-0.18187012,-0.24105404,-0.011285143,0.06873702,0.062417142,-0.11882724,-0.033575583,-0.26320428,0.038073026,-0.33008188,0.07331142,-0.09587015,0.28002036,0.062487092,-0.0057888962,-0.046062592,0.09709722,-0.38425457,-0.08504419,-0.35135382,0.15031771,0.04235127,-0.027925696,0.017685628,-0.12008285,0.14688164,0.14146498,0.26257026,-0.21637239,0.27173173,-0.09649617,0.12899168,-0.008688711,-0.17307614,0.045429062,0.009783629,0.03926949,-0.22049518,-0.20022413,-0.33182204,-0.013145315,-0.048629444,0.041450456,0.04070529,-0.0015951983,0.038114607,-0.102727816,0.095415175,-0.040290143,-0.13873138,0.061880745,-0.017802192,0.098837204,0.020607045,0.1372518,0.023736836,0.12794542,0.0033819813,0.10019098,0.10877648,-0.22560483,-0.11261841,-0.1779327,0.05480918,-0.040421613,0.10412984,-0.09002615,0.1459092,0.0497778,-0.021070557,-0.13930821,-0.3724572,-0.011198447,-0.03689148,0.102693476,0.09326081,-0.00061068096,0.020171693,0.0152944075,0.039473474,0.04310518,0.048435748,0.06810796,0.052640878,0.025252344,-0.033833604,-0.08875582,-0.030248875,0.045145057,0.026769653,-0.0413914,0.012352865,-0.2496625,0.09346056,-0.02089234,0.0857622,-0.061933413,-0.013045662,0.0016136876,-0.005448415,-0.12102341,-0.052440986,-0.16732918,0.024362357,-0.06272851,-0.10877487,0.07872916,-0.22672527,0.025316339,0.023537215,-0.09251596,0.06015046,0.11211466,-0.1323317,0.07309567,0.05151559,-0.0035980113,0.031473707,0.16205464,-0.0066631637,-0.0072834515
0.034547847,-0.13660897,0.022011919,0.010291343,0.03030716,-0.059391554,0.007210992,-0.11504756,0.13624075,0.07962386,-0.0933007,0.072321355,-0.07663826,0.009183436,0.033296715,-0.15167238,-0.2387675,-0.056913953,-0.06470542,0.0713795,0.020756388,-0.0730859,0.10084134,-0.06623435,-0.038863655,0.009905814,0.04787466,-0.15094914,-0.049756665,0.13184032,-0.03944988,0.05909099,-0.06222781,-0.10689565,0.17834975,-0.062221553,-0.09458884,-0.08364217,0.1623263,0.030852739,-0.111246936,0.07939512,0.037338287,0.071381316,-0.022074185,-0.10403933,0.16361316,0.084459275,0.006067401,0.028088164,-0.14187418,-0.03366567,-0.07395367,0.111880645,-0.054365743,0.03597546,-0.2133813,-0.050359957,-0.109827116,0.034482006,-0.08598442,0.05090548,0.08496579,0.10390392,-0.119807325,0.06631347,0.087295905,-0.18459827,-0.08437242,-0.19167258,0.061210934,-0.22541253,-0.07790496,0.041832894,-0.04285584,0.004442083,-0.2239175,-0.006552904,0.11951073,0.07209452,0.024812173,0.12971696,0.0061111366,0.07692086,-0.0948141,0.031592693,0.123230934,-0.06388027,-0.20714185,0.07146552,0.068005204,0.10788377,-0.12973373,0.034673277,0.06576574,0.12107473,0.0036395548,0.1401334,0.12577438,-0.01791827,0.003893312,-0.14518334,-0.15573771,-0.24630666,0.10516753,-0.09769965,0.1405753,0.073332414,-0.12340098,0.033387475,0.24958737,0.03773202,-0.021004582,-0.108940706,0.03314808,0.02541086,0.04962105,-0.30127618,0.24213746,-0.07743995,0.124969184,-0.039563846,-0.0038235395,0.019915206,-0.13401562,0.11614688,-0.021043908,0.057009496,0.068970084,0.09835805,0.042712606,0.032410286,-0.25395438,-0.07916662,0.04619316,-0.068256095,0.12986463,-0.10120271,0.034010425,-0.068797804,0.06286911,0.01293405,0.15910168,-0.1330746,0.046637323,-0.12981106,0.20216489,-0.20849435,0.102956995,-0.21369314,0.12312972,-0.025527988,0.05799101,-0.0102056945,0.10125351,-0.074644655,-0.070851505,0.013236095,-0.15598099,-0.07724963,-0.042056367,-0.070627026,-0.061654657,0.015442607,-0.39463913,0.13975032,-0.19630763,-0.09736473,0.027581433,-0.009171918,0.0036023331,-0.28134373,0.11604895,-0.11984059
