-0.04650911,-0.09601315,-0.00023008254,0.09004923,0.024225526,-0.08911185,-0.13968045,-0.11047208,0.10415147,0.14408807,-0.06962508,-0.014188465,0.049290754,-0.17164095,-0.2923508,-0.06870667,-0.20860024,-0.1548008,-0.3299316,0.06796835,-0.12667342,-0.04745849,-0.023270577,0.002166284,0.12870942,-0.050341234,-0.040887408,-0.13369301,-0.2073698,0.1081602,-0.057266522,-0.40289578,0.037421484,-0.16603398,-0.16787153,0.047357127,-0.11351561,0.003740289,-0.067716464,-0.06619473,0.14111166,0.096057005,-0.04880999,0.03638895,0.050534144,-0.06356954,-0.21479642,-0.082318395,-0.101372056,-0.21177231,-0.15435614,0.06559393,0.021344703,0.019551748,0.018478692,0.036817703,0.010365671,-0.06523706,-0.018695269,-0.030852618,-0.16472621,0.04107569,0.033684082,-0.1885069,-0.17934743,-0.14408974,-0.20300919,-0.06352939,-0.094232656,0.06512257,-0.33693862,0.07623407,0.025364645,-0.063486524,-0.06371951,0.023309015,0.007129411,0.021552276,0.13503173,-0.036895964,0.14269456,-0.08684944,0.025373137,-0.17304307,-0.0015605356,0.031612318,-0.06451177,0.0012434903,-0.10354049,-0.070446625,-0.18146874,-0.24476825,0.0051401127,-0.083232775,-0.048345733,-0.038995042,-0.06920476,-0.020660333,-0.05266067,-0.099015094,-0.20918456,-0.005314182,-0.20980442,0.053775642,0.16936214,-0.11826357,-0.096602894,0.046429113,0.15288652,-0.25209054,0.15435876,-0.36415648,0.13956954,-0.15611282,-0.020970603,0.0047389255,0.0871839,0.12799598,-0.29703927,-0.14531772,-0.16957822,-0.267262,-0.2857523,-0.14790423,-0.08803781,-0.12594785,0.014678866,-0.017674573,-0.03532965,0.09699489,0.028535554,0.108617336,-0.00866824,-0.29271853,-0.07795691,-0.017065346,0.08625642,-0.036372397,0.19589706,0.035646453,0.010662558,-0.14891614,-0.11418876,0.065928556,-0.034985468,-0.29179698,-0.3150733,0.14366113,0.105748415,0.30967933,0.13787091,-0.10655121,0.16720082,0.17423356,-0.04625872,0.00395322,-0.2140985,-0.034149863,-0.10005006,0.03832831,-0.1019594,-0.0013721591,-0.03427566,0.015578163,-0.12446223,-0.13482136,0.1567246,-0.025334876,-0.11486153,-0.032806195,0.027064089,-0.13274093,-0.037083987,0.04851234,-0.1305101,-0.024277503,-0.10401052,-0.18368872,-0.06780058,-0.08775726,0.03160322,0.20744044,0.032386634,0.01227704,0.087543055,0.08745557,-0.08736779,0.07475018,-0.12732084,-0.114445515,0.0038740993,0.09452238,-0.0029933846,0.11294881,0.054971576,0.10177043,-0.0023464372,0.026591223,0.06888023,-0.10082295,-0.22454348,-0.05372157,-0.026015092,-0.01972581,-0.0832113,0.00927519,0.022779834,-0.109651364,0.1643217,-0.05712692,0.045354854,-0.0063383076,0.062332433,-0.0007021601,-0.24916627,-0.05853055,-0.027995147,-0.07113238,0.14780761,-0.114728756,0.030680507,-0.2602788,-0.00054111116,0.021232344,-0.090824686,0.038188033,-0.0021871917,-0.10054256,-0.08340588,-0.23485741,-0.039462812,-0.04758786,-0.13734186,0.045065675,-0.107562445,-0.02940017,-0.09142464,-0.3113823,0.074462436,-0.5418478,0.08261717,0.15297905,0.008421923,0.048774607,-0.09400191,-0.004973597,-0.024766529,-0.25376984,-0.13374846,-0.16676225,0.10861128,-0.0014805817,-0.109931946,-0.008844816,-0.14484224,-0.12380398,0.288258,0.06382458,0.15937527,0.15009473,-0.064551406,0.0196474,0.045336567,-0.09941014,-0.23847629,-0.039442196,0.07091816,-0.29784966,0.0776802,-0.06358776,0.17724507,0.23476112,0.16417156,-0.49904314,-0.24734648,-0.014642032,0.012894434,0.15999107,0.1424733,-0.08372996,0.14066419,0.18515863,0.029451529,0.24656329,0.0064077647,-0.106994405,0.10916694,0.13019976,0.16078392,0.21922095,0.15206324,0.061895423,0.13274664,0.037553456,0.19718537,0.058156714,-0.27787337,-0.25562924,0.070619844,-0.0929219,0.13800098,-0.035194695,-0.17180438,0.14876185,-0.019548256,-0.34081954,-0.2492921,-0.1104019,-0.0040205866,-0.09380639,0.017552653,-0.21964899,0.099321455,0.04930169,-0.007520125,0.18910927,0.021448027,-0.073548496,-0.101406746,0.15493284,0.044246156,-0.05505937,0.19217876,-0.15620635,0.08929096,-0.033148248,-0.013272099,0.0058343555,-0.08603819,-0.039006528,-0.10965323,-0.0893788,-0.14823797,-0.07222144,-0.15698937,-0.22008501,-0.025973538,-0.09267453
-0.12383903,-0.06304689,-0.11119949,-0.32651612,0.17124371,0.11990703,-0.24113919,0.052529156,0.04404124,-0.117716804,0.12073526,0.04780939,-0.04812753,0.041148834,0.11466069,-0.05595544,0.014065665,-0.20034216,-0.24014457,-0.12886384,-0.058900893,-0.026087893,-0.00033878832,0.059252255,0.11041956,-0.09994137,-0.054401077,0.059832856,0.09891839,0.02479529,-0.26503092,0.111226656,0.014127038,0.048181504,-0.10127335,-0.24069871,0.11586296,0.07238246,-0.076214924,0.1991739,0.069663,0.006335748,0.06937316,0.08752061,0.14452286,-0.08024265,0.09699176,0.0023502328,-0.017007416,0.11206124,0.023160463,0.085739404,-0.08921025,0.09434365,-0.068729945,0.049403258,-0.015220135,-0.00837295,-0.013627629,-0.014747844,0.07131243,-0.27065706,0.041360896,-0.03136899,0.008806622,-0.41689107,-0.091895655,0.046612896,-0.0822637,-0.22896615,0.22118229,-0.026476031,-0.12455933,-0.0035758708,0.08537831,0.017755194,0.008392367,0.18364094,0.015869984,0.18090726,0.0968384,0.039149243,0.116262,-0.0034340457,-0.1529685,0.0062826425,0.0074935695,-0.16788524,-0.06939914,-0.11604154,0.11205436,-0.074044056,0.002870843,-0.10430804,0.12141697,-0.07530948,-0.014442172,-0.35730696,-0.074790806,-0.06277001,-0.0050533838,-0.057332937,0.12655906,0.13256618,-0.09076102,0.022058219,0.1635311,0.038397714,0.0146749355,0.19349566,-0.014648292,-0.25968093,0.041608747,-0.33050632,0.18611588,0.024828902,0.032410964,0.040661592,0.016986944,-0.03650787,-0.042532053,-0.07561518,-0.20023447,0.03536391,-0.35069504,0.10532554,-0.21803828,-0.0020075915,-0.071072884,-0.19458078,0.0053147404,-0.14269519,0.050455444,0.052253764,-0.11617558,0.101533696,-0.12860389,-0.11429013,0.13221276,-0.026323669,0.05219641,-0.104713134,0.069363974,-0.12941167,-0.13961738,-0.22601333,-0.058282018,-0.053602356,-0.098882236,0.039009694,-0.048942227,-0.10300544,0.1899892,-0.23047335,-0.23967725,0.1604318,-0.2645449,0.061285865,-0.3626612,0.18705073,0.029365787,-0.14686424,-0.08745275,-0.17433731,0.13180046,0.012883713,-0.06462007,0.046842176,0.17018582,-0.017848507,-0.07072729,0.1776699,0.12511712,-0.17476527
-0.0840891,0.152085,-0.0010128497,0.012053922,0.008729475,0.19659883,0.015925217,-0.02773272,-0.11355567,-0.115984015,-0.12793097,-0.05069602,0.006549334,-0.14933674,0.14301723,0.0596503,0.20725147,-0.029152038,-0.080812514,-0.12063342,-0.15501632,-0.014866175,-0.08153412,-0.17489806,-0.22085874,-0.22751142,-0.01571736,-0.010996811,-0.04675284,-0.024351282,0.0065590916,-0.34329557,0.21732947,-0.032442465,0.10452372,-0.17557691,-0.025830716,0.05008211,0.031841703,0.06735307,-0.106075495,0.09864003,0.11418204,-0.22976674,0.10208805,-0.15861954,-0.027804025,0.12710002,0.19356343,-0.05059111,-0.016254863,-0.046398185,-0.17372617,0.17300968,0.03767413,-0.17271131,-0.084345825,0.00452554,0.10457947,-0.010837337,0.07904341,0.119220816,-0.020684183,-0.3032138,0.0938524,-0.0443274,0.09670014,0.05388505,-0.044307858,-0.28603467,0.038987033,0.06090819,0.0062788655,0.13400984,0.102386944,-0.16088563,0.15011309,-0.029555751,-0.11956863,0.17143315,-0.0345472,-0.12628342,-0.23147438,-0.037949193,-0.028276358,0.019499764,0.037480816,-0.10573079,0.0009334659,0.01808031,0.16313133,0.16094258,0.0682534,-0.11428586,-0.11033276,0.29278955,0.20807782,0.069307685,0.11375648,0.10290554,-0.06803366,-0.31826916,0.05680209,-0.02832538,0.017321808,0.106501095,0.057643447,-0.19471332,0.07356937,0.03275153,-0.437699,-0.009453371,-0.40986466,-0.12260669,-0.11690091,0.049140945,-0.036899757,-0.112838365,0.13933975,-0.01424236,0.15125479,0.08617591,0.1496123,0.008609648,0.062112723,-0.21671477,-0.12355308,-0.034471948,0.05945815,-0.13642228,-0.002009275,-0.27266887,0.01028881,-0.044955075,0.035282318,-0.05198037,-0.0493776,0.0344409,-0.2668219,-0.017715316,-0.036652964,0.058935583,0.03717594,0.009458858,-0.18365166,0.04163904,0.0049049146,0.00052376476,0.02469612,-0.22843474,0.13555516,0.057654317,-0.22341818,-0.1628807,0.0445911,-0.004741205,-0.0094714705,-0.13162896,0.029117486,-0.11274298,-0.030788558,0.098351605,0.11190279,-0.019868238,-0.34393993,-0.25556576,0.10080909,0.053645153,-0.050458156,0.027964436,-0.04529839,-0.0495307,0.032705817,0.037741404,0.047070906,-0.10424464,0.07073609,-0.057974637,-0.12591921,0.09021701,-0.05676339,0.04299533,0.015782945,-0.15127951,-0.032440726,-0.023258496,0.04077542,-0.25414905,-0.13236234,-0.004220808,-0.09017829,-0.26794708,-0.030806318,0.056958135,0.05017387,0.033123832,-0.15151659,-0.33098134,0.0076759877,-0.0120022055,-0.17968777,-0.0594918,0.031635873,-0.07750279,-0.076883994,-0.10670771,-0.11426466,-0.23171107,-0.04742413,-0.18963598,-0.0011858187,-0.20327842,-0.06428207,0.025175426,-0.087597705,-0.047767345,0.10615821,0.027579973,0.02763095,0.143235,-0.048937112,0.052840047,0.08441921,0.030084161,-0.013445251,-0.12809953,0.030148005,-0.032302424,-0.08567273,-0.2612885,0.100993484,0.003265638,-0.13412608,0.045750033,0.16475098,-0.028056595,-0.13171089,0.012509623,-0.17735323,0.03318041,-0.16479298,-0.11737864,-0.017645286,-0.008844833,-0.2229238,-0.037864428,-0.3454091,-0.02774229,0.045638487,-0.045978725,0.046830695,0.1251037,0.12361333,-0.09436628,-0.12291155,-0.027103733,0.002139792,-0.34521577,-0.01307699,-0.31645417,0.08089252,-0.22543494,0.0817015,0.07725242,0.12803029,-0.08556119,0.03669891,0.13948464,-0.07358548,0.11262521,-0.3542851,-0.043235578,-0.16342923,0.038395587,0.068410076,0.10536843,0.0081288805,-0.21174853,0.2964998,-0.10840351,-0.32703558,-0.0878636,-0.013454952,-0.17475511,-0.101099126,0.028811064,-0.20878115,-0.040032223,0.06619252,-0.15263331,0.11423899,-0.28745463,-0.12897357,-0.4273197,-0.0011508241,-0.042213794,0.1045824,0.0391142,-0.036552455,-0.14908221,-0.0013157076,0.050434798,0.06545445,-0.049868774,0.036714945,0.015099645,-0.1946662,0.00877819,-0.020743039,-0.11214842,0.088158935,-0.03837511,-0.023698265,0.12697227,0.11701408,0.0042413045,0.14489208,0.20963821,0.09310041,-0.18063204,-0.010741585,0.09251161,0.12995787,0.12392763,-0.015559248,-0.10824693,0.10899787,-0.095904775,-0.11430638,0.085056975,-0.0072218063,0.09986842,0.07246498,0.10816354,-0.04263337,0.22959842,-0.12632598,-0.041505337
0.08740544,-0.15013827,0.004976473,0.06438667,-0.08977219,0.009242466,0.08120615,-0.08482035,0.0035431646,0.119462274,0.05446185,0.13368158,0.039596453,-0.009900316,-0.032145426,-0.112485066,-0.0013590765,-0.14680609,0.1495021,-0.12905414,0.008285771,-0.03233212,0.09279341,-0.25744238,-0.18252347,0.14893317,-0.14704864,0.0788906,-0.16185959,0.023888003,-0.24590242,-0.41071352,-0.13371284,-0.10720118,-0.1380164,0.009911972,-0.1741123,0.013754566,0.11350879,-0.3023477,-0.009658046,0.034293942,0.08882515,-0.05400153,-0.072400674,-0.019649785,0.1224877,-0.31364837,0.1260311,-0.3692576,-0.017139683,0.04435814,-0.11423737,0.10957678,0.19837432,-0.0383422,-0.03026646,-0.06593809,-0.034641467,0.043808732,-0.20034866,0.03629901,-0.1345688,-0.03628323,-0.050667543,0.17688774,0.025972314,0.025315639,0.10885951,0.11900217,0.11636422,0.14028941,0.071728624,-0.2694057,0.02433527,0.083236724,-0.08441409,-0.12935793,0.008546415,-0.057066176,0.07038786,-0.026416749,-0.10523871,-0.04853909,0.27010137,0.012235016,0.16819586,0.1187404,-0.17331082,-0.1915188,0.054486457,0.0027818126,0.004699201,0.21171822,-0.05725986,-0.017326474,0.03716266,-0.07824559,-0.010588313,0.12305667,-0.08080278,-0.0033004044,0.026097735,0.033147696,0.18612988,0.2639898,0.08811707,0.22006588,0.008646526,-0.036860846,-0.09113357,0.05935677,0.13827482,0.06699188,0.0041562514,0.054342937,-0.011344493,-0.058658455,0.1018943,-0.18749526,0.04561042,-0.21958163,0.23491347,0.034876753,0.035397936,0.062050473,0.08115891,0.0711167,0.14381349,-0.0250572,-0.07077553,-0.030841155,-0.30518457,-0.07179987,0.033906173,-0.24297704,-0.04616874,0.14297964,0.026465125,0.24683747,0.12737824,0.19321729,-0.3967992,-0.10498656,0.0720765,-0.108128175,-0.16976607,0.0559116,-0.09416839,-0.09462236,-0.2161169,-0.29941744,-0.25169447,0.10483421,-0.059133437,-0.085895464,0.08278055,-0.20542283,0.21095039,-0.13855952,-0.02175361,-0.076942906,-0.15701024,0.014715899,0.009467264,-0.24330042,-0.11756829,-0.23620348,-0.07086363,-0.02630169,0.03964631,-0.21680795,0.010338514,-0.110710464
-0.06263968,-0.20302585,-0.07530991,-0.14494516,-0.011649535,0.032060023,-0.055468548,0.020549178,0.058930267,-0.047705516,0.038940314,0.05586878,-0.04523464,0.23028068,0.08771444,0.07382007,-0.27693963,0.13029552,0.20203224,-0.02325369,0.054353714,-0.11450098,0.07954246,0.10353422,-0.09018601,0.044952787,-0.03978653,-0.26523563,-0.013839489,-0.010069547,0.17205657,0.29872712,-0.016967142,0.019008677,-0.04891436,-0.006090684,-0.041405823,-0.0123900445,-0.11445698,0.08102861,-0.043621745,-0.059222933,-0.11448233,0.07325382,-0.24355394,0.19184408,0.14391537,0.058868367,0.045356046,0.10014078,0.047540095,0.02716479,0.13478395,0.01677344,-0.13678446,0.13844502,0.0012504499,-0.08451002,0.029860578,-0.1905968,0.1336183,0.12435393,0.07009692,0.12893598,-0.24752662,0.025377238,0.20884874,-0.18588781,-0.36084652,0.035660006,-0.0016205899,0.091087095,-0.14015272,-0.23939933,-0.07523572,0.015572888,-0.12731732,-0.018640433,0.1842692,-0.16640125,0.16988055,0.02407003,0.05467741,0.020368675,0.0033541818,0.038131654,-0.08162868,0.04899228,-0.10607661,0.05035222,-0.02592987,0.041954603,-0.030556742,0.07130279,0.021068037,-0.2627227,-0.17849891,0.14856634,0.13743027,-0.14619593,-0.010286243,-0.26060537,0.11727124,-0.03962998,-0.2283321,-0.15582591,0.0142349955,0.1622553,0.05652017,-0.33000454,0.15723121,-0.15565117,-0.021151546,-0.075948335,-0.034631226,0.096261464,-0.29921693,-0.011657381,-0.15079126,-0.17850181,-0.19013192,-0.23702623,0.09237096,0.056785803,-0.09705861,-0.086112574,-0.04429829,-0.004120236,-0.088170275,-0.29109162,-0.16501053,-0.1725756,0.18804306,0.015641138,-0.106405474,0.09146061,0.27865046,-0.0921295,-0.07281852,0.27977937,0.03827682,0.024877662,-0.024510697,0.24048245,-0.0740238,0.16108696,0.11327314,0.04251718,-0.10454481,-0.33618355,-0.104327574,0.022183634,-0.10625632,-0.105333,-0.024392955,-0.41944438,0.0674438,0.08467953,0.043510675,0.02995579,-0.111779965,-0.010226989,0.0003554566,-0.06871648,0.09202858,-0.057551425,-0.15054408,-0.10079012,0.17725407,-0.06192161,-0.0765266,0.17384294,-0.13087723,0.08807838,0.021849845,0.11743477,-0.10203186,0.10662198,0.007905541,0.03469591,-0.13895424,-0.06837768,0.04737043,0.03178222,-0.08611163,0.07158392,-0.012421757,-0.1341842,0.014866077,-0.009016773,-0.009294204,0.09788329,-0.02322433,0.076881334,-0.03696749,-0.07685671,0.059949465,-0.12255044,0.09901648,0.05147655,0.11465865,0.14808938,-0.09123483,0.04025424,-0.016251108,0.02108273,0.025482815,0.19861448,-0.23383966,-0.0034161417,-0.03726008,0.08326312,0.018348994,-0.12687024,0.06560095,-0.14089751,-0.12841561,0.07487564,0.15063503,0.17701323,0.012307095,0.07444941,-0.08046306,-0.023539804,0.06540508,0.10892973,-0.02698895,-0.044041082,0.16384888,0.116663605,0.083938636,0.07979376,-0.035079274,0.22599582,0.0664233,-0.028465752,0.008345629,0.009320182,-0.100468345,-0.0032045417,-0.018256858,0.0129849035,0.043320455,0.046550542,-0.33215234,-0.15971018,0.11816231,-0.044411637,0.010666934,-0.019540103,0.05789299,0.030124798,0.13757452,0.23924914,-0.12717827,-0.061874133,0.02151495,-0.25376156,0.09532155,-0.008629394,-0.2019901,-0.08345098,-0.02098401,0.0025058214,0.122602485,-0.021677973,0.07544929,0.24517721,0.014992257,0.050763693,-0.077342495,-0.03222063,-0.19340459,-0.042353556,-0.26925412,0.19167542,0.023517724,-0.051429957,-0.03531585,0.11435134,0.075127974,-0.077812314,-0.014028024,-0.41230062,-0.10900557,-0.06949653,0.19386576,-0.19903502,0.014263002,0.05961165,-0.12252787,-0.02717641,0.021964699,-0.07734869,-0.20346397,-0.011260079,0.0945678,-0.05806565,0.18112455,0.25073373,0.05072092,-0.10652078,-0.015331894,-0.18401133,-0.15637675,-0.1726836,-0.11394733,0.073059246,0.05558303,-0.04205476,0.091174,0.1128469,0.04177445,0.12608345,-0.13371871,-0.08719479,-0.5474626,-0.049210507,0.114810415,0.04012026,0.10194448,-0.0062791333,-0.022692682,0.03488914,0.059672,0.12117467,-0.05846546,-0.026983643,0.09625811,0.14680345,-0.07447644,0.098375656,0.022434548,0.013236194,-0.110567324,-0.033638675,-0.007584334,-0.1685926
-0.0028474587,0.006000274,-0.040168263,0.0315257,-0.033641744,-0.020892788,0.09363798,0.07528085,-0.16672255,0.0046847938,0.0006367229,-0.10921632,-0.053644363,-0.123281926,0.04530224,-0.08317291,-0.031187182,-0.0044931024,0.14633653,0.19189465,-0.11425723,0.07661052,0.11277357,0.13438141,-0.17754652,-0.13641898,-0.12710267,0.02263884,-0.14914173,0.0331087,0.20695865,0.039810453,0.2288462,-0.101198025,0.10891081,-0.08778766,0.021705605,0.0042611626,0.043337498,0.12909703,0.0474175,-0.110225,0.05591437,0.2941691,0.051832024,0.07023031,0.12054007,0.027494336,-0.030397875,0.13600715,-0.30152303,0.06859118,0.19948043,0.034718357,0.02378226,0.04607034,-0.0566892,-0.044157352,0.059272606,0.11308018,-0.13797145,0.14545548,-0.0077107716,-0.09864007,-0.048051544,-0.11631354,0.06179088,0.15910026,-0.063617006,0.14656487,0.1363093,0.04903527,0.09139272,0.025823867,0.113047324,-0.17198741,-0.014861447,0.021468783,-0.023954166,-0.07135169,0.01601463,0.18259645,-0.054754924,0.014856847,-0.16732718,-0.094822645,-0.091343865,0.06769107,0.025905188,-0.1550027,0.033219747,0.08757633,-0.12496159,0.082022555,0.076117694,-0.03987358,-0.020561496,-0.15980347,0.1870791,-0.0013779803,0.05324846,0.07431981,0.0902762,0.06614497,-0.10919255,-0.37525973,0.058175586,-0.106340885,0.07875258,-0.09770665,0.0613379,-0.090412,-0.16507716,0.07727464,0.029418148,0.14660962,-0.1628586,-0.09080639,-0.033298757,-0.120367594,-0.008569951,-0.1744798,0.080223605,0.045638792,0.101604976,-0.038220856,0.13197443,0.017801773,0.10783654,-0.37401044,-0.038936093,0.043163072,-0.0023817169,0.017752757,0.01894788,0.013027882,-0.4032682,-0.28229788,0.10590649,-0.16716467,0.114846036,-0.027178602,0.012351762,-0.10914893,-0.124340355,-0.08092057,0.23499721,0.22807252,-0.18274689,-0.015376844,0.12116218,0.08339242,-0.23260325,-0.14695501,0.014101332,-0.040734034,-0.07980165,-0.06446215,0.14650166,0.22787154,0.07823217,-0.41166013,0.12803106,0.07620934,0.031559538,0.07624749,0.026726384,0.026847286,-0.13490264,-0.07720411,-0.10311409,0.22490029,-0.0077855824,0.14846109
-0.2344051,-0.037748672,-0.29170865,-0.17562354,-0.19126424,0.09059665,-0.18384755,0.10893945,0.114635736,-0.13731854,0.15960534,-0.05639194,-0.14656536,0.15457131,0.1586946,-0.13389929,0.10377008,0.059237607,0.15785402,-0.16083416,0.05326979,-0.24833292,-0.04483634,0.16802762,-0.09363139,-0.11045145,-0.20249224,-0.10020677,-0.017735269,0.023996696,-0.063881285,-0.032644115,-0.21159159,-0.03569379,-0.37913373,-0.17946187,-0.14952436,-0.04838015,-0.09476703,0.10027699,0.079933956,-0.21206714,0.064136915,0.18181908,-0.21760885,-0.07408227,0.14211851,-0.23032269,-0.20457485,0.07215459,-0.0028861535,0.0340061,-0.07915404,-0.29228693,-0.053202454,-0.022558331,0.0012083774,-0.027310254,-0.09390373,-0.0141250035,0.010595177,-0.023922576,-0.17386115,-0.02609801,0.037588257,0.05238661,0.05474372,-0.10123095,-0.1441826,-0.007542198,0.06455233,-0.07120376,0.057556592,-0.20373785,0.17144227,0.10315668,0.078631796,-0.120555654,0.1417965,-0.026586147,-0.33863577,0.12052826,0.048722938,0.06749985,-0.09489729,-0.12417064,0.038899604,-0.1269711,-0.032535702,0.055933114,-0.06820746,0.10955955,0.04633887,-0.13306352,0.026978277,-0.084057696,0.097164474,0.11291837,0.11671188,-0.010300516,-0.023978634,-0.105446905,0.14776367,0.06335906,0.044783797,-0.26828796,0.14176731,0.1390575,-0.070851654,-0.087438695,0.14817148,0.08412924,0.024632547,-0.108017825,-0.13075626,0.04773426,-0.09718356,0.008682751,0.041407283,-0.011703045,0.03205028,-0.052614607,0.05002813,0.053342696,0.16836604,-0.29423854,0.097530976,-0.041275296,-0.17849183,-0.17278834,-0.22613704,-0.26348332,-0.25202486,-0.045044005,-0.053516418,-0.016188664,-0.3222569,-0.24197274,0.116636254,-0.30037338,-0.2513452,0.13464248,0.0269494,0.1734215,-0.06709842,0.14806768,0.12989706,-0.12850685,0.10012614,-0.21155785,-0.13793343,-0.07623903,-0.24616255,0.0064272275,0.059466526,0.13198084,0.06950776,-0.21336797,-0.017794492,0.18033569,-0.10910413,-0.07956645,-0.06699866,-0.023902174,-0.02572549,0.046723757,0.022044625,-0.0022875317,-0.06765965,-0.03094671,-0.06702836,-0.08709371,-0.08807672,-0.02199389,0.06571723,-0.17572494,-0.0592983,0.024724057,0.043347873,0.0010837787,-0.09812591,-0.20991436,-0.19003408,0.08156032,-0.036268134,-0.13212007,-0.070887536,-0.05171134,0.006705081,0.025551116,-0.06617488,-0.03572401,0.08489493,0.04560915,-0.3332838,-0.020418005,0.061900504,0.1114362,-0.14829685,-0.010104523,0.06523031,-0.14106776,0.19789891,0.0538407,0.13634756,-0.037080806,0.07899561,-0.06348391,0.18135387,-0.010119507,0.030851675,0.06042317,0.08595155,-0.023677323,0.12809601,0.072005704,0.03549102,0.040774714,-0.37504923,-0.04978739,-0.12205309,0.10717851,0.0633503,-0.0037465196,0.103623964,0.047833912,-0.03208875,-0.016937934,0.044582125,0.12841097,0.062091373,-0.08956174,0.005714303,-0.047805063,0.15109654,-0.046737663,0.13080376,0.0211785,-0.116836175,0.09689996,0.025242716,0.017477771,-0.07933336,-0.07573136,0.03241981,0.06223961,0.071619056,0.1441287,0.05313169,0.07241324,-0.01780891,0.03687956,0.090177104,-0.18011622,0.09227046,0.18451755,-0.13629046,0.002140582,-0.028445164,-0.29020935,0.099407025,-0.09500017,0.029672753,0.08415084,-0.18533517,-0.15398756,-0.3253299,-0.20608798,-0.1823453,0.07651818,-0.16186884,-0.064711146,-0.15506622,0.14811677,0.11428307,-0.111254096,-0.23644647,-0.048880674,-0.29196605,-0.16518874,-0.17624065,-0.23036683,0.038486622,0.22119018,0.18377446,0.087218575,-0.19089836,0.02664292,-0.24561027,-0.19195512,-0.09139131,-0.16390769,-0.15643302,0.038161892,-0.089884944,-0.0938497,-0.023123793,-0.04096727,-0.08203544,-0.07184345,-0.09047341,0.22170435,-0.060734577,-0.016920162,0.021888506,0.14336008,0.07027634,0.081756145,-0.020648401,0.078059435,-0.0217617,0.15099423,-0.049789354,-0.10142931,-0.05765471,0.011182923,0.23406576,0.026665952,-0.04503556,-0.029799616,0.05481476,0.07556512,-0.16640311,0.033831,-0.27158263,0.15028402,-0.018154714,0.014926209,0.007077291,-0.064847656,0.017905964,0.09441378,-0.038641043,-0.04367357,0.054666217,-0.04270875,0.054231074,0.1485729
0.050009146,0.046837628,0.23932624,0.02323176,0.035260152,0.09174335,-0.007636618,0.13783146,-0.10942979,-0.08017295,-0.22680973,-0.03384196,0.037070237,0.037428364,-0.06706371,0.03694951,-0.09023199,-0.020755671,-0.21877258,-0.16917801,0.034706794,-0.051578157,0.026912399,-0.16123195,-0.011244739,0.028517444,0.04334676,-0.07674711,0.063772485,-0.0061153956,-0.051740807,-0.049628474,-0.09237981,0.10167863,0.10123164,0.08061326,0.004666564,0.15325953,0.011727148,0.02424623,0.08879612,-0.041521937,-0.022921449,-0.057472665,0.032249376,0.17018323,-0.18097845,0.14443928,-0.12820683,0.10953812,0.29209095,0.017408783,-0.26704535,0.044087302,0.13323241,0.008082233,-0.23320803,0.06328825,0.09235884,-0.023222972,-0.12866339,-0.049115833,-0.027053047,0.06946908,-0.02955818,-0.021866355,-0.21149838,0.15102886,-0.08990902,-0.10504249,-0.059441783,-0.16276118,-0.14195798,0.017740542,0.020856505,0.09537704,-0.12524875,0.08985681,-0.11508507,-0.20156065,-0.1701037,-0.05378143,0.0028783293,-0.017725723,-0.18964623,-0.053551063,0.028830508,0.113815896,0.15017705,-0.07700175,0.043609835,-0.13713579,0.034018837,-0.1504998,0.019144941,0.16824497,-0.06876287,0.17277046,-0.03273392,-0.08992143,-0.0039004595,-0.058887787,-0.21809116,-0.03105007,-0.028830994,0.053344466,0.020386308,0.056199357,0.008914684,0.030908752,0.052763913,0.08999357,-0.015021248,-0.08164806,-0.13852961,-0.016862396,-0.03361065,-0.094323404,0.09136637,-0.068484716,0.10109703,0.19846813,-0.16674168,0.032336313,3.168409e-05,-0.08877083,-0.0947179,0.12505208,-0.017092155,0.21042423,0.06558858,0.14410737,0.09197755,0.09481457,-0.03623143,0.08924068,0.10521887,-0.046482336,-0.38347465,0.0093541695,0.08990341,-0.06461673,0.1636956,0.03680457,0.067353934,-0.14567916,-0.20420066,-0.28832766,0.024926366,-0.052829407,-0.04075633,0.0145528065,0.0037816719,0.2370433,0.03662453,0.066304766,0.11617423,0.06884785,-0.2812963,-0.16745734,-0.20642732,0.22129482,0.031758506,0.15219718,0.08170893,0.1543838,-0.017391132,0.14335138,0.13539653,-0.0071037654,-0.00018005846,0.039152857,0.088018365,0.031015944
0.046811484,0.44485682,0.072030656,0.11684518,0.06617329,-0.19049017,-0.040875703,0.06338476,0.028159063,0.08194336,0.014923399,0.20382409,0.07251403,-0.1603318,-0.105146065,-0.12307402,-0.035546366,-0.115088545,-0.03829231,0.15966257,-0.21834594,0.2764333,-0.07743209,-0.07879519,-0.047355745,0.044394247,0.01765126,0.40710226,-0.13510981,-0.07838854,-0.032446552,0.16541028,0.040776826,0.22785424,0.17078464,0.0015102203,0.13403977,-0.15991758,0.15727349,-0.018364498,-0.1638758,0.051608883,-0.07899855,-0.01510521,-0.007297865,-0.18814194,-0.15856673,0.09696154,-0.28918496,-0.0687501,-0.12179479,-0.04621164,-0.41398144,-0.2074867,0.043032065,0.032196246,-0.09634005,0.010951929,0.06857879,0.27915177,0.12733978,-0.0789829,-0.07704005,0.18844639,0.09910568,0.06960971,0.04134432,0.060879413,0.24361345,-0.08601377,0.034596384,0.10095867,0.022055956,0.12453862,-0.08829341,0.056841932,-0.0012923904,-0.114601225,-0.15345535,0.04544281,-0.07127089,-0.31811342,-0.25912225,-0.071553156,-0.22331527,-0.0933217,0.03313413,-0.023298977,-0.018577851,0.10457235,0.10959612,0.1364981,0.2914255,-0.07681714,-0.13888009,0.10279492,0.0758439,-0.0586636,0.06057627,0.082169704,0.09902439,0.008411739,0.018471071,-0.063205905,-0.06229919,0.13162088,-0.0721096,-0.16256836,0.025082804,0.14849846,-0.19119579,0.073447734,-0.21015123,-0.2951107,-0.17362928,0.03199296,0.06634487,-0.016688477,0.21637532,0.24810083,0.09561814,0.09704021,0.1141844,-0.010969641,0.0380615,0.030305624,-0.1833853,-0.029958557,0.0928392,0.20982537,0.09335363,0.08946901,0.113371015,0.19115192,0.033818226,-0.10246313,0.04178246,0.007922571,0.1252331,-0.039449442,0.01638916,-0.1723711,0.060463563,-0.19282496,0.17292789,-0.32828015,-0.07110265,0.08328853,-0.06302793,0.10086858,0.15317953,-0.11437435,0.119767316,0.11048929,-0.024556572,0.11578104,-0.032734923,0.10721009,0.20416209,-0.048060596,0.04329746,0.0010777564,0.005671896,-0.009366098,0.19016199,0.115993105,0.07988567,0.006333987,-0.11021494,-0.1062154,-0.18011811,-0.055679318,0.0010010841,-0.14851205,0.00493339,0.23562571,0.08773517,-0.17258374,-0.13936953,-0.2738576,-0.16321658,-0.0155571755,-0.11085145,0.0064322064,0.0490199,0.03729258,-0.13200901,0.21281563,0.026346397,-0.0887734,0.09479018,0.15374704,0.02866259,-0.0062402505,-0.03703512,-0.10103395,0.14999354,0.093785055,-0.21067412,-0.06154882,0.013985952,0.11475851,-0.05037014,0.009814054,0.027371865,-0.007602911,-0.0974066,-0.26487765,0.016483536,-0.12851472,-0.23685998,0.14252894,-0.17280793,-0.1381135,0.14237693,-0.09991763,-0.14215504,-0.06557328,0.1890832,-0.16057344,0.076507345,0.06727681,-0.11863218,0.0035147688,0.036727235,0.10598261,0.037145544,0.12452073,0.11975652,-0.018701604,0.012933524,0.0050549186,0.09277225,0.06226908,-0.12779188,-0.032287803,0.14750162,-0.02679157,-0.035456844,0.025823753,0.024607621,-0.38710397,-0.33572298,-0.047459304,-0.06297745,0.1340012,0.15081817,-0.005157265,0.16167037,0.02152051,-0.07294856,0.039630253,0.06373375,0.024690047,-0.061570894,0.09065716,0.016547441,0.06884443,-0.0003805303,0.07133265,-0.13152778,0.15441972,-0.13352865,-0.08909147,0.05461802,-0.037056554,-0.06467753,-0.14552999,0.14064223,0.004287715,0.10868889,0.15320924,0.059191044,0.150931,0.17365338,-0.14243282,0.12611002,0.11438076,0.110283226,-0.05275784,0.19631924,0.098218426,-0.0067435973,-0.021208799,0.040700328,0.111568995,0.041002102,0.08082473,-0.034143366,-0.11883592,-0.18362093,0.09467442,0.19484966,0.09985767,-0.066086024,-0.015930377,-0.020905599,-0.010482738,-0.13783261,0.080203526,-0.07108527,-0.027861387,0.14422119,0.01610108,0.034907706,0.06505972,0.13083205,0.11820489,0.07029163,-0.029576456,-0.14821507,-0.30805784,0.16866373,-0.0888037,-0.15311693,0.04962356,0.16288373,-0.059382457,-0.2660616,0.10394039,-0.06221524,0.044218328,-0.12752093,-0.003084268,0.08844764,0.023808971,0.045098647,0.09210204,-0.05563295,0.085774556,-0.17931771,0.0202784,0.03810604,-0.06918149,0.017759742,-0.1274214,-0.07950577,-0.0065341056
-0.0550089,-0.2400474,0.012646374,-0.22642405,0.12493082,-0.23078296,-0.07449701,-0.016124401,-0.06627261,-0.032951575,0.1373259,-0.04243167,-0.20189655,-0.065121114,0.026225615,0.064447604,-0.120268874,0.15636697,0.11069911,0.10874051,-0.033173375,-0.072816335,0.05728076,0.22424963,0.044168577,-0.18737899,0.18263642,0.06218542,-0.11548595,-0.004890733,0.063747086,-0.2272162,-0.00015497698,-0.09663818,0.0054940125,0.015880655,0.0023510277,-0.23739964,-0.02832595,0.026703745,-0.071422346,-0.069596425,0.074011385,-0.09644673,0.040871225,-0.038547155,-0.036006864,-0.15911652,0.052620552,-0.121651195,-0.25162444,0.006010273,0.051014494,0.0991889,-0.23874338,-0.08186565,0.111528665,-0.18185386,-0.31063804,0.02878487,0.13198188,0.100469366,-0.12586588,0.039547708,-0.070384346,0.30503038,0.15708853,-0.2742514,0.13807759,-0.049698018,-0.06836219,0.0072662863,-0.045953464,-0.14951044,-0.15249343,-0.1545272,0.09496676,0.014409303,-0.0032280886,-0.16650969,0.048885457,-0.050180063,-0.3885982,-0.17378654,0.09387693,0.023867406,-0.2650091,-0.00024198319,-0.06872344,-0.057870537,-0.2766545,0.009305239,0.18987349,-0.120206356,0.05101561,-0.0686939,0.000904016,0.08845476,0.06809722,-0.25777262,-0.08110032,-0.066396005,-0.029281693,-0.03563323,0.11488489,0.0447699,-0.020813549,-0.12274678,-0.28000444,-0.25092867,-0.069925256,-0.009284518,-0.05392293,0.11815496,-0.3521622,-0.20796886,0.036075465,-0.10228254,-0.380211,0.13005914,-0.29083776,-0.2565154,-0.017582562,0.07001204,0.058694452,-0.08722366,0.025520962,-0.22857803,-0.010780457,-0.09418156,0.108130634,0.047269605,-0.3215145,-0.16591749,0.023350958,-0.19825533,-0.077887855,0.053286634,0.0920766,-0.13523526,-0.2420735,-0.06112522,-0.20846802,-0.13741021,0.058410242,0.29694036,-0.21754648,-0.043547366,-0.070384145,-0.011320869,-0.24068727,0.08945212,-0.22034957,-0.3417739,0.04546798,-0.12416536,-0.036043942,-0.12221992,0.18312295,-0.14933176,-0.010275566,-0.13917647,0.22624658,0.057152804,-0.26187754,-0.40670866,0.07137688,-0.31909174,-0.10525967,-0.036679313,-0.14058669,-0.24396244,0.04389901,0.080479346
0.052763466,-0.09916008,0.20179066,0.09579567,-0.04766785,-0.09450152,0.07896064,0.014443812,0.014801315,0.011016225,-0.18316947,-0.042594727,0.06768714,-0.21380568,-0.140086,-0.016804416,0.110882044,-0.005212649,-0.17855915,-0.02374164,-0.054743737,0.25152534,0.066925004,0.035125274,0.15376528,-0.07308598,0.049575936,-0.116781004,0.050322425,-0.25269997,0.22798434,-0.28720954,0.015252959,-0.24093775,0.14935619,0.05578503,0.07963539,0.046105847,-0.06121818,0.09671851,0.04353606,0.07884486,-0.0015983144,-0.047478803,-0.039618455,-0.010203859,-0.12325074,0.23883875,0.07709722,-0.23244965,-0.07625753,0.02486077,0.20507956,0.14946765,-0.06862903,0.05200561,0.095713094,-0.095446795,0.02878619,-0.14472443,-0.06666697,0.015178785,-0.023201311,-0.048898425,-0.083642095,-0.39839208,-0.3752622,0.03578652,-0.0025417018,0.08982238,-0.1826486,-0.10992873,0.07017833,-0.017770585,-0.07644687,-0.17520647,-0.045767073,0.1788074,-0.30596036,0.040067904,0.026864735,-0.0016475735,0.18982393,-0.33513662,0.19156042,0.035044953,-0.0003659025,0.13794464,0.11109253,0.034711905,-0.36458352,-0.36075085,-0.09063741,0.15000424,0.20484817,0.045341585,0.07918588,-0.1956372,-0.31916872,-0.075111695,0.126023,0.23790723,-0.22966631,-0.089320235,0.17303771,0.13897946,-0.12620792,-0.3471266,-0.16691376,0.3425542,-0.37327588,0.20692433,-0.041911334,0.32295883,0.2583501,-0.32035723,0.20103204,-0.1162902,0.051031902,0.15199876,0.03993763,-0.0886009,-0.17874052,-0.27152058,-0.08069765,0.3819907,0.19513658,0.14258766,-0.007690353,0.14286435,0.009101281,0.15194389,0.025670119,0.061203793,0.047785126,-0.057643227,-0.06711864,-0.013970128,-0.10642207,-0.11019034,0.07750794,-0.02339826,0.057046752,-0.31329733,0.07500176,-0.010692401,0.04711503,-0.023454074,-0.10876802,0.065025374,-0.12696035,0.037497897,0.02185733,-0.1232543,0.019626621,-0.08855755,0.06157586,-0.07427337,0.1638205,-0.047354106,-0.023305085,0.067414135,0.05451762,0.013814925,-0.009867551,0.11982735,0.075042136,0.08832825,-0.018031748,0.07944107,-0.04695321,-0.11213563,0.14788404,-0.044815417,-0.09911812,-0.012043077,0.075503394,-0.0009974295,-0.027923604,-0.068472445,0.04344815,0.094766304,0.10960272,0.011577437,0.098763414,0.029319048,-0.003207371,-0.17895299,0.13807529,-0.028201578,0.111427024,0.09409661,-0.21577108,-0.24202062,-0.010814636,0.035321873,-0.10045912,0.11685752,-0.112443514,0.062488053,0.123032406,-0.111632496,-0.10607797,0.063270904,0.014002962,0.032066923,0.024045939,0.22006373,-0.010207312,-0.008595961,0.033046428,0.11358098,0.12895186,0.06399836,-0.037388124,-0.0026080061,0.04564897,0.096489795,-0.18514171,0.033541404,-0.08787555,0.17941102,-0.04370338,0.18993795,-0.3363984,-0.05823509,-0.052366763,-0.0662004,-0.15793675,0.19934832,-0.13179784,0.09801777,-0.032255705,-0.38710335,-0.28038952,-0.005639843,-0.09889559,0.14214744,-0.03907254,0.16285086,-0.08245994,0.07731469,0.17365314,-0.02504044,0.050962258,0.082678944,-0.09821873,0.04068333,-0.112605534,-0.16713448,-0.31254947,-0.06412082,-0.31070074,-0.056402545,0.0818121,0.10390268,-0.13101195,0.21097581,-0.13841243,-0.08233716,-0.067182966,0.042724367,-0.062206857,0.0070802732,0.03393395,0.016877161,0.10516789,-0.011150637,0.0006715486,0.0893807,0.004492911,-0.062265486,0.057883713,0.15531501,0.055717748,-0.00022579837,-0.1605206,0.026866741,0.061415795,-0.14489606,-0.08439755,-0.0873912,-0.11776419,-0.106370814,0.075520046,0.06720767,-0.05113712,0.021357225,0.06762916,-0.022864375,-0.022205507,-0.05986324,-0.0180933,0.03102048,0.038203765,0.023508448,0.14541985,0.02041242,0.004569712,0.187673,0.052746765,0.030502325,-0.015636213,0.08184958,0.018137585,0.13287172,0.07623355,-0.17229216,0.001863542,0.012528955,0.15874429,0.08477592,-0.15897503,-0.08435993,0.016500836,-0.08636051,0.055189755,-0.05946987,-0.09396441,-0.0032362295,-0.066036604,0.020372804,0.02304607,-0.041363493,-0.13649766,-0.064299196,-0.0870254,-0.016683573,0.062312227,-0.3087673,-0.063658826,0.10178142,-0.041358244,-0.018511247,0.07261049,0.101567104,-0.050036013,0.08014158
0.07720298,0.08941687,0.030119939,-0.005457039,-0.10123602,0.08093999,0.02705798,-0.10979606,0.026568905,0.009147212,0.08978472,-0.16383442,0.021571899,0.13555211,-0.14643382,0.06808026,0.09248192,-0.058971137,-0.048373546,-0.04670809,-0.0015756302,-0.08914803,-2.8342183e-05,-0.16684416,-0.11505664,0.0353912,-0.11041087,0.023342256,0.13854735,0.07008689,0.0007274474,-0.022473324,0.10924025,0.08820115,-0.015301029,-0.015242805,-0.0748129,-0.09421325,-0.13179173,0.0031788342,0.047547605,-0.07393336,0.010483226,-0.13225906,-0.14871426,-0.06242707,-0.06598764,0.08400634,-0.16233309,-0.09438431,0.0047680214,0.075152434,-0.124074504,-0.022820882,-0.0062454343,-0.18047602,-0.09712097,-0.13009791,-0.017795077,0.055724926,0.09162015,0.018620264,0.030490452,0.095981464,0.06182289,-0.21697733,-0.025597138,-0.2500039,-0.23052485,-0.07288913,-0.19115335,-0.08316072,-0.24960394,-0.072784066,0.0818152,0.09354019,0.079778455,0.022536684,-0.07160958,0.09479323,-0.22640571,-0.06887272,-0.01335449,0.03812063,-0.011554251,-0.07649706,0.10252572,-0.031492732,0.12445613,0.16145639,-0.18036239,-0.03161692,0.041528895,-0.047281425,-0.042654756,0.19340092,-0.032720458,0.14121929,-0.09172061,-0.0061111003,-0.0137849515,-0.06444196,-0.26060343,0.045262605,-0.02691768,0.01742949,-0.05349199,0.05634399,-0.013722383,-0.07712704,0.12073947,0.06258607,0.064617254,-0.16402411,0.035814315,-0.013685251,0.07977719,-0.012017993,-0.055187177,0.06889648,0.11802088,0.2531674,-0.154885,-0.08860607,0.033769485,-0.049264543,-0.28522623,0.009090508,-0.12212995,0.21952976,-0.060686946,-0.060529355,0.039499525,0.024112979,-0.13390549,0.13454755,0.11072069,0.17894186,0.029045312,0.09869417,0.02702628,-0.13829187,0.04726378,0.11174455,0.082333446,-0.11338254,0.043934014,-0.20433228,0.0942955,-0.06931839,0.05565559,-0.0148385465,-9.5732365e-05,0.21104114,-0.0023599984,-0.0011293463,0.1689011,0.012890999,-0.10952422,-0.23200412,-0.18619509,0.20942295,-0.026884774,-0.015433765,0.07813817,-0.034640122,0.10070986,0.13828224,0.17767164,0.09888151,0.07307822,-0.050444443,-0.0929552,-0.030563526
