-0.03823974,0.014257179,-0.022359997,0.05931532,-0.13574834,-0.078372546,0.11522245,-0.019085707,0.04182049,-0.28677627,0.07718101,-0.09762934,-0.21207635,-0.07277248,0.0065038963,-0.1743674,-0.12555136,-0.19955033,0.07862851,0.12562783,-0.062562495,-0.055338115,-0.15774544,0.02028865,0.10094854,-0.07243201,-0.12650403,0.11317629,-0.043660436,-0.018493239,0.012839126,-0.10496987,-0.10740276,0.04313861,-0.024597388,-0.034003865,-0.15851922,-0.15270995,-0.050905377,0.08386104,-0.10431415,-0.037156694,-7.452021e-05,-0.067740835,0.02646751,-0.05718712,-0.04738832,-0.013682506,-0.16416098,0.0012590751,-0.12606953,-0.06088099,0.03375493,-0.12643994,-0.04366972,0.0074285045,-0.029647473,0.13188268,0.17578277,0.0645226,0.14812753,0.1171188,-0.01510524,-0.036028773,-0.074161686,-0.004293085,-0.104871266,0.090739846,-0.027952546,0.0008542836,0.12058584,-0.10441295,-0.03953886,-0.087250486,0.07372031,-0.12613912,0.12160606,0.072523065,0.010282892,0.031527225,-0.0062523163,0.10983163,-0.17894602,-0.017562458,0.06227084,0.022072483,0.051160913,0.054719575,-0.18670323,0.120540746,-0.006120167,0.11013097,-0.25512257,-0.12998088,-0.012822493,0.0030702145,0.07120715,0.016686456,-0.077378035,-0.11354481,0.009208397,-0.14916773,-0.001374826,-0.16553332,0.042054422,0.099516965,0.05887147,-0.029059349,0.17400578,0.020835072,0.06967518,0.013767077,-0.008340406,0.2074473,-0.35668173,-0.05716398,0.09183548,0.07482479,0.014757195,-0.077459864,-0.20623925,0.12389257,0.075249664,0.09806858,-0.35753018,0.0075318296,0.12103017,0.12999715,-0.025424642,0.006422057,0.103980124,-0.012694976,-0.033671577,-0.40315422,0.06736456,0.245047,0.095602185,-0.46437427,0.064724974,-0.21388115,0.16633403,0.15744494,0.07145351,-0.21327114,-0.17613919,-0.33252588,-0.101771146,0.10786593,-0.15013234,-0.08151977,0.013902824,0.023489762,0.16228667,0.044185787,0.25418416,-0.08687337,0.104754135,0.04125181,0.046696085,-0.119306244,-0.09530148,-0.011234093,-0.0021918276,0.06521082,-0.08333604,-0.08751812,-0.15849708,0.09351939,-0.15149294,-0.17690673,0.02829667,-0.17305182,0.021231098,-0.21383034,0.011948797,-0.032892484,-0.108839124,0.08877287,0.000559299,-0.015235072,0.041971456,0.11609246,0.15770514,-0.050222773,0.11340079,-0.06903247,0.1051878,-0.049832772,0.051687803,-0.12439457,-0.08466984,-0.24217306,-0.085704766,-0.11444978,0.066216305,-0.02025402,0.0012780558,-0.20407882,-0.056730773,-0.03744297,-0.022414329,0.035618413,-0.16095515,-0.06538131,0.12177152,-0.049713053,0.065040566,-0.050702937,-0.019718973,0.15056653,-0.008943285,-0.050421372,-0.14493631,-0.012093362,0.03857661,-0.30244982,-0.14742453,0.13376477,0.085595034,-0.014890671,0.012867139,-0.0099689,0.05864586,-0.1774555,0.04326286,0.07807842,-0.095214784,-0.0133188395,-0.008679396,-0.25375837,-0.34754488,-0.105632275,0.101540945,0.10651494,0.013881917,0.33119532,0.027779555,-0.14326173,0.18439816,0.056054365,0.14171527,0.19423643,-0.1436099,-0.1521188,-0.120423496,0.024809048,0.0050258394,0.05018989,0.06945334,0.1808323,0.018613664,0.053398505,-0.07395725,0.027216384,0.02717165,-0.047666688,-0.030525554,0.12882456,0.08400837,-0.025130996,0.1591841,-0.1849058,-0.16045168,0.16996218,0.078932814,0.047786113,0.040280264,-0.60971886,0.0691008,0.17312625,0.059603836,-0.22037655,-0.46163696,-0.236149,-0.053510737,0.10521377,-0.1565902,-0.05728379,-0.12072168,-0.2402834,0.05338143,-0.032806385,0.19094957,0.059958603,0.1598147,-0.15023188,-0.08045278,-0.103973195,-0.118525974,-0.14114007,0.11399553,-0.070882864,0.10665308,-0.062914446,-0.07934856,0.12812576,-0.113558896,0.02257123,-0.24823704,-0.19689262,-0.002602929,0.053625938,-0.2490733,-0.31774694,-0.22940408,-0.2720568,0.04222037,-0.05526302,-0.064726144,0.12624092,-0.04715642,0.031259004,0.13706507,-0.06667965,0.09505936,-0.06887387,0.15400818,-0.13233998,-0.050509088,-0.044153858,-0.061252594,0.13099639,0.18757851,-0.041122917,-0.1055522,-0.028185245,-0.13585393,-0.33135352,-0.048090022,-0.0292513,0.05872297,0.021198537,-0.05898205,0.019904388,-0.054016586,0.042081222,-0.028396958,0.014660622
0.15389775,-0.039412554,-0.002184526,0.08915512,-0.06792488,0.035156947,-0.18627019,-0.19084416,-0.34225613,-0.18678902,0.00870492,0.0019244017,0.051947802,-0.13236484,0.024128916,0.062604725,0.06567785,-0.04320126,-0.29392627,0.15226944,-0.28922722,0.06487609,0.060502816,-0.19482312,0.08104478,0.17250164,-0.07071963,-0.34020293,0.11543064,-0.067706525,0.16690467,0.032114036,0.17398724,0.016978212,-0.42438102,-0.002877543,-0.18372896,0.1385322,0.00073953805,-0.18550429,-0.052139994,-0.12687874,0.08437608,-0.047899134,0.01523363,0.0014018144,0.036404278,-0.12830155,0.18263145,0.07684997,0.11105971,-0.108300015,0.12467576,0.07959221,0.0006299075,0.051647663,-0.036880106,-0.057871103,-0.05424826,0.19379257,0.18193585,0.026857013,-0.1495526,0.020257287,0.0718243,-0.16573134,-0.03495188,0.051285066,0.04486555,-0.07006804,0.13654,0.03773492,-0.11815286,0.07025151,-0.054387458,-0.1937676,-0.08110615,-0.017005581,-0.10147091,-0.017200265,0.19106078,-0.0739897,0.087427296,-0.08758688,0.060735095,-0.11059833,0.16948287,0.061774217,-0.18555818,-0.20220092,-0.35156205,0.20349897,-0.116237335,0.04171561,-0.15546322,-0.040198725,-0.056966584,0.08786,-0.09017291,0.036546923,-0.088214494,0.04684108,0.15082684,-0.056605134,-0.19204311,0.10669725,0.044288564,-0.15449588,-0.3151812,0.018689454,-0.10645572,0.04948643,0.11114456,0.039314996,-0.071756765,0.050939996,0.0063279043,-0.15973617,0.009761978,-0.062059708,-0.08457196,0.016787786,-0.021331279,-0.060364667,-0.31679863,0.06318568,-0.14402786,-0.031009339,0.0015230416,0.10169094,0.0763118,-0.20778668,0.003289244,-0.062169358,-0.034267597,-0.08939596,-0.21223456,-0.12583947,0.07386563,-0.056389153,-0.011713404,0.12492465,0.05495636,0.12841474,0.04132751,-0.05365745,-0.1394854,0.11505616,-0.22276884,-0.08241927,-0.060047656,-0.32617185,0.011206436,0.13806897,0.1600018,-0.37937194,-0.3516741,-0.11229697,0.12263231,-0.24537385,0.13579263,0.11094219,-0.4023405,-0.15488549,0.010279568,0.03794488,-0.047267023,-0.27690127,0.13500394,-0.09619428,0.09304943,0.2145216,-0.14824657,0.03590147
0.015892573,-0.008294778,0.053497925,0.036907285,0.06892263,-0.021457069,0.056007728,-0.31306264,-0.04624107,0.11129479,-0.12355706,-0.027492711,-0.15214343,0.09737355,0.02765409,0.011895812,-0.17048207,0.07023921,0.07626025,-0.2681878,-0.17695504,0.016752481,-0.16738166,0.12257686,-0.14298864,0.07084515,0.010794201,0.06522619,0.086187355,0.03897797,0.027135728,0.07219364,0.068453066,0.014789755,-0.0032396556,-0.034238946,-0.16742273,0.14770974,0.019225545,-0.0029697265,0.21879712,0.2097819,0.013476535,-0.023515828,-0.13836037,-0.016681831,0.057987746,0.037898775,-0.030281385,-0.17616186,0.19776918,0.015072845,-0.066095926,0.2050287,-0.046934597,0.060754396,-0.09591827,-0.10303246,-0.12994637,-0.024570342,-0.17384249,0.2008075,-0.113706015,-0.06372276,-0.012794804,0.05092642,0.16014577,0.092325084,0.21475746,0.14848383,-0.012792953,0.0658376,0.08090438,-0.07629893,0.16721341,-0.1309732,-0.14355923,-0.047911312,0.004025266,-0.24937923,-0.113551795,-0.17561291,0.10766591,0.07159677,-0.10536203,0.13152424,-0.14478801,0.013332729,0.010360112,0.0325388,0.038042866,-0.109750666,0.18332627,0.32716545,-0.12840585,-0.31769732,0.09197555,0.08255826,0.036607374,-0.05017886,-5.7966943e-05,-0.024002783,-0.026684925,0.055168834,0.116264254,-0.21762048,0.08754739,-0.37318417,-0.07875906,-0.24437839,-0.3634251,-0.1852642,-0.15241705,-0.26358044,0.16529228,0.117416576,-0.35070923,0.037094638,-0.115279585,-0.113093555,0.11322675,0.014302728,0.011715682,-0.08737059,0.100768566,0.013834465,-0.12857877,-0.14096296,0.0003855414,-0.10047937,0.09660389,-0.06486919,-0.3274325,0.07940026,-0.13917392,-0.076042466,-0.4726089,-0.012347609,-0.05675248,-0.012142691,0.10466774,0.03404249,0.07916263,0.024986096,-0.024558669,0.056924112,-0.044900212,-0.15473352,-0.19638738,0.08594956,0.022601206,0.010911493,-0.076716535,-0.35513064,-0.17696445,-0.11640358,0.10106506,0.05258344,-0.13505131,-0.1821428,0.05506391,0.07523243,-0.23724958,0.008379773,-0.05823803,0.10305666,-0.059119463,-0.10272165,0.004161437,-0.040047277,0.0836045,-0.15444194,0.15094222,-0.15819608,0.091974914,0.07907563,0.004937277,-0.13523479,-0.047472425,0.007564918,-0.27941096,0.1583705,0.07916453,-0.2218963,-0.1258145,-0.20659022,-0.09769894,-0.32122564,-0.11027913,0.18760484,0.029970571,-0.26570815,-0.09998425,0.19463496,-0.026517507,-0.033921115,-0.17200488,-0.24555637,0.14337248,0.046603534,-0.046767104,0.0011639567,0.26707077,-0.15768269,-0.08802,-0.091675736,-0.045768466,0.01904983,-0.051017284,-0.13250968,-0.027302975,-0.0834269,0.109642774,0.09976195,-0.2605897,-0.062175598,-0.047573827,-0.16113302,0.14772782,-0.12115222,0.068770535,-0.19762917,-0.07897104,-0.1757763,-0.042405624,-0.10998745,0.09516596,-0.046288487,-0.08762596,-0.12262806,-0.26460415,-0.052043132,-0.116840236,-0.11921367,0.024561385,-0.13765919,-0.02971883,-0.18063883,-0.19110577,-0.10331156,-0.39819804,-0.15856871,0.15217279,-0.09694085,-0.057646498,0.0002038939,-0.28364754,-0.12504889,0.12348531,-0.16545646,-0.07476508,-0.14749382,-0.011576245,-0.19801885,-0.101942144,-0.12172586,-0.27554762,0.034197144,-0.025708782,0.06275901,-0.25831178,0.122097135,0.04535487,-0.096715055,-0.096691474,-0.1676033,-0.035355214,-0.036174476,0.14832719,0.008657212,-0.016929753,0.14025643,0.014054442,-0.09159814,0.015709799,-0.23131664,-0.12985358,0.037242375,0.04594198,-0.04771881,-0.41839325,-0.24184169,-0.3443801,-0.18756594,0.15702811,0.09677388,-0.04645666,0.057417296,0.033320844,0.11108273,-0.39497766,0.013373791,-0.20700242,-0.1353511,0.13907516,-0.019441297,0.09684786,-0.03859276,0.07962448,-0.06124893,0.19344544,-0.39822644,0.07338916,-0.136446,-0.0784777,-0.0698237,0.1277232,-0.054162506,0.25659552,0.07060417,-0.15057458,-0.25824115,-0.047842197,-0.27222067,0.060908396,-0.2729334,0.07083305,0.047953226,0.051605,-0.21503028,-0.04977872,-0.11312215,0.099140815,-0.011462774,0.08955508,-0.030418063,-0.08078375,0.041035343,0.045719486,0.04113183,-0.1564747,0.05703602,0.19676699,-0.08172568,-0.019148137,-0.18286014,-0.11411681,-0.10590167
-0.079160295,-0.20005994,-0.14491278,0.07857922,-0.19882937,-0.07008811,0.031733032,-0.11976125,0.06982544,-0.13710141,0.12541305,-0.33070877,-0.1613785,-0.08074619,-0.20412447,-0.07097464,0.07449059,-0.049177967,-0.030649262,-0.1472251,0.09504349,-0.116316356,-0.25441113,-0.15068224,-0.25884554,0.06528308,0.036488146,0.026570404,-0.07766989,-0.22678389,0.014789664,-0.039350033,0.05473539,-0.33182782,0.037300974,0.041534457,-0.05109686,-0.021274563,-0.15802479,-0.11862099,0.026424231,-0.08584214,-0.027592154,-0.14595829,-0.2859912,0.07931009,0.0132163,0.04183255,0.043152176,0.07934588,-0.37770808,0.13040724,0.12629175,0.1191126,-0.051997427,-0.0059643704,0.08928209,-0.08916065,0.020573897,-0.19815233,-0.035735015,-0.03033612,-0.12368025,-0.15464489,0.023422988,0.18160588,0.01781446,-0.061257116,-0.061095618,0.20404322,-0.0066440995,-0.0960916,0.08592764,-0.0054222415,0.09324449,-0.00089505693,-0.21213841,0.090339586,0.20482029,-0.18580505,-0.02577564,0.0306049,-0.19355126,-0.03254516,0.20036547,0.03669869,0.1309104,-0.04921946,0.0077346186,-0.16373244,0.02783423,-0.07158911,0.1154528,0.23889272,-0.14295666,0.112474374,0.17849962,0.13492796,0.22483239,0.05205968,-0.084454656,-0.06415426,0.11368947,-0.07452578,0.2392953,-0.061728157,0.28365383,-0.087646276,-0.002474474,0.04115699,0.03446683,-0.21962379,0.09692464,-0.09889008,0.10360472,0.031597,-0.124976255,0.036271818,0.22102389,0.07116229,-0.14951226,-0.113033906,-0.07171182,0.070610486,-0.02958909,-0.02474039,0.077190146,-0.089848764,0.008650382,-0.24327321,-0.12824202,0.21721897,-0.06920893,-0.010306225,-0.02416525,0.07088075,0.14001149,-0.042808678,-0.08798767,0.00019552016,-0.022863124,0.031988196,0.0136144385,-0.31690603,-0.05855304,0.07376657,0.2073872,0.12282087,0.14223728,-0.31017688,-0.17866361,0.15947238,-0.09107206,-0.095523134,-0.262586,0.11688247,-0.047911845,0.1357059,0.09406882,-0.023978043,-0.085062265,-0.10033905,0.09898202,0.21801919,-0.1471233,-0.24721837,-0.22345595,0.22676462,-0.009504001,0.14908452,-0.16246712,0.04923954,-0.111726865,-0.07937438
-0.090591766,0.044777308,0.07547421,-0.051862456,-0.1650677,0.11578682,0.008935135,0.108539306,-0.0148241585,-0.026237259,0.0027978665,0.09279744,0.23151693,-0.1845601,-0.19245087,0.0750044,0.08250048,-0.024015518,-0.034564126,-0.018607512,0.062595814,-0.15700306,0.14718643,0.08427183,-0.06813289,-0.02927154,-0.04785688,-0.029715152,-0.0639521,-0.039097577,-0.13723566,0.048138525,0.029013265,-0.0028545987,-0.2176477,-0.047557842,-0.037905045,-0.04618239,0.07976914,0.0073697884,-0.08266382,0.008058047,-0.05859506,0.07241422,0.131315,0.053977717,0.07495562,0.106353305,0.08995423,0.104660764,-0.18134154,0.036549713,0.15884718,-0.10488953,-0.0132632125,0.015250312,0.018403629,0.0070484905,0.037130177,-0.043978337,0.17203067,0.07383807,-0.037143096,-0.10368519,0.13446322,-0.18468346,-0.14945406,0.0755476,0.0030881003,-0.20248221,-0.021629963,-0.18716162,-0.039233584,-0.0098964535,-0.16042158,0.0020260974,0.13721342,-0.22162187,0.11429914,0.051728617,0.109811835,0.12819557,-0.32751846,-0.29468733,0.013900526,0.14121704,0.009928669,-0.15013042,0.0064903405,-0.0603303,-0.042932667,-0.10451486,0.011369388,-0.25650445,0.102807716,-0.08854585,0.009994488,-0.11555174,0.007041254,0.015691856,-0.0075066974,-0.31439084,-0.09883779,-0.18766509,-0.024478018,0.01757634,-0.09155948,-0.17215185,-0.1500705,-0.008211761,0.16693315,-0.035681903,0.13942172,-0.009919238,-0.12279409,-0.333028,0.0924654,0.070459776,-0.32045865,-0.2728153,0.06612481,-0.000748662,0.08327623,-0.17204107,-0.08299605,0.17439772,0.019794213,-0.037688922,-0.116599955,-0.04956768,-0.014817297,0.07321497,-0.19660038,0.16721813,0.1566611,-0.08185146,0.1313765,-0.014964499,0.028622288,0.14160171,-0.0865992,-0.12132017,-0.28429785,0.14713359,0.048591796,0.067884766,-0.037251968,0.00045085093,0.16843136,-0.20476167,0.120590635,-0.01104006,-0.36229187,-0.006150875,-0.074268654,0.12559538,-0.23079155,-0.03545281,0.120547056,0.16569418,0.06304192,-0.11383068,-0.18332848,0.06471435,-0.039492123,-0.047386046,0.21353132,-0.03079994,0.055143572,-0.12623984,-0.12178176,0.13198395,0.047521517,-0.04748204,-0.044349957,0.019520156,0.098179825,0.032417,-0.10063188,-0.026406309,0.13048044,-0.25054017,0.06292211,0.0019643074,-0.24810828,0.06719262,-0.09740298,-0.031167874,-0.06172303,0.02185806,0.08796364,0.10081834,0.07229795,-0.048573848,0.081047475,0.03728428,-0.029705591,0.015389985,0.07069437,-0.10988985,0.2104254,-0.03173038,-0.07867443,0.024744194,-0.05749609,0.047364406,0.003355967,-0.03678993,0.1426686,-0.014061824,-0.025963672,-0.08195552,0.06058229,0.10684986,-0.05910989,-0.058018137,-0.046424266,-0.033343267,-0.10342777,-0.17552543,0.10688967,0.019930828,-0.025060946,0.079389386,0.0755606,0.17568715,0.049664285,-0.05937557,0.01352447,-0.099721976,0.065855995,-0.12101451,0.045009863,0.028492149,0.06597233,-0.008668097,-0.09383192,-0.08926801,0.114612244,0.037915412,0.059043936,-0.026581006,0.038481694,-0.0047195693,-0.13729738,0.011685499,-0.14854696,0.066343695,0.13321675,0.02423849,-0.062680565,0.12058894,0.002180568,0.20775945,0.06496665,-0.01019474,-0.12771505,0.19924904,-0.12302395,0.08505142,-0.073342286,-0.08744241,0.1252387,0.027839132,-0.047857113,-0.322158,0.14629617,-0.039321728,0.01918922,-0.096777916,-0.056945663,-0.2961654,-0.07121392,-0.2953872,-0.086119704,0.11958415,-0.088152416,-0.39008105,-0.018198838,0.18467654,-0.007989065,-0.064209536,-0.030280061,-0.024215214,-0.098580115,0.12140165,0.18151882,0.025956253,-0.19572315,0.11986445,-0.15758006,-0.14403921,0.057315785,-0.123784505,-0.008324726,0.06454808,-0.16992238,0.038056187,0.09730775,-0.046029497,0.051553156,-0.0680089,0.028964274,0.059637513,-0.007013119,-0.055261556,-0.032156017,0.072805844,-0.041613776,-0.2743594,-0.0681792,0.14296441,-0.08221636,-0.094263576,-0.22382565,0.07749465,-0.11384759,0.09536936,0.18967704,0.09564488,-0.0034913484,0.139157,-0.0224761,-0.109785445,-0.012751248,-0.01283899,0.05816311,0.054241747,-0.07291633,0.003514016,0.12978274,-0.0031077932,-0.14233732,0.0036971075,-0.12065276,0.18063888,-0.12577155,-0.11431748
0.13981013,0.037554055,-0.07253252,-0.050153002,-0.079909,-0.04359721,-0.029830975,0.052728113,-0.0054136184,0.053582106,0.10163289,-0.0049540754,-0.06920774,-0.018826235,-0.20105731,0.24723543,0.0416608,-0.09836078,0.026043277,0.11760361,0.066724315,0.11351468,0.08587301,0.1386742,0.13129671,-0.02614388,-0.022258919,0.031348165,-0.07417456,0.0943947,-0.19625674,0.03394426,0.03645232,0.13303709,-0.0010830765,-0.17084542,0.15672974,0.081609786,0.07614027,0.1500114,-0.039101426,0.21244721,-0.062042926,0.4468679,-0.19991821,0.030854989,-0.058741298,0.18932438,-0.06522895,-0.096370436,0.12137121,0.052269224,-0.137291,0.11133205,-0.12229958,-0.08625557,0.19289577,-0.2649524,0.004027439,0.00120142,0.05586734,-0.15201947,-0.19449915,-0.15133515,0.09618088,0.17932917,-0.14865918,0.055457074,-0.025209526,-0.14811595,0.22326492,-0.03916881,0.20883265,0.032448363,0.04683375,0.093497865,0.0149349095,-0.14951836,-0.22848101,0.11500831,-0.121213704,0.060917284,0.18436545,0.027529081,0.027163336,0.04677953,-0.09912981,0.0086740935,0.02501428,-0.20739385,0.10243378,0.09910059,-0.0785657,0.0011584123,-0.09707687,-0.044468053,-0.12850893,0.064539194,-0.11029893,-0.26209795,0.029509401,0.034308504,0.013462273,0.07859268,0.008661203,0.044106334,-0.07211218,-0.028546618,-0.09599165,0.0041027186,-0.14343037,0.034828205,-0.034354057,0.10601864,0.10094758,0.021786012,0.17561765,0.07571032,-0.13009013,0.09355855,0.19183035,-0.09440865,0.12899868,0.10039398,0.11404274,0.061121,-0.082191534,0.1054527,-0.11610627,0.058050722,-0.098443545,-0.34765273,0.101396054,0.03669069,-0.15124503,0.07716071,-0.17556141,0.091595255,-0.11900392,-0.37534705,-0.100192316,-0.007639753,-0.28037193,0.36572492,-0.15632921,-0.10351299,0.11932346,0.039806254,0.20164083,0.049276922,-0.18487275,0.14421746,-0.06552321,-0.04348635,0.102304,0.18786997,0.011326531,0.12056776,0.02596232,0.0773581,0.07778338,0.097359456,0.16575791,-0.108294375,0.11549831,0.12826309,-0.11640904,0.20336133,0.055845227,0.18289405,-0.10377344,-0.09023894,-0.23261759,0.22938058
-0.060128424,0.06373502,0.0026554635,-0.0009072201,-0.13784203,0.10794828,-0.013717359,-0.13658541,-0.15417144,0.12933393,-0.06949734,0.02061955,0.35168192,0.047473915,0.026320595,0.14302446,0.14675085,-0.019851232,0.0052754474,-0.008010349,-0.14274961,-0.19930178,-0.035073947,0.15885773,-0.0795378,0.049015317,-0.19374146,-0.0042494624,-0.103449546,-0.18037318,0.101685725,0.103869304,0.10173568,-0.1253561,-0.26333702,0.05053642,-0.13002083,-0.008677106,0.008544622,-0.2597157,-0.14184847,0.026838433,-0.08632646,0.08492674,-0.016048942,-0.23287326,0.06111929,0.1016245,0.105345905,0.15479055,-0.038484428,0.0045620743,-0.15012258,-0.31083217,-0.095530234,0.06989206,-0.012972821,-0.048213463,-0.14533032,0.034167506,-0.042978093,-0.28352165,0.13992879,0.10803078,0.13313007,-0.042369146,0.014775521,0.018134123,0.058284882,-0.12700866,0.027925285,-0.0905229,0.0636276,-0.07457871,0.06171893,0.15203558,-0.32611257,-0.14816195,0.019993072,0.001501632,0.18669985,0.11463295,0.0026066327,0.034927152,-0.09481733,0.03633099,0.054181784,0.11706775,0.03964974,-0.065811045,-0.17087223,-0.042405747,0.05911006,-0.4086187,0.12240469,0.12628233,0.074182935,-0.11612572,0.13688397,0.059883438,0.1075816,-0.11276378,0.0068451967,0.11297295,-0.049628705,-0.24557675,0.03301346,-0.08793884,-0.3144188,0.11654793,0.008193117,-0.22688779,0.18611798,-0.023833914,0.031018956,-0.029148825,-0.06636325,0.04117043,0.03556919,-0.24022609,0.016086254,0.011746064,0.06531245,-0.13715318,0.07605152,-0.37287942,0.15844125,-0.020708038,-0.17113788,-0.2526975,-0.22823736,-0.027263045,-0.2537993,0.021786155,-0.11811996,-0.16365102,-0.20300208,0.029555816,-0.1670965,0.06814126,0.15127951,-0.28925478,0.16183941,0.14110917,0.011681309,0.08753613,0.049690545,-0.1343178,-0.030375345,0.032129247,0.008861687,0.08791249,-0.14636756,-0.14502756,-0.01500214,-0.073213756,-0.02126428,-0.091093145,-0.13393947,-0.013234214,-0.041250322,-0.13512602,0.0030512628,-0.038061455,-0.017022194,0.02543672,-0.023172265,-0.06149455,-0.26700127,-0.016913189,-0.14044565,0.040471233,0.026606862,0.08855601,-0.0028763113,0.040972028,0.11618554,0.08372488,0.038276594,-0.095016174,-0.1692354,-0.06615695,0.031570215,0.20255914,-0.17675886,-0.061976172,-0.10483345,-0.11788958,0.09381572,0.013902182,0.018192299,0.13857986,0.044692677,-0.14577666,-0.031421084,-0.11331243,0.13198191,0.14333466,0.011337618,0.043681275,-0.0010383943,0.079860054,-0.07922954,0.059884153,-0.34369975,0.107698105,0.03673672,-0.00889076,0.07881943,-0.019391457,-0.054181114,0.100326136,0.02146234,-0.20408943,0.06096215,0.19333729,0.02920289,-0.048407387,-0.09578323,0.067024685,-0.06846797,-0.2343629,0.015752833,0.08050769,-0.06972325,-0.11542193,0.06673585,0.070278585,-0.030002559,0.04333982,0.052087765,0.061450873,-0.033509683,-0.035941508,-0.010614578,-0.15163271,-0.25747052,0.17343816,-0.13915971,0.021753604,-0.2825088,-0.22778992,-0.048335288,0.1559128,0.045605842,-0.035155714,0.07837048,0.07358352,0.06622768,-0.008986966,-0.077455215,0.0029832104,0.041484363,-0.19281918,0.026491242,-0.13403374,0.0044516474,-0.24716301,-0.017718814,-0.03897533,-0.24625668,-0.08573157,0.04952464,-0.20282708,-0.099793985,-0.037371557,-0.24361718,0.16292281,-0.028974315,-0.12491149,-0.078534,0.013073354,0.104193814,0.13294275,0.055591483,-0.17576922,0.07894389,0.14923269,-0.075856455,0.056142535,-0.17832446,-0.008495389,-0.019976541,-0.11797577,-0.2218291,-0.14005849,-0.19801657,0.10370572,0.0025475193,-0.04601229,-0.0032742578,-0.025798261,-0.0784035,0.03340419,-0.107342415,-0.043087233,-0.07853433,0.04733884,0.13373928,0.029669927,-0.11494669,-0.08073436,-0.10053699,0.049474128,0.07064291,0.067038886,0.06152408,-0.06508237,-0.034549374,0.022323746,0.06599636,-0.051431965,-0.09097443,-0.092236996,-0.09603336,0.06721175,-0.061878826,-0.08309958,-0.08039142,0.013234403,0.040850114,-0.09158455,-0.09811793,0.06161208,-0.032992367,-0.0006532791,-0.08605918,0.12260764,-0.04341755,-0.07163963,-0.17020921,0.079850756,-0.019556196,0.086210355,0.02273789,0.046839096,0.045437586,0.08162199
-0.38705802,0.10847874,0.05646698,-0.2359368,0.09189055,0.15355307,-0.029507402,0.068843834,-0.065795675,0.042084794,-0.12197612,-0.35167083,0.15969044,0.06216778,0.023132766,0.0028543756,-0.010675745,0.071563296,-0.14993931,-0.099118754,-0.13217963,0.065342754,-0.16147396,-0.10956619,0.108563304,-0.07259274,-0.13428633,-0.032844987,0.047868278,-0.012450504,-0.049939584,0.07347548,-0.12706311,-0.0128504075,0.08671191,0.016517034,-0.031626716,-0.053705685,-0.007501484,-0.008270465,-0.003969285,-0.11827865,0.024771862,-0.24796742,0.021868842,-0.13600542,-0.006254904,-0.015640676,0.030309292,-0.103380285,0.061036672,-0.03754235,0.1375386,-0.17289074,0.10227368,-0.016612759,-0.122724414,0.26675817,-0.21301067,0.0710627,-0.16714785,-0.012663764,0.089980535,0.024739195,0.06061617,-0.17777275,0.12938246,0.01296289,-0.0027975638,0.024649562,-0.14821406,0.17006728,-0.21676065,0.020597717,-0.36341128,-0.010686503,0.028673349,0.15621974,0.080501944,0.08990211,0.03483698,-0.009945102,0.018889688,-0.08140125,0.015670031,-0.14279656,-0.12495916,-0.03819096,0.038615186,0.15481879,-0.1487137,0.013891861,-0.1495017,-0.09946694,0.10141961,-0.008097406,-0.024833381,-0.05556069,0.012603787,0.10571026,0.008048013,0.12888236,-0.24008097,0.05355723,-0.35591155,0.0055626016,-0.24446933,0.036591496,0.11672576,0.032169487,0.087994896,-0.14432454,-0.19558896,0.0053995326,-0.18648584,0.044624016,-0.14568458,0.018596686,-0.07552052,-0.033887867,0.05136986,0.11577794,-0.22683029,-0.018679788,0.0019180638,-0.0409866,0.118854694,0.025093403,-0.17014219,0.097149275,0.1280615,0.024608916,-0.049381357,0.098893,-0.12999861,-0.08380487,0.0007755978,-0.07798367,-0.0078442525,-0.010479228,0.124807686,-0.016168764,0.15366405,0.030415155,0.02117135,-0.07726127,-0.14323728,-0.03736295,-0.3393248,0.0001191121,0.06628431,-0.34238377,0.16368614,0.05176131,-0.09501169,-0.1504632,-0.052125845,-0.24369875,-0.060572762,-0.11456492,-0.005872532,0.049750406,0.040793516,0.039791152,-0.26043296,0.009882998,0.08514769,-0.1536787,-0.0060124756,-0.20008904,0.08617945,-0.0027550645,0.12893263,-0.12383215
-0.0025867568,-0.011214842,0.070709035,0.020933038,0.04966658,-0.051943943,0.028373595,0.032901723,0.008437813,-0.10711605,-0.10125046,-0.026176814,-0.19341636,-0.007358478,-0.06862037,-0.18169738,-0.16340095,-0.28361386,0.024380354,-0.006215733,0.08159694,0.08024513,-0.17093489,-0.04012213,0.11735989,-0.01489662,0.30903503,-0.08173518,0.08166852,0.03404049,0.07700455,-0.06928289,-0.09936063,0.008518764,0.23238006,-0.10565428,0.2212067,-0.22220506,0.02750404,-0.21113506,-0.00077416206,-0.3149149,-0.030420594,-0.09626356,-0.31364006,0.09415875,-0.14201269,-0.29098025,-0.16745797,-0.11231524,0.047587506,-0.11013291,-0.15365973,0.17231075,-0.21053725,-0.039705873,0.17427693,-0.019005002,-0.05979428,-0.24569963,0.20307654,-0.073663786,-0.06222415,0.07198833,-0.009160872,0.14523941,0.2973812,-0.09096008,-0.082971886,-0.30595064,-0.068284936,0.03903764,0.07266193,-0.06451419,-0.059896633,-0.12480046,-0.03969064,0.101872034,-0.17506059,-0.20161462,-0.21345553,-0.29463372,0.37651315,0.06531891,-0.15217938,-0.024331221,-0.21419303,-0.24204847,0.11271066,-0.1653718,0.03496232,0.008972464,0.046863034,0.070854925,-0.09302126,-0.18427815,-0.10628248,0.11554092,0.0047286726,-0.095738485,0.02466583,-0.07668584,0.001170509,0.11474342,0.08266404,-0.08766761,0.1878604,0.01859436,-0.06400209,0.05931477,-0.1306903,-0.310551,-0.17888874,-0.28142545,0.1561294,0.1957004,-0.05781393,0.0065979026,-0.09946428,-0.018449415,0.09211363,-0.20927776,0.12679939,-0.11472215,-0.042499643,-0.069319725,-0.035303578,-0.09385568,0.063444935,0.022449216,0.027291138,-0.058643244,0.121078014,-0.099098906,-0.019947207,-0.036357287,-0.023178525,0.16891974,0.07167851,-0.13366935,-0.18421474,0.18775097,0.03880162,-0.10677316,-0.04460725,-0.0569348,-0.050926186,0.015831927,-0.1650351,0.05364908,-0.08018145,0.025482764,0.14832215,0.3136422,0.24349728,0.112675235,0.096662454,-0.06309913,0.08313297,-0.13251266,-0.07032728,-0.041522548,0.14436689,0.020881603,0.056171887,-0.0190098,-0.042179987,-0.0027301728,-0.03904614,0.22642736,0.05917917,-0.09510452,-0.034944985,0.08725919,-0.13380931,-0.045451727,-0.15020677,-0.16683313,0.043547522,-0.054339647,-0.1126172,0.16558322,-0.070923336,-0.04588966,0.16997284,0.17159235,-0.10824442,0.05097247,0.08201057,-0.5417083,-0.27091625,0.1252072,-0.041673265,0.028913127,0.12553446,0.031827945,0.028323634,-0.26717538,-0.15366167,-0.030849136,0.1553037,-0.090574466,-0.16396636,-0.06600478,-0.042281963,0.15924633,0.08370492,0.007676933,-0.020325044,-0.07639266,0.18786414,-0.018080961,-0.39572275,-0.19285834,-0.23557249,-0.115495436,-0.07867557,0.08836655,-0.15758905,-0.029795121,0.01822003,0.019644687,-0.0637674,0.23240136,-0.00938742,0.06483546,-0.003001965,0.06645215,0.039736632,-0.12169472,0.10050223,0.023277102,0.22936594,-0.029402696,0.10594314,-0.39374474,-0.0029769172,0.0397133,0.109657936,-0.14693555,-0.10135221,-0.1569652,0.060834788,0.2691844,-0.028305126,-0.031729016,-0.10695761,-0.16033618,0.09665676,-0.02537679,0.116828576,0.09008434,-0.030612627,-0.29530528,-0.121404156,-0.072686166,0.09985268,-0.06535306,-0.13182427,-0.09353228,0.102834016,0.083384514,-0.0092729,0.22789581,-0.020033166,0.022834811,0.031968404,-0.043468244,-0.10868716,0.065595604,0.015746642,0.17951113,-0.010070795,0.06270941,-0.059460882,0.08446319,0.038777214,-0.08748525,0.13536511,-0.23136495,0.08103994,0.0027700576,0.19232163,0.017355105,0.017040016,-0.121161394,-0.10692524,-0.015179764,0.041714154,-0.46219003,0.062039994,0.02198297,0.10434237,0.18281688,0.12867571,-0.08239121,-0.07996836,0.060852442,-0.28438112,0.0068730717,0.07611168,0.17433798,0.15590799,0.23399799,-0.07067445,0.1415153,0.14567375,-0.20159532,-0.12085224,-0.060487837,0.10945911,-0.2357077,0.082692795,0.17586176,-0.0024710225,0.12010472,0.047794394,-0.10208343,-0.08669897,0.21700373,-0.0075587323,0.056756128,-0.1513581,-0.06181402,0.09990459,-0.0058649867,0.009437611,-0.1378691,0.14715856,-0.09649368,0.06484693,-0.0857377,-0.11355356,-0.11354522,0.09870644,0.0017459649,-0.19375083,-0.11274645
0.11814285,0.0272935,-0.20476867,-0.2696025,-0.023150502,-0.1137253,0.032229785,-0.11555362,-0.14698495,0.04193779,-0.04427527,0.14793983,-0.21258864,0.110562176,0.035825573,-0.06552561,-0.0691045,0.012370185,0.11505967,0.060528677,0.093985684,0.10317537,0.30389103,0.072860375,-0.039722774,-0.14935672,-0.026221592,0.09862212,0.013470889,0.020190217,-0.1424553,-0.07937728,-0.04713656,0.09107295,-0.2660609,-0.049914625,0.13162924,-0.32337338,-0.03946488,0.118899845,-0.06528845,0.2265099,0.065020844,-0.14527003,-0.25028217,-0.14401668,-0.098732725,-0.19013508,-0.036582172,-0.011382331,-0.040870175,0.07119051,-0.15364675,-0.040295552,-0.09345661,-0.04654054,-0.13540895,0.04144862,0.13131289,-0.23437113,0.010661527,-0.043586545,0.12462002,0.06564771,-0.19054794,-0.032584883,-0.11567444,-0.10722573,0.014312937,-0.038490213,-0.32019803,0.0703601,-0.020450935,-0.25971687,0.24684669,0.06530743,0.05289432,-0.2135391,0.1770559,-0.09833015,-0.28192958,0.05718,-0.23159234,-0.13333355,-0.10680318,0.13657393,-0.11377395,0.027303135,-0.067243315,0.091140844,0.20339675,-0.35982648,0.21259567,0.03372325,0.057754025,0.011892221,0.06893123,-0.09578384,-0.16697574,-0.12370199,-0.0067014075,-0.085941896,0.20178728,-0.0050014104,0.09705593,-0.07535763,0.12879175,-0.0044208155,-0.05435481,-0.36484438,0.06686486,-0.24049799,-0.007822455,0.08409172,-0.023276843,-0.13053349,-0.26106605,0.23154558,0.28682235,-0.05309886,-0.12364096,-0.1538347,0.16798633,-0.18465938,0.20711689,0.0072385357,-0.2611798,-0.11558828,0.04775252,-0.26346493,-0.0036175319,-0.028124196,0.021759028,-0.38328204,0.07807914,-0.13868172,0.12471898,0.048293427,-0.09064707,-0.25415853,-0.16606952,-0.14612134,0.012979716,-0.104262285,-0.14686501,-0.024512686,0.17078125,-0.14345299,-0.0035596834,0.25101864,0.3601644,0.033652924,-0.09703318,-0.11834944,0.011384269,0.06940344,0.0692912,0.0017105339,-0.21967176,-0.08243749,-0.11357952,-0.14653547,0.003949643,-0.031329934,0.11624066,-0.1295037,0.09774052,0.1459417,-0.008195567,-0.0024812357,-0.1717887,-0.11749992,-0.07027105,-0.03519237
0.015548227,-0.11062819,0.081154905,-0.026238726,0.22032212,-0.22017542,-0.05371056,0.05163823,0.05722575,-0.1659308,-0.03842521,-0.09397953,-0.34930152,0.042205255,-0.02883278,-0.12618126,-0.15473866,-0.07401823,0.081854895,0.08502127,0.01887134,0.10955842,-0.10379241,-0.13428698,0.17284256,-0.021678254,-0.05541821,-0.14534554,0.14202061,-0.038812496,-0.028052317,-0.0080233235,-0.08781025,0.05172022,-0.016056394,-0.08609993,0.09812012,0.10434363,-0.025758866,0.16379489,0.11554658,0.13193507,0.035177343,-0.0852621,-0.2232107,0.07649755,0.00072972063,-0.106835365,-0.22698751,0.024846029,-0.0697638,0.042133424,0.15356825,-0.3145339,0.110371865,-0.06519444,0.08267885,0.00670802,0.05898805,0.20241822,-0.11717921,-0.00727213,-0.12037481,-0.03423512,-0.37941393,0.1005208,-0.04995543,0.095100746,0.12321945,0.25272766,0.14032912,0.1817565,-0.056789458,0.05858762,-0.034325346,-0.020194396,0.14607269,0.024044778,-0.3600345,0.12041533,-0.43229896,0.0037749247,-0.10246969,0.11109386,0.07946942,-0.45311764,0.23316184,0.08601483,0.13441962,0.0027349112,0.09121556,0.2255618,0.0725725,0.08805771,-0.31100166,0.08938592,-0.54549295,-0.038304217,-0.22359051,0.068673775,0.059148,0.31537214,0.24218719,0.043764956,0.013368673,0.25157782,-0.08700536,0.15241577,0.23429956,-0.13760868,-0.18647195,0.21917677,-0.15835288,0.15095113,0.12982081,0.15272559,-0.0035406894,-0.24409129,0.24809486,0.33119866,-0.14663748,0.08967237,-0.111636676,0.05204376,-0.09274167,0.04728198,-0.50871897,0.029398726,0.13616103,0.008558281,-0.1352472,-0.011350057,0.23949447,-0.0701395,-0.22930476,0.06389367,0.089819744,0.160271,0.059841625,0.0054941056,-0.15536591,0.04615841,0.046795204,-0.03199698,-0.10345811,0.030834286,-0.08946631,0.08008719,0.29833686,0.057795666,-0.05581625,-0.13827214,0.059231546,0.19729428,-0.16543038,0.10255085,-0.1367351,-0.073383406,0.04451549,0.09413296,-0.031339586,0.050847184,0.20263165,0.04004365,0.07137994,0.01691941,0.043703694,0.15385999,0.05315291,-0.035977308,0.05336577,-0.07175358,-0.063324995,0.075063065,-0.109291896,0.08312124,-0.11579878,-0.084496014,0.06620002,0.00030501565,0.11873625,0.0005263961,0.042659283,0.00066231936,0.1756562,0.007578839,0.041413568,-0.008040634,-0.026411705,0.21887946,-0.074374974,-0.007821124,-0.06969068,0.02004614,0.06949521,0.011027586,-0.0117782075,0.17808399,0.00063153374,0.016591422,-0.04883445,0.04537825,0.0015623518,-0.041609406,0.016476328,-0.0017321282,0.037976664,0.1319434,-0.14072765,0.040883318,-0.0914057,0.13702089,0.11361118,-0.058158804,0.14493324,-0.047206223,-0.031084508,0.016229516,0.11062142,0.09827983,0.065812506,-0.33091488,0.0032585235,-0.032109752,-0.10497246,-0.13619803,-0.25517228,-0.072939165,-0.0366192,0.21717916,-0.17069733,-0.025419679,-0.2718672,0.05354698,-0.19225688,-0.08321814,0.20965612,-0.061053116,-0.19902305,0.19232614,0.021315664,0.046352338,-0.26279515,-0.0030337684,0.105169505,-0.06335739,0.098945275,-0.23808202,-0.2722227,-0.014800286,0.052977927,-0.086151786,-0.28108245,-0.004579241,-0.12815712,0.0164943,-0.014523225,-0.091417685,-0.110076465,-0.013473394,-0.06844211,0.12075334,0.072119616,-0.1535737,-0.043187626,0.0069333925,0.010982597,0.17495166,-0.16465269,-0.10810816,-0.058779567,0.03162169,-0.019623812,0.10026279,-0.025995892,-0.15048571,0.0073565836,0.013023942,-0.057707813,-0.16839486,-0.18734907,0.0105390465,-0.122604035,0.012531758,-0.1378802,-0.15288235,-0.08339531,0.19352186,9.670002e-05,-0.0533774,-0.021972807,0.111102715,0.055486143,-0.001293593,-0.076825604,-0.06699765,-0.03925691,0.15187119,-0.02600738,0.025603583,-0.041389085,0.014811289,-0.095024355,0.026466101,0.03891017,-0.028584914,-0.1686006,0.046666525,0.0510629,-0.0013385597,0.024125494,0.054384265,-0.1733998,-0.06529814,-0.0010662072,0.055202983,-0.047362696,0.0055546453,0.06255611,0.043226942,0.047661558,-0.20304519,0.02109054,-0.028490985,-0.13046722,-0.09024792,-0.07622265,-0.107658654,0.007572684,-0.027221346,-0.06797609,0.07337783,0.045556374,0.0011745926,0.048821274,0.06306297,0.06590575,0.09903949
-0.24362741,-0.24107279,0.056515787,0.001925284,0.036111128,-0.014075679,-0.0116825225,-0.10160722,0.008342589,0.01015286,-0.053320896,-0.01188007,0.078978054,0.024529511,-0.05421939,-0.3324472,0.10228456,0.057124898,-0.088466555,-0.31180933,-0.06795806,0.020230543,-0.0715484,-0.014573816,-0.27661365,0.0129553685,0.017407125,-0.20806041,0.036889344,0.055783086,0.08894152,0.05168016,-0.29350826,-0.1625146,0.15527126,0.019064663,-0.06819597,-0.09801882,0.06366726,0.11619943,-0.08206254,-0.12772404,-0.08624159,-0.17651527,0.018262712,-0.13967873,0.08562859,0.014129333,0.004029072,-0.11100421,-0.03800358,0.07795067,0.12919648,-0.10817982,-0.116223946,-0.06699811,-0.12495938,0.08319284,0.072658256,0.08316296,-0.038722936,-0.1255283,0.050916895,0.09212445,-0.16541997,-0.1654387,-0.0034716122,-0.47925657,0.023133975,0.07936338,-0.22198218,0.03338887,0.06866001,0.055889253,0.04170728,-0.19759354,0.09586958,0.09389536,0.12935624,-0.010620076,-0.044853974,-0.07120208,-0.06388672,-0.06963439,-0.043645363,-0.12943083,0.07335066,-0.044077713,-0.2709691,0.16815408,-0.093799494,0.036217805,-0.074201114,-0.08202322,0.1278426,-0.072542034,0.06026877,-0.053990897,0.051144887,-0.007232808,-0.114536025,0.08880845,-0.16144978,0.076420516,-0.23841205,-0.0009767944,-0.014757636,-0.1870782,0.13431115,0.15649483,0.11466144,0.02065744,0.06950266,-0.06875491,-0.09886282,-0.03983851,-0.11213455,-0.06273757,0.046166807,-0.14945449,0.061233446,0.07231116,-0.07046979,-0.13487266,-0.02754069,-0.1227463,0.1040143,0.083018385,-0.13747609,0.008453871,0.008734234,0.15574734,-0.099343464,0.036223583,-0.018765382,-0.036133442,-0.039155193,-0.20587565,0.05814775,0.11446752,0.11640822,0.010463476,0.13175666,-0.053133924,0.10161219,0.08717021,-0.1211822,-0.14007436,-0.19897206,-0.04571052,0.02156727,-0.25760427,-0.048475932,-0.005174608,-0.01786784,-0.28657752,0.124706395,-0.14096631,-0.10410673,-0.10512508,-0.06570662,-0.07852191,-0.14007074,0.08004277,-0.26264504,0.013518258,0.100613534,-0.11637537,-0.010935143,-0.2904317,0.14605202,-0.046394557,-0.0009792993,-0.10030236
