0.186071,0.13041227,-0.62652683,0.21900858,-0.1999459,0.2359407,-0.3885884,0.13660975,-0.07543442,-0.17707017,-0.09848465,-0.20844387,0.09454878,-0.0878498,0.094245136,-0.15833956,0.11734661,-0.17779708,-0.19129601,0.16575284,0.18819602,-0.060841605,-0.12526767,-0.10224812,0.055547927,-0.021008072,-0.24509726,0.19758767,-0.6101428,-0.19035594,0.16595891,0.033863652,0.19396704,0.11515833,-0.29441285,0.17035428,-0.334294,-0.14912312,-0.085928105,-0.014811536,0.06291759,-0.058885846,-0.030926235,-0.08623663,-0.085618004,-0.084585324,0.15629391,-0.25951725,-0.066236466,-0.027281169,-0.013026369,0.20857933,0.2980508,-0.0514574,0.06932383,-0.034364995,0.05310348,-0.15456046,-0.12502027,-0.13834147,-0.13169667,0.107103944,-0.21364188,0.008063055,0.20071983,0.046556093,0.094910644,-0.03626638,-0.5046726,-0.087315634,-0.37118435,-0.038289852,-0.0055905343,0.023049993,-0.19994237,0.2776987,0.06417282,0.002925087,0.12129442,-0.4116793,0.002950498,-0.097448654,0.110980585,0.0901756,-0.13457926,0.03775711,0.118143104,-0.24034193,-0.15853554,-0.14590392,-0.14525135,-0.16868056,0.05706674,-0.03479542,0.027834283,-0.053939573,-0.20549732,0.14933738,-0.19500917,-0.1792846,-0.06629203,-0.09056142,-0.6259608,-0.09366391,0.07407556,0.14080106,-0.32309958,0.31847024,-0.08537718,0.13272719,0.09853785,-0.092726335,0.07374445,0.06981888,0.15412393,0.0814564,-0.07183379,-0.45539382,0.0029534032,-0.06403654,-0.38051957,-0.01718105,-0.011863774,-0.047317453,0.293253,-0.09961324,-0.18543646,-0.174112,0.13615021,0.30087966,-0.014829698,0.17134269,-0.11665697,0.19183497,-0.25420684,0.20004529,-0.079588845,-0.28861937,0.055665284,-0.054485228,0.015480588,-0.3482865,-0.28326023,0.2213221,0.27262002,-0.115870714,-0.0628379,-0.21821152,0.07362754,0.056702573,-0.16117983,-0.18088853,0.29812858,0.05343069,-0.34063777,0.11744616,-0.8354792,0.3136373,-0.03860603,0.12009417,0.052424766,0.10056734,0.06558127,0.0348719,0.31688952,-0.1797313,0.13698462,-0.10364051,-0.24108978,-0.26853165,-0.17911793,0.16419092,0.09066728,-0.29344162,-0.3709055,-0.11145576,0.18196599,-0.037922233,-0.02138122,-0.49341497,-0.5290562,-0.14493813,-0.24629156,-0.25897655,0.0057013663,0.022407332,-0.15469529,-0.041535523,-0.23465599,-0.1311334,-0.1532316,0.09895828,-0.060416743,0.132507,0.23822121,0.06609305,0.030996561,-0.27959052,-0.2273673,-0.2493775,0.08645793,-0.020405931,-0.10611254,0.14552952,-0.21872447,-0.19284442,-0.16850314,0.052053154,-0.23505078,0.042311423,-0.073683955,-0.27924234,0.06314776,-0.13301964,0.03106201,-0.19988155,0.013559634,-0.2405988,0.049145125,-0.10839047,0.12573962,-0.1395678,-0.19990134,-0.20588733,-0.0645265,-0.03450929,0.16960312,-0.29637766,-0.051162884,-0.43235382,0.047282442,0.26314425,0.09313944,-0.1309843,-0.3724756,0.20519733,0.104236774,-0.12687823,0.04654859,0.15644222,-0.24790938,0.16525859,0.15612866,-0.08123504,0.426726,0.062880576,0.14722815,-0.55322236,-0.3440873,-0.11313631,-0.07369549,0.08751803,0.13948546,-0.22971712,0.13535857,-0.22532576,0.10183613,0.08935499,0.25653985,0.1454787,0.07640443,0.23632236,-0.032067828,0.11188414,-0.20911491,0.3179527,0.17085999,-0.012466912,-0.019077608,-0.8879615,-0.29181203,0.12364805,0.17247,-0.37555787,-0.22114521,-0.009134467,-0.16758478,-0.054108016,-0.37597466,-0.5931327,0.24285816,0.21016225,-0.38985744,0.36593476,0.33150703,0.2229891,-0.49084774,0.1094312,0.00074490847,-0.29266265,-0.02814721,0.009953872,0.54645795,0.24351843,0.11181806,-0.23138379,-0.11130993,-0.2041379,0.113680996,-0.2084093,0.31971237,-0.35366377,-0.14499794,-0.44570345,0.16498217,-0.56634927,-0.5303199,-0.16049324,0.3071596,-0.1144251,-0.42316204,0.005635031,0.15112689,0.16198453,-0.3919247,0.07458937,0.09842272,0.1999772,-0.6146427,-0.3462258,0.0057047913,-0.20539358,-0.09929876,-0.2925837,-0.061876994,-0.55640686,0.08712049,-0.26027158,-0.43237713,0.20711672,-0.18191874,0.102900185,-0.5316727,-0.046815205,-0.17579949,0.07212664,-0.29678258,-0.15848345
-0.72954315,-0.36503154,0.1999125,0.23179883,-0.028293645,-0.11269855,-0.21436988,-0.20405613,0.01706328,0.22702369,-0.51240855,-0.29540932,-0.057354875,-0.08864451,0.15013549,-0.030348053,-0.057647392,-0.04101183,-0.09922519,-0.83102125,0.14728698,-0.26019958,0.12697946,0.047147423,0.0039976886,-0.57978487,-0.08743014,0.076881915,-0.48033187,0.07251661,-0.10634341,0.1570267,-0.08556259,-0.31733224,0.16495216,0.20452476,0.157702,-0.12190999,-0.23167166,-0.056511596,-0.025663957,0.057509113,-0.060261775,0.17852806,0.2752863,0.025841452,-0.11783802,-0.39301968,0.12928902,-0.1285957,0.21210179,0.13655765,-0.17294538,0.07224023,0.06529311,0.019256404,0.19063349,0.03850976,0.06961401,-0.26458636,-0.037352566,0.1260375,0.27265716,-0.018775176,-0.14240475,0.16545044,-0.063237704,0.03798369,-0.27277175,-0.056382433,0.42233,0.20803714,0.0033929385,0.17682351,0.15503718,0.10170163,-0.7361038,-0.25710157,-0.5170999,-0.33641157,-0.44668782,-0.24805333,-0.24370775,-0.02693644,0.118167885,-0.124213174,-0.27268958,0.09291785,0.08519376,0.16681951,0.07475599,-0.14299469,0.23446447,-0.30795637,-0.33789796,-0.6367411,-0.11872942,-0.1552847,0.29875433,0.15461959,-0.69160587,-0.0682474,0.20002118,0.06576949,-0.030082505,-0.31526265,-0.025629431,0.061776433,-0.4658466,-0.030411996,0.06676952,-0.21594498,-0.42129037,0.10768291,-0.3341567,-0.44373417,0.10589684,-0.5740247,-0.7619125,0.20552965,0.22423595,-0.08221244,-0.30253285,-0.22645581,-0.1910728,-0.25749996,-0.37015292,-0.46815732,-0.5264392,-0.006399583,0.1878759,0.13231787,-0.23904854,0.07488924,-0.18001737,-0.057578657,0.08516525,0.12427032,-0.23288193,-0.23052004,-0.58307797,-0.029202472,0.14290892,-0.5255115,-0.04874729,-0.20169036,-0.10193544,-0.60430723,0.08197286,-0.19544558,-0.11026977,-0.16735671,0.08137369,-0.12316752,-0.43187717,-0.16362737,-0.48515183,-0.6064244,-0.14760344,0.079820335,-0.52319527,-0.39599025,0.15488814,0.23943675,0.20198524,0.432184,-0.26258007,-0.26182753,0.055006497,-0.32021362,-0.58679795,-0.06428806,-0.2219295,0.10814955
-0.12290115,-0.51419055,0.088509075,-0.71224225,0.292368,0.008191307,-0.38647854,-0.21355173,-0.20722923,0.08878006,0.10588557,-0.025045007,0.042570528,-0.2850645,0.16265804,0.031420577,-0.4462529,0.025220813,-0.09461922,-0.06727262,-0.016585361,-0.099297196,-0.29470456,-0.23690186,-0.04400235,0.29133394,0.058541387,0.09274747,0.20036753,-0.14846386,0.09464946,-0.6966307,0.079024516,-0.40288076,0.041776434,-0.3045284,-0.033798676,-0.15527894,0.26648468,0.2725286,-0.15535016,0.30264768,-0.2358835,-0.22822149,0.075434424,-0.37229773,-0.019900637,0.0812211,0.33135816,0.1145714,0.08921693,0.016750472,-0.04969004,0.04517002,-0.0842677,-0.029526053,-0.20745312,0.32507187,0.010827035,0.3148647,0.08914925,0.24440785,-0.3190932,0.1574658,0.16288073,-0.059554905,0.07410484,0.010743966,0.25132853,0.21452624,0.1544315,0.46700287,0.0063327886,0.10127713,-0.2146824,-0.24605907,0.15908419,-0.34101507,-0.30408075,0.27406585,0.20175698,0.012144217,0.0378147,-0.61423445,-0.04510587,0.036501326,-0.099010095,-0.17198259,0.02551346,0.010290115,0.028173381,0.14821315,-0.21962225,0.5798323,-0.015167296,0.0181925,0.3823594,0.07528899,0.16451097,0.21299605,0.0663927,0.11366394,0.37858438,0.067027226,0.05266655,-0.020968277,-0.020746276,-0.22087984,0.13134089,-0.28635126,-0.23515573,0.10037678,0.46379524,-0.20972905,-0.6975803,-0.28448153,-0.039016947,0.15007807,0.118018776,-0.17440379,0.04438415,0.11166738,-0.20005688,0.07684338,-0.86786014,-0.09464734,-0.35340935,0.11128981,-0.08919229,-0.06641958,0.027064886,-0.15958728,0.16174932,-0.019532228,-0.015434901,0.093920626,-0.07159419,0.22481644,-0.12205971,0.079815924,-0.5194549,-0.11431128,-0.16401504,0.06850079,-0.97314805,0.15932973,0.08326064,-0.39213124,-0.20181447,0.1443583,0.022171834,0.19094336,-0.090821266,0.2911492,0.16790679,0.11691428,-0.03683005,-0.44340158,-0.23687086,-0.14528322,0.15769963,-0.07835393,0.14066674,0.1554372,-0.07714026,-0.39744684,-0.15541291,0.20804223,0.2155946,-0.03589772,-0.4671457,0.32272017,-0.38751405,-0.41155356,-0.30519712,0.13715902,-0.038980786,-0.033153377,0.09792417,-0.24464615,0.003170142,-0.105876125,-0.19609953,-0.19197135,-0.8382883,0.0024117238,-0.17349702,0.027238112,-0.05169652,0.5333929,0.008609831,-0.018231075,0.17744038,-0.020810831,-0.021085544,0.04654209,0.17170404,-0.15412685,-0.11226646,0.15632251,-0.18455209,-0.16582718,0.0043867268,-0.22618586,-0.184723,-0.28615808,0.16619839,0.1250686,-4.4937915e-06,-0.29024702,-0.068406135,-0.61253554,-0.3022143,-0.1331885,-0.31905147,-0.5976126,-0.039813478,0.13597834,-0.6112473,0.084884115,-0.39695957,0.05004539,-0.36463004,-0.009915311,-0.025751572,-0.10533519,0.09808249,0.16501416,0.06734747,-0.124131255,0.0141125,-0.11119599,-0.29295325,-0.3262134,0.02933534,-0.26068267,-0.14565307,0.15281315,0.14437692,0.024582695,0.14834654,-0.4363015,-0.22134969,-0.5283652,-0.21247129,-0.2771945,-0.52660865,-0.4411453,0.00020044207,0.020793332,-0.17900349,-0.0015300638,-0.43927318,-0.037222166,-0.035554707,0.025181318,0.07418198,-0.38149285,0.18743268,-0.21044624,0.3092306,0.01407165,0.561873,-0.25853902,-0.26183957,0.13958617,-0.5397446,-0.014749063,-0.5562647,0.07447125,0.10579467,0.033931553,-0.3180886,-0.30156538,0.00023826401,-0.09453243,0.07940411,-0.18582998,-0.40769988,0.078823015,0.43394867,0.053971708,0.17175256,-0.13418777,-0.44359025,-0.3607953,-0.1071473,-0.1141851,0.07656434,-0.2626666,0.19836275,0.2678931,0.12872538,-0.34681037,0.06886303,0.07445186,-0.0058551603,-0.6200963,-0.31995812,0.061744653,-0.27582476,0.05479967,0.038868733,0.12339394,0.104477435,-0.05966529,-0.032255564,0.10264027,-0.3890066,0.3537044,-0.09283956,0.106515616,-0.17434213,-0.6569165,-0.5782359,0.089565225,-0.3144166,0.033465654,-0.35403836,0.13657483,0.06153099,-0.201085,0.22169888,0.2247418,0.085865416,-0.043414965,0.037526302,-0.1819014,0.06312977,-0.12239347,0.07818896,-0.19532084,-0.017640913,0.34186855,0.22802597,-0.09236137,-0.03303382,-0.03751215
-0.49348524,0.010457543,-0.030683046,-0.08865461,-0.18597694,0.14543454,0.053154025,0.075014114,-0.5922991,-0.03774486,-0.3676833,-0.13160422,-0.40188056,-0.32061753,-0.28710613,-0.1114613,0.10531254,-0.36725986,0.007800403,-0.12912653,-0.21518551,-0.38407263,-0.086219,0.008829536,0.060050096,-0.23658195,-0.44934797,-0.09322011,0.12431658,-0.0051028067,-0.51626056,-0.74098045,-0.3948024,-0.07003604,-0.08879518,-0.41709727,-0.45201525,0.08191777,-0.015319712,-0.009811995,-0.20941626,-0.011783712,-0.33316144,-0.37440363,-0.38506693,0.11637411,0.036998253,0.26419336,0.034326598,0.1592406,0.28633657,-0.0146735925,0.2724342,-0.016755236,-0.37725568,-0.27598628,-0.5063601,0.048777405,-0.6343232,-0.098947234,-0.30989748,0.03150886,0.2547456,-0.44036168,0.11738305,-0.075132504,-0.25986236,0.23619138,-0.5427011,0.305739,-0.12083639,-0.39635545,0.15849522,0.24804054,-0.3476232,0.12312326,0.12565166,0.27959445,-0.026617728,0.07140099,0.30975202,0.17705144,0.31497717,-0.09254104,-0.2354273,0.116215795,-0.3647673,-0.48919398,-0.15463246,-0.3001531,-0.19082512,0.00944342,-0.31765726,0.12312049,0.17895564,0.12931502,-0.1582096,0.15678826,-0.26559332,0.096005335,-0.43485162,0.17974743,-0.016119663,-0.32850844,-0.0064303414,0.39577356,-0.23926398,-0.061205123,0.23009203,0.10212452,0.07787063,-0.22128958,0.31647077,-0.2232822,0.29585698,-0.12624407,-0.29031104,-0.017944902,0.089100175,0.075293146,0.023787646,-0.094034806,0.30248478,0.1728194,-0.24639508,-0.14824703,-0.046780087,-0.23693521,-0.4171954,0.17564002,-0.055201247,-0.38102165,-0.25600952,-0.08194948,0.17989361,0.0032895135,-0.04492851,-0.048707776,0.11743906,-0.14434046,-0.4361119,-0.0070780455,-0.32986453,-0.55143386,0.11908852,-0.55217683,0.091446415,-0.1912495,-0.26526022,-0.10788128,-0.114091516,0.22340262,-0.08418754,0.31673914,0.29834726,-0.016110985,-0.03278497,0.15253656,-0.38848874,-0.670139,0.13909388,0.25058135,-0.15054026,-0.098081,-0.5066777,0.048810083,0.12683462,0.14339261,0.1138972,0.0029125088,0.32933423,-0.065486245,-0.16768487,-0.42702827
0.029270114,0.1373917,0.08375951,0.038980007,-0.3985509,-0.20590496,0.48155388,0.12803304,0.054277886,-0.045504723,-0.26834008,0.21601029,-0.3817275,0.2756971,0.040782373,-0.07946728,-0.3504428,0.03382734,-0.031487815,0.027089933,-0.06793729,0.08114439,0.23114057,0.24959095,-0.026139546,-0.28284943,0.18720987,0.21624552,-0.09348119,-0.07696723,-0.13027348,-0.19004002,-0.09709814,0.028830213,0.18777399,0.10508428,0.021941634,-0.061949015,-0.24704832,-0.045310296,0.18214232,-0.23085698,-0.17586465,0.2718733,-0.28637514,0.22207333,-0.09807049,-0.044998273,-0.32196265,-0.05722258,0.027487934,-0.046205457,0.04279709,0.17976128,0.22121577,-0.011730139,0.09347895,-0.36720085,0.016180275,-0.38641322,0.30002174,-0.12044393,0.027160442,-0.025026241,-0.24570632,0.03413556,0.2762654,-0.15438035,0.23865083,-0.288931,-0.27535194,-0.102889046,0.1034243,0.42477024,-0.13380705,0.13118275,-0.28525048,0.2905206,0.004995175,0.014717573,-0.2835117,0.074463844,0.1394518,-0.04519088,-0.28698713,-0.16205879,0.07839405,-0.14932579,-0.4048295,0.14848873,0.1001598,0.14488177,0.13532802,-0.37184924,0.029932953,-0.46919513,-0.40435606,-0.35643902,0.07185434,-0.60143465,0.07867637,-0.31172344,-0.2919168,0.06506897,0.039937574,-0.044758905,0.13448967,0.10781497,-0.1729597,-0.037562076,-0.00045236357,0.118791,-0.35046837,0.1755529,0.09208521,-0.15456909,-0.031610455,-0.32640707,0.027349213,-0.34181508,-0.34719703,0.16458614,-0.29481512,0.10738854,0.1331283,-0.060526885,0.19957969,-0.71024704,-0.13896476,0.08288489,0.06420749,0.016742622,-0.17108089,0.10066227,-0.020348439,-0.2673498,0.18443581,-0.10146864,-0.37518746,-0.24119242,-0.19590524,0.19560508,0.2419368,-0.19270724,-0.6427817,0.08464118,0.24825633,0.10312273,0.2747639,-0.06732417,0.1279083,0.1642132,-0.19142972,0.053528275,0.024183547,-0.3240789,-0.098800644,-0.25878367,0.12885979,-0.0130017,-0.12526363,0.031245826,0.16968726,0.03447444,-0.24767064,-0.1541162,-0.033090457,-0.17485145,0.021519195,0.055153124,-0.1388523,-0.09186133,-0.04975342,0.29263106,0.37119588,-0.035386574,-0.14258125,0.10168804,0.030294197,0.16042604,0.033272494,-0.019627841,0.01757748,0.088410564,-0.018562146,-0.5676673,-0.046766892,-0.09344739,-0.037542526,-0.30003062,-0.11289444,-0.099975765,-0.14466675,-0.41497308,0.079848945,-0.025219359,-0.004712462,-0.21882084,0.071713895,0.080682084,0.0007925859,-0.09000134,0.13056836,-0.032420326,-0.14151335,-0.015248477,0.30880335,0.14659376,0.036315307,0.06757118,-0.14422388,-0.14101665,-0.017121408,0.086749405,-0.053292632,-0.0008675351,-0.13106371,0.015307686,0.086503,0.15340121,-0.1604964,-0.1403697,0.08964873,-0.072179414,0.22697176,-0.2218243,0.124100894,-0.17477204,0.014353997,-0.040860277,0.06350523,0.026276624,0.014514428,-0.023322457,0.052500837,-0.47720116,0.066522956,0.01778727,0.2580515,0.10810184,-0.10557323,0.14995413,-0.08543864,-0.12381462,0.36852643,0.1965817,0.09155259,-0.06703597,0.03660164,0.11268384,-0.067461185,0.02111098,0.044921327,-0.0028108722,0.18710032,-0.13811703,0.17033747,0.30321702,-0.30401167,0.4848915,-0.14743234,0.0041683386,-0.37937453,0.022081362,0.26344705,-0.3636427,-0.53947467,-0.100886665,0.12709706,-0.09485324,-0.38806984,-0.037226114,-0.17177196,-0.4198073,-0.009094656,0.25275445,0.23922423,-0.3508368,0.050518308,0.038298063,0.00014858859,-0.23052923,-0.42077294,-0.0016256653,-0.21942927,-0.30921307,0.2771274,0.1802827,0.2042703,0.28993428,-0.12845272,0.20732664,-0.6081916,0.048729066,0.035501357,0.01162609,0.1719589,-0.17531101,0.039539814,0.013206643,0.07877064,-0.021765187,0.064611144,-0.14013535,0.14591688,-0.325633,0.04430894,-0.09510915,0.021680659,-0.42808682,-0.2521152,-0.18725236,-0.03595079,-0.26050016,-0.40517607,-0.12356794,-0.23103544,0.013826838,0.21860984,0.07852568,0.3037435,0.011010014,-0.40868038,-0.05168424,-0.30741578,0.10807124,0.010893887,-0.13781655,-0.031536695,0.028816355,0.10003206,0.16442654,0.14345935,-0.2681516,0.06365843,-0.064665854,0.11609142,-0.06490081
0.06968232,0.019963633,-0.18102515,0.023814034,-0.32226324,-0.14527346,0.06544266,0.18119065,0.25812653,0.009780228,0.0056508505,0.21975723,-0.20964308,0.3027041,0.23332386,0.102024846,-0.16504022,0.16796991,-0.058182433,0.3293826,-0.10815689,0.14397463,-0.24036416,-0.09932676,-0.13750513,0.39559367,0.1666048,0.28711608,0.2710055,-0.21117114,0.15794541,-0.277844,-0.09993623,0.20293584,0.18313259,0.00022369024,-0.22953093,0.34641305,0.12164692,0.020002378,0.41197145,-0.15201448,0.10085438,0.0046443213,-0.36541694,0.25040442,0.18421338,0.2695141,-0.033127714,0.23436812,-0.07130897,0.028358258,0.17716792,0.08558537,-0.0052617807,-0.11043926,-0.110236175,-0.04922192,0.1740486,-0.45906052,-0.40733156,0.13244371,0.059689492,-0.43197992,-0.37754732,-0.2538378,0.12069645,-0.02639309,-0.08826567,-0.11845683,0.18632972,0.036957655,0.05452013,0.1357511,-0.0023931572,0.06964949,-0.20218226,0.14337793,0.30613697,0.2604445,0.026650518,0.10367759,-0.2885843,0.23847261,0.08384943,-0.077658385,-0.1480111,-0.0032389034,0.06852355,0.057869356,0.1761504,-0.20348349,0.3049813,-0.14587438,0.06357298,-0.5196893,0.03924206,-0.129455,-0.091845594,-0.07202177,-0.2791574,0.059034556,0.008869754,-0.030213548,0.124011286,-0.3226389,0.044605505,0.22226809,-0.17115615,-0.082265005,0.0740839,0.26016882,-0.009852164,-0.119391635,-0.45116875,0.20470297,0.15563591,0.036160417,-0.2975143,0.05732019,0.12384139,0.20328937,-0.10526063,-0.3573907,0.2481467,-0.11878449,0.1108409,-0.23537038,-0.030095031,0.12876119,-0.16644953,-0.106479414,-0.23037127,0.03682461,0.12913285,-0.0012601983,0.20965564,-0.31125847,0.10899835,0.14067164,-0.31114757,0.016425109,-0.0018395204,0.463753,-0.06667096,0.17075513,-0.22618346,0.5549596,-0.18655504,-0.20212632,-0.25095558,0.35619128,-0.15936638,0.17380758,0.33018807,0.16362564,0.028061826,-0.3498465,0.0006165823,-0.59521407,0.032425717,0.23057641,0.1503855,0.11496515,-0.2938522,0.24227957,0.12104019,-0.13209982,0.18162358,-0.2830701,0.2578916,-0.03830653,-0.17672235,0.25180358
-0.11529939,0.09407005,-0.17899936,0.025958799,-0.22301036,-0.2038034,0.06873819,-0.27345556,0.48091918,0.1130397,0.16174252,0.23987831,-0.23574722,-0.11730753,-0.13698839,-0.315197,-0.321824,-0.014328218,0.19377139,0.23823547,-0.13864626,0.09002931,0.18485203,0.13739741,-0.2686031,0.080387555,0.1009243,-0.42303878,0.088094205,-0.13260147,0.021034092,0.11015308,-0.2463636,0.04009678,-0.26689705,0.0016129573,-0.38534418,0.043452404,0.08919393,-0.15667626,0.20791985,-0.38025424,-0.2322199,0.09252118,-0.1118955,-0.03018744,-0.30424353,-0.40997228,-0.19856942,0.10304886,0.22425307,0.121038854,-0.44373408,-0.13966441,0.11611662,0.045473803,-0.24541079,-0.07943651,0.079676986,-0.0981983,0.011167465,0.0675509,0.2755754,-0.050749827,-0.16447839,-0.014899019,-0.4015706,-0.16726767,0.07818335,0.14780559,0.32871196,-0.090417705,0.08918607,-0.28817293,0.17395754,-0.33802825,-0.029872876,0.12295433,-0.06991637,-0.33001244,0.04054527,0.24804851,0.17270127,0.093912095,-0.110244,-0.16058834,0.26067877,-0.02555848,-0.06247638,-0.24906228,-0.09895777,0.04114534,0.061726965,0.107385136,0.1755411,0.0532504,-0.57105637,-0.08221221,-0.1942433,-0.06329542,0.0008343202,0.06097233,0.11540339,-0.25494996,-0.07206961,-0.08344406,-0.0034771075,-0.40679887,0.24363223,-0.065466635,0.03573534,0.10601049,0.11778202,0.2729152,0.0850137,-0.15871152,-0.115076534,0.070436865,0.09386442,-0.35414287,0.3171281,0.023416467,-0.44545543,-0.006842215,-0.021923335,0.0716046,0.08766826,0.17354941,-0.19914265,-0.40494168,0.038045622,-0.31987122,-0.017352138,-0.42544258,-0.08850564,-0.30627382,-0.21578118,-0.1902113,-0.0613214,0.18897453,-0.44256762,0.1637984,-0.22899567,-0.4700978,-0.04952929,-0.17204039,0.2888013,-0.11412418,-0.43069938,-0.059873007,-0.28990272,0.091774605,-0.2556548,-0.7367742,-0.032809872,-0.28194812,-0.12148556,-0.14986534,0.3256591,-0.3899471,-0.24560134,-0.2357268,-0.13323116,0.0058368905,-0.1398725,-0.022888398,-0.19467519,-0.22811393,0.0020748817,-0.0035574092,-0.26976937,0.12001117,0.06366943,0.055948596,-0.3029018,0.016231049,-0.4115436,0.026058422,0.031553783,-0.19719942,0.18754555,-0.02332767,0.10786106,-0.014220679,-0.09982665,-0.21053973,0.10466665,-0.31974503,-0.044449113,-0.12025751,0.2879449,-0.17218734,0.073931746,0.15606901,-0.4059673,-0.10964197,-0.61077327,0.124093436,0.15511338,-0.13663626,0.012618599,0.0024254606,0.06479642,-0.20912008,-0.0352732,-0.14555864,-0.15073654,-0.2749738,0.169764,0.18445387,0.124234885,-0.047976304,-0.19426735,-0.12470818,0.042338368,0.07327517,0.12442708,0.079559684,-0.08844513,-0.1893985,0.16089241,0.10090591,0.15800735,0.12624827,-0.63367,-0.21047075,-0.19517247,-0.02185954,-0.082048215,0.1022189,0.17738064,-0.1800736,-0.04879911,0.23225725,-0.00015679837,-0.3295371,-0.52055246,0.006840823,0.03124383,-0.30410507,0.1469826,-0.047694072,-0.094908275,0.2801769,-0.45018983,-0.27087933,-0.092589244,0.07072049,0.28979784,-0.0044284896,-0.0071781,-0.06370167,0.13935359,0.43681964,-0.3446627,0.4634459,-0.11442135,-0.09460394,-0.023250988,-0.3228864,0.1201714,-0.40783674,-0.33336133,-0.31313697,-0.0926631,-0.35432163,0.06413206,0.11287321,-0.40523016,0.041717242,0.14685716,-0.09522593,0.04691275,0.24054255,0.064504534,-0.25311944,-0.3216271,0.012531968,-0.09752059,0.038563184,-0.33695138,-0.15973552,0.18665782,-0.5672968,-0.28967428,-0.17345956,0.12806945,-0.22403763,0.000209861,-0.0314052,-0.05294267,-0.20423828,-0.050732825,-0.0564965,-0.0023122618,-0.25505334,-0.32949525,0.043248672,-0.4181006,-0.049880654,-0.15004638,0.1990197,-0.08350886,-0.07941145,-0.25892454,0.10133603,0.071149506,-0.2556383,-0.078449756,0.07074137,0.080531746,0.19036931,-0.16338342,-0.23025516,0.22136313,-0.21097997,-0.13883454,-0.33696112,0.13366638,-0.15768062,-0.1958183,0.12498571,0.120032415,0.026797226,0.01387525,0.1680094,0.05045771,-0.035746448,0.12894806,-0.051676262,-0.17951341,-0.033793792,-0.18215156,0.0041513164,-0.07792373,-0.02803858,0.08272858,0.036035873
0.0468519,-0.13881034,-0.03955001,-0.17054257,0.112255864,0.21042997,0.036370955,-0.027581073,-0.12893927,-0.12134756,0.100095525,0.0097117815,0.14186184,0.017302608,-0.1196703,-0.2983367,0.10433139,-0.11861131,0.005935926,0.07946298,0.12335411,-0.38600835,-0.01752618,-0.060821496,-0.045327988,-0.36852503,0.19130394,-0.08815874,-0.031841215,-0.1713228,-0.13086808,0.11579436,0.00070519105,-0.10110407,-0.45729703,-0.058964442,0.06336668,-0.26270533,-0.048686814,-0.051578417,-0.6071526,-0.006457584,-0.05539512,0.06759118,0.055731818,-0.07207398,-0.14954127,-0.21505494,-0.2996159,-0.028087782,-0.1552467,0.11260852,-0.7801433,-0.24109995,0.071830526,-0.11843209,0.081261955,-0.026445946,0.057431616,0.38464844,0.29216146,-0.5817588,-0.090066016,0.11283381,0.063296884,0.119362034,0.2758186,-0.16422293,0.13020487,0.05940615,-0.16706531,0.104982674,-0.01797908,0.0154176755,-0.034552738,-0.40953386,0.0675756,-0.23583251,0.098429605,-0.0710094,-0.38326165,-0.32522678,-0.40316507,0.041991003,0.05740386,-0.1725491,-0.09073405,0.05287071,0.0009409854,-0.14738435,-0.059918903,0.4023837,-0.025898421,-0.2654529,-0.65898335,0.13952734,0.039425995,-0.10802005,0.21724403,-0.12175617,0.26045483,0.077417456,-0.11376102,-0.07125771,-0.025379792,-0.086982265,-0.11304473,-0.28725854,-0.0025131253,-0.05582576,-0.030820882,-0.06667138,-0.4051565,0.020560903,-0.042160977,-0.06737638,0.07643794,-0.1536212,0.21639204,0.123895705,-0.29565987,-0.3845677,-0.22956368,0.18164168,0.041670326,-0.08911771,-0.049311902,0.1512484,0.16390525,-0.15909615,0.18656923,0.11048463,0.19809715,-0.04257927,-0.06191853,-0.11018118,-0.11188574,0.13368735,-0.03313339,0.18024175,-0.017283749,-0.10160961,-0.005817009,-0.48606786,-0.087921076,-0.10094676,0.05033697,-0.36653724,0.050271004,-0.2474283,0.14040259,-0.56325585,0.10914941,-0.4746887,-0.60268366,0.042508487,0.08671264,0.04621361,0.07116816,0.09679468,0.23389558,-0.38691664,-0.08203303,-0.012905399,0.10299353,-0.51060843,-0.24217996,0.0038431904,-0.49445027,0.19417767,-0.28274393,0.08312604,0.27883363,0.030652272
-0.0777009,-0.12872836,0.0663222,-0.09954294,0.044107236,-0.14586751,-0.009401332,0.06979856,0.04679166,-0.055760816,0.347746,-0.1130626,0.14640927,0.09360963,0.14625096,-0.01907406,0.13899666,0.034484297,-0.2199149,-0.7183077,0.06827878,0.056960773,0.026792955,0.07259929,-0.017484166,-0.20307098,-0.54830587,0.11694162,-0.12808684,0.2646294,-0.21595451,-0.13644333,0.024337817,-0.2477287,-0.17866403,-0.07566061,0.3333686,-0.044150196,0.18200225,-0.025855167,-0.1546594,-0.27590802,0.54627585,-0.6405571,-0.08075426,-0.017788656,0.06850803,-0.04681326,-0.10092457,0.18121856,-0.17047083,-0.46869135,-0.057859503,-0.08239151,-0.15590945,-0.2687729,-0.051403485,0.013007541,-0.46831372,0.24472624,-0.7179697,-0.20340224,-0.11297055,-0.106778346,0.17851289,-0.28544015,-0.07729703,-0.042217735,0.027751535,0.12516278,-0.0037837245,-0.1300922,-0.10024993,-0.17081147,0.38699138,-0.07222425,-0.09400715,-0.35863948,-0.0026341523,0.08195389,0.21427268,-0.29209104,-0.4931085,-0.1961737,0.090128615,0.10670645,-0.25293514,-0.12409676,0.32860085,-0.0039815814,-0.2813751,0.20517577,-0.2926587,-0.19899113,-0.6188271,-0.09632427,0.47917888,0.13971369,-0.29694587,0.32627934,-0.04550938,-0.10649152,-0.049504586,0.04943278,-0.14105128,-0.07744377,0.007096719,-0.36274454,0.03380894,0.06509593,0.097750686,0.0236307,0.12320792,-0.3460626,-0.31550562,-0.34906664,0.09776754,0.1701132,-0.23306383,-0.16388662,0.059405122,0.14324535,-0.009187642,0.022085344,-0.46072188,-0.22864409,-0.00504232,-0.046808496,0.095312335,-0.0042481646,-0.23011492,-0.0831373,-0.04232558,0.0880092,-0.13068305,0.090486355,-0.12509607,0.3718293,0.22411247,-0.13520066,0.24283236,-0.3999403,-0.087093286,0.304912,0.17190185,-0.2732785,-0.37920442,0.053995945,0.12686874,-0.29291144,-0.1558791,-0.30097428,-0.004614122,-0.0022030394,-0.21216859,0.08722468,0.466787,0.3108058,-0.32665,0.25647745,-0.0629734,-0.10043269,-0.34412196,-0.056768667,0.3598463,0.11459026,0.09191089,0.10676933,-0.26157042,0.11713923,0.29101136,-0.04406005,0.24017397,-0.1723309,0.2811183,-0.32155085,0.18309999,-0.30816776,-0.03725029,0.4181161,-0.078398146,0.03235295,-0.1536001,0.050571464,0.09163432,0.5230005,-0.13934335,0.09102843,0.352579,-0.2093419,-0.45855927,-0.03232282,-0.3428807,-0.12543446,0.05696943,-0.14000383,-0.075231075,-0.22415386,0.16263701,0.17197356,-0.004527906,0.26228544,0.0030581055,0.024922317,0.30874065,0.018783122,-0.035663854,-0.08606651,-0.005636685,0.08130255,-0.19975837,0.06738952,0.16840751,0.363917,-0.0070466846,-0.19382843,0.06690427,-0.17277682,-0.069094904,-0.12438695,-0.13248654,-0.015469716,-0.46485057,0.061370347,0.1798955,0.048219413,-0.28439754,0.18412407,-0.034514226,0.073767096,-0.09038347,0.14230318,-0.014593498,-0.025340553,0.2358482,-0.11193965,0.1944691,-0.27572748,-0.42062885,0.21920982,0.17935032,-0.04946459,-0.41380137,0.028551036,0.12447327,0.14505273,-0.124453254,-0.3872017,0.19262376,0.09519768,-0.4229319,0.04894791,-0.026987577,-0.25557214,-0.09416239,0.1256322,0.019067947,-0.03915291,-0.3077597,0.09592924,-0.17175853,0.12833624,-0.0013596037,0.1305728,-0.16356772,0.11788419,0.3105735,-0.027956462,-0.07388204,-0.17315985,-0.009466096,-0.08991775,0.12912393,0.100329146,-0.090077676,0.1722018,-0.14162123,0.10962401,0.2802627,0.06683294,0.18451549,0.15588588,0.058418542,-0.100602,0.21365742,0.3104947,-0.28900215,0.17718193,-0.6157214,-0.2579995,0.13761045,-0.15463412,-0.260278,0.04874752,-0.37994418,-0.10272707,-0.16175328,0.15906732,0.35738835,0.10323158,0.19125377,-0.42532814,0.05624115,0.035729498,-0.10325652,0.038396537,0.31150526,0.191815,0.13157521,-0.35033908,0.070304476,-0.32111454,0.19989307,0.057342794,0.21653563,-0.10718186,0.31285378,-0.031411096,0.28913307,-0.16994384,-0.30568126,0.064958185,0.060326643,-0.013426204,0.014804384,-0.29137164,-0.12699337,0.55370426,-0.43586403,-0.061234526,0.038265537,0.05180489,0.30553997,-0.18438594,-0.42135307,-0.0123770675,-0.010139497,-0.17163734
0.1179609,0.13344204,0.15276122,0.18428396,-0.32368913,-0.13984711,0.13614316,-0.20830666,0.18546629,-0.09740267,0.019006098,0.20176224,-0.10090651,0.12212212,-0.06533286,0.21635827,0.035637602,0.24252115,-0.05766466,-0.03871747,-0.16117905,0.74075794,-0.1992009,0.1724519,0.056310233,0.0602426,0.108798414,-0.69086283,-0.48619488,-0.040533528,0.29955322,-0.10826468,-0.29758233,0.23516142,0.1964454,-0.22918049,-0.17967592,-0.29054198,0.22674616,0.055504587,0.02716223,-0.051631644,0.01838496,0.16039218,-0.2590811,-0.21869802,-0.16661811,-0.5135048,-0.2047098,-0.37823245,0.13757496,-0.08739739,0.21927643,-0.2699301,-0.04912964,-0.029352028,-0.1439359,0.032721676,-0.43840817,-0.22063425,-0.71651447,0.076419674,-0.6522108,0.09153115,0.30829254,-0.21670859,0.0042128153,-0.18511379,0.24449664,-0.18372963,-0.54329586,-0.03497866,-0.043550532,-0.41114932,-0.0082488945,0.16681197,0.10538274,0.0190766,-0.36066434,0.025484191,0.28092012,0.10252352,0.18284819,-0.20470549,-0.20527498,0.053306606,-0.16167101,0.17689349,-0.18181622,0.2370518,-0.42479217,-0.62355375,-0.8929371,0.32262045,0.15540613,0.07009172,0.22673781,0.08841792,-0.6669649,-0.14660329,-0.11084781,-0.18707527,-0.40225652,0.10582853,-0.0018296129,0.050205406,0.13226332,-0.18291071,0.074625745,-0.032865714,-0.30558097,0.30262533,0.5990671,0.21068852,0.17491944,-0.12515493,-0.32605416,0.4669072,-0.35711977,-0.40275162,0.006328939,-0.0812634,-0.07649701,-0.48411936,-0.44450998,0.2193011,0.112787105,-0.29485473,0.35676873,-0.30812746,-0.8264247,-0.4928942,-0.47504413,-0.19587137,0.108603515,0.06913364,0.14001255,-0.047988124,-0.16469334,0.028818373,0.2540583,-0.15982968,-0.019454584,0.35801476,0.23222281,0.022014428,-0.0006253206,0.28202763,-0.6410044,0.7051822,-0.3563469,-0.13378663,-0.15964498,0.10408411,0.22422105,-0.33704242,-0.056857727,0.13046576,0.5289731,-0.37407807,0.03447918,-0.03635963,-0.48161262,-0.32629865,-0.7746269,0.018013353,0.41206518,-0.00896911,0.1543797,-0.0642089,0.06278549,0.019768173,-0.03148881,-0.2327322
0.21771061,0.09788481,0.14917684,-0.035723183,0.45827007,0.32242855,-0.14263484,0.09284081,-0.5464825,-0.095217854,-0.20405363,-0.3127107,0.22328171,-0.16116893,-0.3603041,0.11736374,0.16333352,0.09653003,-0.17591713,-0.3344627,-0.20611712,-0.14688349,-0.36139098,-0.17725344,0.13152443,-0.069228955,-0.13918641,-0.047901448,0.075079255,0.3279818,-0.14518908,0.12544243,0.17620286,0.04104161,-0.16492638,0.13465269,0.08364306,0.2221689,-0.24168916,0.2198092,-0.41702455,0.5072125,-0.09058298,-0.23386905,0.1922899,-0.28474525,-0.022228107,0.022177067,-0.027477013,-0.20827198,-0.31670523,-0.101828165,0.11305162,0.087412976,-0.5644761,0.012898342,0.27125856,0.008755532,0.091390915,-0.2972657,0.0012700504,-0.2929754,0.07078836,0.10268149,-0.032100964,0.22344759,-0.4536207,0.13987726,-0.39570677,0.10365349,0.035005853,-0.49176046,-0.44695157,0.052910365,-0.18902785,-0.033434972,0.11802675,-0.15313773,0.1138284,-0.8985292,-0.04195419,-0.62358105,-0.38499078,-0.07275701,0.13059138,-0.0014144118,-0.5989895,0.3464767,0.18467298,0.080412,0.2722921,-0.5983108,-0.122947805,-0.08335842,-0.42210898,0.19159403,-0.052051056,0.302639,-0.052717775,0.17494386,-0.4287717,0.26329648,-0.060275245,0.05134634,-0.43809623,0.04823357,-0.33669603,0.12788709,-0.27383775,0.074628174,-0.28252155,-0.5366703,-0.2667129,-0.44947752,-0.3935946,0.17518671,0.0058846143,0.14822274,-0.35466233,0.41934744,0.13382503,-0.48201224,0.37369302,-0.4708157,0.012889544,0.14319645,-0.48273888,0.3507539,-0.044945102,-0.10387563,0.08578011,0.044484917,-0.062380508,0.2475486,0.11970888,0.2085375,0.04070759,0.028460972,0.0952613,-0.061429843,0.29431328,0.13421527,0.4239079,0.14909434,-0.15839604,0.27116737,-0.19877432,0.018371183,-0.2514285,0.049790427,0.07790164,-0.36895117,-0.11484615,0.1453181,-0.009102979,-0.119168036,0.3324693,0.07920519,0.015764713,0.054838818,0.061096314,0.0041302997,-0.27968052,-0.025208002,-0.39949602,-0.09893272,0.054418568,0.10074027,0.16749173,0.09044326,0.17826737,-0.20710339,-0.065279596,0.07797678,-0.058751833,0.008342762,0.07599304,-0.21948862,-0.52563506,-0.059367698,-0.014688761,-0.13568273,-0.022782989,0.084360346,-0.008557305,0.0731215,0.043155737,-0.051040594,0.19699815,0.15300128,-0.30376863,0.11581813,-0.124313824,0.14923629,0.056796677,0.17481385,-0.047597054,0.12055564,-0.31763214,-0.22846599,0.06517184,0.14330135,-0.13324751,0.028231088,-0.20510952,-0.042171706,-0.32297745,-0.3313149,-0.13201234,-0.2063904,0.08366627,0.15449233,-0.4792027,-0.07798353,0.06709624,0.18194506,0.026245134,-0.0029292745,0.08150797,-0.29362014,0.11174041,0.020414516,-0.12873673,-0.20165987,-0.56322527,0.31046274,0.15710534,0.0767608,0.021001084,0.012086531,-0.5973463,-0.4735664,-0.01007238,-0.11816607,-0.36135107,0.371026,-0.35361043,0.17551346,-0.105115004,-0.3555977,-0.4733984,-0.30697596,0.07475215,-0.041561376,-0.7014949,-0.50895363,-0.16839322,0.27169433,-0.51732093,-0.24561782,0.32923847,-0.090730384,-0.12908365,-0.25001374,-0.37847355,-0.07097816,-0.011258085,-0.2576826,0.13733135,-0.22107655,-0.12221701,-0.08480217,0.07307225,0.07486012,0.0034924317,-0.13376264,-0.05083914,0.15738377,0.046773724,0.2219337,0.12995233,-0.11646537,-0.3750262,0.25656858,-0.079740606,-0.20240736,0.15328558,-0.04551196,-0.14425875,0.11647655,-0.11970308,-0.091314115,0.24708655,0.013656131,0.26836336,-0.13322972,-0.11150419,-0.26812518,-0.1394376,0.05229713,-0.16991219,-0.30072168,0.01586962,-0.079268426,0.06890999,-0.1068181,0.2239446,0.20888144,0.03965675,-0.08571762,-0.24627903,0.14503375,0.10633278,-0.012185129,-0.20258762,0.11352368,-0.051807553,0.039751653,-0.18540534,0.035449576,0.17803171,0.0022995549,0.087206416,0.08076223,0.14604427,0.17556132,0.072390474,0.024547953,-0.19591416,-0.08782938,-0.22220054,0.27035648,-0.14235829,-0.35273623,0.03980927,-0.27321532,-0.048140556,-0.059714273,0.16360708,-0.10355488,0.026296725,-0.059973948,-0.41140708,-0.102919124,0.114605926,-0.0065713273,-0.105809964,0.13092422
0.120710805,-0.03212743,-0.12735187,-0.25421244,0.08270519,-0.039324675,-0.04081038,0.027886922,-0.08640671,-0.06674591,0.17631704,-0.3685845,0.15319338,-0.18751383,-0.47461346,-0.11385233,-0.20751072,-0.52683854,-0.0047428757,-0.31150195,-0.011330537,-0.26190224,0.11350229,-0.054688416,0.038151287,0.2722593,-0.32080153,-0.07141822,0.14104082,0.14117503,-0.28013235,0.08185941,0.18660578,-0.3370635,-0.26320907,-0.17963366,0.0186487,-0.038031075,-0.5109285,0.07998207,-0.07497202,0.07076754,0.01720506,-0.28982833,0.09160579,-0.2984234,-0.20677167,-0.095042095,-0.14449695,-0.23549831,-0.41835433,-0.1588924,0.21087158,-0.032763164,0.3540127,0.112331346,0.0054620965,0.1514146,-0.015945071,0.16885166,0.004248974,-0.37149647,-0.13537599,0.18769784,0.110516004,0.10290215,-0.21756986,-0.30262393,0.103837006,0.037222628,-0.37244597,-0.0052527827,0.076396614,-0.14235246,0.05455326,0.03459759,0.27826008,-0.08360105,-0.34362254,-0.23288056,-0.4106288,-0.38874286,0.031066936,-0.06843873,0.027525816,-0.011483658,0.33405724,0.043779705,-0.29151398,0.04972887,0.011841125,0.17701255,0.2778935,-0.1738085,-0.12724729,0.21054585,0.06422941,0.05115466,0.0683602,0.07459349,0.17386921,0.01989754,-0.17085035,0.117092885,0.008667897,-0.05941429,0.0989779,0.23358792,0.112655595,0.060879942,-0.009781638,-0.121327326,-0.015844218,0.047410216,0.13391545,-0.30680022,0.002527422,-0.2588823,0.2678577,-0.044355806,-0.097421184,-0.23680387,-0.11672531,0.09616612,-0.0006089984,0.13657841,-0.020431578,0.2196459,0.1528287,-0.051469333,0.15210545,-0.119140275,0.27539518,-0.24796174,-0.37074152,-0.040878724,-0.055315997,0.13454139,-0.10430222,0.11893455,0.19397715,-0.02494474,-0.13602453,0.08945539,0.05973132,0.220993,0.076916434,-0.4282874,0.11128084,-0.18084951,0.34909192,-0.2953078,0.19308797,-0.14720732,-0.06572767,-0.0024313598,0.27769125,0.27043977,-0.072659336,0.18405242,-0.06629913,-0.3660128,0.08030882,-0.07550956,0.31565213,-0.5165719,-0.13946581,0.020381281,-0.552031,0.23590791,-0.030601738,0.01104072,0.027382808,-0.040490825
