-0.19961289,-0.06352162,-0.018243125,0.09071413,-0.3628674,0.11814331,-0.1941425,-0.17249261,-0.10653956,0.023593325,-0.002330528,0.0019342805,0.081313916,-0.181916,0.058376886,-0.20151049,-0.020053612,-0.22634551,0.04363647,0.007377954,0.20384125,0.24109949,0.0926482,0.12074759,-0.12322373,-0.082682945,0.05527023,0.025365522,-0.16042477,-0.19181955,-0.027611379,-0.40064436,-0.12481045,-0.09743195,-0.14378263,-0.17335024,0.0067499094,0.012857872,-0.08188507,-0.015115768,0.05737547,-0.12585057,-0.036281854,-0.3033424,0.043162536,-0.24582103,0.031134557,-0.010113927,0.036234252,-0.09864684,0.05394253,0.11961782,-0.16342424,-0.09988299,-0.10658637,-0.13473509,-0.13820188,0.16385694,-0.048227444,-0.1274104,0.0723858,-0.004365438,-0.051480614,-0.2362334,0.20711303,0.034171928,-0.07416583,-0.10012177,0.12801892,0.03636729,0.09651555,-0.140128,-0.14572953,0.09080456,-0.017254028,-0.03714882,0.06276994,-0.08529868,0.1774578,-0.012388765,0.00076677435,0.0872756,0.056267247,-0.30674973,-0.24896388,-0.26168188,0.02736489,-0.028646678,-0.024146186,-0.4168228,-0.06605768,-0.04474942,0.24968609,0.084366985,-0.105194554,0.026702665,-0.01061429,0.22237282,-0.1197744,0.10334634,0.050980464,0.010716777,-0.04965539,0.046386145,-0.23538753,-0.21860611,0.070525646,0.2511456,-0.09785956,-0.15814395,0.0094723655,0.25805116,-0.03120821,0.07728793,0.14655614,-0.4241809,-0.15963595,-0.11524507,0.2427176,0.024521101,0.03295567,-0.19870414,0.17887218,0.060280785,0.118981056,0.022790683,0.03224863,0.015240056,-0.12350881,-0.27549723,-0.07081505,0.12548612,-0.05330627,-0.035444777,-0.04831371,-0.024294555,-0.34970936,-0.03752219,-0.19835076,0.02842536,0.25530487,0.24614432,0.10306345,-0.3564721,0.094378024,-0.08787006,-0.0947995,0.13649894,0.19905968,0.045283865,-0.33748817,0.09803134,-0.077245355,-0.063404836,-0.15202914,-0.09431999,0.09843143,-0.3700383,-0.18269263,-0.3688361,-0.10569198,0.020343024,0.13717416,-0.05129654,0.26415062,-0.17683433,0.15137413,0.20136853,-0.14225563,-0.11593408,-0.4264862,-0.2139984,-0.016679388,0.010457605,0.12622738,-0.047087304,0.06329492,0.14813502,-0.1707404,-0.08185296,0.03197235,0.082302086,-0.15642622,-0.16459596,-0.20039403,0.11428591,0.052389234,-0.13804413,0.16997914,-0.27787256,-0.07331295,-0.010144563,0.1768389,0.027364269,0.19337676,-0.07318542,0.24190052,0.02361682,0.018331932,-0.18839033,-0.040289417,-0.22718056,-0.21465287,-0.06994571,-0.026525864,-0.118900545,-0.27914226,0.0010564794,0.08354697,0.18268412,0.08955757,-0.45190728,-0.14127961,-0.196504,-0.18989599,0.17487973,-0.24563868,-0.080274485,-0.07028572,-0.030083379,0.05922101,-0.2887619,0.12136619,0.014686803,0.3956333,-0.06782401,0.06528334,-0.07337162,0.12188983,-0.2514031,-0.18588518,0.07990601,-0.19794482,0.16348642,0.11742518,0.21519287,-0.160004,0.08837464,-0.23492965,0.13711363,-0.0922508,-0.0018315798,-0.03976438,-0.0745705,-0.034906775,0.07413956,-0.05678313,0.18954079,0.010947198,0.07389106,0.15682183,-0.097354144,0.19656315,-0.1054441,-0.20865208,0.09797522,0.0857263,-0.21654068,-0.36123407,0.03421485,0.18517129,0.014124926,0.14100643,0.094378866,-0.4827597,-0.63100636,-0.1360908,-0.0033532307,0.22001229,0.16403522,0.12586427,-0.010501571,0.051964086,0.16515194,-0.46304342,0.1010831,0.06300783,0.1961442,-0.7628874,0.07107222,0.10956984,0.011089653,-0.35566902,-0.035013203,0.013447083,0.044653673,-0.3645401,-0.22675483,-0.11895063,-0.27253184,-0.2569066,-0.09637076,0.003562879,0.14838651,0.05980334,-0.28758472,-0.16492438,-0.2339265,0.06266273,-0.30758238,-0.11010234,0.07059928,-0.2153902,-0.052086204,-0.13210608,0.18715534,-0.3851583,0.012762313,-0.054646235,0.17699218,-0.049289543,-0.24182679,0.051410537,0.13507245,-0.10777222,-0.07554638,0.038132295,-0.10539713,-0.02493814,-0.19338861,0.0074289767,-0.0727879,0.036934916,0.24128391,0.14122252,-0.34755418,-0.06235237,-0.23622029,-0.1074943,0.04654418,0.078730874,-0.12569416,-0.051034186,-0.15393336,0.1431311,-0.08580761,0.014416603,-0.03010302
-0.34270135,0.021871218,-0.053545106,-0.18893798,0.09034653,0.13136858,-0.38961765,0.2116265,-0.00190739,-0.11365847,-0.11258545,0.0001796559,0.17630775,-0.005334398,0.08745907,0.11621051,-0.039157417,-0.021588458,-0.015761616,-0.62236387,0.035856202,0.08043718,0.047985103,0.13920128,0.01058174,0.21998705,0.15460707,-0.004598471,0.12338912,0.0077692475,0.06612419,-0.004343042,-0.24530715,0.1950459,0.11297187,0.079070516,-0.0001421507,0.106730826,-0.15953185,0.0012574012,0.10256675,-0.022088049,-0.09338619,-0.07224516,-0.35125187,-0.0013364879,0.05420223,-0.09868576,-0.01139024,-0.17313024,0.13100933,0.12037012,-0.30765703,0.23403358,-0.2628016,-0.32057863,-0.081874475,0.11003241,-0.009220345,0.18365419,-0.33488178,0.15735686,0.04478483,0.15163034,-0.04117647,-0.17588346,0.14645319,0.15854058,-0.14331153,0.10577687,0.15510835,0.02815836,-0.1293216,0.03974953,-0.16661285,0.13664857,0.07892185,0.07677124,-0.26182765,-0.14027694,-0.22475588,0.1496449,-0.1314874,0.22391428,-0.014715395,-0.09628562,-0.27183458,-0.4219121,-0.11076292,-0.016745878,-0.063640386,-0.038736675,0.15801038,0.0027256806,-0.43091184,0.15793736,-0.075938776,0.07320416,-0.17437495,-0.048339356,0.0046262085,-0.43416765,-0.04041508,-0.2575498,-0.3314824,0.079805546,-0.24166599,0.081241995,0.034850482,-0.28658745,-0.4926309,-0.16879089,-0.044159174,0.26332036,-0.44745797,-0.014429123,-0.05371933,-0.37916905,0.026064795,0.04239935,0.040407035,-0.44412068,0.078717604,-0.071069375,0.1597131,-0.19128634,-0.11738941,-0.29928166,-0.026769102,0.17951423,0.025497694,0.029845508,0.03280336,-0.04361751,-0.14056097,-0.09381059,-0.21300027,-0.027721541,-0.22257914,0.10166281,-0.01395365,-0.041816417,-0.03985492,0.019818865,0.28821543,-0.0004890551,-0.31974843,-0.38521263,-0.0013598036,-0.46264374,0.1606314,0.08052185,0.15014759,-0.31777447,0.035697136,-0.16258307,-0.14801095,-0.4300111,-0.14363402,0.09614102,-0.27723885,0.19814116,0.006694761,0.08534251,-0.07433934,-0.3741456,-0.1210822,0.033138264,0.13432986,-0.17655839,-0.09720545,-0.1684981,0.032915965,0.22186315
0.0016028299,-0.06453539,0.102665134,-0.08886065,0.01932083,0.03250667,-0.09771398,0.16398402,-0.16430017,-0.2137612,-0.12409478,0.027339932,-0.36954367,-0.061384846,-0.34713313,0.44948602,-0.011769962,0.07115933,-0.021069773,-0.07262034,0.045993492,-0.061409313,-0.13566801,0.085683584,-0.13009839,0.10629661,-0.20480932,-0.12238755,-0.20987312,0.06303199,-0.003916139,-0.034809135,-0.063358895,0.17724355,-0.1209733,0.13767618,-0.017626235,0.019145781,-0.1489076,0.13494664,-0.008472703,-0.09523637,-0.013193183,0.06808072,0.08600699,0.19602594,-0.08296057,0.011322727,0.06326662,-0.2617542,-0.2671973,0.25533667,-0.075523086,0.08202749,-0.17895786,0.10439137,0.092882745,0.014205581,-0.10892375,-0.029064147,-0.15399331,0.048997235,0.24546692,-0.042658497,0.0015395165,-0.12464925,-0.13163014,-0.10989093,0.20431577,0.10932633,-0.03612627,0.0711871,0.32755643,-0.16451415,-0.19889867,0.22031243,0.15279754,0.10793018,0.01047745,-0.2866163,0.13489954,0.073877566,-0.18898551,-0.02028705,0.0530065,0.1340925,-0.25735846,0.011581296,0.23937629,0.21562736,-0.19209553,-0.0326732,-0.02444026,0.14897707,0.07649884,0.06734089,0.20109989,-0.2214988,0.0121436585,0.05087979,0.06604886,-0.14290605,0.07881244,-0.025137478,0.037592556,-0.08750316,-0.34028682,-0.14127459,0.19154948,0.20003195,0.20170493,-0.44384223,0.22345698,-0.018229684,-0.12247882,0.28462347,-0.036871627,-5.332407e-05,-0.21743959,-0.06611856,0.09089004,0.06387075,-0.18958183,-0.0012566459,-0.0042082453,-0.059069965,-0.09407194,0.057304543,-0.023843257,0.17152737,-0.045468625,0.19001462,-0.04034811,-0.28589386,-0.042165037,-0.07767642,-0.25683665,0.04032077,-0.14413445,4.6488276e-07,-0.11786788,-0.5002687,-0.11928521,0.003618387,-0.060651433,-0.09635961,-0.04086157,-0.03206533,-0.23967499,0.059706166,-0.18168712,-0.055039234,-0.08552258,-0.10373604,-0.28213605,0.051222377,0.24687597,-0.16604856,0.085486874,-0.0071809003,0.21975005,-0.005661187,-0.16054666,0.19673705,-0.12094946,-0.33073762,-0.09601507,0.041931953,-0.010345438,0.10782789,-0.13479413,0.061168678,0.1727057,0.05514957,0.02358371,0.23477416,0.09139687,-0.2788589,0.15304892,-0.0058002095,-0.15121606,0.13284583,-0.44559616,0.16459773,0.10362285,-0.06532911,-0.1346279,-0.10970929,-0.11611113,-0.30524215,-0.06554605,0.20094085,-0.11747862,-0.13845326,-0.11162212,-0.15385945,0.19528261,-0.2862584,0.020703565,-0.08499044,-0.26017734,-0.13660225,-0.1745887,0.14151198,0.08657312,0.052693915,0.028783137,-0.12688515,0.07629276,-0.10317804,0.071645096,0.12934516,0.02967729,0.1511238,0.024349391,-0.07233276,-0.079459906,0.1679007,-0.19476928,0.019650543,-0.18413976,-0.29107013,0.0023977153,-0.24348864,0.09742141,-0.059911966,-0.51407015,-0.214873,-0.020814123,-0.16810504,0.11327486,-0.23433413,-0.18193628,-0.28026363,0.08265498,-0.11059597,-0.010032768,0.09335137,-0.06524081,-0.21275313,0.09741773,0.027080111,-0.35484472,0.055272274,-0.114848584,0.0532974,0.15458064,-0.03998961,-0.3158885,0.02708119,-0.06704993,0.030205654,-0.057372175,-0.18782663,-0.3218006,-0.40440515,0.097743884,0.03945725,-0.23305221,0.25499085,0.042890646,0.038766816,0.0656027,-0.3540913,0.08429957,0.120133534,0.15216649,-0.24194479,-0.15702839,-0.417848,0.16725332,0.11299093,-0.14162615,-0.007911444,-0.22762148,-0.17404248,-0.4268905,-0.11567487,-0.014575455,0.014841995,0.07627578,0.023658348,-0.18839864,0.051455937,-0.057356067,-0.2434074,-0.10729929,0.18054843,0.14952387,0.07598776,-0.1861855,0.07028946,0.17390993,-0.2580993,0.13949123,0.0024242986,0.1678578,-0.07902185,0.14924055,0.06962185,0.16518916,0.08918787,0.19813652,-0.0758728,0.09258882,0.21793182,-0.13364102,-0.029284976,0.09847475,0.044924244,0.04228468,0.13372704,-0.026645033,-0.048396118,-0.22801638,0.09957685,0.018448634,-0.13505949,-0.24667788,0.1573405,-0.08354932,-0.22261772,-0.3869574,-0.2458607,0.08471126,0.088696145,0.13636167,-0.14715666,-0.05613918,-0.3460286,-0.120745786,-0.10908597,0.103750795,-0.030099493,-0.45244828,0.029690508,0.10434493,0.1974159
0.08269207,0.19924153,-0.0028865577,0.05163321,0.18390913,-0.07524691,-0.09497425,0.15074572,-0.18211502,0.0410235,0.06919617,-0.16431242,-0.48035273,-0.3920063,0.22469677,-0.10892654,-0.29904574,-0.017644448,0.028363084,0.13035102,0.15618728,-0.37630567,-0.14299123,-0.13397714,-0.2574704,0.037150245,-0.42806706,-0.0330776,0.05623458,-0.13783601,-0.24399565,0.04972087,0.049286474,-0.024501575,-0.16669415,-0.039615985,0.15779835,-0.3982562,-0.13085891,-0.08583766,-0.22899367,0.119962014,-0.049786955,-0.0635499,-0.11704876,-0.09024119,0.040860273,-0.1176089,0.014120882,0.1279227,0.11498226,-0.005366331,-0.011247566,-0.2375435,0.13520657,0.092298694,0.20008117,-0.022794886,0.14659552,0.2757733,0.28743902,-0.016091904,0.089771636,0.03137748,-0.13539757,0.103218116,-0.0017133104,0.3164095,0.0021397825,0.20228074,-0.1154918,0.088399574,-0.20957322,-0.03470336,-0.42632177,-0.038404375,0.15746239,0.052098036,0.060423467,-0.024229147,-0.27798638,-0.520438,0.17481185,-0.13810018,0.27683353,-0.13873109,0.16711724,0.026957845,0.23505144,0.09766472,0.09192685,0.20680973,-0.104779474,-0.33129466,0.034648668,0.12259336,-0.3021933,0.18975829,0.20935082,0.14180352,0.083130874,0.07061715,0.013342962,0.2549499,-0.097646795,-0.14286986,-0.27662608,-0.030188652,-0.23169401,-0.12448472,-0.038153555,0.06771825,-0.31866026,-0.34012792,0.26614794,0.13039896,0.004947755,0.053509884,0.06140499,-0.40191007,-0.3415112,0.19362193,-0.16423292,0.0590579,-0.32932112,-0.034354158,-0.3169282,0.15705234,-0.028524226,-0.22857788,0.022579977,0.051143438,-0.05660098,-0.22177082,0.10473616,0.06558642,0.023318607,-0.012903727,-0.15127617,0.097168684,7.4262025e-05,0.14477478,0.114912964,0.13125993,-0.14823243,0.06327702,0.15847534,0.042765982,0.035128888,0.015535141,-0.08980565,-0.074434176,-0.45031253,-0.19212334,-0.49008873,-0.0865021,-0.19390582,0.17340606,-0.14835183,0.08404934,-0.0960994,-0.117108084,-0.30054194,-0.12269236,-0.1125338,-0.17836092,-0.07801646,-0.118361354,-0.060271464,-0.13611893,-0.19472468,0.20947921,-0.12200371,0.03237889
0.111803114,0.08034789,0.04308507,-0.16875365,0.09165276,-0.15490603,0.0657442,-0.13449599,0.27107882,0.0989356,-0.020864904,-0.050067484,0.0144483745,-0.016826915,0.051443286,-0.06133854,-0.025148321,0.008384603,-0.057053052,0.17572883,-0.180873,-0.015436118,0.15052053,-0.054805804,0.1607079,-0.15739556,-0.02381486,-0.03409292,0.15471974,0.08314463,0.07710181,0.39669737,0.1725514,0.040500563,0.062361144,-0.17698655,0.02534717,-0.14179005,-0.0020842496,-0.07673105,0.07915352,-0.055981997,-0.13556066,0.055891924,0.11082965,-0.27223632,0.05802822,0.22469956,-0.07915704,0.05061585,-0.068076946,-0.21202011,-0.11798217,0.12810844,0.07833367,-0.13453892,0.009179258,0.06108087,0.14325383,-0.1652629,0.15308867,-0.010230998,-0.11880033,0.20009126,0.15522143,-0.06757248,0.05080149,-0.011223693,0.16606954,-0.22087793,0.1909427,-0.04549011,-0.17750166,0.036028247,-0.06971835,-0.021925772,-0.121906765,-0.15523815,-0.08677493,0.07604316,-0.14312938,0.07558196,0.001588252,-0.1374961,0.1375619,0.11692095,0.098212875,0.0455777,-0.19948612,0.030585745,0.15725936,0.11926647,0.09277012,-0.17892204,-0.031375572,0.07131201,0.082245536,-0.2592657,0.08349146,0.10438241,0.117375635,-0.08414359,0.037165683,0.04475205,-0.22711569,-0.06887059,-0.115134194,0.021764347,-0.5138454,-0.044602145,-0.32363808,0.14062113,-0.19501711,0.054501876,0.1466835,-0.44503528,0.018153472,0.065596014,-0.010304769,0.07852942,-0.14715372,0.075586714,0.16276301,0.015985416,-0.13296357,-0.3303271,-0.23668519,-0.052984584,-0.13842133,0.063675165,0.10109933,-0.08658086,0.003182614,0.034741387,-0.11646559,-0.17506182,0.18957248,-0.012244585,0.34804428,-0.23981185,0.10677537,-0.33329296,-0.014101938,-0.22479758,-0.15863432,-0.071659,0.16749132,-0.022939343,-0.5212912,-0.24418607,0.22846806,0.0782225,0.051982276,-0.17509279,0.14902242,0.041070383,-0.0032114156,-0.14084572,0.10182426,0.07664254,0.08435902,0.07535711,0.013471334,-0.070495956,-0.1535156,-0.054836478,-0.050367214,-0.041997172,0.14368717,0.07162014,0.18650872,-0.10470775,-0.013295503,0.049616635,-0.076712035,0.077411495,-0.11743091,-0.040364996,0.22909546,0.09372486,-0.08340706,-0.2437908,0.21720819,0.13096821,-0.13264331,0.12777862,0.116915785,-0.12702937,0.093064,-0.2913124,-0.060391013,-0.0755983,-0.07350199,-0.14557756,0.11500688,0.021524232,0.077428676,0.018717492,0.025547657,-0.12328122,0.07177073,0.00013670915,0.30794424,0.14566563,-0.012004013,0.105840094,-0.11040647,-0.011070961,0.0012683569,0.06558518,0.17820254,-0.04047249,0.11859901,0.19619253,0.0008300079,-0.02732539,-0.37662485,0.17940314,0.08174058,-0.0072795213,-0.05430425,-0.07201187,-0.17956758,0.14204547,-0.05589349,-0.09699999,0.029850706,-0.003959943,0.0602744,0.13500224,-0.012866854,-0.00780087,-0.12998359,0.099753544,0.15573537,-0.17134441,-0.015209179,0.09275436,-0.041156817,0.004517284,-0.029368542,-0.0451983,-0.038076084,0.08748672,0.03479512,0.0800005,0.115163445,0.094431356,-0.25869918,0.0021285722,0.15809259,0.06334965,-0.22785199,0.14220111,-0.15271388,-0.312802,-0.08675043,-0.14696333,0.08051642,0.19308084,-0.15971145,-0.17364335,-0.3663047,-0.12673162,0.025846148,0.07494991,-0.00847044,-0.16734198,0.15294454,-0.025458956,0.28213638,-0.34317645,0.046671007,-0.26833904,0.34371635,0.014166284,-0.22859718,-0.0141852815,-0.025117937,0.0016708729,0.10873641,-0.289402,0.03554269,-0.004421854,0.2870028,0.036447693,0.0737085,-0.1406329,0.022886243,-0.18352674,-0.07222836,0.15873009,-0.5898733,0.08755387,-0.15785828,-0.024311034,-0.08236617,0.17661513,0.0037287704,-0.22613533,0.08839551,0.063791454,0.24336252,-0.09069015,0.12117161,-0.21245399,0.23252808,0.15635106,0.07066057,-0.06324153,-0.00052721467,-0.14281657,-0.034371916,-0.025010936,0.20208164,-0.004100366,-0.054249387,-0.13306919,-0.37123528,-0.051954154,-0.29732853,0.005785619,0.081404425,0.05937318,-0.27468306,0.10895935,-0.026849255,0.0047327317,-0.14911905,0.046006896,0.07187236,-0.053442493,0.05381219,-0.036224578,0.116665535,-0.030558472,0.10828654,-0.018204762
0.22937603,-0.09893995,0.042624906,-0.0273644,-0.12058296,0.024479546,0.047247726,-0.10463734,-0.05996624,-0.086459786,-0.027442524,0.029303731,-0.14898394,-0.2962477,-0.19701771,0.26141992,-0.18251088,-0.036900118,-0.13163325,0.061380617,-0.0868602,-0.15572274,0.2396847,-0.0047666417,0.29951352,-0.25489736,0.13835505,-0.05518871,0.0930101,-0.044483114,0.011235256,-0.0028641692,-0.020654332,0.17279704,-0.13540784,-0.09009555,-0.005636509,-0.24717559,0.09673947,-0.041033108,-0.1402312,-0.03322439,-0.054134432,0.36006314,0.18970232,-0.15245768,0.047795027,-0.060522247,-0.17963935,-0.049648747,0.09687262,0.100622475,0.2878879,-0.07482936,-0.20878237,-0.19790187,-0.3838937,0.13543513,0.11891838,0.0984444,0.14165269,-0.22949137,0.19127874,0.15416697,0.27779046,-0.12479358,0.22839834,0.16698578,-0.3045,-0.13191977,0.08309622,0.03618597,-0.18679355,0.1298231,0.08590288,0.0076496447,0.04456164,-0.10175241,-0.0040187603,-0.023277668,-0.04812213,0.018956628,-0.28040355,0.14462581,0.032645598,-0.06581729,-0.03817857,-0.012940183,-0.100772016,-0.13114789,0.051631507,0.020985471,0.09345623,-0.16990228,0.112997994,0.025753174,0.14376415,-0.03170761,-0.19042215,0.003139629,-0.19010189,-0.3343127,0.117528506,-0.17360239,-0.26920438,0.0327617,0.15836385,0.011255472,0.075693436,-0.039405543,0.03726628,0.036955286,-0.07602608,-0.01791467,-0.2901498,0.23751941,-0.30839208,0.011544417,-0.03657048,-0.060496222,-0.101420775,-0.100537695,-0.0636506,0.08284801,0.014993727,0.115928575,0.074897565,0.0369866,-0.26582628,-0.06609849,-0.1884625,-0.34318176,-0.025570823,-0.1693377,-0.028049408,-0.41648903,-0.014778838,0.06625116,0.076637976,0.21094541,0.08837358,-0.14243065,-0.052064266,0.09140656,-0.21158111,-0.121241845,-0.0838317,0.4192171,-0.19736145,-0.020760955,-0.05355894,-0.1771723,0.31828704,-0.21099228,-0.015478077,0.001519835,0.09654167,0.2024726,-0.05206125,-0.17032805,-0.21475703,0.030829776,-0.2408092,-0.19578072,0.21987367,-0.37335306,0.3191408,-0.39716935,-0.40269223,-0.0013489376,0.041815285,0.30748338,0.1639564,-0.012913689
0.18740992,0.025358066,0.043776035,-0.06760898,-0.26134208,-0.2611938,-0.09515099,0.25912958,0.20205075,0.23561512,0.023690512,-0.021556897,0.015751125,-0.31524876,0.04258515,0.07369356,-0.2736295,0.03218575,-0.069311276,-0.10939904,-0.22154926,-0.3466137,-0.07855989,-0.17012118,0.0294884,-0.0819759,0.078757524,0.04046814,0.08349121,0.02086753,-0.04681477,0.12101905,0.10335737,0.1039117,0.059682745,-0.010879561,-0.27539054,-0.1650027,-0.1216371,0.09624385,0.17746398,0.20179264,0.077247426,0.045432866,-0.005196363,-0.2897769,-0.038095422,0.03598243,-0.088423155,0.0026984545,-0.033114582,0.072836064,0.19760692,-0.10128257,0.17263828,-0.05903878,0.04987372,-0.18924443,0.1690504,-0.005186432,-0.070735574,0.068536974,-0.2686532,-0.09320276,-0.1068052,-0.033280626,0.13513985,0.052091856,-0.028961381,-0.026255121,0.025520893,0.11779614,-0.07842293,0.10317592,0.024748221,-0.046767373,-0.11450295,0.046143293,-0.22738287,0.13039546,-0.18483213,0.0733703,0.042672597,0.060830943,0.21555951,0.0852112,-0.08471394,0.06185487,0.13051139,0.08800698,0.18851008,0.042565726,-0.4322376,-0.088833675,0.04873745,-0.18934909,-0.20102157,-0.17593628,0.23015828,0.17487122,0.029834505,0.0059558293,0.010938971,0.21354905,-0.07341281,-0.03008266,-0.31214896,-0.30690768,-0.10134313,-0.26182213,-0.1475635,0.1271536,-0.44182318,0.07362612,0.04828336,0.048034724,0.062132552,0.072048075,-0.048131373,0.045118023,0.003037447,0.028954407,0.23771238,-0.028137252,-0.1696041,-0.15979494,-0.027201122,-0.40734145,0.2374203,-0.07700107,-0.07011327,-0.3027612,-0.052140947,-0.3540249,-0.030563056,0.11124895,0.08908244,0.18695676,-0.1361677,-0.05101173,-0.48300546,-0.1443855,-0.32257977,-0.042274363,-0.21315664,0.16246434,-0.21425086,-0.15415515,-0.06327174,-0.25844434,0.12918782,-0.090708435,-0.17495145,0.10498726,-0.063561514,-0.0803491,-0.11955197,-0.030294145,0.15736452,0.18599916,0.08428889,0.10672817,0.018149905,-0.13176732,-0.13199745,-0.0717773,-0.30915308,0.066094145,0.083312504,0.17776455,0.12047011,0.07197048,-0.039422374,-0.22936018,-0.2906643,-0.111474365,-0.22939749,0.05475951,-0.23663546,0.06739429,0.12946407,-0.22482601,0.10133413,0.01536256,0.013425316,-0.3832104,0.24609002,-0.009346428,-0.3058898,0.12959607,-0.08691748,-0.034816295,-0.102261566,0.13604945,0.15946658,-0.0061454824,-0.56292516,0.14297554,-0.14519301,0.11785137,0.016218672,0.0002547103,-0.16571172,-0.06398185,0.045448504,-0.012244035,0.09905891,0.042722553,-0.01018872,-0.47819507,-0.026784148,0.24784113,0.01901182,-0.094579935,0.0091189295,-0.019447016,0.041690245,-0.3028465,0.107714035,0.016479544,-0.13234164,0.09652685,-0.093416095,-0.25526735,-0.35513565,-0.091448665,0.09608647,0.053218875,-0.058762822,0.0393431,0.07245406,-0.13520046,0.22603564,-0.13296944,-0.06871918,-0.31806093,-0.062438417,-0.18455738,-0.078603886,-0.03452207,-0.23633818,-0.056748033,0.01694451,0.05725199,-0.017039688,-0.16211297,0.010995531,-0.21430464,0.17506397,-0.1420216,0.007182241,-0.18086973,-0.08867703,-0.24989125,0.016577158,-0.04842763,0.113694765,0.12848005,-0.05621881,-0.3433389,0.020405594,-0.1742808,0.3023365,-0.070921466,-0.05486163,0.08076167,0.056256816,0.056999397,-0.22665794,-0.18339324,-0.32250088,-0.13219076,-0.19016865,0.13391487,-0.0036373471,-0.020824088,0.12420236,-0.16910358,0.1455191,-0.06964518,-0.3251387,0.12516452,-0.06289724,0.16680878,-0.36586082,-0.18969618,-0.078745194,0.11107239,-0.18165313,0.13513918,-0.01992099,-0.1549427,0.18124647,-0.28422648,-0.19642057,-0.07450199,-0.057666034,0.07228733,-0.12572841,0.049467664,0.031792495,-0.1241808,-0.28362566,-0.18428634,-0.08962291,-0.07697487,-0.15578952,-0.03565053,-0.29157162,-0.22408116,0.04683614,0.08087601,-0.014360899,-0.02768955,-0.027012644,-0.0996777,-0.07783136,0.19179367,0.07412411,-0.006042047,0.031673085,0.113439724,0.114559464,-0.040656123,-0.19484694,-0.16491766,-0.08758569,0.09566128,0.19551252,0.12530315,-0.08487331,-0.099017,0.04124706,-0.029813841,-0.018357359,0.17528401,-0.14545332,0.07070825
-0.16659294,0.030702794,-0.048452552,-0.050862107,-0.18217734,0.042763017,0.07959739,-0.12549977,0.10657853,-0.038063157,0.10435556,-0.07914084,0.21640815,-0.033379566,-0.26674664,-0.27107498,0.09013572,0.13244131,0.077743165,-0.26266912,-0.070387594,0.06648652,0.059681922,-0.091941506,-0.13918486,0.021096436,-0.25173178,-0.0901816,-0.23911007,0.12984428,-0.09024167,0.1355883,0.24041751,-0.0126422085,0.051608156,0.105806954,-0.17806374,0.1098024,0.06581295,0.014511506,0.08495621,0.009714169,-0.060972665,-0.35955212,0.08986982,0.047013022,-0.13966614,-0.01468238,0.07028984,0.032808352,0.007686026,0.10603008,-0.23823005,-0.14015947,-0.03692823,0.17418358,0.15902875,-0.028703475,-0.23116829,-0.1845462,-0.32929152,-0.11200981,-0.1368395,-0.12491874,0.012947835,0.12528354,-0.027929239,-0.19183339,0.30397862,0.03369845,0.02121893,0.10659763,0.189955,-0.023342157,-0.1204436,-0.026331564,-0.03061012,-0.1542074,-0.21816489,0.05006986,0.109692074,0.126863,-0.09689896,0.06753151,-0.36111042,-0.06092543,0.019447083,0.12810814,-0.048434902,-0.20808019,-0.10885528,-0.18905422,0.10110186,-0.063294105,-0.24785355,-0.44294855,0.08483021,-0.099601865,-0.109594375,-0.32149088,0.14795007,0.22652838,-0.06329576,-0.018900778,0.21559875,-0.05103297,-0.09723987,0.027947752,-0.07461414,-0.13500047,-0.013062097,-0.009976295,0.13931808,0.011655285,-0.17958552,-0.08537994,0.14695103,-0.07245817,0.15129057,0.05278009,0.0124144405,-0.12578775,-0.00025842013,-0.28455785,-0.037275597,0.16179794,0.09009677,-0.14530762,0.23800978,0.10204969,0.03502105,0.04077283,0.08722474,0.1716841,0.12072572,0.03888631,0.09163942,0.0147078065,-0.15139106,-0.09623623,-0.15557408,-0.007904743,-0.27019596,-0.23023985,0.14993787,0.031498786,0.030970639,-0.45707673,0.12198004,0.12894763,0.12525749,0.06876473,-0.15624869,0.02894139,0.077692874,0.026591629,-0.06463615,0.044950496,-0.014701218,0.08851283,0.24976063,0.020582074,0.16488868,0.06381216,-0.04275404,0.18560447,-0.1607951,0.057372093,0.18418238,-0.10007675,-0.24510151,-0.3857943,-0.2157573,-0.094352014
-0.1321735,-0.21759918,0.045746785,0.050631378,-0.049771883,0.0073025804,0.2844525,-0.260381,-0.26187074,0.13178118,-0.04235955,-0.051188905,-0.12560388,0.29115263,0.09480579,-0.13191807,0.11752979,0.12186698,0.14341481,0.16041431,0.367565,0.021201517,0.019714061,0.13583952,-0.042472724,0.20433049,0.08760689,0.07763684,-0.28895453,0.05082435,-0.15623824,-0.047045156,-0.32867646,-0.11423074,0.11287197,0.23486513,0.24088575,0.08350374,0.23207697,-0.3417182,-0.15058815,0.029647108,-0.15535109,-0.424913,-0.18684188,-0.0048136846,-0.00024338972,-0.45021436,0.051512145,0.2749713,-0.13102664,-0.20882206,0.095355004,0.006871761,-0.18739429,0.1261716,-0.02923532,0.21389565,-0.11515141,0.06969223,-0.08205353,0.11321499,-0.020334447,-0.15920782,-0.123252876,-0.2374165,-0.2754898,0.16552904,-0.066245034,0.061190963,0.22779533,-0.38891983,-0.19479942,-0.23122542,-0.07707086,-0.0032494406,-0.07707051,0.0319936,0.09071629,-0.25680602,-0.011463908,0.18555214,-0.052009534,-0.030552661,0.03657069,0.02210979,-0.44415352,0.1321958,-0.07085666,0.22253655,-0.27627918,-0.005654071,-0.31053367,-0.16832985,-0.3500039,-0.37281242,0.06558485,-0.19647126,-0.09279921,-0.031180784,0.052867554,-0.09878219,0.055562034,-0.24517913,-0.0777638,-0.003905983,-0.22594653,-0.20297949,0.34703574,0.13182019,0.22525688,-0.24291055,0.27086747,0.023742396,0.012045934,0.18826418,-0.024792602,0.05796429,-0.0046396772,0.06415291,0.06521744,0.112203844,-0.4003681,0.052940898,0.10174879,0.24413691,-0.10634618,-0.27579919,-0.12841721,-0.02842408,-0.15424849,0.11871007,-0.08197091,0.025978912,0.15043029,-0.1373489,-0.4916969,-0.07714927,-0.06246554,0.004710013,0.091845416,0.10469858,0.14372209,0.0682051,0.19536193,-0.03911254,-0.11982168,0.08825933,0.2894568,0.19051269,-0.17166354,0.108773306,0.2752727,-0.058067624,-0.0812739,-0.038599078,-0.060537275,0.13281044,-0.12621695,-0.1402678,-0.1181758,-0.059339102,-0.093375295,-0.124873325,0.16068858,0.14476329,0.21521802,-0.04503005,-0.16742001,-0.1981456,0.080203645,-0.0012785867,-0.06962365,0.05017111,0.023453193,-0.015479301,-0.14048153,0.1715759,-0.014718708,-0.04506258,0.08630688,0.05638011,-0.06838204,-0.3454623,-0.19841179,0.0022450031,-0.1377551,0.03374531,-0.18717611,0.2045517,-0.044544086,-0.24849169,0.048654635,-0.39871106,-0.12922405,0.17958353,-0.17299867,0.09352545,-0.094892815,-0.06548586,-0.17782988,-0.25546038,0.1308731,0.23625432,-0.09300788,0.075215586,0.088416755,-0.14240025,-0.0016075661,0.018365504,0.047781754,-0.15429902,-0.0570413,-0.08424036,-0.22660382,0.05708587,0.084617235,-0.027507788,-0.027830632,0.150075,-0.21714124,0.26497453,-0.11957517,-0.06808817,-0.27712512,-0.31081674,-0.16159917,0.063826665,0.024270248,0.13305594,0.031661324,-0.070678726,-0.20712297,-0.27672258,-0.38378546,0.1962674,0.1609563,0.14642805,0.24371451,-0.16432516,0.19011074,0.0690965,-0.11663024,0.25668028,-0.018290827,0.005035112,-0.16552241,-0.14438948,-0.012203838,0.08680691,-0.24656297,0.023318335,-0.0456885,0.103543214,-0.26722482,-0.7054854,-0.09796746,0.008925732,0.08852291,0.05093505,0.020091891,0.19567126,-0.058435116,-0.023160767,-0.08968571,-0.045645684,-0.29566184,-0.026431816,0.16217658,0.2634555,0.021446554,0.18856853,0.09550289,-0.018768411,-0.27202797,-0.24761967,0.23682286,0.12326208,-0.10524553,-0.10186979,0.028470038,-0.0625997,-0.014476491,-0.0029183459,-0.04260104,0.097057976,0.17761505,0.15199961,0.0376996,0.11588445,0.16790377,-0.21050186,0.0580323,0.39835116,-0.17751865,0.21060453,-0.050705563,0.050975665,0.15286954,0.13738388,-0.29918954,-0.14162262,-0.17748404,-0.015650522,-0.34436724,-0.00057532673,0.0043927734,-0.23256497,0.051489275,-0.17160034,-0.2502981,-0.12997274,-0.20030573,-0.15521249,0.03137598,0.053836815,-0.078911826,0.06712552,0.28963602,0.24019046,0.09175122,0.020362869,-0.038510136,-0.10013653,-0.43107766,-0.058075406,-0.08576306,0.34404576,-0.086643174,-0.034086578,0.11467166,0.2935139,0.020170452,-0.06489198,-0.027185371,-0.050202083,-0.041737076,-0.24003448
-0.108324796,0.08924621,0.12736921,-0.017467579,-0.14307441,0.029600663,-0.103907526,-0.19054316,-0.025290959,0.045041848,-0.08494523,0.093114555,0.22565573,-0.117015705,0.0003941535,0.0871345,-0.22297786,-0.22829036,-0.11920233,0.16591969,-0.181522,0.03849656,-0.021200692,-0.214982,-0.32852104,0.014705056,0.32634553,0.36790198,-0.041576225,-0.2710126,0.3107449,-0.057480566,-0.3392632,-0.16660951,-0.07211565,-0.15400179,-0.43235028,6.678351e-05,0.08611184,-0.1699683,-0.08958959,-0.057829283,-0.015406651,0.050520435,-0.004544078,-0.25409853,0.09233281,-0.04966227,0.23961855,-0.081156544,0.041249786,-0.4044342,0.15141058,-0.015473519,-0.00054308353,0.09648632,-0.2639167,-0.21347502,0.12060237,-0.33684355,-0.068530984,0.13489845,-0.1844929,-0.14605595,-0.2871226,-0.17253584,0.061056785,0.05998449,-0.07586661,0.17264259,-0.01739405,0.024379453,0.40985408,-0.23837543,0.19361149,-0.26272878,-0.015462233,0.047041286,0.17574757,-0.077636115,0.18916501,-0.3470545,0.17753601,-0.36193764,-0.01810939,0.28869772,-0.2964366,0.072160505,-0.03628011,0.103114866,0.04283321,0.108360134,-0.27766082,0.24463995,-0.02852868,0.19503362,-0.104504906,-0.16133814,0.22971989,0.16381094,-0.52783036,-0.037318118,-0.07128135,0.14163265,0.1740179,-0.03298188,0.035822555,-0.13620664,-0.034673095,0.13201126,0.13362034,0.06434979,-0.1310377,-0.5576508,0.18242161,-0.24966614,-0.06100951,0.31039944,-0.15085611,0.066810176,0.23218383,0.41478804,0.090202026,0.12383319,-0.23645248,-0.061191566,0.04543564,0.004553683,-0.42559302,-0.37702873,-0.18793194,-0.01531202,-0.45279202,0.13957316,0.07079835,0.161086,0.02562932,0.0028203179,0.14695162,-0.1258483,-0.09296547,-0.030025246,0.091262214,0.03553767,-0.21935742,-0.39098388,-0.039730415,0.04962453,-0.13708873,0.14574459,-0.20670033,-0.17160897,-0.274837,0.3270932,-0.023588168,0.2870614,0.1440684,-0.065592304,0.23951967,-0.04714982,-0.26179785,-0.48952278,-0.24750018,-0.04430716,-0.24999814,0.31537232,0.15482081,-0.07135866,-0.24805443,-0.042407464,0.17413682,0.07715712,0.048060384,0.056438077
-0.18361561,-0.16847058,-0.23643018,0.03628641,0.12741259,0.036470167,0.021653969,0.024399418,-0.24733494,-0.15341587,-0.13209726,-0.08901615,0.11088133,0.216777,-0.13644797,-0.037957016,0.12040939,-0.12975535,0.0068543153,-0.13152806,-0.13853034,0.21239053,-0.21851194,0.135676,-0.04406671,0.10319612,-0.031156495,-0.073266394,-0.3034391,-0.14242615,-0.048629906,-0.034273308,-0.44465813,0.051984597,-0.072102875,-0.073286645,-0.17434068,0.008334448,-0.3685534,-0.05129606,-0.12247711,-0.088816546,-0.09509063,0.12261576,0.08720486,0.17849205,0.059078876,-0.038047068,0.14085394,-0.20171267,0.05350342,-0.02125519,-0.15382425,0.14188349,-0.034577966,-0.0419091,-0.032075007,-0.19323325,-0.2917115,-0.011228487,0.111958705,-0.06309791,0.17564747,-0.12597077,-0.4177949,0.09682251,-0.15423706,0.013832108,-0.5949866,0.054237876,-0.39155617,-0.45876226,0.15907419,-0.21212214,-0.042448137,-0.41521096,0.12189463,-0.00921498,0.048784565,-0.22511582,-0.22033364,-0.46347433,-0.07488843,0.1592292,-0.4120678,-0.083044946,0.050635647,-0.3726558,0.08551449,-0.34489197,-0.20521596,-0.009722684,0.29058695,0.12548235,0.089233585,0.11846586,-0.09296055,0.25133127,-0.10554625,-0.22503246,-0.26154947,-0.06523369,-0.2597673,-0.42977756,0.44256064,-0.12109722,0.19032411,-0.30888084,0.18574098,-0.28699666,0.08690443,-0.45812735,-0.20139809,-0.302713,-0.3846565,0.18073891,-0.32988805,-0.36715943,0.05359488,-0.55669117,0.0027794368,-0.22672047,-0.4429209,0.06249766,0.28114563,0.32588843,0.37166756,0.27935782,-0.029210187,-0.0082001565,-0.15817964,0.02562766,0.044668205,0.22780745,0.05985109,0.048869908,-0.08800745,-0.042745262,0.09428177,0.048294067,-0.090098694,0.028117701,-0.055310067,0.07043658,0.1023182,0.10062351,0.108113594,0.07934468,-0.026043283,-0.14946382,0.0051755575,0.13488701,0.15656826,0.21614386,-0.048035398,-0.052718144,-0.33973312,0.16255035,-0.17005405,-0.24675263,-0.18465547,0.037578862,0.05725475,0.29567584,-0.111566864,0.08102558,0.014085434,-0.19093318,-0.0342487,-0.16535927,-0.12839189,-0.040331054,-0.0332413,0.12858985,0.08541224,-0.033350516,0.18305112,-0.08079462,0.23969877,-0.1404276,-0.07022325,0.10786629,-0.16720515,-0.06829131,0.058385793,0.08480499,-0.22663051,-0.03207426,-0.06805926,0.07854437,-0.025847005,-0.1281177,-0.09603108,0.063935086,-0.0058164783,0.011339344,-0.16064139,-0.06523533,0.00056445895,0.08739841,-0.06660976,-0.13549659,0.0051021427,-0.09051545,0.20176718,0.17461656,0.2435385,0.011884649,-0.06272851,0.07365361,-0.07493261,-0.060086727,-0.30207667,-0.06760819,0.06718136,-0.062397975,0.12479034,-0.16272223,-0.09212681,0.05767499,0.16154505,-0.10759303,0.1399366,-0.024617389,-0.18687622,0.22197606,0.082739405,0.06755955,-0.080544986,-0.0810666,-0.09221295,0.01842032,0.08581503,-0.07751796,0.13533647,-0.07761266,0.041152123,-0.1029329,-0.097894445,-0.004573315,-0.2158817,0.0049796873,-0.08848978,-0.30794019,-0.07757473,-0.19908632,0.14918412,-0.2456721,0.26040336,-0.091339916,-0.19655943,0.19408937,0.333052,-0.11130395,0.3134537,0.16277425,-0.27799773,0.20827405,-0.07783912,-0.12594801,0.093322754,0.03880763,-0.059222978,0.12363889,0.08926402,0.11059796,0.08286307,-0.008060419,-0.15450777,-0.1989025,-0.13750362,0.18724112,-0.13276444,0.07069387,0.14558072,0.08740715,0.07903161,-0.085952334,0.15249848,-0.008566747,-0.09767572,0.058408327,-0.102109246,-0.022036558,0.060970552,-0.08205007,0.095930435,-0.12666062,-0.050855022,0.118953064,0.104542635,0.029805768,-0.027057797,-0.06079804,-0.032685645,-0.18414868,0.13922717,0.00088448497,-0.07436118,-0.08816466,-0.017554395,-0.034877,-0.062828794,0.08945587,-0.077249,-0.098136954,0.13362752,-0.0735763,-0.010415231,-0.021595966,-0.0043025524,0.099984564,0.10076917,0.14772016,-0.12323108,0.07151612,0.04203422,0.036743063,0.017187778,0.030734593,0.038153067,0.04025328,0.052371528,-0.013952005,0.07202614,-0.05743848,0.092927866,0.09227338,-0.046431947,0.07057604,-0.11889285,-0.10219691,-0.07226262,0.020108515,-0.17815503,0.100906275,0.08775982,0.108846836
0.09971283,-0.12031784,0.1433322,0.120002694,0.06949106,0.023336891,0.058924474,0.07025943,0.025257036,0.041007895,-0.06986949,-0.34054473,0.019135343,0.06263331,0.09621938,-0.07432018,0.13816234,0.13299574,0.09602707,0.010833526,0.09989895,0.10740141,-0.13613954,0.096354805,-0.098578796,-0.1469655,-0.4833829,0.04380359,-0.049174424,0.11262176,-0.24452093,0.039183326,0.21458039,-0.28526834,0.10621388,0.022286184,0.1002205,-0.061715078,0.00616318,-0.052671656,0.09737779,0.030007115,0.0012649599,-0.37591544,0.16807063,0.17924686,-0.022033647,-0.037193675,-0.083937086,-0.044938147,-0.36048096,0.0115713775,-0.15594757,0.10177123,0.08626983,0.11343378,0.16274339,0.05151297,-0.20225404,-0.12992308,0.06932311,-0.00024764615,-0.20457461,-0.15031488,0.0474636,0.07114168,0.04134774,-0.2190065,0.14530157,-0.117523395,-0.21548517,-0.20406383,0.14058845,0.1520919,0.037896544,-0.060454566,-0.059334118,-0.0837624,-0.06730487,-0.03855206,0.08804177,0.07965075,-0.07340475,0.092932425,0.057256486,0.016073022,0.14344718,0.15504976,0.051561534,-0.22910786,-0.096807994,-0.1750066,-0.064042166,0.1784473,-0.31192774,0.18157147,0.13197438,0.06826688,0.13716872,-0.10292876,0.093871586,0.0628746,-0.09513254,0.0747476,0.08819227,-0.020533029,0.21277486,-0.0028001487,-0.02326679,0.011991992,0.23972315,-0.03876392,0.018149428,0.1226915,0.22226518,-0.10365466,0.11630053,-0.08107225,0.094686925,0.06664177,-0.001665875,-0.16768895,0.02241582,0.080047555,-0.09723971,-0.0697192,0.030763542,-0.011128323,0.2609417,0.004849768,0.1124219,0.11056126,-0.0043000663,-0.03442414,-0.05539529,0.13568607,0.070201054,0.06866938,0.05516763,-0.024201958,-0.08319865,0.029880077,0.14942715,-0.46944952,0.1386853,0.1591115,0.16455992,-0.23302661,0.079679646,0.017354209,-0.012626711,0.05403094,-0.029924873,0.076537795,0.057906326,-0.045028962,0.07943557,0.0233106,0.06757808,0.10945301,0.22060536,0.025053363,0.121271186,0.043478385,0.016175568,0.16476466,-0.20506927,0.08802277,0.24459416,0.072167255,0.07849789,-0.32808,-0.28570387,-0.17165734
