-0.299542,-0.24955077,-0.3307426,-0.09008079,0.23455842,0.18887557,-0.007411975,0.04396406,0.21205296,-0.05755008,0.15864,0.2468685,0.15050106,-0.07096674,-0.024395278,0.21551919,-0.25966412,0.088853024,-0.20217948,-0.04224008,-0.08227368,-0.30650142,-0.077626765,-0.17103006,0.06521792,0.012158013,-0.14869028,-0.012809206,-0.5180376,-0.53158516,0.00766523,0.15694784,-0.1239191,-0.11941757,-0.015320057,0.032268308,-0.028488604,0.102369376,-0.0069395755,0.0036227196,0.23288725,-0.024063108,0.27049056,0.052480884,-0.050887033,-0.02590219,-0.012646638,-0.05302915,-0.08761247,0.09049485,-0.18787698,-0.2972626,0.046150677,0.08577948,-0.0621779,-0.13238591,0.112549044,-0.25232795,-0.10619301,0.09766801,0.08189983,-0.0625933,-0.10330853,-0.40646935,0.09823339,-0.0067472407,-0.036899574,0.15964723,-0.14145458,-0.032349933,-0.08951688,0.032027643,-0.1693936,-0.18022615,-0.19778903,-0.04856063,0.0024209258,0.20031671,0.053419273,0.11656633,0.08887851,-0.14632474,-0.14244694,0.016504781,-0.07880871,0.096690066,0.00070942077,-0.027476648,-0.18688495,-0.17813954,-0.27624667,-0.22989954,-0.06751849,-0.27452353,0.08957576,-0.23184422,-0.09333647,0.17271005,0.26734418,0.18008697,0.10884359,-0.025074929,0.08453145,0.11792958,-0.40650615,-0.110349596,0.09212003,-0.079977624,-0.07993474,0.028693518,-0.06160279,0.31883675,0.28494903,-0.017165989,0.17684256,0.20372485,-0.08705622,0.50527894,0.24594119,-0.051277045,-0.23968141,-0.3147589,-0.22408783,-0.06917909,-0.06485081,-0.20271929,-0.16164863,-0.017478686,0.35782224,-0.5623888,-0.35499775,-0.20041455,0.20618947,0.0053037736,0.1344131,-0.702814,0.06519539,0.0743411,-0.12144516,0.1717795,-0.5399448,-0.061441664,-0.05577548,-0.86572266,0.1955645,-0.2591656,-0.2039773,-0.21632993,-0.07993178,-0.02845716,-0.5282974,-0.11475287,0.23773254,0.078812405,0.04465437,-0.01349767,-0.713851,-0.30824393,0.36508682,0.40186444,-0.02567908,-0.050941676,-0.26297918,-0.40220574,0.20900765,-0.088997416,0.21463053,-0.50007766,-0.36366665,-0.118323795,0.11489201,0.17451072,-0.0005761743,0.19162133,-0.03915414,-0.4286324,0.08842803,-0.24687643,-0.21595481,0.054458227,-0.056231864,-0.18177278,-0.0802572,-0.08307718,0.011521348,-0.2791796,-0.0003646286,0.015279127,-0.44949138,0.20474306,0.18423326,0.14002413,0.3927278,0.27506343,0.11175134,-0.013464222,0.09116419,-0.19693138,-0.052699592,-0.38405436,0.01318334,-0.30943817,-0.0076128882,-0.018538054,-0.000493446,0.13362978,-0.014462453,-0.11522636,0.16940732,0.061178345,-0.029491045,0.18422204,-0.114739895,0.09263147,-0.109706305,0.021090895,-0.21703146,0.15096188,-0.1501716,-0.36968035,-0.09153621,0.07590598,-0.15312137,-0.0028736044,0.2387272,-0.15349112,0.2258577,0.056793686,0.003430908,0.01707489,-0.22643113,-0.17776209,0.13006228,0.37383696,-0.07718174,0.003078737,-0.5017489,0.026342241,-0.18589687,-0.20542276,0.33966547,-0.8257941,0.21274649,0.13019258,0.09089112,0.24581788,0.26955515,-0.47977528,-0.11151432,-0.05999272,-0.5460713,-0.36359733,-0.09549527,-0.12806903,-0.17122836,-0.07277655,0.19756179,-0.77659124,-0.23874687,0.107853554,0.2293286,-0.096378006,0.33150765,-0.80102235,0.1499142,-0.1450683,-0.65921795,0.0839393,-0.41436464,-0.27544847,-0.072340555,0.08071662,-0.3303635,0.06439009,-0.7719113,-0.694532,-0.0301141,0.30024332,-0.59062475,-0.07337679,0.39999202,0.2876639,-0.001977151,-0.11909491,-0.17169657,0.34638828,0.4166102,0.06149286,-0.012381383,-0.15017062,-0.10457044,0.175022,0.0853572,0.09461739,0.09295623,-0.022734612,-0.027218325,-0.38885754,0.13568482,-0.010507676,-0.04322741,-0.25281566,0.032550022,-0.029563848,-0.37771413,-0.047553662,-0.4177411,-0.25954676,-0.10547386,-0.0637378,-0.34808576,-0.21453644,-0.10220679,0.039136454,0.07239444,-0.4257877,-0.14620082,0.26472834,0.19331121,0.22252232,0.030768596,0.28084666,0.09007522,-0.14627686,-0.17440931,0.22051491,-0.2715333,0.0038820745,0.2580418,0.18401892,0.10986473,-0.6647583,-0.048724074,-0.15968606,-0.049876556,-0.0050447783,-0.2114832,-0.31459436
-0.05819869,-0.08932662,0.025149578,0.07489003,0.13681072,0.049741574,0.16256167,0.07333794,-0.44474527,-0.16657288,-0.09539499,-0.1301364,-0.09934583,-0.16513406,-0.056636844,-0.023615569,0.009493396,-0.35092175,-0.129969,-0.09448658,-0.55322623,0.08485248,-0.1076262,0.32977396,-0.42890638,-0.3472257,-0.37323952,-0.28980836,-0.02517938,-0.48219755,-0.36263755,-0.76813006,0.17850764,-0.025897218,-0.038625766,-0.57463866,0.30022448,-0.07501068,0.07151412,0.21461707,-0.120049715,0.27065453,-0.29027176,-0.19435744,0.053878196,-0.07256785,0.12158157,-0.0010377406,-0.074514285,0.20710377,0.11091009,-0.044066075,0.14054519,-0.011288165,-0.5240635,-0.042200953,-0.17096145,0.13805844,-0.2076552,0.0067929225,-0.009107392,-0.025922492,0.032357335,0.23024537,-0.39756817,0.010657718,-0.082177304,0.16605842,-0.277231,0.05475973,-0.01682159,0.32520983,-0.050259188,-0.5822033,0.2029795,0.2498245,-0.03807886,0.33168566,-0.25390702,-0.0054188906,0.057591893,0.15107168,-0.10073457,0.21140027,-0.1018663,-0.080113746,0.10752252,-0.27782127,-0.1398817,0.016871242,0.052797753,-0.23495175,-0.11841527,0.0020787457,-0.07980373,0.1502023,-0.72456205,-0.26166674,-0.018230151,0.18640989,-0.40449467,-0.037038065,0.15201935,-0.37748903,0.0724917,-0.04368895,0.06408844,-0.31671834,-0.111177474,0.028045945,-0.7660882,0.12469023,0.12288177,-0.11571626,-0.4610428,0.12283837,-0.21465035,0.05390426,0.41045955,0.16084707,0.044612855,-0.41062737,0.0905736,0.029215148,-0.10714074,0.23386325,-0.14309435,-0.124777004,-0.4852278,-0.47365692,-0.07783801,-0.13649553,0.18883052,0.12402612,0.11310279,-0.4042708,0.05568301,-0.24651349,0.01078915,-0.33857414,-0.10129177,-0.31032583,-0.12367716,0.13918662,0.11142652,-0.55508757,-0.18410394,0.06701146,-0.25885576,0.11571317,0.13498421,0.22463588,-0.1485162,-0.35962868,0.18925437,0.107750185,0.0948773,0.0567262,-0.54185545,-0.3756353,0.13745904,-0.38223895,0.018235244,-0.6241436,0.25315222,-0.28327346,0.042332802,0.2458197,0.16078259,0.17434338,-0.2620914,-0.0714347,-0.029589396,-0.08408167
0.04252603,-0.13107046,0.31006163,0.088065766,-0.3997955,-0.36591715,-0.7595193,-0.3299819,-0.1773379,-0.3622555,0.06712049,-0.20615622,-0.058208473,0.16947624,-0.019279528,0.024265125,-0.16824968,0.07184662,-0.15612926,-0.21237326,0.068084225,0.27056286,0.09358398,-0.044319194,-0.5225913,0.32055512,-0.2601758,-0.28219885,0.15031137,-0.00393162,-0.20302925,0.022256702,-0.17287527,0.16035941,0.25410753,0.0040964885,0.33922285,0.08201842,0.25900352,-0.037580557,0.15916486,-0.031775557,0.015138025,-0.17123383,-0.07344515,-0.2749249,-0.06045387,0.24444823,-0.2530415,-0.01541231,-0.1472973,-0.29928553,-0.094474114,0.056185078,-0.04210914,-0.2753242,0.31725574,0.09274217,0.19073194,-0.104668684,0.14639412,-0.20972407,-0.2351176,0.038854014,-0.10441779,0.026388977,-0.051186945,0.13695817,-0.0021784964,0.1719463,0.2583615,-0.3898065,-0.017059285,-0.047311246,0.40398055,0.06765844,0.2453799,-0.094018765,0.10821228,-0.3375299,-0.3380104,-0.3583126,-0.21319443,-0.266322,-0.09847789,-0.62519145,-0.2248951,-0.048079666,0.10513614,0.27480248,0.11859144,0.28049973,-0.53025347,0.1299279,0.07764028,0.029573822,0.14836717,-0.22118558,-0.47706807,-0.08775266,0.14242148,0.08252969,-0.038844638,-0.35233518,-0.17608093,0.1449412,-0.13467994,0.31569195,0.010523898,-0.39770073,-0.018469535,0.14134236,-0.30943605,-0.06182104,-0.48790228,-0.78400564,-0.0014627103,-0.028909408,-0.3264051,-0.3435675,0.32992914,0.14609055,-0.25336087,0.23721264,-0.35416272,0.107473485,-0.004899833,0.036074005,-0.4485073,0.11139318,-0.0073865606,-0.44385412,-0.66853225,0.034931704,-0.4961844,-0.18654466,0.047627646,-0.44986394,0.2233181,-0.026569685,-0.01457254,0.21244049,0.00882316,-0.06694065,0.26164934,-0.4957892,-0.1713732,-0.10245657,0.0972636,-0.3572369,-0.030683115,-0.13590144,-0.24806032,0.09903116,-0.13254718,0.3333296,0.27358472,-0.11199213,-0.11853081,-0.48979366,0.13120462,-0.31678635,-0.33908862,-0.47338444,-0.081417814,0.093440376,0.36192232,-0.4087865,0.2832288,0.119493775,0.23880647,0.02145423,0.18344666,-0.08668777,-0.08393986,0.1880171,0.4095553,-0.89608246,-0.0067469426,-0.15226899,0.03717617,0.13475803,-0.016514763,-0.1490934,0.12494308,0.09693668,0.11725504,-0.17877357,-0.15794636,-0.21906495,-0.4134956,-0.0143886395,-0.17952055,-0.02731765,-0.13032429,0.045395102,0.07381775,-0.109526284,-0.11013679,-0.7936329,-0.1902156,0.060204156,-0.42884764,0.106650315,-0.1259464,-0.1537854,-0.00838648,-0.3664798,-0.21172851,-0.49032643,-0.27912152,-0.21808147,-0.062543616,-0.072592676,-0.24959739,0.030829538,0.13766754,-0.22003873,-0.100839354,-0.17165542,-0.571201,0.1896603,0.19498143,0.13859259,0.09681353,0.28869632,-0.21451215,-0.14577924,-0.10012381,-0.29467684,-0.39391723,-0.36137843,-0.13178818,-0.13577041,-0.060235314,0.27675784,-0.12983458,-0.17220199,-0.036963813,-0.090424456,-0.13742818,-0.22938211,-0.18380125,-0.5071544,0.100679316,-0.09583017,-0.11573008,-0.1864731,-0.043160357,0.05607655,-0.28303576,-0.06714539,-0.26961902,0.023632562,0.13267066,-0.12596428,-0.16216515,0.06844162,-0.24698715,-0.52953464,-0.32304108,0.080786064,-0.1438177,0.29987895,0.1323802,-0.36020762,0.1761022,-0.11875677,-0.026424536,-0.16814214,0.050521836,0.04190676,-0.12440412,0.16095327,0.06786121,0.019894881,0.09331715,-0.35943532,-0.084518224,-0.18969567,-0.022086289,0.07129391,0.13856229,-0.0053270617,0.048142727,0.107174136,-0.38461015,-0.6561244,-0.108657874,-0.14681996,-0.040216304,-0.5255458,0.0889889,0.046694715,-0.122160435,0.2516542,0.18263555,0.109517485,0.17910539,-0.034032803,0.03969276,0.049008988,0.032178544,-0.27177227,0.08867659,-0.0065171085,-0.1419748,-0.20716108,0.10951634,0.31124216,0.13709602,0.011567301,0.15685615,0.16999145,0.20643827,-0.13777119,-0.5902791,0.27829564,-0.53991973,0.06731026,-0.2694761,-0.59068114,-0.18051827,0.124654464,0.072096795,-0.10943416,0.058048856,0.24670671,-0.4964706,-0.029477235,-0.1874526,0.009220022,-0.061748557,-0.10292662,-0.067544095,-0.13230678,-0.44864088,0.073010966
-0.2947851,-0.34716085,0.06246821,0.064111784,0.23407322,-0.045691527,-0.04304124,0.037568618,0.024034001,-0.16814303,-0.42010948,0.07067816,0.06180617,0.02766395,-0.05942835,0.41188446,0.37520862,0.09833801,-0.0030953332,0.0887909,-0.22063749,-0.29082847,0.18889078,-0.39476633,0.015258803,-0.41745389,-0.1927012,-0.013915452,0.068134286,-0.10871807,-0.17552589,0.077045664,-0.33327723,-0.21259145,0.0056801,-0.12847,-0.36631522,-0.029440787,-0.3837609,0.03210899,-0.09462331,-0.33026186,0.022137856,-0.0032692528,-0.08638738,-0.047539633,0.08394538,-0.043466937,-0.32176587,-0.46966836,0.36045787,0.16166079,0.13484527,0.19680656,0.19135979,-0.27940053,0.095421754,-0.1330796,0.19112214,-0.29305345,0.058943912,0.026006175,0.033294976,0.25862175,0.17532408,-0.16053884,-0.006415504,-0.15913227,-0.46379444,0.13643165,0.13669592,0.18034299,0.15569264,0.19148661,-0.17010656,0.011091394,-0.47742078,0.09100008,0.007136612,0.44098547,0.046256296,-0.27881625,0.3185812,-0.24230416,0.3138121,0.42474917,0.36720684,0.0742329,-0.005658764,0.07268272,0.2819091,-0.19027609,0.077867724,0.08408889,-0.19812234,0.12747198,0.0066356426,-0.52210826,0.0067430516,0.122990705,-0.04036519,-0.101481885,0.043222368,0.33087856,0.65682876,-0.39831984,-0.2003797,0.49432766,-0.17862034,0.08435688,-0.3870723,0.18567169,-0.29374632,0.113538146,-0.13360679,0.04250574,0.17227013,0.14236842,-0.11433891,-0.002291746,-0.23904407,0.03682894,0.059048906,-0.12561703,0.16543777,-0.052834652,-0.11299491,0.12508337,-0.21177322,-0.15904483,0.09678238,0.024646744,0.29488716,0.006277525,-0.3495898,0.36414272,0.10627174,-0.47669387,0.0722959,0.26693043,-0.07605576,0.113592744,-0.05301889,-0.00084822957,0.19521216,0.12770367,0.027051544,-0.26082912,-0.5393746,-0.5333752,-0.36846945,-0.56434613,-0.2895717,-0.22875711,0.0122854775,-0.20763828,-0.070290156,0.24522077,0.047830287,0.035658695,-0.365004,-0.35154584,-0.059024807,0.11341713,0.14032984,0.07009218,-0.4583075,-0.09231303,-0.3218311,-0.19667803,0.26522303,0.036796194,-0.2423487,0.008781586
-0.12463894,0.18900764,-0.11693259,-0.270462,-0.12866433,0.03500324,-0.1303735,0.3231104,-0.13489491,-0.006425378,-0.07429605,0.03528197,0.042225633,0.121922344,0.065739684,0.13169307,0.16542475,0.024550889,-0.03452135,0.29840955,-0.009845493,-0.17314179,0.15662996,-0.0032569503,0.00295721,-0.0813615,0.19827208,0.08385068,0.031547204,-0.019520111,-0.09293299,-0.5392097,0.23504071,0.09842885,-0.07995804,-0.19183931,-0.21635155,-0.17517328,0.060355026,0.09328947,-0.181306,-0.11076018,-0.1550343,0.033342443,0.15375575,0.30215514,-0.020746663,-0.05871723,0.31620616,0.14594069,0.13009113,0.19326456,0.056146897,0.21733168,0.07451976,0.051184256,-0.017394755,-0.03553545,0.07765717,0.2969276,0.026015319,-0.10848129,0.123202585,-0.013647703,0.19361112,0.10432159,-0.03599711,-0.2334291,-0.0034684304,-0.40181628,-0.07975595,0.0046007177,-0.18340275,-0.06661351,0.051585753,-0.22726148,-0.08387212,0.11297771,-0.0055287597,-0.083817095,0.060020775,0.07730321,0.13783686,0.20865864,0.05928517,0.08880742,-0.025266865,-0.056004044,-0.18544893,-0.16130623,-0.17080054,-0.41997796,0.17041238,0.14221203,-0.04099864,0.198146,0.113187134,-0.063321665,0.1213826,0.025880191,0.08911666,-0.18354471,-0.2593304,0.14039107,0.16657476,-0.47476655,-0.08448628,-0.29512867,-0.13731453,-0.22734213,0.048606355,-0.04787441,-0.006482418,-0.07388419,0.093146615,0.1743717,-0.087900385,-0.0072800145,-0.070838526,-0.5444739,-0.65340066,0.019959128,-0.54045236,-0.264753,0.060656156,0.1315791,-0.12822291,0.1709683,-0.18038619,0.012980924,-0.094731666,-0.4497632,-0.76907384,0.027477123,0.051436048,0.29829133,0.08236735,0.27700293,-0.07186147,-0.18055953,0.15890238,0.15021858,0.1240534,-0.24448624,-0.015542756,0.1469155,0.13246964,0.25204378,0.006888786,-0.29489225,0.24289912,0.040709287,-0.25162762,-0.20846894,0.04143869,0.012386147,0.03369666,-0.29437053,-0.17170262,-0.88623035,-0.054024346,-0.0038116283,-0.04072075,-0.0881485,-0.12064357,0.020884769,0.06855518,0.16088913,0.095705666,0.23989877,0.26810312,-0.06295886,-0.027071252,0.024712598,0.089357235,-0.4456767,-0.12152778,0.3052609,0.17412014,0.1305876,-0.018595094,-0.027662382,0.20458344,-0.17273411,-0.04860243,0.007296371,-0.06908709,-0.009576043,0.038960565,-0.099140555,-0.22009914,-0.054273147,0.022000847,0.08394669,0.16553533,-0.19087178,0.087371066,0.064309396,-0.42405775,0.14073707,0.07891757,0.37301603,0.3101112,-0.2201971,0.09200167,-0.2851435,0.08226374,-0.07100663,-0.002449586,-0.11874008,0.10299298,0.040943705,0.070545316,-0.061234802,-0.036390092,-0.2606096,0.06665796,-0.025922175,0.03452618,0.12557845,-0.3433569,0.07263428,-0.14080212,0.16239056,-0.079317726,-0.16177088,0.057887416,-0.021336554,0.026715938,0.26428124,-0.40142304,0.26210135,0.21324956,0.0994436,0.34755582,-0.011979073,-0.19058537,-0.28126603,0.07208421,-0.034724977,-0.22312139,0.09920702,0.07492876,-0.01569136,0.047536645,-0.108353354,0.22010325,0.15785804,0.082503885,0.112974234,-0.2417781,0.007809856,0.08678868,0.019578768,-0.26061958,0.038477354,0.41681144,-0.373684,-0.26020235,-0.13736387,-0.21028827,0.14527358,0.010774806,0.13943642,0.25205553,-0.1376714,-0.08456034,0.16169055,-0.2637761,-0.24902698,-0.13178614,-0.00048076766,0.088082016,-0.37540188,0.061072443,-0.040490746,0.09849157,-0.19174528,-0.20397218,0.12248479,0.12495517,0.095004745,-0.0025539165,0.06772356,-0.28854805,-0.5081076,-0.039665516,-0.6428592,0.22359249,-0.38634536,-0.11263358,0.09330564,0.011116024,-0.0039522545,-0.022429274,0.16892979,0.04191678,-0.043396134,0.14702597,0.055295262,-0.45178902,-0.18480828,-0.08322707,-0.16278373,0.16076383,0.0652066,0.19302809,-0.16117072,0.037271366,-0.29479948,-0.524692,0.020393036,0.16846117,-0.08909768,-0.09163657,-0.03839388,-0.098985456,-0.42079163,-0.034629516,-0.10581898,-0.31653398,-0.12018088,0.031393375,0.16814928,-8.490721e-06,0.09026609,-0.062424395,-0.10680181,0.043471448,0.021885,0.1167521,-0.16664164,-0.10666559,-0.3392864,-0.030284636,0.02658749,-0.0461506,0.105852194
-0.14513992,-0.3298472,0.050092485,-0.13399346,-0.3664984,0.08549033,0.029754668,-0.13016544,0.01131251,-0.25487697,-0.018263318,-0.040302698,-0.21553786,0.1499795,0.11486561,-0.15923354,0.092201695,0.1302578,0.05051968,0.2613213,0.0682975,0.20016056,0.18168224,0.030519791,0.43310666,0.22590028,0.33649012,-0.09695447,0.06425412,0.23861217,0.053035934,0.046696,-0.35412544,-0.18511517,8.7295244e-05,-0.0031913978,0.04236833,0.26722768,0.15660372,-0.111201644,0.10953452,-0.0344809,0.24084279,-0.022059113,0.053569615,-0.051672686,-0.36402288,-0.06902498,-0.098822154,0.084057525,-0.26212642,-0.0096836155,0.096594736,-0.36886236,0.14854904,-0.39799353,0.029631034,0.20663431,-0.0009806214,0.09246496,0.030082569,-0.17351227,-0.10370745,-0.29954043,-0.7227472,-0.11151871,-0.002868031,-0.10058427,-0.06634608,0.031185947,0.17845231,0.10575449,0.1570128,-0.037354548,-0.01634728,0.29742962,0.25376856,-0.20260075,0.10166287,0.032300342,-0.11682731,0.21087548,-0.092659846,-0.015209148,0.03664835,-0.31784496,-0.21129294,-0.48470235,-0.25718886,0.20939039,0.05480132,0.12620363,0.05524751,-0.032835003,-0.011505926,0.037596337,-0.25196844,-0.2222998,-0.06290766,-0.060271177,-0.2961917,-0.0263555,0.0005804513,-0.1913757,0.08925974,0.04989548,0.03237675,-0.33075768,0.09720124,-0.46239367,-0.07188795,0.09533839,-0.073180996,0.31908965,0.05586408,0.0105085615,0.0974002,-0.42763463,-0.4169721,-0.16496478,-0.09928654,0.02677324,0.15661313,0.22342879,0.02583107,0.28034273,0.1902654,0.27108604,-0.113214485,-0.29099974,0.08628132,0.107010506,-0.20513254,0.04278933,0.13590105,-0.38940755,0.032727674,0.019546729,0.00519583,-0.32602364,0.14319094,-0.23574737,0.007234252,0.3783463,0.11497952,0.45829996,-0.22343339,0.4995152,0.093832195,0.3882908,-0.36155683,-0.13779628,0.34740657,0.08159765,0.116074294,0.13804518,0.059239864,0.22391827,0.057380766,0.3952734,-0.40072402,-0.16350095,0.027756773,0.3675013,0.061651208,0.23156501,-0.10391121,-0.29859945,0.10666437,-0.080153994,0.20543607,-0.27852386,0.2802131,-0.3154187
0.6810098,0.14366558,-0.09598645,-0.024787616,-0.23954512,-0.14156573,-0.15508626,0.0877481,-0.23012313,0.12206557,-0.1601178,-0.17700787,0.1843458,-0.036897942,0.063858934,0.053160634,0.21534654,0.0028431946,0.2849368,-0.062997736,0.0690894,-0.17453745,0.07333835,0.26946497,-0.006206566,-0.29755512,-0.02702006,0.15442304,0.36199307,-0.06655168,-0.20422785,-0.44757858,0.11586121,-0.03343905,0.1912499,0.006255578,0.049433306,-0.35511148,-0.28408855,0.21352544,-0.35651675,-0.17080764,-0.3651791,-0.0073205973,-0.010686184,-0.22353005,-0.1114514,0.28875047,0.006400221,-0.08026683,0.25671032,0.11972945,0.0038358672,0.07035567,0.11973033,-0.027918603,-0.19010264,-0.17977193,-0.4194648,-0.12589908,-0.014415599,-0.21491532,-0.379067,-0.02620435,0.17337644,-0.021043746,-0.13913219,0.06977644,0.24084367,-0.36912513,-0.083484076,-0.10242963,0.115629524,-0.2901059,-0.41170982,-0.10190242,-0.31357425,-0.4665487,-0.02925773,-0.17355962,-0.070966795,0.14415444,0.2086116,0.2728355,0.0010443479,-0.014652586,0.28715426,-0.0507179,-0.029671242,-0.05945575,-0.39268267,0.6326107,0.2299071,-0.13730355,-0.36218995,0.09339117,-0.073950544,-0.26202226,-0.058057223,-0.040425356,-0.07512212,-0.3813136,0.01664101,-0.24561486,0.27148733,-0.15482423,-0.3272939,-0.1377858,-0.2126279,-0.6974839,0.053593062,-0.51352566,-0.5911398,-0.060894385,0.14251418,0.06337107,0.07352776,-0.45786935,-0.13379402,-0.40626836,0.10734244,0.13818032,0.118999824,-0.02231284,-0.09292653,0.10908186,-0.0021722312,0.21191528,0.20360667,-0.0078616785,0.011818313,-0.4582943,0.16296518,-0.22062021,-0.24437506,0.036237884,-0.29971895,-0.1923893,-0.09045539,-0.4284762,0.24331951,-0.06170189,0.04471297,0.16273959,0.08086442,-0.03183278,0.19224079,-0.06809129,0.04509675,-0.14850916,0.25838688,-0.116352,0.17911573,-0.1926442,0.03490008,0.10697079,-0.23858422,0.3456439,-0.55374575,-0.15664412,0.15758604,0.08579371,-0.061701026,0.04562143,-0.2525206,-0.167557,-0.34307662,0.031322915,0.042692006,-0.3104452,-0.41522875,-0.084341854,0.13948351,-0.0604166,-0.07940153,0.20935227,-0.09512984,0.01190572,0.063838735,0.114442304,-0.006703662,0.027003605,0.066162676,0.00686132,-0.21311773,-0.03324239,-0.34636748,0.09158249,-0.046254147,-0.22755866,-0.13838097,-0.33305517,-0.09253069,-0.4188641,-0.23982188,0.17572536,-0.06890325,-0.1987326,0.12430252,-0.094526336,-0.1561466,-0.1972456,-0.52985513,0.08395555,-0.24953699,-0.08552924,-0.014179404,-0.12264833,-0.11925061,0.34231308,0.05039395,-0.04532177,-0.0759449,-0.14189571,-0.00677566,0.24219848,0.10907265,-0.4721791,0.05595675,0.43845022,0.13668554,-0.52902037,-0.16820486,0.056320745,-0.24504228,0.027307743,-0.15920503,0.09488787,0.08322124,-0.14831349,0.22862987,-0.15583844,0.050092235,-0.46677223,-0.12929708,-0.0001719073,0.18930691,-0.23749188,0.054486442,-0.050455503,-0.2806478,0.2630926,-0.15033367,0.042093027,-0.032479893,0.103058964,-0.4815847,-0.15578955,0.21427128,-0.0578411,0.25374934,0.27075377,0.39246312,-0.094553515,0.06370204,0.055829886,0.0724362,0.18963398,0.32306752,-0.03426798,-0.15374883,-0.17380257,-0.18328822,0.015027427,-0.2500252,0.1336205,-0.024108805,-0.22807005,0.23308471,0.06815528,-0.014393359,-0.010026251,-0.05800642,0.032982543,0.160006,0.0954654,-0.019558374,-0.16570072,0.1833821,-0.25748128,-0.32597482,-0.20172663,-0.13396807,0.0022264991,-0.21878293,0.3023608,-0.3691299,-0.22718728,-0.111784555,0.23114453,0.087374285,-0.17789046,-0.45143715,-0.20519924,-0.0333901,-0.07282837,-0.22594255,0.11833295,-0.10537082,-0.07992215,0.065387785,0.06626819,-0.10684145,0.044995334,-0.1982104,-0.46598014,0.034108464,0.040707387,0.080185816,-0.17914596,0.18554911,0.04306541,-0.024946438,-0.36692068,-0.0005032523,0.12495765,-0.034694795,-0.032629233,0.0125292335,-0.41961196,0.22583434,0.032449078,-0.3719339,-0.010246129,0.0018035113,-0.5498542,0.22719014,-0.24556637,0.06768374,-0.18886702,0.0013892663,0.1331456,0.12265204,0.07146362,-0.100909,0.032559466,0.0199373,-0.09417716
-0.041852634,0.11640123,0.032439858,0.162317,0.07060554,-0.21211642,-0.04683334,0.0022985167,0.19076101,0.20851524,0.2303586,-0.14840114,0.250384,-0.07171513,-0.1789159,-0.10176978,-0.04504807,-0.006544444,-0.17076781,-0.4402752,0.35402334,0.06334251,0.07392334,-0.061117347,-0.26924774,-0.068011686,-0.14061639,-0.016126515,0.08174207,-0.39546993,-0.035901103,-0.21692747,0.050526783,0.22691186,0.038511015,-0.07700118,-0.12651612,-0.62611914,-0.020811997,-0.19059765,0.15523814,-0.16418199,0.048614796,-0.06832464,-0.045801915,0.08010064,-0.1147553,-0.046581298,0.4083876,0.11061509,-0.26891056,0.19804785,-0.08275305,0.14152202,-0.11747204,0.4680319,0.02910863,-0.028247783,-0.03015082,-0.1307101,0.032976627,-0.056106333,-0.06896188,0.118552126,0.24256985,0.23733757,0.05335019,-0.010899676,0.21016318,-0.040031053,-0.290227,-0.24339712,-0.057302617,-0.14055115,-0.2551659,0.049437683,0.057001807,-0.09361684,-0.40147498,0.0240175,0.0033197054,-0.051179733,-0.550549,0.26649064,-0.14083254,0.04863834,0.044114344,0.20562375,0.25940576,-0.16785629,-0.05629384,-0.09333955,0.04756213,0.029892372,-0.20157306,-0.22926404,0.106617175,0.013137338,-0.016169697,-0.08990813,0.37182605,0.022555733,0.067465715,-0.43499327,-0.12069497,0.0797131,-0.053300377,-0.44314435,0.09855157,-0.07036508,-0.07730295,-0.114483595,0.021732194,-0.21260495,0.03866161,-0.1270964,0.037637644,-0.042603403,0.28676262,0.17204727,0.09877885,-0.19912778,-0.11530992,-0.25213787,-0.13811554,0.071821675,-0.10036574,-0.25194678,0.28385717,0.08697051,-0.06019733,-0.12587063,0.17626733,-0.08202924,0.2607899,-0.16761756,0.19926545,0.09169519,0.1007431,-0.44588783,0.023907496,0.039108526,-0.074822016,-0.32050875,-0.21473747,-0.6099186,0.17106266,-0.13886037,0.0027587265,-0.02020355,0.4085737,0.21140714,-0.24404141,-0.3261853,-0.26217923,-0.5625557,0.076257065,-0.6098439,-0.20495771,-0.32835382,0.16734432,0.27457267,-0.001757972,-0.5830092,0.15248062,-0.70672315,0.12185978,0.08718293,0.17588055,0.17943166,-0.39147276,-0.06294183,0.051231533,0.047629114
-0.24429736,0.13679661,0.18378021,0.13165355,0.26077485,0.1758164,0.28947932,-0.13331047,0.021874087,0.18948111,0.064488776,-0.004026097,-0.30652952,-0.17405294,-0.095100954,-0.4391523,-0.40895146,0.24076417,-0.45724943,0.16770285,0.034834754,0.062373053,-0.10588608,-0.43292257,0.23228063,0.011045295,-0.03479631,0.12272992,-0.3767867,0.37228593,0.23237003,0.5688225,-0.27792704,-0.23963262,0.07099923,0.27842236,0.046260327,0.1459657,-0.3750517,-0.38263905,0.03934186,0.19496849,0.0014519366,-0.15782447,-0.3796189,-0.14402641,0.07994491,-0.55590284,-0.08431756,0.03332152,-0.38455263,-0.16307503,-0.097359516,-0.41149834,-0.08401416,0.025799256,0.03162232,-0.04023249,-0.39262304,-0.13122037,-0.7445146,0.35867113,-0.062454794,0.21832249,-0.28014463,-0.44291747,0.30990723,0.07645149,-0.07492676,0.28717485,-0.5133279,-0.27102587,0.08546835,0.18068013,0.13815132,-0.11017947,-0.30471268,-0.21410899,0.1135473,-0.062498253,-0.25507167,-0.029548317,-0.47439754,-0.5824148,0.10143558,-0.07619012,-0.09798377,-0.46590832,0.009735145,0.25197262,-0.1286064,-0.03447978,-0.46116915,0.08683041,-0.049092885,-0.080838606,-0.15395714,-0.010387729,0.19307375,-0.10052652,0.014613016,0.21455117,0.0505738,-0.019494519,0.06488774,0.35171336,0.03733222,0.23799068,0.09878099,0.056844477,-0.047212142,-0.66116285,-0.40925732,-0.26557377,-0.33004174,-0.25862807,-0.07455038,0.023212334,-0.10158701,0.27959964,0.14190926,0.15711533,0.18811524,0.057988673,-0.37334225,0.09832273,0.15467751,-0.0881581,-0.37488818,-0.070076294,0.17295624,0.33728778,0.17102213,0.02697158,0.11747721,-0.3411331,0.0022936151,-0.008378867,-0.09317266,-0.041830525,-0.017540965,0.25932628,-0.044458594,0.16623755,-0.23002121,-0.12357526,-0.39592856,-0.3086595,-0.06940974,0.08012151,-0.3540641,0.25438732,0.25980726,0.08626942,0.009458216,-0.24283144,0.20374244,0.16001728,0.110169105,0.26061076,-0.21846661,-0.28077745,0.33249348,0.31204748,-0.056819398,-0.053807802,-0.057631347,-0.03242242,-0.24695523,-0.025516562,-0.5237307,0.024625499,0.0017124023,-0.058030155,-0.11245691,0.25033474,-0.17560767,0.23197669,-0.2382583,-0.16689645,-0.06180707,-0.0064813667,-0.2304536,0.19498253,0.13468443,0.040571395,0.0652488,-0.33394426,0.26128674,0.27597263,0.11168575,-0.056157388,-0.062355075,-0.47629693,0.3055626,0.015537248,-0.009597551,0.327714,-0.22847015,0.07532414,0.3431435,0.081800476,-0.01643519,-0.15510525,-0.36860484,-0.16965364,0.12556522,-0.22533336,-0.14598373,-5.0612955e-05,0.22584426,-0.18128788,-0.009883982,0.060636457,0.11356104,-0.18472166,-0.008456283,0.19464207,-0.37006217,-0.44377905,0.006413562,-0.08988675,-0.12564218,-0.085819006,-0.17443165,-0.5805615,-0.41550052,-0.029731778,-0.18520536,-0.08044668,0.103176884,-0.22973628,-0.010579196,0.16611646,-0.4341236,0.1878385,-0.3113358,-0.23846304,-0.04394294,0.009073164,-0.2845559,-0.029017147,-0.24623379,-0.31254357,-0.10818508,0.11320185,-0.36649138,0.054321166,-0.10785909,-0.0956512,-0.068324186,-0.04828493,-0.25421652,-0.077168405,-0.06528245,0.09736914,-0.24343736,-0.019470856,-0.11913572,0.13210373,0.18458936,-0.28037107,0.15047279,-0.31003368,-0.27455667,-0.019644542,-0.112934075,-0.0067289756,-0.12987,0.28629598,-0.026791021,-0.1999228,0.2155491,0.26216027,-0.07988378,0.19739503,0.051208254,0.10679648,-0.096436866,0.17872804,0.1722304,-0.119422555,0.16944021,-0.07638688,0.18219873,-0.15461074,0.0749693,0.2619289,0.14688727,0.0709147,0.19706741,0.3168748,-0.054108486,-0.14063568,-0.05960394,-0.26381543,-0.053980496,-0.34138134,-0.51412773,0.036788777,0.24515943,0.04136758,-0.10285313,0.2702839,0.17318244,0.28942463,0.1985566,0.31757036,0.091259405,-0.15985897,-0.15814044,-0.03606487,-0.18595807,-0.0036768129,-0.1295402,-0.17062037,0.13032964,-0.14430177,0.08849397,0.16698655,-0.21775669,-0.37278578,0.21390589,-0.14508055,-0.26622373,0.15533729,-0.29917866,0.01808684,0.0624709,-0.011813022,0.15400924,0.11726877,0.0027495103,-0.057186037,-0.15804443,-0.24783684,-0.07968452,0.110799976
-0.02629391,-0.12679802,-0.009407519,-0.009331345,-0.27304098,0.02844691,-0.22466123,0.43437243,-0.10730701,-0.2285728,0.018596107,-0.10257742,-0.047611836,-0.027604911,0.16784744,-0.3564777,-0.3326191,0.086202614,0.24084313,0.07668411,-0.24039428,-0.29535723,-0.24921134,0.18603608,-0.35421482,0.38470504,0.03928076,-0.13683803,-0.04647811,0.018255616,0.13987947,-0.014336788,-0.41704005,-0.24305506,-0.0746979,0.15927535,-0.14825433,0.18403734,-0.05062029,0.11178043,-0.15472521,-0.31517673,0.016223991,-0.09594996,0.058190115,-0.071398176,0.20310691,-0.018065333,-0.23972914,-0.32045454,-0.3543205,-0.15187207,0.09852415,-0.1690756,-0.057793394,-0.18394531,0.18019699,-0.66328377,-0.12711647,0.12981221,0.013469491,-0.0648924,0.1558929,-0.5172405,0.21157163,0.08197917,-0.08509287,-0.52454984,0.073232934,-0.19784449,0.10220725,-0.10117674,0.19970238,0.30645064,0.05853219,-0.15077597,-0.051332485,-0.28717288,0.37033454,-0.22246747,-0.31070548,-0.32670614,0.19744006,-0.75588816,-0.17095128,-0.36127132,-0.09454332,-0.20515265,-0.075815305,-0.0073296963,0.046295576,0.24318564,-0.0136422105,0.005253179,0.25966445,-0.50865453,0.18794625,0.3997276,0.0869479,-0.077368565,-0.30413786,-0.1614754,-0.15697649,0.35016727,-0.12654182,0.12578815,-0.056442525,0.34647763,-0.21782787,0.24947867,0.54916227,-0.20837724,-0.18149328,-0.13021433,0.15254955,-0.53985494,0.12994951,-0.110123046,-0.3868636,-0.36952353,-0.23887081,0.18518522,0.049006324,0.08573461,0.08265086,-0.20214984,0.15398175,-0.358059,-0.20461272,-0.12717271,0.05350422,0.07060349,-0.8592157,-0.2256972,-0.41730106,0.5464196,0.037410215,-0.36422426,-0.2565507,0.21345581,0.22446477,-0.0005225727,0.18578519,0.091932766,-0.38961193,0.02500903,0.10888907,-0.39189634,0.48335016,-0.16431086,-0.66210455,-0.36181813,-0.050918635,0.68170404,0.12135017,0.21250968,0.13847123,-0.010682148,0.3338131,-0.0631622,-0.3325217,-0.21638897,0.07395949,0.30529618,-0.4863551,0.22243181,-0.5189331,-0.12133752,0.05049795,-0.21479255,0.08886674,-0.009466798,0.2000106,-0.16511638
-0.46587127,-0.25657704,0.10358275,0.10898504,-0.06681668,0.018712034,0.2763909,-0.06802801,0.027408276,0.1361045,0.037861258,0.28050163,-0.007703207,-0.26610032,-0.11564911,-0.31531066,-0.37159163,-0.24791609,-0.2947503,-0.43006885,0.07789025,-0.08447687,-0.08754612,0.025900742,-0.16659836,0.16188006,-0.24491425,-0.28338122,-0.30586308,-0.026109302,-0.0073035476,-0.069037974,-0.5058971,-0.24140307,-0.36114424,0.04909337,-0.13080184,0.08114344,0.2264531,-0.17300224,0.19891739,-0.10379941,0.09169696,0.124196015,-0.15422165,-0.12639584,-0.06438752,-0.18760963,-0.3282056,-0.017075464,-0.33853108,-0.5138248,-0.10662336,-0.13508184,-0.20200229,0.09645236,0.052047294,0.03934709,0.28914034,0.009522078,0.11752663,-0.12648238,0.1995138,-0.08680998,-0.3201474,0.007791655,-0.0050477833,0.06417427,-0.20742963,0.17137945,0.17375387,0.0915292,0.056416497,-0.09982944,0.052662253,0.06300517,0.23375006,0.18127543,-0.020990824,0.4560956,0.065341614,-0.051841676,-0.52811074,-0.20114058,-0.02436015,0.056510665,-0.30835962,0.2866892,0.18422168,-0.41015825,0.37027627,-0.28315857,-0.036656514,-0.4452029,0.18151008,-0.56437415,-0.27515912,0.22565518,-0.24982561,-0.109381236,-0.50780845,0.21633027,0.084037356,0.16526835,0.006123033,0.05821684,0.18605039,-0.08207038,0.45453504,0.57346183,-0.06549439,0.37612498,0.2711173,-0.0071424535,-0.56785476,-0.10243454,-0.040122807,-0.30790552,0.15849572,0.4362198,0.19180943,-0.2268689,0.3266271,-0.04221661,0.18889073,-0.3541684,0.16488661,-0.6681157,-0.26188782,0.04099307,0.32232946,0.42001837,-0.01650471,-0.22387944,-0.061491046,0.098123424,-0.20549397,-0.009945561,-0.07360748,0.123981535,-0.021319838,-0.20218542,-0.14706872,0.02582743,-0.51389956,0.027814932,-0.072392516,0.027956491,0.0361086,0.13250512,-0.019295387,-0.015696455,-0.56215894,0.07884961,-0.23069538,-0.12278583,0.2754704,0.03926611,0.17435868,0.027077556,-0.30613896,-0.025480112,-0.13417263,0.050432578,0.02357417,0.22170047,0.003068057,-0.15794495,-0.26524568,-0.07501505,-0.36095458,0.04869447,-0.15744098,-0.22260153,-0.11750296,0.059542846,-0.123531125,-0.16812225,-0.3557506,-0.14402013,0.063806884,-0.048478685,-0.1591879,0.08378805,0.0059591415,0.085238606,0.10058443,0.014034279,0.13906038,-0.15891877,0.20973937,0.33923256,-0.092546016,0.19069831,-0.30832386,0.08564536,-0.21015327,0.03415649,0.16734959,0.11261593,-0.23635253,-0.48675346,-0.08843402,-0.04034757,0.15176576,0.109097876,0.033214197,0.15131174,0.11546438,-0.002438909,0.024306176,0.080545664,0.056576602,0.047240064,-0.06796966,0.089704335,-0.13868105,-0.11110586,0.20579061,-0.3443296,0.15431993,-0.09073099,0.14273037,-0.31274235,-0.10675465,0.22276397,0.008510306,-0.035497107,-0.031739403,-0.061223354,0.27563483,0.11877507,-0.28854963,-0.44223326,-0.0025447616,-0.23858295,0.2890695,0.36960167,-0.04385983,0.31215596,0.21151958,-0.033416487,-0.01873278,0.08545253,0.07380208,-0.27868366,0.14765246,-0.087627344,-0.4080038,-0.9025562,0.27745765,-0.18946311,0.0073571685,-0.13477379,-0.057257198,-0.19598304,-0.12205914,0.10413316,0.12617998,0.0961204,-0.028080106,-0.29827678,-0.20184344,0.1501608,-0.44764253,0.10646835,0.08509158,-0.27867728,0.13158026,-0.114936255,-0.0053539826,-0.03657034,0.020592455,0.011576224,-0.023092281,0.055841777,-0.08137767,0.07282003,0.2527557,0.114589676,-0.33756888,-0.0878237,-0.18113351,-0.054924633,0.17493807,-0.030461464,-0.1408989,0.19613151,-0.112565584,0.14832354,0.032771926,0.04995231,-0.14795679,-0.08076302,0.06499136,-0.12555431,-0.27890784,0.105307564,0.11399777,0.039741106,0.06641494,0.0846969,0.019904194,-0.06757458,0.056286935,-0.07386742,0.05816379,0.0932688,0.07733019,0.051255867,0.09557123,0.26122606,-0.1361852,-0.030095551,0.033698287,0.09511013,0.107937574,-0.14642358,-0.23079497,-0.29332754,0.1442248,0.18527132,-0.009801704,-0.21449803,0.07071074,-0.58773994,0.04503977,-0.017889196,-0.018808423,0.008815911,-0.17063533,-0.13183308,-0.21428362,0.123713575,0.16162169,0.025771579,0.055380113,0.06312338
0.14966133,0.08950122,-0.029718455,-0.09049969,0.16287926,-0.26167467,-0.23580521,-0.04738429,-0.06075955,0.2602303,-0.046969317,0.032792397,-0.0688454,-0.06752419,-0.21353857,0.058553346,-0.21107529,-0.30735973,0.09221292,-0.23186553,0.08733093,-0.13562141,0.024028597,-0.27714133,-0.04220591,-0.18363671,-0.049716074,0.31018832,-0.047181282,0.021028697,0.13329905,-0.22033983,0.026615547,0.1254634,-0.1015648,0.0049362946,-0.17255142,-0.62367976,-0.11771843,0.09902108,-0.18483925,0.03751468,-0.2001983,-0.11367551,-0.09900616,0.067369364,-0.03764948,-0.023234861,0.1960433,-0.02039311,-0.0023219504,-0.5804213,-0.47579086,0.12888844,-0.0949504,0.020833889,-0.40974587,-0.33813018,-0.1246543,0.1585118,-0.06731209,0.05009026,-0.09470895,-0.046624597,0.08472691,-0.033686243,-0.10012809,0.03800689,0.23668309,-0.10893003,-0.35461342,-0.39324132,-0.26365602,-0.23813395,-0.04969235,-0.17617545,-0.3008547,-0.036026802,0.0007065256,-0.14895156,0.24538702,0.06520032,-0.34615886,-0.17466296,-0.058867194,0.07642074,-0.109681875,0.12355188,-0.027316375,-0.5661183,-0.075227186,-0.20775874,0.10736317,-0.0277169,-0.13128279,0.096391484,0.13995391,0.25995457,0.034525957,-0.11343795,0.09181755,-0.030908706,0.05927685,-0.19838196,-0.3964084,0.03704489,-0.05633708,-0.012666727,0.05778393,0.07224579,0.20821634,0.0035682363,0.019948019,-0.27649206,0.17377783,-0.06137899,-0.60084116,-0.05227665,0.0992836,0.092962004,0.08825059,-0.44532028,-0.16717477,-0.09509884,0.038955037,-0.12421088,-0.39575604,-0.115643725,0.12790038,0.21680902,-0.039401866,-0.082781486,-0.03399022,-0.2955289,0.11787823,0.08703833,-0.17767292,0.092891574,-0.2492268,-0.050872333,-0.24019636,0.15214579,-0.028562464,-0.4500712,-0.28193462,-0.3468972,0.077050164,-0.07855904,-0.43551514,-0.19891642,0.080508076,0.062925555,-0.05052835,-0.10032469,-0.6281303,-0.22245094,0.06311026,-0.41107386,0.21085842,-0.23297961,0.15992643,0.020365898,-0.09610353,-0.14400107,0.04383258,-0.6481631,0.06519766,0.16212337,-0.29064322,-0.07909363,-0.24887373,0.116779506,-0.3109426,0.17131822
