0.09557508,-0.11934478,-0.14594589,-0.012604265,-0.20225477,0.10085809,0.007087952,0.11594848,-0.056717157,0.020471143,0.070943385,0.022950707,-0.07836974,-0.0586478,-0.16220048,0.15852754,0.052669767,0.11731202,0.07947548,0.012374405,0.0052160667,-0.033952396,-0.007481046,-0.018222801,-0.037768833,-0.001963062,-0.068719864,-0.15704365,0.059163276,-0.23206198,0.0031824147,-0.029480293,0.08627472,-0.16011715,-0.0751876,-0.07689191,-0.033919398,0.017333126,-0.108345166,-0.0077220937,0.062044453,0.06992264,0.103336826,-0.14071834,-0.09922074,-0.06736818,-0.04560001,-0.09380312,-0.0027403831,0.01180859,0.04051693,0.031284746,-0.1622315,-0.06423003,0.101746865,0.012809874,-0.023888743,-0.02718187,0.031722195,-0.10034468,0.041493066,-0.16325778,-0.07417413,-0.02705428,-0.12068061,0.07353302,0.18227302,-0.13320424,-0.0812289,-0.0093186665,0.14810202,-0.13574483,-0.087449886,-0.13679223,-0.1100072,-0.09484756,-0.040001117,-0.01742386,-0.07143668,0.013395042,-0.04722379,-0.027032608,-0.0041830023,-0.021525547,-0.14912632,-0.26864097,0.09038306,-0.05238494,-0.09197557,-0.046813954,-0.031708393,0.023377016,0.0431917,-0.038980532,-0.032297786,0.085699335,-0.030692697,0.039094564,0.19881321,-0.3116291,-0.41757601,0.21127754,0.0972439,0.06486512,-0.21767107,-0.1531576,-0.16356926,-0.30004376,0.10886547,0.040828343,0.034885462,-0.02522653,-0.055849437,0.036404625,-0.32653284,0.057534814,-0.25034094,-0.09636863,0.0948748,-0.009990464,-0.26253876,0.005359579,-0.09816374,0.041708272,-0.112834014,0.08978642,-0.040459707,-0.27939722,0.00620524,0.064468324,-0.23302904,0.07111502,-0.22617294,-0.11288816,-0.041538257,0.17185305,0.19047247,0.35323143,0.075255774,0.004161568,0.28885168,0.1098177,-0.058374077,0.08289754,0.1307429,0.102387115,0.035019923,-0.07950454,0.0008347635,-0.09209028,-0.17394328,-0.0314576,0.16769677,-0.049043868,0.07922773,-0.19115098,0.049914524,-0.3886695,-0.13803267,0.116240814,-0.07519593,0.17160344,0.0003156637,0.025484754,0.040810052,-0.03452565,-0.14327289,-0.21343738,0.014601628,0.18746504,-0.07448752,0.1230528,0.020065619,0.0048279553,-0.06305319,0.022292396,0.028641222,-0.013288229,0.06675555,-0.18700159,-0.1822283,-0.06250541,-0.024314623,-0.20005699,0.0213847,-0.17776065,0.040724162,0.0070973993,-0.01763095,0.014225786,-0.008252183,0.18926044,0.011183474,-0.10447249,0.13687827,-0.16260694,-0.06928757,-0.14782405,0.046967,-0.08282045,0.068251446,-0.12247423,-0.043339733,-0.14362848,0.11013829,0.043896023,0.046052188,0.1074111,-0.31276986,-0.115182474,-0.11277367,-0.16866855,0.07654516,-0.27612934,-0.1594899,0.046886418,-0.10576939,-0.12516148,-0.043916713,-0.022844693,-0.07137172,0.07155666,-0.05877824,0.017106434,-0.25459638,0.038932655,0.31995735,-0.12893394,-0.22773744,-0.09926958,0.07679632,-0.1970133,-0.15249375,-0.11729417,-0.05323603,0.09361194,0.03224925,0.08043824,-0.042389225,0.06546215,0.075890064,-0.0504794,0.021836637,-0.040240027,0.058009658,0.032874655,-0.114133894,-0.16246594,0.018202199,-0.31435275,-0.07547993,0.11970227,0.0038349668,-0.0119668385,-0.13588686,-0.1425061,-0.0016329539,-0.12674195,-0.018495474,0.061971292,-0.00527026,-0.23370077,0.14709634,-0.21843114,0.23270619,0.23293717,0.1807668,0.0059974324,0.06220516,0.037510276,-0.19145477,-0.21487743,0.004120979,0.17020503,0.0062933112,0.13659193,-0.004950241,0.034332518,-0.2572282,-0.008146384,0.12513535,-0.17612192,0.118558794,-0.5302783,0.109907344,-0.39405876,-0.2208959,0.21450679,-0.025300227,0.16594452,-0.22311327,0.16744229,0.017678557,-0.0909101,0.06706908,-0.14235856,0.14170036,0.16274625,-0.04951919,-0.14372925,0.07032448,-0.00022310566,-0.15982506,-0.11242065,-0.10421297,0.047358558,-0.08429151,-0.096168175,0.076578125,-0.10393213,0.023105705,0.13202934,0.17682816,-0.03147651,-0.13792998,-0.20371394,-0.16890812,-0.18546782,-0.23894955,-0.012741461,0.044419445,-0.20169984,-0.04388676,-0.15897024,0.004707873,0.1411213,-0.27520958,0.056536846,-0.21120508,-0.30021372,-0.051802512,-0.09786968,0.01414794,0.04707413,0.043060087,0.04979977,0.104291834,-0.21139358
0.14885953,-0.10592534,0.13228548,-0.027339287,-0.104277804,0.06830515,-0.18856657,0.070170194,-0.14226058,-0.16105646,0.11150888,0.037109442,0.07794215,-0.06777764,-0.25570053,-0.18368742,0.006458287,-0.010934688,0.13832581,0.01787726,-0.34464863,-0.017117064,-0.079362124,0.036444303,-0.005268908,0.10576569,-0.1310188,0.07390528,-0.13002472,-0.006084954,0.13612479,-0.006488765,0.05335839,-0.40413696,0.09423552,-0.022818578,-0.37472796,-0.21251923,-0.036121424,-0.051722728,0.06266582,-0.0135714095,0.10025974,0.00729962,0.11922113,0.049535,-0.06376714,-0.14096732,0.006554244,0.05058854,-0.32594472,-0.024409458,0.14324237,0.10299946,0.09473695,0.063192405,-0.103107065,-0.14769551,0.12733023,0.090434395,0.11992655,-0.38224474,-0.08639626,0.124192424,-0.19594406,0.07540926,0.11103037,0.095649384,-0.037635885,0.0016582137,0.01711512,-0.14262514,0.053102855,0.06948789,-0.005597905,0.0039634584,-0.19611225,-0.1311706,0.056997415,0.016341317,-0.16129471,0.14049572,0.15601623,0.09943078,0.088121094,-3.056119e-05,-0.078845054,0.071216494,0.043292847,-0.2666632,0.0530831,0.04122641,-0.02232159,-0.18150775,0.10393237,-0.16440757,0.082075045,0.04007627,0.072826356,-0.18945098,-0.0012721606,0.21970434,0.11915357,0.078493655,-0.04253344,-0.12990695,-0.25200865,0.009677261,0.08138109,0.14505649,-0.050979443,-0.28716505,-0.25551978,0.0058271918,0.10249854,0.24526921,-0.10286616,0.020101747,0.08456508,-0.10896994,0.052275337,-0.016210873,-0.2595336,-0.077059425,0.022163775,-0.027287295,0.08535307,-0.10449551,0.1746055,-0.115052044,-0.107856505,-0.12449138,0.030416798,0.08411043,-0.055054925,0.08053504,-0.08020617,-0.19563262,0.024951,0.08334277,0.0071389386,0.11159401,-0.096972056,-0.21139628,-0.24812299,-0.08667094,-0.017927105,0.005014488,-0.33979192,-0.08203353,-0.08090836,0.021653153,0.055871483,0.070619635,-0.23521043,0.07258734,-0.031090496,0.053382203,0.17630836,-0.057791483,0.08223983,-0.2693647,-0.14508533,-0.0554477,-0.27328885,-0.09711485,-0.03531838,0.04894885,0.061136458,-0.15680994,-0.00022161413,0.089931674,0.10390055,0.0032080347
0.06626604,-0.10320337,-0.029572994,-0.18498391,-0.18441576,0.06707179,0.11514201,-0.083296366,0.13155842,0.028720895,-0.06454704,0.07797604,0.12981,-0.008352909,-0.07598173,-0.06511697,-0.06596407,-0.32298905,-0.089069605,0.07736252,-0.072050445,-0.33141723,-0.22581571,0.0022806504,0.07433195,0.05066474,-0.11140398,0.029818159,-0.036792662,-0.064526476,-0.070239455,-0.016488701,0.13757193,0.12656358,-0.13788047,0.09527374,-0.27388814,-0.04905037,0.12368535,0.14344041,-0.011465327,0.034462593,0.1505728,-0.2449357,0.17157307,0.04482818,0.1539464,-0.044531655,0.25434744,0.09930753,-0.07898585,0.07149536,0.0547275,-0.105432004,-0.10626775,0.04205643,0.06496715,-0.09246983,0.021120124,-0.10240057,0.1473587,-0.071317434,-0.022517113,-0.11261049,0.21071313,0.077762224,-0.19012001,0.004944208,-0.15087503,-0.022671608,0.11057145,-0.08639607,-0.007288236,0.27497584,0.08011587,-0.106354445,-0.0764932,0.11300029,-0.07941567,-0.032341667,-0.04751809,0.14288904,0.109885655,-0.19950108,-0.08031577,0.052814085,-0.14432177,-0.15844065,0.12729295,0.16321212,0.07932134,-0.04694654,0.057118367,-0.08324197,-0.043864954,-0.011433684,0.118241385,0.006400187,-0.22902098,0.027536334,0.14042225,-0.04100206,-0.102723755,-0.15422444,0.17694306,0.17535937,0.19064009,-0.12680142,-0.15304041,0.1820645,-0.3249089,-0.085946634,-0.023988523,0.23071122,0.18496118,-0.057107184,0.021265374,0.057734914,-0.2219196,-0.10249824,0.05662698,0.044096794,0.0070650075,-0.13093868,-0.02143344,-0.12045887,-0.1103066,0.01781287,-0.030618291,-0.11584189,-0.111341186,-0.2885169,0.081147894,-0.104924105,-0.27340046,0.15354729,0.080321,0.10655524,-0.10878538,-0.022869289,-0.22999544,-0.0873683,0.058656774,0.07781388,-0.015383887,-0.41547355,0.029266872,-0.14910686,-0.017401384,-0.14339694,-0.17822309,-0.099238224,-0.093945876,-0.16045159,-0.018326487,-0.05365626,-0.13410582,0.1025875,0.20226161,0.12317118,0.203674,-0.042836923,0.19563738,-0.10716441,-0.012437852,-0.009734819,0.1359589,0.07213323,-0.048288498,-0.3542665,-0.039374962,0.08983071,0.071567595,0.040551532,0.14375935,0.089681774,0.009474175,-0.015878227,0.040767502,-0.0827914,0.14047457,-0.12786196,-0.102474734,-0.23254861,-0.011431183,-0.12899779,-0.035210274,-0.0076758186,0.13004327,-0.13713686,-0.12448112,0.12463563,-0.10061115,0.00014173312,-0.10156873,0.04384213,-0.08726543,0.04755174,0.013196788,-0.14278162,-0.033378445,0.03843959,-0.09330297,0.08910511,-0.107642435,0.030920211,-0.33712766,-0.13016628,-0.2195682,0.12737724,0.12588412,-0.30823648,-0.026262866,-0.023331227,0.13770758,-0.32501143,0.09430544,0.18839057,-0.009560488,-0.14550588,0.095169865,-0.16547361,-0.009106972,-0.13070273,-0.02668042,-0.017074235,-0.1333112,0.024180776,-0.015137075,-0.09512992,-0.1567798,-0.33547917,0.029455315,0.061141994,-0.18943033,-0.089236304,0.07686146,0.12538192,-0.3795564,-0.07852399,-0.076573245,-0.0369825,-0.0674476,-0.31681532,0.12579776,0.02423013,0.14323978,-0.13194086,0.044993162,-0.088003814,-0.1551034,-0.22654754,0.18699555,-0.2772536,0.038140435,0.030124873,0.056704435,-0.02958979,0.13689142,-0.18753503,0.19396111,0.12793444,-0.34083143,0.017091269,0.097530365,0.08866187,0.09585569,-0.06739709,-0.20960858,-0.06329852,0.0038257507,0.013705007,0.21143027,-0.14816938,0.028935825,-0.08880646,0.121743865,0.21976602,0.08332582,0.083161175,-0.19089092,0.22124358,-0.1490232,-0.17446636,0.0021909701,-0.050977092,-0.09913106,-0.14807056,0.13206257,-0.066395484,0.15674233,-0.11741418,0.39547598,0.07909586,-0.2626296,0.108371295,-0.005860106,-0.049713973,0.047987718,-0.20002127,0.16860755,0.14307582,-0.021713056,-0.060735356,-0.0063220765,0.020551674,0.08377317,0.1128528,0.115982346,0.0059442054,0.22199555,-0.12273201,-0.12328978,0.055416554,0.1476519,-0.053038478,0.12760645,-0.124840274,-0.16626139,0.13639273,-0.12157356,0.03488329,-0.08620684,0.019226585,0.119580284,-0.03512485,0.0011826581,-0.15269922,0.05298216,0.07833057,-0.18602073,-0.26474428,0.035135042,0.16821039,-0.06671695,-0.041103177,-0.25454047,-0.0018380635
-0.23071156,-0.10725998,-0.06628723,-0.0014725716,0.17169136,-0.18728846,0.16477224,-0.034819283,-0.105989404,-0.29096305,0.01141949,0.009039121,0.055167917,-0.09555706,-0.019822203,0.020495767,-0.04965012,-0.11345573,-0.23187187,0.12804426,-0.20803325,-0.021248383,-0.07147936,-0.024834786,-0.15963466,-0.32307634,-0.1352528,0.13261744,-0.19697797,-0.17812558,-0.001323765,-0.18190938,0.14949308,-0.025095422,0.06446357,-0.051362805,0.040509533,0.15921359,-0.0052482784,0.023500184,-0.1458325,-0.16214927,-0.07753435,-0.22313015,-0.066723146,0.043232065,0.0015795109,-0.37406734,0.110241815,-0.00037006458,0.0040751877,0.13626851,-0.22692728,0.19640721,0.08009541,-0.122058004,0.0848032,-0.11304395,0.07540688,-0.07006114,-0.031187918,0.04516628,-0.05500571,-0.017426668,0.06418854,-0.039618224,0.11637892,0.001231826,-0.037555847,-0.13369781,-0.2138082,0.11642951,-0.07470534,-0.09936178,0.039269987,0.01795426,0.10066536,0.17226596,-0.10178681,0.14098857,-0.0004933564,0.17106965,-0.12601708,0.008376269,-0.09575238,0.06708638,0.18446912,0.32482094,-0.03461499,-0.23926485,0.13989145,0.14238995,-0.0383192,0.01899788,-0.051701173,0.264958,-0.09340747,0.19737679,0.017493011,-0.06983852,-0.038950738,-0.15394446,0.060119115,-0.21441683,0.069433495,-0.15783015,0.037525054,0.03697407,-0.01728291,0.07606228,-0.0873304,0.051111564,-0.07690814,0.05016324,-0.08555358,-0.2581625,0.12259299,0.037256837,-0.06419658,0.1304499,-0.26043263,-0.25590461,0.031993866,0.16179854,-0.005953737,-0.2573286,-0.18586715,0.07854284,-0.24455355,0.109043255,0.04682554,0.12912339,-0.015194949,-0.12806237,0.11633127,0.04298368,0.059545062,-0.08473808,-0.09961838,0.054109655,0.124287955,-0.1046105,0.043411408,0.11701899,-0.072237335,-0.29896143,-0.108333275,-0.09573935,0.2304384,0.06589898,-0.3174745,-0.21742807,0.020453895,-0.33208373,-0.008479249,0.0009878502,-0.14117604,-0.1417604,-0.12692003,-0.14747864,0.045875896,0.12513983,-0.038732868,0.11295457,-0.018927185,-0.1314669,-0.04177178,0.10317655,-0.08155111,-0.12032755,-0.0979977,-0.08363344,-0.0020138621,-0.10725507
-0.04605945,-0.31232503,0.01453778,-0.012455369,0.21996109,0.08488428,-0.20001987,0.052829128,-0.12783994,-0.011193981,0.13070655,-0.021637345,-0.12595598,-0.0604705,0.14370774,-0.07979225,0.003182555,-0.07878977,0.03401227,0.02169441,-0.007330971,0.107453555,0.08835841,-0.16986842,-0.012419514,0.082613796,0.014057811,0.1066355,-0.06383857,0.08633118,0.04904537,0.0612848,-0.162741,0.08522908,0.16736205,-0.031243695,0.15690006,-0.018789291,-0.037874218,-0.08829551,-0.055665225,-0.034108058,-0.030479237,0.018768774,0.060456388,-0.01821473,-0.005352021,0.029033469,-0.09494308,-0.0052744877,0.009645406,0.03812741,0.05417927,-0.040554304,0.036769398,-0.11973012,-0.047456827,0.103528254,0.00077677367,-0.003964414,-0.12179741,0.013578616,0.10597909,-0.04534016,-0.18831713,0.17591146,0.19149879,0.0012170137,0.029924178,-0.18138923,0.1173224,-0.025314158,-0.06645002,-0.14510623,-0.24487036,0.10226469,0.1624722,0.12655097,-0.008276068,0.11565111,-0.09161217,0.03949615,-0.14105006,-0.088833556,0.10068954,0.091973335,0.23813812,0.011275849,-0.020231497,-0.13876933,-0.05291637,0.09035765,-0.16207428,-0.044931773,-0.06857458,0.16685529,-0.10934342,0.13816054,0.09444849,-0.048323665,-0.111929245,-0.13914047,-0.051117633,0.0016567213,-0.19121401,-0.07797876,-0.14524356,0.070602186,0.0892218,-0.003505636,-0.2323193,0.07605797,-0.13666339,-0.019821983,-0.24270949,-0.078973636,0.012644995,0.123413906,0.13471228,-0.050265443,0.020558747,0.04250127,-0.34478843,0.046213318,-0.13779156,-0.19442533,-0.10583628,0.04280096,-0.0815507,-0.38748452,-0.0799663,-0.22203599,0.19654839,0.080273904,-0.2123433,0.15604724,-0.13943706,-0.2477798,0.015107591,-0.04528268,-0.10708853,0.046684172,-0.039166935,0.080262035,0.016234744,-0.34664512,0.07416476,0.0206291,-0.08852899,0.031188799,0.049562883,-0.026255803,-0.22288059,0.14077713,0.007335405,0.10113279,-0.081979595,0.08348765,0.049018424,-0.06271116,-0.020122413,-0.04974006,0.05962468,-0.08083762,-0.06986143,0.1101151,0.0043743495,0.1568051,-0.18463811,-0.07688491,0.052136935,0.057492383,-0.018910551,-0.15143333,0.09186661,0.16794436,-0.071263015,0.033957545,-0.03833032,0.10031033,-0.042588554,0.10492661,0.14589618,-0.080734044,-0.10033798,0.037415877,0.008437378,0.027456254,-0.014121197,0.01812492,-0.11409608,-0.055082653,0.14163151,0.052365724,0.0020124922,0.06364223,0.073155,0.01390434,-0.23956381,0.008485499,-0.06946087,0.062213548,-0.03506018,0.09862185,-0.00821605,0.030767726,0.17641675,-0.09169564,0.003990619,0.032780405,-0.01116818,-0.036301557,0.08539933,-0.024767416,0.01228046,0.059907142,0.18317856,0.17437577,-0.12357666,-0.015854416,0.017142203,-0.042527955,-0.1829239,0.14571305,-0.023024764,-0.018634446,-0.22340268,0.017344613,0.05902945,0.14433073,-0.10279016,0.07485461,0.03683411,-0.04021311,-0.027103594,0.112225555,0.008044599,0.11305348,-0.26225293,-0.097062714,0.048229348,-0.034299288,0.15580623,0.016279507,0.1383962,0.020863108,0.075908564,0.042228397,0.056578025,0.15789363,-0.05237207,-0.035559457,0.049995124,-0.060340546,-0.1908913,-0.024218503,0.05721284,-0.39536983,-0.24109021,-0.044139948,-0.23754644,-0.043072402,-0.093239635,0.105140045,0.020930462,-0.07618122,0.099017315,0.08704773,-0.16571268,0.048969634,0.08547686,0.13051444,0.17229944,0.058863305,0.12840816,-0.069532186,0.0053314357,0.07258376,-0.15064475,-0.02024099,-0.07262444,0.004050463,0.21225072,-0.094972745,0.019663887,-0.16116296,0.13368231,0.05803204,-0.087257884,-0.1064215,-0.029840346,0.0797991,-0.14363414,-0.0446981,0.011537276,0.09187031,-0.0038106616,-0.037583143,0.04802332,0.12464625,-0.016827485,-0.06744959,-0.1477593,0.11622525,0.013767274,0.011870504,0.030824488,0.019528499,0.14202425,-0.037356563,-0.09314163,-0.06210152,0.049865015,0.0017520278,0.08260477,0.06547619,0.008229609,-0.29440725,0.124527015,0.1375081,-0.0030302498,-0.011558716,-0.03395585,0.029668786,0.010643181,0.11427928,0.01971161,0.09670606,-0.03446751,0.079851866,0.0632225,-0.03173278,-0.011569391,-0.13576223,-0.20239592,-0.09524806,-0.115559146,-0.07551554
-0.017234221,0.024440767,-0.07374937,-0.309101,-0.13478142,0.104766585,0.017653244,0.095174626,0.04590272,-0.067455314,0.11462306,-0.102302745,0.016392026,0.06803899,0.10895534,-0.084837325,0.027688716,0.091441445,-0.03086195,0.08793167,0.0716361,0.12738131,0.17490251,0.015469991,0.08996819,-0.06119885,-0.12067731,-0.18721542,0.04325259,-0.037694577,0.10246655,-0.020591227,0.052274592,0.087858796,-0.13230155,-0.07184145,0.02499923,0.11521949,-0.01219507,0.30467948,0.010723227,-0.11377528,-0.01575522,0.09267539,0.13186783,-0.06111723,0.16975385,-0.14048374,0.012137308,0.060876723,0.07386037,-0.28586724,0.053988695,-0.22536689,0.1007286,0.10002811,-0.0075206948,-0.073755264,0.07825572,0.13561155,-0.032876812,0.10615221,0.17247547,0.09044979,0.1424451,-0.1068493,0.0917516,-0.009874933,-0.31074327,-0.18475424,0.10801449,-0.17803189,0.038177125,-0.22111374,0.21330127,-0.064392656,-0.004654986,0.09302483,-0.014864105,-0.17011334,0.10251995,0.047255073,0.028107207,-0.17438257,0.058801968,0.05375218,-0.15578525,-0.07323898,0.059844796,-0.1353456,-0.0037796416,-0.08995883,-0.020932186,-0.034787286,-0.07580066,-0.13982655,0.05071623,-0.04848989,-0.11121601,-0.14290912,-0.34733927,-0.075408116,0.16855782,-0.15861225,-0.031331602,-0.07020322,0.16031611,0.0442491,-0.15607417,0.22717199,0.004327878,-0.21251564,0.113378994,0.09077198,-0.054872114,-0.05032816,0.15336132,0.05705713,0.068668276,-0.15925339,0.16633855,0.02554825,-0.008967344,-0.28454554,-0.05125853,-0.2515113,0.05654479,-0.084701836,0.039622337,0.15791433,-0.19924882,-0.3479047,-0.1721343,0.1377497,-0.14266364,0.10691631,-0.007994386,-0.022173734,0.0012990879,0.05615767,0.02542054,-0.041581705,0.038716394,-0.11569668,-0.01536011,-0.13209414,-0.04408845,0.11149023,0.31754112,0.095475644,-0.065885305,-0.08252478,6.15767e-05,-0.26125854,-0.053277504,-0.3490789,0.11619541,-0.28206295,-0.059520174,-0.17421438,0.11465486,0.28343913,-0.26899084,-0.113215946,-0.06064195,0.3578537,-0.059057917,0.26764745,0.103300735,-0.038810678,0.05872235,0.14755285,0.065213315,-0.121092424
-0.063947976,-0.41174006,0.017965212,-0.25634336,0.13260302,-0.099044606,-0.11736101,-0.02145026,-0.1079056,-0.20741856,-0.057726853,0.26062977,-0.08850894,-0.1479451,-0.08500443,-0.14419444,0.14687422,-0.048385143,0.03458533,0.06375492,-0.065358154,-0.016284015,-0.12716876,0.032358605,-0.22106409,-0.021164317,-0.04286485,0.13565983,-0.098050274,0.0874257,0.012637251,0.06859807,-0.19630066,-0.009600582,0.12423945,-0.158397,0.017332172,-0.020534275,-0.19466847,0.01901852,-0.12155684,-0.122399695,0.070530064,0.14286634,0.026832614,-0.009125345,-0.017513968,-0.1003808,0.081192635,-0.16542792,-0.17913093,0.020517243,-0.044639617,-0.008399996,-0.018881422,0.08462929,-0.091098115,-0.0010909389,-0.14651223,0.11245927,-0.08162523,0.12482863,0.11939405,-0.0065015545,-0.16314015,0.10938375,-0.04883061,0.21965505,-0.023505578,-0.1597703,-0.11257139,-0.01038954,-0.12875326,-0.03731463,0.068769075,0.21168558,-0.056361385,-0.057196748,-0.076247275,0.10705014,0.02567361,0.043972876,-0.29617545,0.018197471,-0.030585818,0.10574156,0.054445405,0.038170792,0.18491797,-0.016700776,0.14402556,0.15524037,-0.066190325,-0.10454456,-0.029573515,-0.033586323,-0.006970291,0.03185586,-0.30241257,0.14747119,0.17089397,-0.074409865,-0.16756777,-0.08073918,-0.0066343327,0.07420334,0.1497295,0.15752462,-0.016411573,-0.20446792,-0.16568857,0.014721074,-0.027764546,-0.09770015,0.05056321,-0.13273172,0.031956974,0.06380422,0.08276221,-0.010852807,0.19692762,-0.19218083,0.10872663,0.07260649,-0.035196666,-0.16339268,-0.15499638,0.20993389,-0.0670768,0.09882138,0.11816316,-0.14271529,0.09954693,-0.13616481,-0.23021916,-0.09998231,-0.09307066,-0.04639643,-0.10589931,0.37040153,-0.19522907,-0.0812072,0.04035085,-0.10394204,-0.10280102,-0.05942495,-0.13471317,0.07190491,0.03259498,-0.03385005,0.060385194,-0.21353465,-0.28738007,0.012000139,-0.11924706,0.07156417,-0.22647488,0.054136325,0.07908779,-0.21424538,0.1464274,-0.6338702,0.05205132,-0.20394857,-0.089972265,-0.049140025,0.017557807,-0.11506533,-0.07984047,-0.08080589,0.077139996,0.09609756,-0.15564233,0.08796003,-0.12394022,0.0083056465,0.020464668,-0.037489768,-0.034183633,0.13459076,0.10133767,-0.05425639,-0.24811596,0.078424536,-0.047316685,0.051427815,0.05133821,0.10669392,-0.06846988,0.09080233,0.03317912,-0.061807405,-0.03503698,-0.23591238,-0.12791067,0.032858524,0.01952466,-0.023744904,0.009931199,0.049536243,-0.12756722,-0.06689691,0.17120446,0.17055312,-0.06454468,-0.08972681,0.0036440776,0.06263049,0.16354232,-0.011501344,-0.040834,0.13587597,-0.033975743,0.01539168,-0.104152374,-0.12376522,0.060144823,-0.012309178,0.11501097,0.026972339,-0.19920303,0.0029195054,0.11555001,-0.028215047,0.043679576,0.043512017,-0.18832953,0.045706116,0.13894895,0.14988206,-0.020311765,-0.07510239,-0.025655095,0.0810914,0.14370748,0.19638866,-0.15661925,-0.20227687,0.09510033,0.10753976,0.08539616,-0.15405783,0.05336456,0.08813105,-0.09346599,-0.11207734,-0.10810527,-0.070478424,0.01511069,-0.048044875,0.1695719,-0.09324234,-0.056053452,-0.08765622,-0.08376591,0.023820482,0.054501284,0.059381723,0.14272353,-0.102640875,0.040158734,0.112719096,-0.174794,-0.18056653,-0.014523644,-0.23743157,-0.11692161,0.034908388,-0.25020215,-0.05090266,-0.09406104,-0.05870732,-0.25974685,0.017117009,-0.19933826,0.06607613,0.005853768,-0.044917572,0.040205568,-0.0547364,-0.2374815,0.03679996,-0.16115938,0.20654677,-0.17450255,0.077763125,0.082300596,-0.20130816,-0.22901657,-0.0038822945,-0.1697831,-0.14599273,0.04331875,0.032816216,0.02362138,-0.12216404,-0.11513002,-0.1615047,0.10355188,-0.010905528,-0.0909725,0.007693376,0.056483585,-0.109513536,-0.067587696,-0.17897223,-0.018380059,-0.027121738,-0.09774245,0.24768561,-0.082420506,-0.09359031,-0.1782776,0.009131046,-0.106273115,0.07854028,0.012627125,0.072092846,0.2071338,-0.22055556,0.02947682,0.013070327,0.044482745,-0.053147953,-0.08088367,-0.08611747,0.05425281,-0.062477876,-0.042744957,-0.12036463,0.12203135,0.08373311,-0.034830187,0.057754572,0.16487585,0.0613189,0.005408081,0.044635296
-0.14100586,-0.06383776,0.09103983,0.11410531,-0.05505606,-0.20573457,-0.17405833,0.02086421,0.059215058,-0.04979516,-0.17992468,0.116614655,0.05435909,-0.05909646,0.112127505,0.092182666,-0.13283814,-0.056906853,0.05192357,-0.29260138,0.004658702,-0.25751767,-0.21394685,-0.07994781,-0.12330554,0.06707023,0.07706431,-0.059207413,-0.01784444,0.12584618,-0.07671008,0.01624145,-0.32251057,-0.073972315,-0.046538148,-0.014327871,-0.08336213,-0.14564376,-0.042681452,-0.35902765,-0.0652004,0.019688604,0.0117347855,-0.06805922,-0.35022378,-0.07256408,0.0315492,0.024118677,-0.077245675,-0.009873792,-0.16182305,0.2943356,0.1309599,0.071413286,-0.04594837,-0.046600748,-0.17099369,0.029623313,-0.038030896,0.05244115,-0.044790816,0.016161231,-0.116825335,-0.24821463,-0.06681853,-0.050906066,-0.12681988,0.061653215,0.17857482,0.23090759,-0.082313746,0.08797253,-0.14318052,-0.0028686104,-0.03423517,-0.03209429,0.037370928,-0.2571005,0.02798451,-0.016562702,-0.09626927,-0.21137308,0.012463088,0.0697981,0.025506932,0.031176321,-0.3349806,-0.26791,-0.02060871,0.066560104,0.033809472,-0.03152294,0.11024328,0.1381837,0.096328236,-0.30481645,0.088320546,-0.08845207,-0.15659149,0.122853436,0.088361874,0.048111215,-0.10900631,0.19646628,-0.07812098,0.0715071,-0.059660528,0.06562801,0.07238571,-0.25944468,0.18841226,-0.023072401,-0.13911156,-0.064350724,0.076635875,0.03114183,0.0272114,0.04985074,0.010053449,-0.037690084,0.112504944,0.0432155,-0.13619715,0.10011076,0.055779602,0.16694666,0.18599409,-0.19584897,0.084633015,-0.08288765,-0.053009164,0.005723439,0.07115471,0.029917339,-0.22314689,0.12780035,-0.0068339407,0.14010161,0.04224155,-0.013704685,-0.015082111,0.123509064,0.08106481,0.122739024,-0.20824371,0.08877744,0.12509812,-0.26465598,-0.26168382,-0.20265181,-0.06638416,-0.07922284,0.054860916,0.11301312,-0.14262289,0.086422905,-0.20370425,0.14965801,-0.03760661,0.079499066,-0.06337319,-0.2774085,0.08389757,0.009350895,0.13239932,-0.19013879,0.081970796,-0.28326964,0.026553296,0.092702664,0.0803894,-0.3233247,-0.17402291,0.1005526
0.080999814,0.2555736,-0.18514094,0.33948788,-0.3456866,-0.0010953799,0.07952434,-0.03247769,0.08040847,0.0751998,-0.1016488,0.08550246,0.048016038,0.025114382,0.02640254,0.20621128,0.0064975065,0.088954546,-0.012557214,0.049661532,0.13351922,0.09065367,-0.034437545,0.09604859,0.08029145,-0.12358715,-0.23466173,-0.045770783,0.0158168,-0.14336804,-0.16528636,-0.14617501,-0.047113795,0.13743532,-0.35355824,0.1901819,-0.011406617,-0.04781112,-0.035606485,-0.0974503,-0.04387507,0.21613851,-0.023933737,0.011958543,-0.06718571,0.012268708,-0.17188264,-0.10029567,-0.031803537,0.036027294,0.04901865,-0.19576904,0.073688336,-0.046538945,0.06641537,-0.042856883,0.1572881,-0.12641616,-0.094462566,-0.14719564,0.10021624,-0.17368867,-0.17999369,0.09231635,0.10871792,0.06938672,-0.11645665,0.16910367,-0.040745996,0.04002908,-0.38515422,-0.124745145,0.12808567,-0.035182726,-0.16722956,-0.07455105,-0.16697244,0.14681566,-0.24363714,-0.04413876,-0.02460044,0.089575514,0.070012756,-0.13281678,0.24727799,-0.11258394,-0.082314976,0.15643393,0.016925028,-0.033281587,-0.12585056,-0.37931272,0.19048186,-0.139154,-0.20670323,-0.10442714,-0.027057696,0.009310703,-0.2969159,0.104793146,0.0156322,0.13994037,-0.035410553,-0.088128604,0.27530703,0.09971213,0.01814805,0.04096755,-0.032305013,0.074282244,-0.08325916,-0.12838997,0.0029197936,0.21446398,0.26573688,-0.10955667,0.121562645,-0.097403586,0.0061965864,-0.0025530576,0.05598786,-0.06073166,-0.038791247,-0.39715388,0.3038393,-0.1652018,0.042112704,3.8591144e-05,-0.062968366,0.14819385,-0.07824822,0.20908113,-0.22069046,-0.05193001,0.21971798,-0.1504081,-0.022974472,0.07059859,0.054824736,-0.094395876,-0.018392658,0.17423302,-0.062116068,-0.0059273164,0.18424085,0.20728219,0.09122673,0.042606488,0.040926818,-0.15950103,-0.05010419,0.15793052,0.11224346,-0.24035531,0.12269441,-0.16612922,-0.031414423,-0.08754459,-0.22278038,0.045848932,-0.3013532,-0.02271425,-0.1821172,0.17529319,-0.030351019,0.12191324,0.10814487,0.1734415,0.12743439,-0.018803453,0.0041027744,-0.10922938,-0.12483689,-0.04116127,-0.064150356,-0.37223342,0.0882861,0.07226197,0.07790318,0.11241786,-0.25522667,-0.26958987,0.006939701,0.2673949,0.08163091,-0.08093228,0.053510476,-0.12558173,-0.059857506,-0.23356518,-0.079194725,0.09792735,0.12530828,-0.02620693,-0.09004218,0.043258406,-0.11775266,-0.029807348,-0.08698445,-0.031703,0.08355553,-0.14881425,0.08687236,-0.10305982,-0.0096689025,0.0073995125,-0.08239779,0.02845344,0.060650025,-0.11035711,-0.019045744,0.22038424,0.003653927,0.101841114,-0.1577496,0.19323504,0.07192254,-0.19197552,-0.21827771,-0.1031452,0.023118144,-0.13697118,0.037418853,-0.15146565,-0.041515157,0.027413404,0.065747745,0.10074185,-0.046759542,-0.04892657,0.1347123,0.105987966,0.18279986,0.028904751,0.14096172,-0.02502396,0.003298048,0.1301894,-0.010056865,0.019712249,0.07921496,0.16025347,0.20689054,0.12032233,0.13009083,0.060203638,-0.10116401,-0.030672943,0.06228506,-0.07746849,0.03672447,-0.24254435,0.12501684,-0.42793456,0.032284316,0.16952072,0.0458999,-0.0007903089,-0.05789661,0.026020512,-0.046175167,-0.06744679,0.13171758,-0.08584792,0.017859006,0.016814383,0.19114347,-0.013467411,-0.085045345,-0.06317228,0.25495604,-0.01768942,0.06451678,-0.0033668936,-0.036630087,-0.013525403,-0.109764606,-0.12928173,-0.1637087,-0.11817892,0.101504214,-0.29041386,0.15471241,0.26407635,0.030289313,0.09297391,-0.103199944,-0.012214484,-0.07670913,-0.39824355,0.14384612,0.06559102,-0.07439244,-0.015076078,0.073336095,0.06285835,0.026672058,0.12411151,-0.10285679,-0.0044815843,-0.06050662,-0.10244437,-0.006004632,-0.15380958,-0.04004831,-0.18474697,-0.24909297,0.20619862,-0.014957412,-0.18863118,-0.036285944,0.22617379,-0.0056317896,-0.07807586,-0.06049208,0.16904199,-0.39698708,0.09299513,0.049041133,0.023811264,-0.03399601,-0.26363862,-0.05902098,-0.104595914,-0.105964534,0.12607892,-0.15221284,-0.0058804913,-0.0977049,0.031325355,0.12616959,-0.090148,0.033401452,0.064266704,-0.009395519,-0.16292411,0.08078694,-0.03252758
-0.07489076,0.13035907,0.0005798468,0.19497193,-0.18541056,0.11780194,0.15160678,0.083872214,0.045245904,0.040996943,0.1605805,-0.084903136,0.08057542,0.0016815572,0.09069711,-0.09366029,0.01664337,-0.027496202,-0.005680119,-0.09417876,0.107266344,0.20031123,0.108388424,0.06454352,0.114504874,-0.270927,0.14987265,-0.008213841,-0.13214923,-0.100219496,-0.10649862,0.27760473,0.15054734,0.19260849,-0.034565978,0.08695592,-0.19903803,0.042771503,0.08679963,-0.1580029,0.07197506,-0.10777442,-0.056713983,-0.09650609,0.12940747,0.033487156,-0.08708355,0.10395399,0.056056984,-0.36510134,0.10260218,-0.048056856,0.032968756,-0.06518369,0.009346083,-0.19449751,0.06479954,0.2518269,-0.15395948,-0.12729791,0.093464494,0.14124827,-0.00039080906,-0.19584475,0.09128691,-0.16385551,0.04677434,-0.048432708,-0.27221772,-0.2500678,-0.31335786,-0.15502031,-0.06418955,0.12163946,-0.024434589,0.00033716267,-0.057523455,-0.044333287,-0.1749419,0.15333611,0.16819148,0.109185785,-0.23227116,-0.34223786,-0.1571789,0.011032954,0.12083617,0.01377145,-0.05287336,0.10387644,-0.00063540746,-0.057903532,0.046900827,-0.17302519,-0.078182206,0.14873451,0.033470657,-0.077738255,0.06650799,0.031124294,-0.11817958,-0.26258263,-0.21358867,-0.23515859,-0.077033564,0.1350874,-0.010584894,-0.10048025,-0.060764533,-0.06674093,0.0025213717,0.0652311,0.20264141,0.048327286,-0.29030812,-0.31044254,-0.051353533,0.0065207286,-0.00645142,0.07350288,-0.071018256,-0.08294106,0.1653049,0.08622627,-0.07464042,-0.1965674,-0.46766108,0.061958283,-0.41859394,0.058566336,0.06680917,0.28052935,-0.030960672,-0.22953083,0.08681097,-0.18852608,-0.19954816,0.0533062,-0.1615442,-0.06562193,0.0057193576,-0.18372211,-0.014275276,-0.15138166,0.08808282,0.1377985,-0.30575135,-0.27647668,0.20009685,0.09366036,-0.045833502,0.1472939,0.066991754,-0.31797,0.33246908,0.045426574,-0.043712568,-0.15968175,-0.342855,0.17430446,-0.2594181,0.0870363,-0.023911133,0.2855441,0.002038482,-0.10697377,0.001448914,-0.10983485,-0.09596512,-0.08023471,-0.1230226,0.07626005,0.2448071,0.0025333748
0.08186053,-0.08625347,-0.14490215,0.09211693,-0.24554032,-0.053308256,0.07014961,-0.016158804,0.1453932,-0.041161384,0.029181505,-0.21641609,0.050263386,0.13083346,0.033043884,-0.03491366,-0.09188707,-0.032575432,-0.11970553,-0.10717901,0.11523487,0.053595074,-0.08939922,-0.165677,0.0015183022,-0.080041215,0.022078093,-0.102578364,0.05370819,-0.17570552,-0.023523917,-0.025107339,0.10315071,-0.30824214,-0.21383591,0.05031451,-0.20780428,0.05519765,0.056132853,0.0924375,0.046378955,0.028949931,-0.02999262,-0.14097965,-0.041619197,0.15286133,0.053839907,0.03152963,-0.05328434,0.04201464,0.07196506,0.04800527,0.030884828,0.08369082,-0.015242584,-0.07424592,0.023776574,-0.1271805,0.10777642,-0.19541548,0.09391407,-0.08142119,0.12204094,-0.09067736,0.16793793,-0.4014591,0.062906474,-0.01590965,0.0026893367,0.05484155,0.08862437,0.07896245,-0.004247707,0.0013249228,0.061880354,-0.20690428,-0.23728584,-0.30161485,0.08380961,0.045411255,-0.035012946,0.033272102,0.030230697,0.046321917,-0.24649876,-0.0575913,-0.06551816,-0.061769895,-0.22396529,0.15224457,0.13807884,-0.10820706,-0.09630484,0.09760347,0.118803784,-0.061313372,0.14221674,-0.28794137,0.1602789,-0.24986118,0.053013634,0.060250875,-0.07733019,0.2778872,-0.15240763,-0.01610388,0.1810396,-0.3087506,-0.44691494,-0.24562858,0.2824649,-0.15954563,0.15083638,-0.2101308,0.10194463,-0.00019770539,-0.40546662,-0.08845418,-0.09396531,-0.1238951,-0.3072515,0.11733264,0.23708865,-0.005224552,-0.02946833,0.2805404,0.16570199,-0.03922875,-0.00027059467,0.04642111,-0.05197862,0.061906505,-0.03609955,0.058084723,0.2378557,-0.12697373,-0.057593543,-0.3419703,0.05948626,-0.08283127,0.08430694,0.06298379,-0.0058159973,-0.20481199,-0.103956185,-0.13114852,-0.07536941,0.092147894,0.037034366,-0.05048515,0.30751693,0.008763709,0.1476038,-0.12310529,0.05297943,0.052784,-0.0018836791,0.039503925,-0.061428666,-0.119231835,0.018600615,0.08356892,-0.14637664,0.13902804,-0.00038523483,0.003069404,0.05643875,0.02014814,-0.0375002,-0.04907212,0.11364778,-0.15423216,0.071620665,-0.0094743725,-0.00013085689,-0.109703004,0.10849095,-0.033253297,0.020190135,-0.08169766,-0.0037312284,0.08856236,0.0021198082,-0.084913254,-0.028946938,0.11718249,0.076944865,-0.083250456,0.18867753,0.07318793,-0.021254344,-0.07057957,-0.01677561,-0.000981631,-0.0842991,0.038541358,0.09934796,-0.009003572,0.098930076,0.11779584,0.0058623883,0.076502234,-0.031192055,-0.2373145,-0.10027381,0.03618392,0.11770827,-0.07468113,-0.15034977,0.013712564,-0.099798135,0.11813123,-0.13080737,-0.013236861,0.11758462,-0.09315734,-0.020208336,-0.1324433,-0.09118529,0.061150357,-0.05812289,0.11764571,0.23812124,-0.015207666,0.0031998768,0.04899005,0.043141004,-0.20206748,-0.17459065,-0.14490509,0.043018423,-0.01093965,-0.37729442,-0.116659306,-0.14996238,-0.36029845,-0.06391599,-0.05214829,0.25954387,0.0508905,-0.18017752,-0.09467122,-0.39565262,0.049741153,-0.43276018,-0.0835283,0.010727737,-0.0014205351,-0.07325543,-0.04955502,-0.19697218,0.03532953,0.08159676,0.118334204,0.2664619,-0.14958984,-0.20116703,-0.022575328,0.0075848214,-0.04300519,0.06707699,0.07573763,0.04292456,-0.1336482,-0.19482142,-0.34701777,-0.02248479,0.26460582,-0.0365731,0.02850996,-0.029149594,-0.021820737,-0.16202867,-0.1687515,-0.09020783,-0.018843457,-0.055028796,0.0071531823,0.091822766,0.02913343,-0.0659978,0.04522357,0.0809613,0.13115926,-0.043532588,0.15069427,-0.17574665,-0.09985734,0.05099135,0.06769846,-0.06903197,-0.059077296,0.07837454,-0.14633046,-0.019287534,-0.00928356,0.010704478,-0.055078875,0.09762555,0.02763647,0.074981235,-0.008447161,0.12673202,0.010680418,0.11262352,-0.09426641,0.009962257,-0.021245977,-0.029613674,0.097607605,0.11936167,-0.006056227,-0.03691302,0.03077421,-0.13136011,0.062467813,0.13028774,0.07950447,-0.1263012,0.07109105,-0.14913563,0.20449843,0.0284833,-0.018771134,-0.09565425,-0.15316695,-0.0011687701,-0.14229116,0.027200582,0.04052272,-0.15876561,0.019741664,-0.024843402,-0.01749461,0.14690286,0.07981327,-0.03029573,-0.029679896
-0.11700061,-0.030452928,0.00371058,-0.021705559,0.026598996,-0.04907818,0.06482441,-0.06683913,0.061883625,0.0024018695,-0.11046937,0.06216685,-0.060854483,-0.04838931,-0.21040033,0.12829822,0.11663831,-0.034924127,-0.06952497,-0.09345346,0.056622364,-0.19172117,-0.16537334,0.010040095,-0.19423658,0.14563046,0.06723868,-0.04137163,0.10823053,0.040628877,-0.202118,0.010372355,-0.2492156,-0.012347471,0.0029426739,-0.049280714,0.061038665,0.029912496,0.098584466,-0.07928918,-0.2336095,0.08268401,-0.13502342,0.045671288,-0.28835204,-0.19592261,-0.36665505,-0.15954529,0.06164138,-0.11853009,0.13927045,0.07785878,0.04537311,-0.1855825,-0.40024754,-0.025155539,0.0681912,0.010352235,-0.06347686,-0.14167087,0.07788041,-0.030299954,0.048988383,-0.09299655,-0.11189783,0.0508641,-0.12960951,-0.034455083,-0.04485897,0.07962199,0.037575994,0.085623816,-0.0696292,0.05813585,-0.20748475,-0.03886802,-0.088873416,-0.115571596,-0.047540415,-0.026236923,-0.094356626,-0.1889244,0.009948845,0.07918703,0.016292406,0.09411143,-0.2070376,-0.07351173,0.02280028,0.021590149,-0.07583182,-0.14680012,0.014205912,0.1190128,0.021856865,0.02933135,-0.16496412,0.0072973776,-0.101496235,0.13902907,0.034449566,0.0822139,-0.09149258,0.030133924,-0.010775852,0.1152874,-0.12406538,-0.012645795,-0.0642729,-0.035205927,0.06923333,0.23945683,-0.056482103,0.00569779,0.024584837,0.06705873,-0.107968725,-0.017929759,-0.088873364,-0.052106034,0.08852066,0.08587384,-0.05023321,0.025404748,-0.053106565,0.2178951,0.090849414,0.08822121,0.04113015,-0.04729397,0.01808873,-0.12484063,0.12630895,0.054329846,0.067429714,0.07061001,-0.10642223,0.15741779,0.013490417,-0.15485382,-0.091034465,-0.07577762,-0.10381943,0.106245704,0.07330477,0.07386154,0.101260945,0.014593034,-0.21329553,-0.34469557,0.04964017,-0.03260898,0.08107313,0.13095915,0.0042453096,0.1688956,-0.12841707,0.068836905,0.009843486,-0.05790774,0.08743698,-0.24517488,0.0841381,0.15220088,0.029723145,0.06637849,0.1323242,-0.13282317,-0.07808487,-0.05297129,0.026148386,-0.31672925,-0.07451912,0.10576926
